[
  [
    {
      "value": [
        12,
        1,
        36,
        5
      ]
    },
    {
      "x": {
        "agentConfig": [
          1,
          2,
          2,
          0,
          0,
          1,
          2,
          3,
          4,
          1
        ],
        "weights": [
          -0.08536477364344308,
          -0.5040108213693317,
          0.8311937367601914,
          -0.6615360650861641,
          0.17916443505095359,
          0.36493162020970216,
          -0.27979144171850967,
          0.461969566140237,
          0.24665947941116872,
          -0.352491091339711,
          -0.02659302763130933,
          0.7516607468130974,
          -0.6574289293822779,
          0.1177729632160236,
          -0.8208315243397775,
          -0.3618544304258082,
          0.1505420280866463,
          -0.7467353344728658,
          0.9389012077446814,
          0.8320862358591503,
          -0.6490613143531778,
          -0.7045391095321796,
          -0.16660374575089554,
          0.5331190516348936,
          0.2671795087379665,
          0.5908861390874383,
          -0.6400751587997802,
          0.669346866805326,
          -0.011181104320851842,
          -0.5153222180077133,
          0.15923199039290203,
          0.7097023434757013,
          -0.8061404321626287,
          -0.34246403069807396,
          0.8613440582222984,
          0.6168691077505886,
          -0.44121841097535697,
          0.7286279593511744,
          0.7013754499526086,
          0.8463395499931103,
          -0.8767067982722176,
          0.1911593832844818,
          -0.3087170741765142,
          0.3967945818462424,
          0.2678229326077237,
          0.30396363077692135,
          0.5807841891055365,
          0.2861572160135395,
          0.06528880888433375,
          0.43160229567527497,
          -0.8995795616034188,
          0.6810919919613556,
          0.6846960605165988,
          -0.49288962353455634,
          -0.9479895603078681,
          -0.6604437976230169,
          0.2526301055544766,
          0.7856596255340491,
          0.6965076661841849,
          -0.6285301622236774,
          0.11972710649170515,
          -0.1359453239953481,
          0.5865389006667336,
          0.37940527900363796,
          0.8327209273650344,
          -0.9398825916584623,
          0.5006670026340809,
          -0.8553829062090899,
          0.27867915963209233,
          0.677655361519566,
          0.4586879124856291,
          0.267900078724036,
          -0.5534410663437939,
          0.4268499347640671,
          -0.06796421741718106,
          0.7743695533334027,
          0.042226402223624504,
          0.32654261610017254,
          0.3106367967395618,
          -0.8458505164192802,
          -0.20339895658419538,
          -0.2159644307248818,
          0.44731792156729266,
          0.08634305030225442,
          -0.2773986781077795,
          0.22966602856387186,
          -0.3268583856533762,
          -0.8184477023795511,
          0.8050827834864989,
          0.6775527932132928,
          -0.9381955972059415,
          -0.521396450234233,
          -0.3510228175198058,
          0.8905544747524718,
          -0.08149839692795235,
          -0.8559740350394123,
          -0.5356454581678796,
          -0.5533802471585785,
          0.47842663459522505,
          -0.1517791708765852,
          0.43314824351756065,
          -0.06464936718340275,
          -0.37766036452440543,
          -0.3698490826944347,
          -0.0192034659932252,
          -0.2422605916707674
        ],
        "playerName": "RFFSimulation",
        "converter": {}
      },
      "fitness": 0.0,
      "behaviours": [
        7.75,
        0.0,
        71.85,
        2.25
      ]
    }
  ],
  [
    {
      "value": [
        32,
        28,
        13,
        5
      ]
    },
    {
      "x": {
        "agentConfig": [
          1,
          0,
          3,
          0,
          1,
          1,
          0,
          0,
          4,
          2
        ],
        "weights": [
          0.2700684858156539,
          0.461287489024099,
          0.05776705013234262,
          -0.6349918208408931,
          -0.9646543475715488,
          0.7070271530135104,
          0.4892512179177626,
          0.041824457189550523,
          0.01888800351661235,
          0.9820514250574435,
          0.4706234116719812,
          -0.17950479539983344,
          0.5628885607771901,
          -0.14348779782052534,
          0.3589690106482939,
          0.7544898128081459,
          0.5322056870597649,
          -0.3874196455908949,
          -0.055830863069678216,
          0.04370755856074138,
          -0.6327994516918114,
          0.9305650145575644,
          0.8320417723612301,
          -0.01885448113457322,
          -0.1711252295236485,
          0.5566557493049384,
          0.8519679542860601,
          -0.8488826724096898,
          -0.8734438904156008,
          -0.5405716514171939,
          -0.979931052174134,
          0.172296326027501,
          0.003143230246719586,
          -0.1173536724819566,
          -0.8699817435519024,
          0.08549801373398425,
          0.05018807136914516,
          0.9147802523117541,
          0.3970849108049692,
          -0.3947431758786528,
          -0.9651407296261107,
          -0.2789421162657568,
          0.7470234997023972,
          0.8858927408828481,
          -0.6569048667451243,
          -0.5782509252401109,
          0.3199391212424827,
          0.196905000691165,
          -0.22197838585571494,
          0.7507792297564122,
          -0.4497272854998555,
          -0.04083107765242877,
          -0.10002476546504613,
          -0.9083436246281535,
          -0.2124322951476334,
          -0.0374457701827664,
          0.8542367329569851,
          -0.7369126677400661,
          0.8386936023579137,
          0.26722295706737276,
          -0.7951524033191368,
          -0.4854506064494335,
          -0.9592808873814938,
          0.28500571261388297,
          0.677646073925414,
          -0.4075266266446764,
          -0.48535843424151914,
          -0.15610373565949298,
          0.9129257617959845,
          -0.5494134046339592,
          -0.8963034450314726,
          0.6578440837271904,
          0.33788549113864175,
          -0.7966472816378287,
          0.16598605823821644,
          0.5556660605755814,
          0.09130386546072211,
          -0.7406622343453502,
          -0.13032062360688013,
          0.06703881619662133,
          -0.4323607878706843,
          0.22172118660268825,
          0.9300575566462148,
          -0.4798269328816174,
          -0.40498095451458216,
          -0.8939380608876526,
          -0.1688139794297705,
          0.674913706867549,
          0.5213512745922835,
          -0.29917979271233763,
          -0.5089825780703934,
          0.09664816684553079,
          -0.44494758129907575,
          0.48402533894726507,
          -0.9427587564959601,
          -0.02945294018229161,
          0.5916564221742306,
          -0.5901270566212773,
          0.06221286264543946,
          -0.13769811758914452,
          0.4548307077394167,
          -0.9080782922758432,
          -0.4811901179886071,
          0.050664924490329,
          -0.009906382104194922,
          0.4349546956566137
        ],
        "playerName": "RFFSimulation",
        "converter": {}
      },
      "fitness": 0.9,
      "behaviours": [
        21.15,
        1.85,
        24.85,
        2.45
      ]
    }
  ],
  [
    {
      "value": [
        5,
        1,
        41,
        4
      ]
    },
    {
      "x": {
        "agentConfig": [
          1,
          1,
          2,
          1,
          2,
          1,
          2,
          2,
          3,
          1
        ],
        "weights": [
          0.35328503824487223,
          -0.2813398876669664,
          -0.7122562271051913,
          -0.9336860263400466,
          -0.17175221065156743,
          -0.31193072944233413,
          0.12124497376964571,
          -0.10505627332464784,
          0.509971755329524,
          -0.5527277476876828,
          0.9377144593729592,
          -0.5706172331556318,
          0.23609324179010227,
          -0.3524947569649288,
          0.26765525669441725,
          -0.30071844421076777,
          -0.6780886434349434,
          0.40741010167157987,
          -0.6321543198049238,
          -0.30835018482686305,
          -0.027612564624049707,
          -0.8332349448547625,
          0.2881212419748367,
          0.19940368829226052,
          -0.46435397146351076,
          0.1410089441492688,
          0.05373597966518817,
          0.689560835093906,
          0.11732475620844052,
          -0.5606353447859791,
          0.3390970566449967,
          0.6806456268215648,
          -0.7588622010243686,
          0.3410071056606818,
          0.33093128160382146,
          0.9567590543479352,
          -0.7804683777288477,
          0.9678628028916769,
          0.6137087089194007,
          -0.9038434612534589,
          0.6893284727838016,
          -0.3507324160230376,
          -0.1425868585051293,
          -0.7449302109850549,
          0.3707678679661288,
          -0.35714985745397887,
          -0.15248399188346506,
          -0.0771035850641495,
          0.5243728686909688,
          0.5576500264830935,
          -0.030724937641048555,
          -0.5472244889918578,
          -0.19141779236902834,
          0.819618839162092,
          -0.3567554132683086,
          -0.42804572293987264,
          0.28210706411221964,
          -0.17370605133145878,
          0.4061506550381928,
          -0.2107565371737088,
          -0.8515158848293509,
          0.056575520871244844,
          0.3410496931043965,
          0.6422505668461662,
          0.5063148533291599,
          0.33317674586147095,
          0.3829541527725424,
          -0.9350322353890044,
          -0.1528049693663167,
          -0.3205402269562896,
          0.6608752783203746,
          0.8066854276374593,
          0.3343541414583098,
          0.7690083594356687,
          -0.5155020004743045,
          0.7960897839495928,
          0.9985410669549135,
          0.8354307343524483,
          -0.15653029693331022,
          0.6197960861826544,
          0.9037065240375874,
          0.09152550925115777,
          0.3595480666442037,
          0.8724580429195732,
          0.06354984457243917,
          -0.7989154089147075,
          -0.4833782480072324,
          -0.9640147910804162,
          -0.568987971987319,
          0.15324793470292764,
          -0.30911963205831317,
          0.7582909410766063,
          0.6363137612513898,
          -0.9915350312297435,
          -0.9868216441982498,
          -0.07261657422473267,
          -0.6848482575862425,
          0.4167588259818704,
          0.4179009453787943,
          0.7745042990389868,
          -0.15281724304420186,
          0.5531292409084119,
          0.3674074255028197,
          -0.609592208558585,
          0.11594098505657069,
          -0.8284277991532747
        ],
        "playerName": "RFFSimulation",
        "converter": {}
      },
      "fitness": 0.0,
      "behaviours": [
        2.95,
        0.0,
        81.95,
        1.65
      ]
    }
  ],
  [
    {
      "value": [
        32,
        23,
        19,
        11
      ]
    },
    {
      "x": {
        "agentConfig": [
          0,
          5,
          3,
          0,
          1,
          2,
          3,
          0,
          2,
          2
        ],
        "weights": [
          0.30990110346389255,
          0.14915495264238432,
          0.956259412727529,
          0.7277850612366847,
          0.433252586803641,
          0.32824545141442174,
          0.7576365731203656,
          0.2595351074590897,
          0.07240772393879835,
          0.8585904425649422,
          0.07673380037693933,
          0.8777168414993948,
          0.7465308769027417,
          -0.6195598785311109,
          0.4303057954102314,
          0.6580741671907977,
          -0.4078213965354742,
          -0.18217067820460198,
          0.6482311163701504,
          -0.9771472745839445,
          0.6382646997661396,
          -0.9644113696754208,
          -0.3162929257184828,
          0.7849165883920266,
          0.2510484009236884,
          0.6075562232728977,
          0.7723311627344052,
          0.9743596200384146,
          -0.07037369987865172,
          -0.3222597808002807,
          0.30511991876820677,
          0.3092464108502655,
          -0.29532521915898546,
          -0.5159267338381166,
          -0.490967452163793,
          0.6662555768137279,
          -0.7220446115810817,
          -0.9852095288886471,
          0.5695820765857851,
          0.7136401917752153,
          -0.26263952310614114,
          0.48035355497631294,
          -0.8163687470570156,
          -0.011938835297115258,
          0.19204283067960337,
          0.80923410510338,
          0.69648800636955,
          -0.8715117742312275,
          0.9944388706078144,
          -0.7862407670579619,
          0.9559290682245376,
          0.7245061960246255,
          0.35075884141753244,
          -0.9773856941408179,
          -0.1932027231476423,
          -0.7069974666452703,
          0.06878583774226232,
          0.43948738320059255,
          0.7533330879398183,
          0.26635459385226556,
          0.9515884954741525,
          -0.33726927626319503,
          0.7324162322198544,
          0.5568744106198993,
          0.9180195494376606,
          0.8888059166176432,
          -0.8305901240067064,
          -0.7435898325624031,
          -0.6843628861726063,
          -0.8773312652499254,
          -0.4706852495866092,
          0.33664386313178496,
          -0.9110482594113667,
          -0.5688581393691552,
          -0.5705442550738191,
          -0.16523470527316153,
          0.47566766865856813,
          0.30071258727193784,
          -0.9540591177242921,
          -0.059156715449167674,
          -0.2741478525841772,
          -0.9009150819427474,
          0.02464611877687628,
          -0.35264455764392255,
          -0.026267013741130718,
          0.2902048014659879,
          0.3984961072804225,
          0.17797843325928064,
          0.839089105159921,
          0.015368427172969046,
          -0.8836728932929214,
          -0.7181181648845396,
          0.5949653549939808,
          -0.07158562628334186,
          0.704632876153314,
          -0.33859172233689816,
          -0.18929161960012486,
          0.7608902194561489,
          0.31201036538045734,
          -0.7048354652826769,
          0.26408540793783186,
          -0.00652395224408453,
          -0.07286182549576337,
          -0.7748127447726252,
          -0.3864865475638968,
          0.22283632586990398
        ],
        "playerName": "RFFSimulation",
        "converter": {}
      },
      "fitness": 0.4,
      "behaviours": [
        20.85,
        1.5,
        36.1,
        5.05
      ]
    }
  ],
  [
    {
      "value": [
        27,
        23,
        18,
        12
      ]
    },
    {
      "x": {
        "agentConfig": [
          0,
          5,
          0,
          1,
          1,
          0,
          3,
          2,
          1,
          2
        ],
        "weights": [
          0.6306020373843289,
          -0.6235441669188475,
          -0.3018139409943552,
          0.8818911831511083,
          -0.513842394776691,
          0.7138706061669,
          -0.6610313658348985,
          0.8150386349189229,
          -0.542776483024628,
          -0.3820724602424468,
          -0.4646001220279252,
          -0.8709065602982098,
          -0.3631199184185312,
          0.38466166482006603,
          0.31233889314391283,
          -0.6131542816016669,
          0.9503581934818808,
          -0.13708477650619,
          -0.6088301676378169,
          -0.8010715613183257,
          0.7266785260675463,
          -0.2530409824538573,
          -0.10034807977137672,
          -0.1505794261401625,
          0.8057001130209742,
          0.7365694313527693,
          0.8531721881884247,
          -0.291263192054507,
          0.76438034484806,
          -0.605054296056702,
          -0.621103335796412,
          0.4721952824814679,
          -0.4254366911720744,
          -0.9710091554544835,
          0.5390831637456499,
          -0.8369552372650371,
          -0.4543718390960041,
          -0.27687949204990825,
          -0.6929173195320164,
          -0.9483761750242363,
          -0.24115306285256644,
          -0.2230947374480141,
          -0.24067659096194705,
          -0.8322847044590354,
          0.36631417154229684,
          -0.7715074817312648,
          0.8688363442459954,
          0.9210486996213376,
          0.10582916777155393,
          -0.11010664583423524,
          0.4206471102853817,
          -0.5047039840970158,
          -0.825875370644154,
          -0.6231372343841575,
          0.516623870722708,
          -0.8562050039509543,
          0.20435310513241167,
          0.9852394544056231,
          -0.10286134544753223,
          -0.7093744930371124,
          -0.49024260156018884,
          0.9472551035036052,
          -0.12083812449680509,
          0.428555106627303,
          0.9839663543783388,
          -0.40453964417322474,
          0.09517875391543074,
          -0.7942389732850168,
          0.0893745616461541,
          -0.7314411356672252,
          -0.5854203266877267,
          0.80612511897445,
          -0.7814224469549569,
          -0.5874222973778476,
          0.43894294930745437,
          -0.24670975966669273,
          0.3798531647946215,
          0.2624465154828304,
          0.7848946592800248,
          -0.39344301958645356,
          0.6361917360701956,
          0.7331958152152047,
          -0.9970054426297399,
          -0.3329111272550649,
          0.018396207732471304,
          -0.29337271744120885,
          -0.571636206461184,
          0.7757877312172388,
          0.7362875120363284,
          0.7684477937752856,
          0.5185352635762399,
          0.5595873701616048,
          0.42806635721364383,
          0.6325012906833942,
          -0.6937265873545673,
          -0.9291908923034684,
          0.9163983207217887,
          0.9828721902931399,
          0.4798751716276346,
          0.6646088322674848,
          -0.519194808155794,
          0.27127460984881235,
          0.30073040345521895,
          -0.8275605472689558,
          0.009460049490065625,
          0.12628296353709523
        ],
        "playerName": "RFFSimulation",
        "converter": {}
      },
      "fitness": 0.3,
      "behaviours": [
        17.95,
        1.5,
        34.45,
        5.6
      ]
    }
  ],
  [
    {
      "value": [
        27,
        17,
        22,
        8
      ]
    },
    {
      "x": {
        "agentConfig": [
          0,
          3,
          1,
          1,
          2,
          2,
          0,
          3,
          0,
          1
        ],
        "weights": [
          -0.045727308420339785,
          -0.4646499545381835,
          0.13008780285307053,
          -0.28551992820291505,
          0.11642441809795878,
          -0.12727346521107874,
          -0.27774642381172376,
          -0.6660813863367072,
          -0.40698298655316556,
          0.40128608174017044,
          -0.7319692328177705,
          0.9588391576260873,
          0.07187682650964833,
          0.5891706914417321,
          -0.29031823477848184,
          -0.513298348336833,
          0.15667716226208084,
          -0.42975361730150774,
          -0.8288764605799745,
          -0.20408258948175972,
          -0.8486820345956934,
          0.39121763990027003,
          -0.6069841159719542,
          -0.8696873060872663,
          -0.46955795239018827,
          0.8118366694076014,
          0.16566143499670782,
          -0.3467050946984125,
          -0.33280690029111404,
          -0.3444168697656016,
          -0.23460533641986503,
          0.29897950095252646,
          0.9615879253637969,
          0.7960802997619114,
          0.6286510522633069,
          -0.9583232532550852,
          -0.10236072694078913,
          0.2649045231133291,
          -0.4610759199208361,
          0.011777748673134747,
          -0.2453672937774145,
          -0.3206650614134876,
          0.45533383611737976,
          0.5052199941002031,
          0.7077257725869877,
          -0.7860177744327466,
          -0.22245507423544586,
          0.8653530206657944,
          0.875303502361563,
          -0.3218759847212833,
          0.3202889434274303,
          -0.5398338208819429,
          0.5052897584875049,
          -0.08903283472703016,
          -0.43823887517097515,
          -0.46552035403319136,
          0.9398803435204133,
          0.6699458453548051,
          -0.166322833754321,
          0.5858422063625293,
          -0.7420716159133227,
          -0.5374430549590494,
          -0.9632092968332562,
          0.09451884692195778,
          0.5664783158419164,
          0.3601227632814854,
          0.1941895835980758,
          -0.06790837256037952,
          0.7977115409949678,
          0.7322637140620698,
          0.6957021625965594,
          -0.42016085381520596,
          -0.43516940715514774,
          -0.9462471997639075,
          -0.5597374660715404,
          -0.5928007581213466,
          -0.8598239664738081,
          0.4608152502020235,
          0.24909860042057108,
          -0.30773920277959843,
          -0.058865045426347296,
          -0.42817355210986374,
          0.9011215806079573,
          0.8103713590075061,
          -0.9558348469440332,
          -0.7622471289530495,
          0.9329126080822889,
          -0.9264127381656733,
          0.1945265474296345,
          -0.6494292114595108,
          -0.05078281982638311,
          -0.9271658479797409,
          -0.46092523057780355,
          -0.3867121979012622,
          -0.39412682780245434,
          -0.9437137409425231,
          0.8817387505695529,
          0.26308393501416916,
          0.655614681003881,
          0.871612900514243,
          -0.35393016446345205,
          -0.8605211699380291,
          -0.5117910024695946,
          0.30638255954050564,
          -0.07348490490859194,
          0.2023218073512698
        ],
        "playerName": "RFFSimulation",
        "converter": {}
      },
      "fitness": 0.35,
      "behaviours": [
        17.5,
        1.1,
        43.15,
        3.75
      ]
    }
  ],
  [
    {
      "value": [
        32,
        24,
        21,
        10
      ]
    },
    {
      "x": {
        "agentConfig": [
          0,
          4,
          3,
          1,
          1,
          2,
          2,
          0,
          4,
          2
        ],
        "weights": [
          0.06256511146610921,
          -0.060139374075119045,
          0.09579309632615063,
          -0.35811625987406925,
          0.930376431930692,
          -0.5812751514516736,
          0.797915898177824,
          0.8021022713251735,
          0.01835558391498182,
          0.4654741991970035,
          0.11500446958268595,
          0.5715758497826484,
          -0.8780327883520369,
          0.7558551564494425,
          -0.8913400775473532,
          -0.7921419930262761,
          -0.667522428829046,
          0.7758967713613854,
          -0.9791943167525201,
          0.2113401821515879,
          -0.31905482886694836,
          -0.7595343758439403,
          -0.699085107660651,
          -0.2391995591693492,
          0.7515196119780494,
          -0.6512509758513827,
          -0.7972033046469318,
          -0.9760530141276553,
          0.15449177387799828,
          -0.6626586292095988,
          -0.3646712872578457,
          -0.7651374012621395,
          -0.20944800998461344,
          0.6033631131596993,
          -0.8512109913282295,
          0.14314726081601514,
          0.6912294954908074,
          0.35104143899915186,
          0.9482052694437095,
          -0.5350526223859575,
          -0.11349746205435518,
          0.6468246927523345,
          0.6474059963546861,
          0.30394980170088504,
          -0.7709175353856552,
          0.012240727272257557,
          -0.8877772550068694,
          -0.8391898557558977,
          0.3958927032134276,
          -0.7596477657127885,
          -0.8114405946120007,
          -0.8876246447983227,
          -0.6092217852810244,
          -0.009198889545051658,
          -0.6291911194898727,
          -0.9825494930603211,
          -0.21150394745899348,
          0.9000754766116636,
          -0.4616357088174785,
          0.1937514300247658,
          0.6885544261740855,
          -0.5622268860812993,
          -0.2272637548908596,
          0.9110750747337442,
          0.8884828002286609,
          0.5462760173992458,
          0.9650548824815666,
          0.2586090120935216,
          -0.8603688818128561,
          -0.7796090548812886,
          -0.5665006397972219,
          0.4696943375250535,
          -0.4853884015660628,
          -0.38484780285299736,
          -0.9075359081609096,
          0.6252445902057482,
          0.8940129597769972,
          0.014122799646368867,
          -0.14996306589642394,
          0.8074154967366065,
          0.3710319808219509,
          -0.9528290582777412,
          -0.14237126128049193,
          0.2380099811037526,
          -0.023817348891629786,
          -0.08416017335041803,
          -0.004638871310823411,
          -0.28850563499727566,
          0.5402597259411772,
          0.06606887917347959,
          -0.45091654620913624,
          -0.2796083841168526,
          -0.25775160967463173,
          -0.2578346719972586,
          0.4196564728000214,
          -0.9287917312429677,
          -0.5701127348818495,
          0.16256565001677625,
          -0.5975945642291014,
          0.5019428644656982,
          0.1541083292630776,
          0.6770674121864042,
          0.08441116369851809,
          -0.16238694266520648,
          0.5245922207893852,
          0.19685144359053397
        ],
        "playerName": "RFFSimulation",
        "converter": {}
      },
      "fitness": 0.5,
      "behaviours": [
        21.05,
        1.55,
        41.15,
        4.85
      ]
    }
  ],
  [
    {
      "value": [
        29,
        18,
        18,
        9
      ]
    },
    {
      "x": {
        "agentConfig": [
          1,
          5,
          0,
          0,
          1,
          2,
          0,
          0,
          0,
          0
        ],
        "weights": [
          0.3455724555922508,
          -0.7425679192212935,
          0.45381733470790864,
          -0.5057643836521837,
          0.8146099520484871,
          -0.7691659235787531,
          0.04423884899321773,
          0.8262037128335893,
          0.04424598434901972,
          -0.5782172432919832,
          -0.5599935027077099,
          -0.8728050069392712,
          -0.5010410036921591,
          0.4124462406129614,
          -0.26369429909825604,
          -0.3687576529618408,
          0.7854254188544847,
          -0.5741254423263806,
          0.7556651418120945,
          -0.7792884671306732,
          0.9813670951926905,
          0.5801367082870552,
          0.19896080949362016,
          -0.4161160500809773,
          -0.6540298971407035,
          -0.971316933071054,
          -0.41463059877827946,
          -0.7914643578469245,
          0.20563606568637094,
          -0.3237202829984098,
          0.7721044808924864,
          0.7825897235948638,
          -0.49390531464453624,
          0.8682259761472131,
          0.19828327193397,
          0.8881995444612891,
          -0.9683296940769015,
          0.7418036044369181,
          0.16328772045518525,
          -0.2908086349480621,
          0.6147622628905585,
          -0.7648984477695617,
          -0.5715005874927581,
          -0.47033060790286374,
          0.7933628688450727,
          -0.18662965373988838,
          -0.7776965019848936,
          0.9440104261366855,
          0.3217041406804695,
          0.9042548634842182,
          -0.6682283046466195,
          0.0676156542959283,
          0.6988888184487696,
          -0.4255062852717395,
          0.3804513174872457,
          -0.28057203910506434,
          -0.54737257724465,
          -0.43596606627615064,
          0.620201841150559,
          0.5413638630189401,
          -0.7000316061174459,
          -0.4930306976255876,
          0.6060366493842666,
          0.32644912404025805,
          -0.4958257881762844,
          -0.11840158243953613,
          0.9764428605263562,
          -0.5534111222817857,
          0.7566622160850913,
          0.2572914466068428,
          -0.7723314196172126,
          -0.797457552818114,
          -0.26480638581181837,
          -0.2562566322358881,
          0.8489812303640578,
          0.16281470539011478,
          0.12426128574409723,
          -0.8014166179457043,
          0.47691755141356484,
          -0.885184226749365,
          -0.6691096248987216,
          -0.28779947596030975,
          -0.16993918758059823,
          0.12078218790688999,
          0.3888343797939462,
          0.16403539417850954,
          -0.8981038341142347,
          -0.6474081795115463,
          0.6164115038076052,
          -0.7675203207885153,
          -0.7821887686376603,
          0.8737478595427188,
          0.4779949544817397,
          0.14091478557262582,
          -0.09667492637055153,
          -0.6565546584611379,
          -0.2035658972868457,
          -0.3646876117605429,
          0.8641422149137568,
          -0.2632243838687611,
          -0.026549673866872903,
          0.21420932804745263,
          0.54464713568387,
          -0.3932348678740203,
          0.19731663909657526,
          0.46976106780136173
        ],
        "playerName": "RFFSimulation",
        "converter": {}
      },
      "fitness": 0.25,
      "behaviours": [
        19.3,
        1.15,
        35.35,
        4.4
      ]
    }
  ],
  [
    {
      "value": [
        6,
        1,
        29,
        9
      ]
    },
    {
      "x": {
        "agentConfig": [
          1,
          3,
          1,
          1,
          0,
          1,
          0,
          1,
          3,
          2
        ],
        "weights": [
          0.44990042332174274,
          -0.7199460582525707,
          0.01983276503601794,
          -0.37020598298957186,
          0.8931487152280122,
          0.2726251838989353,
          0.6503350406663979,
          0.9644999363722557,
          -0.6138325525982993,
          -0.3808472025545955,
          0.7374065211610998,
          0.42611845400889337,
          -0.1972179766424096,
          -0.14400829929682657,
          0.0010150806219915154,
          -0.5280270679182195,
          -0.8833574936344528,
          0.1737501026937749,
          -0.039305095130226286,
          -0.03772918492298061,
          0.6398436088675326,
          0.21359158220010066,
          0.9557489189081716,
          -0.12534603571146086,
          -0.8254827503068243,
          -0.06234150917913883,
          0.6991828952749872,
          0.41309133082095273,
          0.08698209497528242,
          -0.8889681053943297,
          -0.4248516461354077,
          0.5690366400735736,
          0.6675460337926642,
          0.05178225452161733,
          -0.6005611699397213,
          0.7181635104857746,
          -0.6949226616810931,
          0.7373072065493944,
          -0.3151524755640629,
          0.6738822364341506,
          -0.01602729578482265,
          0.09929304143577022,
          0.5879615322809479,
          -0.2307679321583027,
          0.4021675599158423,
          -0.6037237376467435,
          0.6612333309449538,
          -0.9983659978166248,
          -0.3876506427980928,
          0.9219235683438824,
          0.29393451393213255,
          0.05037969258145458,
          -0.4954501422168711,
          -0.011211727698598128,
          0.2978644029483897,
          -0.9353779910266948,
          -0.32319130500830084,
          0.12144194164207978,
          -0.5215499502331871,
          0.5200251077406646,
          -0.7183845488478335,
          0.6995212026703748,
          -0.7708592144646262,
          0.15512007180663034,
          0.28935332530328917,
          0.9103693282183731,
          -0.8032345247374804,
          0.02380503991744365,
          0.27598342764972306,
          -0.19740590188761198,
          -0.11221285127285796,
          -0.9616818854034446,
          -0.6792759782478488,
          -0.523997076358621,
          -0.279845989518553,
          -0.9725978297259816,
          0.8904944178840382,
          -0.9999831228561624,
          -0.5272876381100913,
          -0.7027282157379873,
          0.6914096846682711,
          0.5218076025342995,
          0.3439130448680343,
          -0.04161778536274374,
          0.38362711944156036,
          0.20703887337232452,
          0.903806852011785,
          -0.13110774321583119,
          0.784361331999234,
          -0.8497622042863797,
          -0.8919078897770885,
          0.946102036768089,
          -0.27509945985420203,
          -0.8015401834658555,
          0.24024164573799522,
          0.8100385602519933,
          -0.9190274233571267,
          -0.24894730415668276,
          0.15750292555430767,
          0.2487517792039775,
          -0.3381764436195207,
          0.029965166725430592,
          -0.4611696498974791,
          0.8327748665845331,
          -0.3781104393561936,
          -0.9408128442521011
        ],
        "playerName": "RFFSimulation",
        "converter": {}
      },
      "fitness": 0.0,
      "behaviours": [
        3.35,
        0.0,
        57.7,
        4.0
      ]
    }
  ],
  [
    {
      "value": [
        25,
        7,
        24,
        12
      ]
    },
    {
      "x": {
        "agentConfig": [
          1,
          2,
          1,
          1,
          2,
          2,
          2,
          2,
          4,
          2
        ],
        "weights": [
          0.8510101685926037,
          0.3670028344810514,
          -0.37594135377732774,
          0.16516208260365417,
          -0.7690198430779198,
          0.315981594700512,
          0.5231420621237994,
          0.001725497110162344,
          0.5934007984439473,
          0.40255262744329134,
          -0.6095972839295731,
          0.7418923002744691,
          0.6728810457453267,
          0.35868727571538805,
          0.0015371835810129575,
          0.8797060047977527,
          -0.14653791972912567,
          -0.10115582244465093,
          0.300781166122416,
          0.24938987085276976,
          -0.6251902673890342,
          -0.9012415063875059,
          -0.2507497738960296,
          0.22860330498443182,
          0.886866798673841,
          0.41811595167180826,
          -0.37410377970499487,
          0.6626406835567802,
          -0.6862814125889625,
          -0.22242740687061446,
          -0.8392204052377346,
          -0.09070966542124603,
          0.27844235533596184,
          0.6572231272711233,
          -0.17237820909209578,
          -0.6330354307308239,
          -0.5557742499950662,
          -0.9472402039482197,
          -0.6176299143351318,
          -0.8758993591444244,
          0.04305618452257143,
          0.30720534695741564,
          0.30677015966626353,
          0.9557239985620751,
          0.5917974892220226,
          -0.6697558294449066,
          0.2007095390266711,
          0.7934554444359607,
          -0.6635135331149047,
          -0.47618389561526087,
          0.36435929559449076,
          -0.9918651242467125,
          -0.680802150768751,
          0.8517775677083248,
          -0.6790923800081503,
          -0.6303758203269603,
          0.12784084005735452,
          -0.07692307331544979,
          0.35294397220855633,
          0.38624295356507443,
          -0.6322329364040855,
          0.7020291575045234,
          0.2603194759935803,
          -0.12331822748054799,
          0.6850850967272684,
          -0.48408187478145925,
          0.4945725423619458,
          -0.9098728645692602,
          -0.22490852352005142,
          0.399293234034948,
          -0.41522324134066224,
          0.46572428427486234,
          -0.7747547011710185,
          0.4959691754294431,
          -0.6580676606630673,
          -0.7896066460669249,
          -0.7293721628681404,
          0.23387763904908732,
          0.7137879394774489,
          -0.7255938038096528,
          0.5808447173930926,
          -0.7054392788706159,
          0.3592462033662629,
          -0.9829792158416928,
          -0.9491559932418911,
          -0.9817645413835012,
          0.02127128640263365,
          0.8798612762525209,
          -0.7658611670150877,
          0.8170015471204584,
          -0.40051777701158997,
          0.7236228436531853,
          0.5354388396039613,
          0.41290220802217514,
          -0.5416176438895919,
          0.1340696325719446,
          0.5707108344485536,
          -0.7258081848674776,
          -0.045560466851797266,
          0.9661863619954267,
          -0.7937963203150873,
          -0.5076987062781495,
          0.4249986985258234,
          -0.329266047318864,
          0.7039896140904014,
          0.5236361900949422
        ],
        "playerName": "RFFSimulation",
        "converter": {}
      },
      "fitness": 0.35,
      "behaviours": [
        16.35,
        0.4,
        47.1,
        5.6
      ]
    }
  ],
  [
    {
      "value": [
        22,
        7,
        25,
        11
      ]
    },
    {
      "x": {
        "agentConfig": [
          1,
          2,
          2,
          1,
          2,
          2,
          2,
          3,
          2,
          2
        ],
        "weights": [
          0.4584311546110138,
          -0.9975838048203958,
          0.7799581679259096,
          0.32636254295288025,
          -0.1749997220770807,
          0.3349937980587383,
          -0.5653821452013155,
          -0.9057479174525991,
          -0.3824387038718591,
          -0.3818749279649556,
          0.015538153553442013,
          -0.2603793804163512,
          0.07809014191367902,
          -0.9710211333014973,
          -0.43760708627406886,
          0.5684080466444561,
          0.10675235724329535,
          0.06619206669761546,
          -0.3331067059367836,
          -0.750584891176556,
          -0.09516705801004499,
          -0.16707487141869115,
          0.6909710140139456,
          -0.8520994027478077,
          -0.11297604701204422,
          -0.8418617220488405,
          0.8428508033514979,
          -0.06616854452926968,
          -0.45742595633747163,
          0.43529980466778384,
          0.20946201698306988,
          0.8332546142049271,
          0.2158201873665253,
          0.6143782308728187,
          0.29090410923189847,
          0.8541498901368316,
          0.8801372034541213,
          -0.3478885072830302,
          -0.15755268025434344,
          0.5935156827541448,
          -0.1046439702009705,
          0.9071859897160697,
          -0.09818455795760817,
          0.8203272516573619,
          0.46721835962871916,
          -0.5389004253628238,
          0.7642620745678088,
          -0.07059973629462446,
          -0.9315509477332651,
          -0.8478767150101969,
          -0.634780892298501,
          -0.42591848817408673,
          0.43454584881448644,
          -0.7710835626690393,
          -0.959939850270487,
          -0.6889199931433343,
          -0.08660116178137778,
          0.961991717128259,
          0.9527884584888024,
          0.9286415137422839,
          -0.07363007045236758,
          -0.7046344135667051,
          -0.3797761941976785,
          -0.7203378732902312,
          0.08947697779367503,
          0.6773722688877712,
          -0.0944712223871842,
          0.9042237272623781,
          0.1468435177385119,
          -0.4212421244747946,
          -0.38531963326244556,
          0.5014288695616929,
          -0.7154102631005002,
          0.8878139057430685,
          0.40175853949840046,
          0.3982995312198667,
          0.6218575068256322,
          -0.6335516509233423,
          0.073688798457332,
          -0.4361021729650356,
          -0.2833238492105381,
          0.6577343325063147,
          -0.41765821660259994,
          0.42971484080789146,
          0.7778924733107244,
          0.9546163240323267,
          0.0016583402309577888,
          -0.19723344271208587,
          -0.059595997792113886,
          0.3710949387613727,
          0.6097338685395883,
          0.49572474042472137,
          -0.5605506493209929,
          0.30135110398589093,
          0.8305620866277992,
          0.9488028964343178,
          -0.18927387817887809,
          -0.39108716257629705,
          0.23740321431714984,
          -0.9189942102621707,
          -0.6533780994220748,
          0.3571058167460457,
          0.0795076504280281,
          -0.11625526566191668,
          0.9548594263005357,
          0.9736723419427686
        ],
        "playerName": "RFFSimulation",
        "converter": {}
      },
      "fitness": 0.5,
      "behaviours": [
        14.2,
        0.45,
        48.4,
        5.2
      ]
    }
  ],
  [
    {
      "value": [
        25,
        11,
        24,
        12
      ]
    },
    {
      "x": {
        "agentConfig": [
          0,
          4,
          0,
          0,
          2,
          0,
          1,
          1,
          3,
          1
        ],
        "weights": [
          -0.014905671179085811,
          0.6584083842690791,
          -0.49170352607052936,
          0.10666286355464982,
          -0.014198153655135659,
          0.594028024358829,
          0.5720321324290829,
          0.9735273620442944,
          -0.4355563328529033,
          -0.7263203454962293,
          -0.9261274295216122,
          0.03930285312133064,
          -0.2675508768243411,
          0.7317230877825678,
          -0.8473010626972213,
          0.9798298273754844,
          -0.6707294397272332,
          0.867316599886222,
          -0.08707461713922426,
          0.737322365622499,
          0.7947658778204321,
          -0.28106753890607394,
          0.8831732088448248,
          -0.23775018929283487,
          0.6588451275190759,
          -0.7520999683865599,
          -0.966817780134261,
          0.9570253778715203,
          0.3468314289248291,
          0.49944513899202425,
          0.8194791826742664,
          0.2573540372431935,
          -0.6537496478596647,
          -0.02741353355745013,
          -0.16616102480319084,
          0.6562319078141208,
          -0.9594696657432711,
          -0.6943610498143113,
          0.5445897788747278,
          -0.34276906674701557,
          -0.41264076522944193,
          0.9719650038174266,
          -0.6506709693415329,
          -0.3621577208459441,
          0.104210091328925,
          -0.4189938377748592,
          -0.30136685387657214,
          -0.5897064566298189,
          0.12081362969697196,
          -0.40748334800215646,
          0.4038583915211653,
          -0.6136055770096769,
          -0.2318790612297339,
          -0.22268756012626278,
          -0.5918526902852772,
          0.18460707582514502,
          -0.5044342791245853,
          0.595739061518257,
          -0.72172997550083,
          -0.7383228829489541,
          -0.7567996715891341,
          0.8154525363046821,
          -0.5340550560365285,
          0.20780308585199947,
          -0.057453798505369136,
          0.15299846946335904,
          -0.009199891994784881,
          0.7134609976761233,
          0.9797648541138264,
          -0.5009355948741561,
          -0.3868488686108884,
          -0.10235670156180277,
          -0.17297957307123957,
          -0.6248280828043518,
          0.7932878091106175,
          -0.3185894717441682,
          0.43267168577844095,
          0.669964889000185,
          -0.22502349830522705,
          0.19729530417476115,
          -0.8418042444811469,
          -0.5838582314604361,
          0.9844022356479998,
          -0.1557609277981391,
          -0.9404876607491905,
          -0.605530984408361,
          0.6017881808086474,
          0.5293823396136224,
          -0.8673576247971762,
          0.6892053973423411,
          0.6414481629841109,
          -0.11783050580125365,
          0.7784010838865691,
          0.9696555052609839,
          0.1670409877054173,
          0.782870712093557,
          -0.8119098699198986,
          -0.7645374070432245,
          0.3723133345337015,
          0.4167632573760496,
          0.6119207439958652,
          -0.9613584803806556,
          -0.826368377800649,
          0.24685584364476254,
          -0.4558363997730923,
          -0.21675744581174894
        ],
        "playerName": "RFFSimulation",
        "converter": {}
      },
      "fitness": 0.8,
      "behaviours": [
        16.6,
        0.7,
        46.65,
        5.8
      ]
    }
  ],
  [
    {
      "value": [
        23,
        5,
        28,
        7
      ]
    },
    {
      "x": {
        "agentConfig": [
          1,
          4,
          1,
          0,
          2,
          1,
          1,
          2,
          0,
          0
        ],
        "weights": [
          -0.9892246427584985,
          -0.34097339119517134,
          0.32497562317968964,
          -0.9420302727045735,
          0.23514020060286644,
          0.07004988150240465,
          -0.36455337002940613,
          -0.4834160199573505,
          -0.07583250923430351,
          0.1084168714960132,
          -0.5205460452693644,
          0.09279759167926471,
          -0.6371873143714797,
          0.6402139342070365,
          -0.5525936156080753,
          0.3244466880596828,
          0.41553993903359165,
          0.9184688910232173,
          -0.08090427620387652,
          0.38882433143328377,
          -0.8732245505060447,
          0.6659238807285677,
          0.5275504678078997,
          0.1476769967881455,
          0.5117387106980782,
          0.51568174198378,
          0.3568773666941558,
          -0.7302899259624007,
          0.9085627501130791,
          -0.7134060107163154,
          0.7264465978019552,
          -0.04077208454167747,
          -0.32137038977703836,
          0.25189892525957736,
          0.9860421852083312,
          -0.09257601461393783,
          0.27056241412858606,
          -0.44624169738077457,
          -0.8686344708406091,
          -0.5167711465289899,
          -0.29566758023840256,
          0.2229825042048863,
          0.24654340872976,
          -0.1064877672682003,
          -0.6145466211742294,
          0.8823741713442732,
          0.7900608296574338,
          0.06782819486372071,
          0.8252525362638803,
          -0.8562386495129426,
          -0.4371990612435144,
          -0.6392188727459762,
          -0.6782775712570839,
          -0.04706871891628572,
          0.8316431919932585,
          0.81548248220162,
          0.9464733955990652,
          0.6933168509252361,
          -0.47066588897726924,
          -0.3055422138249586,
          -0.7131773123693554,
          -0.271570978115685,
          0.7111120976847314,
          0.25975428532651934,
          0.30807135400242047,
          -0.7553324434233422,
          -0.4791671522168124,
          0.37189087042323443,
          0.42953580801441804,
          0.7502846087201245,
          -0.19589282060793,
          0.3776812848826585,
          0.4489164033366695,
          0.39291587209602374,
          -0.7967702111555834,
          -0.030146247327895725,
          0.3031013577857298,
          -0.6227661074425748,
          0.07844175476847792,
          0.2267792570002105,
          0.8195200775518381,
          0.19591950341385056,
          0.9223360569906343,
          -0.12148716433607754,
          0.5906745563146358,
          0.13128844801777184,
          0.06898119121233126,
          0.995741414549441,
          0.8954944483751093,
          -0.45845077306029247,
          0.446602635448347,
          -0.2388765498461103,
          -0.8053236189501944,
          -0.18518949542968932,
          0.8824284405185256,
          0.7578961803988429,
          0.14318343350384777,
          0.5555964582954516,
          0.040570653787039834,
          0.298515530842701,
          0.2915972119999044,
          -0.43723157187659023,
          -0.5414206419019236,
          -0.28351324293899105,
          0.6890295553741748,
          0.4643928245343014
        ],
        "playerName": "RFFSimulation",
        "converter": {}
      },
      "fitness": 0.55,
      "behaviours": [
        14.85,
        0.3,
        54.35,
        3.3
      ]
    }
  ],
  [
    {
      "value": [
        8,
        1,
        41,
        6
      ]
    },
    {
      "x": {
        "agentConfig": [
          1,
          1,
          1,
          1,
          0,
          0,
          1,
          1,
          3,
          1
        ],
        "weights": [
          -0.43203999740892307,
          0.1514916090869205,
          0.7375896902297081,
          -0.273825561902191,
          0.22369741951709665,
          -0.6647855500711501,
          0.6946689698106796,
          0.05219468854006615,
          0.004901135166248682,
          -0.8067432499310123,
          -0.26251044648906174,
          -0.9863637859419945,
          0.9986594649895564,
          -0.7632366950851313,
          -0.5639970750290932,
          -0.03473313243721643,
          0.46593001890956254,
          0.08447522537489482,
          -0.5559294467464655,
          -0.43377243620814543,
          0.5991926125749185,
          0.4831282662048384,
          0.7363015410639688,
          0.8261923222521708,
          0.413962017845356,
          -0.9362229175952355,
          0.08681186560991727,
          -0.1253328249734582,
          -0.19477266315517694,
          -0.3726812203054355,
          -0.13508119662147355,
          0.3609593408048202,
          -0.6591000236496694,
          -0.44086901424238545,
          0.9200474603558695,
          0.6052398121445708,
          -0.2821305435440191,
          -0.9081212261800893,
          -0.1621069495890759,
          0.14651144812189143,
          -0.027720529912712344,
          -0.5157740628065244,
          -0.827851406210991,
          0.17118659085262244,
          -0.4858449836351151,
          -0.4089847457980995,
          0.39087188261951344,
          0.45636872110360693,
          -0.15247569760937996,
          0.034207846622568816,
          0.22383247059700428,
          -0.07517757917366064,
          -0.559302975422663,
          0.19884513483922728,
          -0.14305514238632044,
          0.6840076607449459,
          -0.37262515971645005,
          0.1526455521011265,
          0.9921589405812721,
          0.5094440365941615,
          0.6477860154892996,
          0.22782271469497783,
          -0.8240546056462279,
          0.13306235956753154,
          0.9800517619553699,
          -0.012564635466056462,
          0.9967785638862809,
          -0.5899099225793709,
          -0.03449250779021584,
          -0.41858954560647144,
          -0.23821471665800864,
          0.4634094421523891,
          -0.6022823838364144,
          -0.653939718591473,
          0.08499407453297336,
          0.2422163235278907,
          0.2234383540327307,
          0.7450552085546793,
          -0.545616223276608,
          -0.41780061680188707,
          -0.20520127931426968,
          0.30645371674584543,
          0.292197726540236,
          0.8173488756191831,
          -0.7845151302897286,
          0.0795327919984059,
          -0.7172462238914514,
          -0.7311034234390075,
          -0.7602701252084421,
          -0.6831983517318507,
          -0.1857528664217738,
          -0.47522332859052074,
          0.9114247646303355,
          0.5807230502484524,
          0.26580803081019777,
          -0.6766093744088142,
          -0.3283154232268455,
          -0.718693501565254,
          -0.43165783905671606,
          0.06834712450487501,
          -0.9832838535362465,
          0.7698783572716315,
          -0.022552657235238138,
          -0.47375857806341415,
          -0.04614703181606039,
          -0.45402459221302105
        ],
        "playerName": "RFFSimulation",
        "converter": {}
      },
      "fitness": 0.0,
      "behaviours": [
        5.05,
        0.0,
        81.55,
        2.85
      ]
    }
  ],
  [
    {
      "value": [
        6,
        1,
        39,
        1
      ]
    },
    {
      "x": {
        "agentConfig": [
          0,
          0,
          0,
          0,
          2,
          1,
          3,
          2,
          0,
          1
        ],
        "weights": [
          0.20718584097898107,
          -0.3323773284352498,
          0.8737684210885788,
          -0.7214918998345088,
          -0.9196977855393933,
          -0.08564214168719753,
          0.2476442055788166,
          0.5734531755117762,
          -0.4674239179555797,
          0.6300912197036164,
          -0.12106362651470115,
          -0.6523748995990659,
          -0.8904576458839069,
          0.03369643705940284,
          0.8980228093126901,
          0.09603575285862376,
          0.1916551820269694,
          -0.03810469370649927,
          0.6525538970760469,
          0.8410022254322915,
          -0.48264123450711494,
          -0.27123368547728166,
          0.17343763935424006,
          0.8574896892942978,
          0.0973119313355002,
          0.4088929844236133,
          0.6395525666707986,
          0.008037504840576748,
          0.6670437012528294,
          -0.9604265821588194,
          0.14178662619771187,
          -0.21867692759769541,
          -0.6649164211148413,
          -0.2370950680115187,
          -0.7869843136101198,
          -0.439940041974034,
          -0.5941245486016971,
          0.7664465680584227,
          -0.43084868360391404,
          0.38806590621535486,
          0.4915499639053469,
          0.03155441773838019,
          -0.7025974537641992,
          0.5629785139388994,
          0.973895585581509,
          -0.6386259216991614,
          -0.6685875876622167,
          0.7502358064366821,
          0.6376345065851274,
          0.9358659992196112,
          0.46894560397850626,
          0.9955801063550596,
          0.8683746437764857,
          -0.2708699277984479,
          -0.5836809545175599,
          0.0074842181209935355,
          0.19337526827158835,
          0.524685363314068,
          0.38478286615909285,
          0.38753947647560794,
          -0.8594711062918008,
          -0.022746407343376962,
          -0.38242495593728565,
          0.10598575092636997,
          0.4007279880851031,
          0.19498305536367466,
          -0.10761171409061454,
          0.45120399694502766,
          0.10105048286046903,
          0.6539426545779126,
          0.5225039139888976,
          -0.07386661648937398,
          -0.36903609566432416,
          -0.09289544770738178,
          -0.3291376827180348,
          0.12121451424834984,
          0.9110134991489744,
          -0.48707420981220784,
          -0.1051441315309043,
          -0.5373983893571934,
          -0.7467750916457634,
          -0.11597094681607167,
          0.755645577898507,
          -0.08397326942583216,
          -0.9652813593898883,
          -0.655626208136918,
          0.054318401564338537,
          0.22084050812074962,
          0.2907981387684977,
          -0.41630045296853924,
          -0.2017824341040868,
          -0.9646066974586478,
          -0.9689610365115251,
          0.9109137093350872,
          0.35429405411576553,
          0.4940625357456474,
          0.5916733237964593,
          -0.7665132751610753,
          0.41234345748391044,
          -0.8921286582113581,
          -0.3401714104901403,
          -0.47219170200856975,
          -0.6404932370448806,
          0.6847856047875025,
          0.7399442196279569,
          -0.28415089792807935
        ],
        "playerName": "RFFSimulation",
        "converter": {}
      },
      "fitness": 0.0,
      "behaviours": [
        3.95,
        0.0,
        76.75,
        0.4
      ]
    }
  ],
  [
    {
      "value": [
        24,
        13,
        16,
        11
      ]
    },
    {
      "x": {
        "agentConfig": [
          1,
          5,
          2,
          1,
          2,
          2,
          2,
          3,
          2,
          2
        ],
        "weights": [
          0.4584311546110138,
          -0.9975838048203958,
          0.7799581679259096,
          0.32636254295288025,
          -0.1749997220770807,
          0.3349937980587383,
          -0.5653821452013155,
          -0.9057479174525991,
          -0.3824387038718591,
          -0.3818749279649556,
          0.015538153553442013,
          -0.2603793804163512,
          0.07809014191367902,
          -0.9710211333014973,
          -0.43760708627406886,
          0.5684080466444561,
          0.10675235724329535,
          0.06619206669761546,
          -0.3331067059367836,
          -0.750584891176556,
          -0.09516705801004499,
          -0.16707487141869115,
          0.6909710140139456,
          -0.8520994027478077,
          -0.11297604701204422,
          -0.8418617220488405,
          0.8428508033514979,
          -0.06616854452926968,
          -0.45742595633747163,
          0.43529980466778384,
          0.20946201698306988,
          0.8332546142049271,
          0.2158201873665253,
          0.6143782308728187,
          0.29090410923189847,
          0.8541498901368316,
          0.8801372034541213,
          -0.3478885072830302,
          -0.15755268025434344,
          0.5935156827541448,
          -0.1046439702009705,
          0.9071859897160697,
          -0.09818455795760817,
          0.8203272516573619,
          0.46721835962871916,
          -0.5389004253628238,
          0.7642620745678088,
          -0.995471455301977,
          -0.9315509477332651,
          -0.8478767150101969,
          -0.634780892298501,
          -0.42591848817408673,
          0.43454584881448644,
          -0.7710835626690393,
          -0.959939850270487,
          -0.6889199931433343,
          -0.08660116178137778,
          0.961991717128259,
          0.9527884584888024,
          0.9286415137422839,
          -0.07363007045236758,
          -0.7046344135667051,
          -0.3797761941976785,
          -0.7203378732902312,
          0.08947697779367503,
          0.6773722688877712,
          -0.0944712223871842,
          0.9042237272623781,
          0.1468435177385119,
          -0.4212421244747946,
          -0.38531963326244556,
          0.5014288695616929,
          -0.7154102631005002,
          0.8878139057430685,
          0.40175853949840046,
          0.3982995312198667,
          0.6218575068256322,
          -0.6335516509233423,
          0.073688798457332,
          -0.4361021729650356,
          -0.2833238492105381,
          0.6577343325063147,
          -0.41765821660259994,
          0.42971484080789146,
          0.7778924733107244,
          0.9546163240323267,
          0.0016583402309577888,
          -0.19723344271208587,
          -0.059595997792113886,
          0.3710949387613727,
          0.6097338685395883,
          0.49572474042472137,
          -0.5605506493209929,
          0.30135110398589093,
          0.8305620866277992,
          0.9488028964343178,
          -0.18927387817887809,
          -0.39108716257629705,
          0.23740321431714984,
          -0.9189942102621707,
          -0.6533780994220748,
          0.3571058167460457,
          0.0795076504280281,
          -0.11625526566191668,
          0.9548594263005357,
          0.9736723419427686
        ],
        "playerName": "RFFSimulation",
        "converter": {}
      },
      "fitness": 0.25,
      "behaviours": [
        15.5,
        0.85,
        31.65,
        5.2
      ]
    }
  ],
  [
    {
      "value": [
        7,
        1,
        36,
        1
      ]
    },
    {
      "x": {
        "agentConfig": [
          0,
          0,
          0,
          0,
          2,
          1,
          3,
          0,
          0,
          1
        ],
        "weights": [
          0.20718584097898107,
          -0.3323773284352498,
          0.8737684210885788,
          -0.7214918998345088,
          -0.9196977855393933,
          -0.08564214168719753,
          0.2476442055788166,
          0.5734531755117762,
          -0.4674239179555797,
          0.6300912197036164,
          -0.12106362651470115,
          -0.6523748995990659,
          -0.8904576458839069,
          0.03369643705940284,
          0.8980228093126901,
          0.09603575285862376,
          0.1916551820269694,
          -0.03810469370649927,
          0.6525538970760469,
          0.8410022254322915,
          -0.48264123450711494,
          -0.27123368547728166,
          0.17343763935424006,
          0.8574896892942978,
          0.0973119313355002,
          0.4088929844236133,
          0.6395525666707986,
          0.008037504840576748,
          0.6670437012528294,
          -0.9604265821588194,
          0.14178662619771187,
          -0.21867692759769541,
          -0.6649164211148413,
          -0.2370950680115187,
          -0.7869843136101198,
          -0.439940041974034,
          -0.5941245486016971,
          0.7664465680584227,
          -0.43084868360391404,
          0.38806590621535486,
          0.4915499639053469,
          0.03155441773838019,
          -0.7025974537641992,
          0.5629785139388994,
          0.973895585581509,
          -0.6386259216991614,
          -0.6685875876622167,
          0.7502358064366821,
          0.6376345065851274,
          0.9358659992196112,
          0.46894560397850626,
          0.9955801063550596,
          0.8683746437764857,
          -0.2708699277984479,
          -0.5836809545175599,
          0.0074842181209935355,
          0.19337526827158835,
          0.524685363314068,
          0.38478286615909285,
          0.38753947647560794,
          -0.8594711062918008,
          -0.022746407343376962,
          -0.38242495593728565,
          0.10598575092636997,
          0.4007279880851031,
          0.19498305536367466,
          -0.10761171409061454,
          0.45120399694502766,
          0.10105048286046903,
          0.6539426545779126,
          0.5225039139888976,
          -0.07386661648937398,
          -0.36903609566432416,
          -0.09289544770738178,
          -0.3291376827180348,
          0.12121451424834984,
          0.9110134991489744,
          -0.48707420981220784,
          -0.1051441315309043,
          -0.5373983893571934,
          -0.7467750916457634,
          -0.11597094681607167,
          0.755645577898507,
          -0.08397326942583216,
          -0.9652813593898883,
          -0.655626208136918,
          0.054318401564338537,
          0.22084050812074962,
          0.2907981387684977,
          -0.41630045296853924,
          -0.2017824341040868,
          -0.9646066974586478,
          -0.9689610365115251,
          0.9109137093350872,
          0.35429405411576553,
          0.4940625357456474,
          0.5916733237964593,
          -0.7665132751610753,
          0.41234345748391044,
          -0.8921286582113581,
          -0.3401714104901403,
          -0.47219170200856975,
          -0.6404932370448806,
          0.6847856047875025,
          0.7399442196279569,
          -0.28415089792807935
        ],
        "playerName": "RFFSimulation",
        "converter": {}
      },
      "fitness": 0.0,
      "behaviours": [
        4.05,
        0.0,
        70.0,
        0.25
      ]
    }
  ],
  [
    {
      "value": [
        29,
        22,
        19,
        10
      ]
    },
    {
      "x": {
        "agentConfig": [
          1,
          4,
          0,
          1,
          1,
          2,
          3,
          1,
          3,
          1
        ],
        "weights": [
          0.9173568388072155,
          0.49893892583293264,
          0.5502357674227731,
          -0.4320553867116683,
          0.4038255175985024,
          -0.8589922727217663,
          -0.8577419943417592,
          -0.741505623579449,
          -0.8152245456391105,
          0.07921713933365315,
          0.710420751352951,
          0.4391521467948105,
          0.7901717913283677,
          0.985753820485626,
          -0.07308210842349894,
          0.14825146375872067,
          0.9217753981948718,
          -0.2600705729963666,
          0.4169189280155414,
          0.4123238715440709,
          0.2313783940854286,
          -0.6998604033608216,
          0.404385263049156,
          -0.777597596136032,
          0.04436130545345551,
          -0.14094903044003515,
          0.1602953562589189,
          0.9282267650824776,
          0.7920611724192537,
          -0.020413042047318752,
          -0.720538320350089,
          -0.16907048508583178,
          0.39495485796874474,
          0.6534232671105811,
          0.4468899648330067,
          0.4051718310045924,
          0.12967759918241684,
          -0.21965379342797586,
          0.8018955752226957,
          -0.45541089394421763,
          0.6164124539833435,
          -0.5640345756107961,
          0.2679584643682167,
          0.4997966504751732,
          0.4792015619660688,
          0.4769150928467756,
          0.28856274671979576,
          0.7660967404463281,
          0.9602470206483895,
          0.5268169451861862,
          0.29403337314517275,
          -0.921581255666035,
          -0.6897171490006022,
          0.19292012552961113,
          0.9216479093314112,
          -0.11608529670714574,
          0.1306166044551178,
          0.48247287274955464,
          0.5210665866819939,
          -0.8119769717893319,
          -0.9915450609292162,
          -0.18047818113178749,
          0.7993897053330294,
          -0.49229530718181835,
          0.7656415179413774,
          -0.1930248099796692,
          0.5949173724069314,
          -0.1840548097857655,
          -0.5680468962417493,
          0.9354074067488132,
          -0.2840483192631369,
          0.824508014479199,
          0.657613914627666,
          0.8092220764356512,
          -0.45925285506266933,
          0.7273144077343321,
          -0.30429490128097525,
          0.14243256474555777,
          -0.35301833812277983,
          -0.3852840761600471,
          -0.6863393980513712,
          -0.2295420632140306,
          0.12388411347116879,
          0.16931668157616553,
          0.03405748230825445,
          -0.7690248215034605,
          -0.582577521850262,
          -0.03310782509360055,
          -0.04157678254567765,
          0.08600649921443293,
          -0.4312797852054182,
          0.7313427255071292,
          -0.9062003834383978,
          -0.9109363619661699,
          0.5281355242611903,
          0.23051091106387434,
          -0.4196831984353868,
          -0.4546902064634064,
          0.8622026038477697,
          -0.8499188023018307,
          0.5090481020850532,
          -0.23065815287781666,
          -0.38209910202865993,
          0.24567217894157056,
          0.12293069843591709,
          -0.5856649761535213
        ],
        "playerName": "RFFSimulation",
        "converter": {}
      },
      "fitness": 0.45,
      "behaviours": [
        18.8,
        1.45,
        37.15,
        4.7
      ]
    }
  ],
  [
    {
      "value": [
        32,
        25,
        16,
        12
      ]
    },
    {
      "x": {
        "agentConfig": [
          0,
          3,
          2,
          1,
          0,
          2,
          2,
          1,
          4,
          1
        ],
        "weights": [
          0.8661917258534635,
          -0.1422917986656993,
          0.2943731619271337,
          -0.763418066847356,
          -0.5729723596304057,
          -0.7057294669958127,
          -0.3957505254980611,
          -0.7253018542925773,
          -0.4358242515098114,
          -0.38438939758447455,
          0.9950786919318546,
          -0.10389290794338923,
          0.9226520692116298,
          -0.486896189611413,
          -0.86191711739829,
          -0.011446899485885842,
          -0.9734091077066453,
          0.4614401302470492,
          0.2658985859572791,
          0.48056826778140116,
          -0.4356739034550827,
          -0.6636859549599512,
          0.18990985709347474,
          -0.591477216847413,
          -0.04761720637012923,
          -0.6735806033701965,
          0.6425415521721365,
          -0.9960365138750709,
          0.9682342830564579,
          0.10587619621649424,
          0.6689399762671466,
          -0.6027503871415474,
          0.8139461565373576,
          0.32110433770228686,
          0.02098238716917611,
          0.5276339017023239,
          -0.6424048667921938,
          -0.15344833258216695,
          0.5475728085219407,
          0.15657890240240646,
          -0.5033851289043829,
          -0.02342621601465389,
          -0.5713029327561643,
          -0.4997608106313023,
          -0.40301240522747195,
          0.746152833472083,
          0.7667268706641874,
          0.9286790244201872,
          -0.21553434416923212,
          -0.08896518831739098,
          -0.4730241670366335,
          0.4235385542606034,
          -0.5012277061853574,
          -0.23174593657513087,
          0.11052864865201717,
          -0.9575011344854141,
          0.16899764883133428,
          -0.03909503653203927,
          0.9458786754227826,
          0.5080400002709788,
          -0.8718298578711106,
          -0.2887405878761353,
          0.40192466239709446,
          0.21962440700690045,
          0.9572504989154458,
          -0.6845649131512703,
          0.053394630000026755,
          0.4825800273858081,
          0.3335603953701025,
          0.3289539010928282,
          0.87077849080057,
          -0.4464024994389857,
          0.15592324741798325,
          -0.3060657789373191,
          0.2603676617801547,
          0.2218967702263217,
          0.22856129063084918,
          0.3234079030484116,
          -0.9539837696282485,
          -0.9232412479367036,
          -0.8919429265225323,
          -0.8953401217338683,
          -0.537248274347343,
          0.356258614114521,
          0.8524551479795259,
          0.12961859181743174,
          0.023381901275303374,
          0.32867756708034834,
          -0.6411565069630429,
          -0.775564268883425,
          0.7227572637110837,
          -0.4727889523138944,
          -0.2644791886016773,
          -0.349370317605743,
          0.46036578241716475,
          0.840231464992881,
          0.7271216059793861,
          -0.061940647847452235,
          -0.20954793431419905,
          -0.5464957794977392,
          0.5958357457669257,
          0.210384775654614,
          0.14986806858349833,
          -0.05260268720359762,
          -0.9408741226965165,
          -0.923437670001485
        ],
        "playerName": "RFFSimulation",
        "converter": {}
      },
      "fitness": 0.75,
      "behaviours": [
        20.75,
        1.65,
        31.85,
        5.5
      ]
    }
  ],
  [
    {
      "value": [
        30,
        24,
        20,
        9
      ]
    },
    {
      "x": {
        "agentConfig": [
          1,
          4,
          1,
          1,
          2,
          2,
          2,
          1,
          1,
          0
        ],
        "weights": [
          -0.7486601820109022,
          0.9320637727281302,
          -0.6840473149184394,
          0.112405588395047,
          -0.9777187158506107,
          0.47955557001661653,
          -0.08330051829962182,
          0.5182899864491113,
          0.7231765901699034,
          -0.9910631010609847,
          -0.4293369227923818,
          0.13130499488573233,
          -0.3213403457510047,
          -0.43502603454625377,
          0.7827944139960934,
          -0.35152525474961216,
          -0.05957492315493451,
          -0.7572479099053875,
          -0.31421086365814643,
          0.0775793542805785,
          0.6898101102263527,
          0.9436784314570899,
          -0.33765252490318187,
          0.9348282953451941,
          0.9117180659171102,
          0.2561126900516417,
          0.10123289770651978,
          0.015800141164758585,
          0.8250512237122265,
          0.43456410308748317,
          -0.16813220468497136,
          -0.5315292933982627,
          0.3770879982571276,
          0.7892828287531595,
          -0.739278716731725,
          0.14129016825702045,
          0.7440033612048798,
          0.4484655148432024,
          0.5237585604675965,
          0.7359113710273164,
          0.22699825585331457,
          0.4181842788178398,
          -0.9272621440802886,
          0.1633121677503344,
          -0.8067311059864475,
          0.14054038215614728,
          -0.9708442358360758,
          0.6836950216483637,
          -0.21668749236758966,
          0.33843283912622923,
          0.36815866893877747,
          -0.09531243969829362,
          -0.5553632862275073,
          -0.16427538464005442,
          0.5357518206767804,
          -0.48099074198427094,
          0.41876562541806805,
          0.2544777029199965,
          0.4561548756866023,
          -0.21809154618268778,
          0.5247399028853557,
          -0.9836787176867694,
          -0.9478326074649492,
          -0.8396833459910238,
          -0.5085025154310514,
          -0.08709448295623723,
          -0.6200759731032457,
          0.3298054447925265,
          0.9926315210287442,
          -0.33921417392058717,
          -0.7295664870716618,
          0.7520738754129439,
          -0.9287868233382528,
          0.31897233652578794,
          -0.026186459919688154,
          0.4348335639984273,
          0.10866927090190237,
          -0.7772300590781902,
          -0.28185361151284916,
          -0.8423999962281719,
          -0.5664685594997487,
          0.1754251960282629,
          -0.6766020147222869,
          0.4410388349662211,
          -0.4955558424257538,
          0.03948672593984481,
          0.05185778209247904,
          -0.15584310367460552,
          -0.20091568272499538,
          -0.417323482735356,
          -0.2699273266960347,
          0.7927679211716183,
          -0.4495888627869391,
          0.4584599815411723,
          -0.15673689204124175,
          0.07430394244534422,
          -0.7060700893395233,
          -0.46060634493993513,
          -0.21827303604364046,
          -0.6218163865073307,
          -0.1755800543391839,
          -0.5282806110930689,
          0.709749855521955,
          0.8175897036497413,
          -0.3921584890059444,
          0.28256547494891815
        ],
        "playerName": "RFFSimulation",
        "converter": {}
      },
      "fitness": 0.35,
      "behaviours": [
        19.7,
        1.55,
        38.4,
        4.4
      ]
    }
  ],
  [
    {
      "value": [
        32,
        22,
        18,
        12
      ]
    },
    {
      "x": {
        "agentConfig": [
          0,
          3,
          2,
          1,
          0,
          2,
          2,
          0,
          4,
          1
        ],
        "weights": [
          0.8661917258534635,
          -0.1422917986656993,
          0.2943731619271337,
          -0.763418066847356,
          -0.5729723596304057,
          -0.7057294669958127,
          -0.3957505254980611,
          -0.7253018542925773,
          -0.4358242515098114,
          -0.38438939758447455,
          0.9950786919318546,
          -0.10389290794338923,
          0.9226520692116298,
          -0.486896189611413,
          -0.86191711739829,
          -0.011446899485885842,
          -0.9734091077066453,
          0.4614401302470492,
          0.2658985859572791,
          0.48056826778140116,
          -0.4356739034550827,
          -0.6636859549599512,
          0.18990985709347474,
          -0.591477216847413,
          -0.04761720637012923,
          -0.6735806033701965,
          0.6425415521721365,
          -0.9960365138750709,
          0.9682342830564579,
          0.10587619621649424,
          0.6689399762671466,
          -0.6027503871415474,
          0.8139461565373576,
          0.32110433770228686,
          0.02098238716917611,
          0.5276339017023239,
          -0.6424048667921938,
          -0.15344833258216695,
          0.5475728085219407,
          0.15657890240240646,
          -0.5033851289043829,
          -0.02342621601465389,
          -0.5713029327561643,
          -0.4997608106313023,
          -0.40301240522747195,
          0.746152833472083,
          0.7667268706641874,
          0.9286790244201872,
          -0.21553434416923212,
          -0.08896518831739098,
          -0.4730241670366335,
          0.4235385542606034,
          -0.5012277061853574,
          -0.23174593657513087,
          0.11052864865201717,
          -0.9575011344854141,
          0.16899764883133428,
          -0.03909503653203927,
          0.9458786754227826,
          0.5080400002709788,
          -0.8718298578711106,
          -0.2887405878761353,
          0.40192466239709446,
          0.21962440700690045,
          0.9572504989154458,
          -0.6845649131512703,
          0.053394630000026755,
          0.4825800273858081,
          0.3335603953701025,
          0.3289539010928282,
          0.87077849080057,
          -0.4464024994389857,
          0.15592324741798325,
          -0.3060657789373191,
          0.2603676617801547,
          0.2218967702263217,
          0.22856129063084918,
          0.3234079030484116,
          -0.9539837696282485,
          -0.9232412479367036,
          -0.8919429265225323,
          -0.8953401217338683,
          -0.537248274347343,
          0.356258614114521,
          0.8524551479795259,
          0.12961859181743174,
          0.023381901275303374,
          0.32867756708034834,
          -0.6411565069630429,
          -0.775564268883425,
          0.7227572637110837,
          -0.4727889523138944,
          -0.2644791886016773,
          -0.349370317605743,
          0.46036578241716475,
          0.840231464992881,
          0.7271216059793861,
          -0.061940647847452235,
          -0.20954793431419905,
          -0.5464957794977392,
          0.5958357457669257,
          0.210384775654614,
          0.14986806858349833,
          -0.05260268720359762,
          -0.9408741226965165,
          -0.923437670001485
        ],
        "playerName": "RFFSimulation",
        "converter": {}
      },
      "fitness": 0.7,
      "behaviours": [
        20.7,
        1.45,
        35.15,
        5.9
      ]
    }
  ],
  [
    {
      "value": [
        29,
        20,
        23,
        10
      ]
    },
    {
      "x": {
        "agentConfig": [
          0,
          3,
          2,
          0,
          1,
          2,
          2,
          1,
          2,
          1
        ],
        "weights": [
          -0.6315174227113132,
          0.3486218528882552,
          -0.8904458761773473,
          -0.3720662300395676,
          -0.46264437841528716,
          -0.6111428854396903,
          0.4231328629271238,
          -0.5155876895000475,
          -0.018716021520509774,
          0.4986289100165209,
          -0.38600407809744874,
          0.9492698682130343,
          -0.48856689797152675,
          -0.5262140983482357,
          0.9974413115088265,
          -0.2484345802504686,
          0.5405541828525722,
          0.3946489310284145,
          -0.8401805861249692,
          -0.029062092000921913,
          -0.6331340512781107,
          -0.9535592249771647,
          0.2782243762479846,
          -0.10960161838423166,
          -0.260040660447884,
          0.9296146231875042,
          -0.478811160183809,
          -0.2773791972694102,
          -0.6986853664786854,
          0.11331661751037547,
          -0.5987074688633403,
          0.18659998015892265,
          0.2517873706393565,
          0.9606076834075468,
          -0.6333893794762682,
          0.5931837181077144,
          -0.8293150684899626,
          0.8419612594871908,
          -0.8535553729113103,
          0.09212927005577165,
          0.29582018024006684,
          0.3539426780817494,
          -0.592207744424964,
          0.039973090261444355,
          -0.2288039244260367,
          0.2728687894237338,
          -0.8674695742955703,
          -0.932856090069816,
          -0.6212615293856767,
          -0.5013651763959039,
          -0.20870074224111046,
          -0.6456096355032364,
          -0.9072374811710038,
          -0.4182123880626125,
          -0.13140765736676951,
          0.8727343322318597,
          0.4306211092653873,
          -0.9226857875973702,
          -0.4154276470176057,
          -0.10219786294860156,
          -0.9797483300252408,
          0.9315059806884685,
          0.7626487227674583,
          0.9785260914548195,
          -0.9348982860891377,
          0.3836484705110512,
          0.7078675398330616,
          -0.2781498519270278,
          0.4591800039022007,
          -0.5478220504510924,
          -0.3103185164080793,
          -0.7507871408529088,
          -0.8102548406078178,
          0.9753370918531055,
          -0.8363183895733326,
          -0.012776998055143984,
          -0.6375897446435645,
          0.3892512922109965,
          0.22038989757953753,
          0.5740824522066506,
          0.6932060027933367,
          0.9517393011556596,
          0.9152253243895101,
          -0.9050476967957108,
          0.6344121128835265,
          -0.04193887657629225,
          -0.887726068897591,
          0.6035987652464194,
          -0.5642682158353707,
          -0.35480174146872523,
          0.26550706112306366,
          0.9442957249329902,
          -0.6103512814687961,
          0.9441503696926203,
          -0.8353911041520421,
          0.25710165079667635,
          0.2695737504653388,
          -0.9848757823946062,
          -0.9114106044805863,
          0.23126944454409593,
          -0.4583481475317732,
          0.5883809567414109,
          -0.9611256019243752,
          -0.8343124265758077,
          0.31586699154560227,
          0.533898600862758
        ],
        "playerName": "RFFSimulation",
        "converter": {}
      },
      "fitness": 0.4,
      "behaviours": [
        18.85,
        1.3,
        44.0,
        4.5
      ]
    }
  ],
  [
    {
      "value": [
        30,
        19,
        18,
        11
      ]
    },
    {
      "x": {
        "agentConfig": [
          1,
          4,
          0,
          0,
          0,
          0,
          3,
          0,
          1,
          0
        ],
        "weights": [
          -0.03298179651272992,
          -0.7507680410010154,
          -0.7380937439469097,
          -0.32807772268605784,
          -0.5014653426135416,
          -0.15876051646200073,
          -0.7344220274187037,
          -0.24917457139935273,
          -0.3146284452811614,
          0.9829465806236939,
          0.1099441039146325,
          0.8187896562500709,
          -0.6646110975560278,
          0.6592366548661579,
          -0.316988848331927,
          -0.6597210499620381,
          -0.2705587949357735,
          -0.1184494536879912,
          -0.26179285912005046,
          0.5608098440635008,
          0.1806244129281649,
          0.9557100775817471,
          -0.4809452725849164,
          -0.8627326115105252,
          -0.29837447441324527,
          -0.15630058765783028,
          -0.21834866741104353,
          -0.07834197096148743,
          -0.41922696825265016,
          0.21345963515273514,
          -0.6280014920899153,
          -0.5808882099827943,
          0.8334024408313261,
          0.20239203710939924,
          -0.16250992663693475,
          0.2788382319711282,
          0.4736654250424088,
          -0.3355931557828644,
          0.6866338204982072,
          -0.672870785337774,
          -0.6570713884110579,
          -0.2730057685280509,
          0.8583466043016199,
          0.11439470574213284,
          -0.16557836988743224,
          -0.1460646376243422,
          0.7219296111592688,
          -0.2763938908794743,
          0.26981158767812885,
          0.2909118379607647,
          -0.49890543318334757,
          0.6754134872701778,
          -0.08810461849627016,
          -0.23458772823627094,
          -0.5998215206723994,
          0.16559364158203804,
          0.6386172343506238,
          -0.38102419956353106,
          -0.09205018336017479,
          0.5833763076634484,
          0.1571352974523863,
          0.16895249509562826,
          -0.23582547478400673,
          -0.7154138646070116,
          -0.6973249883998422,
          -0.9713983855859778,
          -0.10362438249296013,
          -0.06857027050994713,
          0.4454249732474287,
          0.35848891694030627,
          0.2689865630860153,
          0.36114621924507273,
          -0.6802562770939311,
          0.578785525923665,
          -0.9656363906023211,
          0.908631821293739,
          0.6934648699877921,
          -0.058789537386495505,
          -0.36511221223522905,
          0.3835385607085273,
          -0.7889000002338007,
          0.54100056948307,
          0.5776536093071152,
          0.4902385379205201,
          0.4732580005947631,
          -0.1565686518043219,
          -0.5119940902136575,
          -0.620564988948944,
          -0.04438799555964201,
          0.6060539934854512,
          -0.2545459417158298,
          -0.7669067954324145,
          0.7242627038882401,
          -0.803047214515143,
          0.5152549805684361,
          -0.6902465397066493,
          -0.9296384439680432,
          0.7409695361075836,
          -0.6887737229797166,
          0.7151805429631795,
          0.16537386783584695,
          -0.7300190336584376,
          0.3601121928455788,
          0.3136930367280706,
          -0.3706242532812083,
          0.10995635336222187
        ],
        "playerName": "RFFSimulation",
        "converter": {}
      },
      "fitness": 0.85,
      "behaviours": [
        19.55,
        1.2,
        34.9,
        5.2
      ]
    }
  ],
  [
    {
      "value": [
        3,
        1,
        7,
        4
      ]
    },
    {
      "x": {
        "agentConfig": [
          0,
          0,
          3,
          0,
          0,
          1,
          3,
          1,
          0,
          0
        ],
        "weights": [
          -0.13159742238155636,
          -0.007231436373019928,
          0.9963192856822376,
          -0.8724701315437444,
          0.7537068277190393,
          0.6788701832969202,
          -0.8381718919996854,
          0.5003256632607662,
          -0.15754799481842707,
          0.3052601026558879,
          -0.06184264074781276,
          0.5235418163181405,
          -0.004438434602564323,
          -0.7114130725539403,
          -0.2866616665016135,
          -0.9737199793505413,
          0.13026880027048526,
          0.6696272965178776,
          0.8287293470657144,
          -0.05002236303527563,
          0.6282281171885293,
          -0.394850731117945,
          -0.729626910089497,
          -0.3090311702388391,
          0.13575639265316353,
          0.8859543052208392,
          0.12568334559812389,
          0.04579244252038639,
          0.6847320080131372,
          -0.9922300033236655,
          0.38730939788246066,
          -0.6154476589786644,
          0.5724449571690462,
          -0.15294376668604515,
          0.8520414573475352,
          0.10927535761818263,
          0.7609574900437279,
          -0.16832106075967213,
          -0.15886283583375982,
          0.1983539519970987,
          0.6912993627062709,
          -0.353204612853226,
          -0.7405367878078741,
          -0.30520009899554723,
          -0.6449111905977456,
          0.9791857368306871,
          0.11436380282875303,
          -0.6348225363221021,
          -0.7740655608416314,
          0.5786567604130668,
          0.031181553638963022,
          0.4377236069485628,
          0.22524008233949933,
          0.003033158521394519,
          -0.4691272936650197,
          -0.6776951361275634,
          0.28179990880859873,
          -0.1863557651830916,
          0.8761746472460941,
          -0.4785003135399353,
          0.24183595225547894,
          -0.29889766500378845,
          -0.8537016493246938,
          0.5612372328331601,
          -0.10410242554072435,
          -0.9534387746767952,
          -0.133865012189202,
          0.7010627907080809,
          0.7113058322198043,
          -0.2384662404417348,
          0.994480587738847,
          0.42824146307717004,
          -0.5064066657283051,
          0.8997368843010911,
          -0.6332007138769107,
          -0.7034476826048737,
          -0.35234581252639186,
          0.4973251157858367,
          0.7915604471665798,
          -0.4602348052002101,
          0.9690859748840768,
          0.37326169833053635,
          0.9152009844064042,
          0.07143435390470043,
          0.9684690516243237,
          0.20946970972534462,
          0.6992801051942006,
          -0.023218041504929232,
          0.6160964899648729,
          0.1307940539165846,
          -0.1055917595053697,
          -0.5909137506821764,
          -0.9080681282351386,
          0.21769708659123332,
          0.24904938742199945,
          -0.07786989662880517,
          -0.3646612418182382,
          0.9100007863177009,
          -0.6426904274058818,
          -0.2980950759809897,
          0.27843808358920885,
          0.09787887970685283,
          0.028341477922845026,
          -0.09509298856325521,
          -0.5546642699249698,
          0.8466937794709688
        ],
        "playerName": "RFFSimulation",
        "converter": {}
      },
      "fitness": 0.0,
      "behaviours": [
        1.7,
        0.0,
        13.75,
        1.75
      ]
    }
  ],
  [
    {
      "value": [
        1,
        1,
        46,
        7
      ]
    },
    {
      "x": {
        "agentConfig": [
          0,
          0,
          1,
          0,
          2,
          1,
          0,
          1,
          4,
          1
        ],
        "weights": [
          0.6295058591472811,
          0.8323621020578533,
          0.5671854021738874,
          0.15447663091445785,
          0.940360909168356,
          -0.9831727212178851,
          0.4996935775971696,
          0.46546449517104094,
          -0.13288663077382035,
          -0.03827670806398631,
          -0.39326116092768726,
          0.19245778902463906,
          -0.597806377018266,
          0.36404120156904707,
          -0.09348619251554946,
          0.8898361687746512,
          0.6276332541149992,
          0.8290590880570896,
          -0.28313518963925666,
          -0.25194996103293055,
          -0.09411348705031264,
          -0.7154436206439316,
          0.41175410072833585,
          0.43963265350283676,
          -0.6220876367038948,
          -0.7557036093116716,
          0.4768337527344355,
          0.099545315412509,
          -0.5422132233812587,
          0.8253785696980422,
          0.6285979078418458,
          0.7399651091378083,
          -0.883368208249542,
          0.29320376817705185,
          -0.9786570965169785,
          0.6750152542249173,
          0.6646612310006139,
          -0.9105649470466268,
          0.6384333300474383,
          -0.8811700421818156,
          -0.5313384400817711,
          -0.2075209756889662,
          -0.15086518229867307,
          -0.9792650110323582,
          -0.41676100749981937,
          0.2666509691983743,
          -0.190457502135837,
          -0.5857835483316076,
          -0.37231809883908284,
          0.3753301407605232,
          0.8958980188449381,
          -0.9182591374628353,
          -0.5936980791947724,
          0.06505017411070968,
          0.6808542776840762,
          0.1753799113219967,
          0.7486333522989013,
          -0.6283883988826426,
          0.09801271022399671,
          -0.41641558006962476,
          -0.16311452692794615,
          -0.04405689910018773,
          0.38732320785436736,
          -0.7026579486041096,
          0.8915589827371886,
          0.1465792727877735,
          -0.82629673941594,
          0.8043448171833345,
          0.5021523241683383,
          -0.85273623481511,
          -0.39650326123280766,
          0.6276815747598941,
          0.1184002573987204,
          -0.9376745192746627,
          -0.15183908709185023,
          0.5259632194815507,
          -0.7414984963845384,
          -0.30088101895629915,
          -0.5181665748460786,
          0.5846773010248825,
          -0.15569029493477493,
          0.7259576727780119,
          0.2491982060714053,
          0.4539603251019346,
          0.7394751218696316,
          0.6956118804292304,
          -0.43766536317588334,
          -0.6741337786675579,
          -0.9549573228934809,
          0.6885824745485623,
          -0.3000013670117283,
          0.8946004242736825,
          0.9980256302991013,
          -0.11299777696783253,
          0.130052421144784,
          -0.49392082299714346,
          0.4219906976459944,
          -0.7408420178006498,
          0.6355229801801572,
          -0.021435454771437712,
          0.5947060600258591,
          -0.28373374066143997,
          0.9970356513665453,
          0.16401662863022226,
          0.1264189136606093,
          0.5972768808622622
        ],
        "playerName": "RFFSimulation",
        "converter": {}
      },
      "fitness": 0.0,
      "behaviours": [
        0.0,
        0.0,
        91.45,
        3.0
      ]
    }
  ],
  [
    {
      "value": [
        21,
        7,
        21,
        14
      ]
    },
    {
      "x": {
        "agentConfig": [
          1,
          1,
          1,
          1,
          0,
          2,
          3,
          2,
          3,
          1
        ],
        "weights": [
          -0.39362855697055266,
          -0.6062598057089572,
          0.3489213451468016,
          0.0022555588730392984,
          0.9146661567432679,
          -0.9944812860984353,
          0.8769590493862651,
          -0.14630712965441517,
          -0.2633455408600902,
          -0.9700492098993545,
          0.7443018646846606,
          0.13041529338150482,
          0.9688222906867305,
          0.757519129099085,
          0.5659924892517418,
          -0.1600967232269852,
          -0.7895221375638166,
          -0.2543865636453755,
          0.10367757787823062,
          0.8730787401145879,
          -0.29020297098173087,
          -0.0946879992402625,
          -0.5858955946218576,
          -0.3776584106557539,
          0.30627761051335956,
          -0.9832838195606317,
          -0.9096303429970172,
          0.784903423211232,
          -0.8102686185845343,
          -0.6823260633686841,
          -0.9150045741962611,
          -0.26448772838783285,
          0.08695889274861979,
          0.8673693536249769,
          0.5511729766593632,
          0.31555356867591144,
          0.09076800457547951,
          0.7553959496743021,
          -0.10172040534175975,
          -0.33909735515312733,
          -0.2379880491647628,
          -0.0914276228335178,
          0.8300407029325414,
          0.7787950879940368,
          0.36383946986478843,
          -0.7581014513808113,
          0.5184741501723216,
          0.9843713770028637,
          -0.8716364880577441,
          0.20669283824916684,
          0.2640195581537681,
          0.020443527168243714,
          0.3094730746748402,
          -0.591910296049118,
          -0.9979786948189209,
          -0.29057878582630603,
          -0.5584744504886678,
          0.8957192127193636,
          -0.16200110625221664,
          -0.6757732525902069,
          0.7021748996970159,
          0.9755289475331768,
          -0.5710951018897508,
          -0.48458251392500196,
          0.5686050611060836,
          0.9473514204110176,
          -0.5251645703985615,
          0.5946254522743943,
          -0.9400449530794712,
          -0.9580409464047925,
          0.8454241938381493,
          0.24981577229141116,
          0.7747359375754974,
          0.012990038666433223,
          -0.06258325226550832,
          -0.6442466576221597,
          -0.33944244967179293,
          -0.6667308893641668,
          -0.2553126403045276,
          0.44346090157824514,
          -0.005503103931195685,
          0.7516878979254875,
          0.8192256222251546,
          -0.394659823606456,
          -0.5940434486329274,
          -0.9140501193751036,
          -0.1886126122657843,
          -0.8619807744592032,
          -0.060123165714566884,
          0.5581257641502424,
          -0.4000322185669669,
          -0.9371203464221893,
          0.13668141160480363,
          0.7241056871909874,
          -0.8425775926174177,
          0.8146079036040768,
          0.8963506397243008,
          -0.8953246299767579,
          -0.7571742343826742,
          -0.1489948269924788,
          0.4975339788755542,
          -0.0049161069125736034,
          -0.2250763486445404,
          -0.2873176491657079,
          -0.4413722201084751,
          0.6116112761690096
        ],
        "playerName": "RFFSimulation",
        "converter": {}
      },
      "fitness": 0.5,
      "behaviours": [
        13.55,
        0.45,
        40.65,
        6.8
      ]
    }
  ],
  [
    {
      "value": [
        15,
        1,
        37,
        2
      ]
    },
    {
      "x": {
        "agentConfig": [
          1,
          2,
          2,
          0,
          0,
          1,
          2,
          3,
          4,
          1
        ],
        "weights": [
          -0.08536477364344308,
          -0.5040108213693317,
          0.8311937367601914,
          -0.6615360650861641,
          0.17916443505095359,
          0.36493162020970216,
          -0.27979144171850967,
          0.461969566140237,
          0.24665947941116872,
          -0.352491091339711,
          -0.02659302763130933,
          0.7516607468130974,
          -0.6574289293822779,
          0.1177729632160236,
          -0.8208315243397775,
          -0.3618544304258082,
          0.1505420280866463,
          -0.7467353344728658,
          0.9389012077446814,
          0.8320862358591503,
          -0.6490613143531778,
          -0.7045391095321796,
          -0.16660374575089554,
          0.5331190516348936,
          0.2671795087379665,
          0.5908861390874383,
          -0.6400751587997802,
          0.669346866805326,
          -0.011181104320851842,
          -0.5153222180077133,
          0.15923199039290203,
          0.7097023434757013,
          -0.8061404321626287,
          -0.34246403069807396,
          0.8613440582222984,
          0.6168691077505886,
          -0.44121841097535697,
          0.7286279593511744,
          0.7013754499526086,
          0.8463395499931103,
          -0.8767067982722176,
          0.1911593832844818,
          -0.3087170741765142,
          0.9475792728200192,
          0.2678229326077237,
          0.30396363077692135,
          0.5807841891055365,
          0.2861572160135395,
          0.06528880888433375,
          0.43160229567527497,
          -0.8995795616034188,
          0.6810919919613556,
          0.6846960605165988,
          -0.49288962353455634,
          -0.9479895603078681,
          -0.6604437976230169,
          0.2526301055544766,
          0.7856596255340491,
          0.6965076661841849,
          -0.6285301622236774,
          0.11972710649170515,
          -0.1359453239953481,
          0.5865389006667336,
          0.37940527900363796,
          0.8327209273650344,
          -0.9398825916584623,
          0.5006670026340809,
