[
  [
    {
      "value": [
        32,
        32,
        13,
        9
      ]
    },
    {
      "x": {
        "agentConfig": [
          1,
          1,
          0,
          1,
          0,
          0,
          1,
          1,
          3,
          2
        ],
        "weights": [
          0.7844680700109741,
          -0.5880335563868166,
          0.6038079601389981,
          -0.43991514004148446,
          -0.31248194529991014,
          -0.339387200821919,
          0.03722681891864155,
          -0.32528333246873165,
          -0.15246326601653037,
          -0.051221918112845266,
          -0.6520393061104435,
          -0.4499774646494332,
          0.5461516848441943,
          -0.2649582083101427,
          -0.17930925737113546,
          0.6789077314920635,
          0.6771849193406791,
          -0.38684874921631174,
          0.8177386169193637,
          -0.7093975893941509,
          0.9829502607897518,
          0.4190333978261933,
          0.34065919191608085,
          0.3700429652690689,
          0.08117114276894877,
          0.34224890949463327,
          -0.5696639258796092,
          -0.7125605116325926,
          -0.3634154090331847,
          0.62495729809307,
          0.2840590052863998,
          -0.8154263077699797,
          -0.7792514459331217,
          0.3240401357720972,
          -0.3112347065304073,
          -0.06179789861043061,
          0.15552458793151813,
          0.567107265236449,
          -0.34716950432453575,
          -0.7427353218073005,
          -0.049840269945410354,
          0.7506895319072104,
          -0.03550319141935576,
          0.2694302809058098,
          0.8188449969478873,
          -0.7910009621911716,
          0.8132304879413828,
          0.813835333098845,
          -0.7949184923229102,
          -0.9757830852197602,
          -0.41899678373984517,
          -0.41929712911340933,
          0.24113738145850294,
          -0.14565467073309657,
          0.44369485410885723,
          -0.7751444613316474,
          -0.36466738607116156,
          0.922240495575311,
          0.5185187677877912,
          0.6289651874833555,
          -0.393158470872248,
          0.6395197067039327,
          -0.048426668068711765,
          -0.3962910071599943,
          -0.8228436191599502,
          0.7316149442619253,
          -0.43967269990968005,
          -0.5141688238273521,
          0.37930775085962964,
          -0.8146774291128935,
          0.42904873433480817,
          0.33143658182535374,
          0.7603914074599607,
          0.8577780063725322,
          -0.7991089199651886,
          -0.29932892386500987,
          0.9299037282121583,
          -0.8341388941860362,
          0.7185532608052212,
          -0.6087282383888537,
          -0.15415797505607487,
          0.9176173204980762,
          0.13613266567965798,
          0.9022978142255913,
          0.03247715809296303,
          -0.9476436748499677,
          -0.34200551978220206,
          -0.10431881010615474,
          -0.011838170989081576,
          0.8236702248622725,
          0.6561829090516162,
          0.47206470269344925,
          -0.3315121349407717,
          -0.21031122916265232,
          0.07610320443258156,
          -0.3112775140265127,
          -0.8804378492205291,
          0.8674694083905887,
          0.7609070999793961,
          -0.5788132757672411,
          0.08812103243793001,
          0.6634969300091835,
          0.6082161648818625,
          0.4065321360730032,
          -0.250341523071125,
          0.30984610684991676
        ],
        "playerName": "RFFSimulation",
        "converter": {}
      },
      "fitness": 0.94,
      "behaviours": [
        21.0,
        2.12,
        24.66,
        4.12
      ]
    }
  ],
  [
    {
      "value": [
        20,
        3,
        32,
        3
      ]
    },
    {
      "x": {
        "agentConfig": [
          0,
          1,
          0,
          0,
          1,
          0,
          0,
          1,
          4,
          2
        ],
        "weights": [
          -0.9508680598891388,
          0.8908501582877575,
          -0.19412934955457217,
          0.9208910422786067,
          0.5584765446509519,
          -0.3620393776659392,
          -0.7771959210890587,
          0.8910844370432225,
          -0.12440435643422765,
          -0.8520124879250628,
          -0.20594574931130305,
          -0.5944737552237722,
          0.9245306489094989,
          0.8774204648985613,
          -0.45639206521959697,
          0.6091539357583895,
          0.5111053205944103,
          0.7444435629735058,
          0.6411165122791436,
          0.5421357109202403,
          0.6486032869377545,
          0.43435115903499355,
          0.7109803825809513,
          -0.7750037811070103,
          -0.20648804745186,
          0.032465527772140845,
          -0.06761015954437899,
          -0.3571922555547109,
          0.08953889711709939,
          0.7023901052489359,
          0.9591923805675937,
          -0.43399288945993697,
          0.2200588271126298,
          -0.16748894902489542,
          0.7216585367870045,
          0.6317281515072566,
          -0.4663965401572332,
          0.8412378978592843,
          -0.23207735009705965,
          0.6583661874591387,
          0.7339589255202115,
          -0.33844781259262846,
          -0.038922673970302135,
          -0.222579043018984,
          -0.38411138373313225,
          -0.1819888980357809,
          -0.9313961014760506,
          0.6404906149405505,
          -0.9205465853873231,
          -0.035569065683869416,
          -0.9359760581494319,
          -0.3043810234576805,
          0.9703527985248621,
          -0.23194606013456798,
          -0.19363964373176845,
          0.326025554871878,
          -0.8293355180559381,
          0.10607949248489845,
          -0.8288006532563574,
          -0.49442332659593613,
          0.8038134925288265,
          -0.31698023948784493,
          0.6778483376683824,
          -0.4508170621478922,
          -0.5804458795641712,
          0.38241659558306895,
          0.19028699334993227,
          -0.47736187654206286,
          0.5892013941990286,
          -0.0659640554069072,
          0.36531271856396486,
          0.9252412629170417,
          0.46830244350070416,
          0.8077336088077738,
          -0.820515521008697,
          -0.6301278548373375,
          -0.42660973270721936,
          0.637763968203982,
          -0.9128281672988452,
          0.1590193939132849,
          -0.7285831459744825,
          -0.06361777222080023,
          0.14521982019162416,
          0.8915873136217145,
          -0.7050859167340584,
          -0.6268321544147892,
          -0.2145571152918735,
          0.5341361965204763,
          0.9728856332281444,
          -0.5234236388408515,
          -0.17563562720723547,
          -0.24846041425602672,
          0.8068848191923679,
          0.25680286757231285,
          -0.22967891402923057,
          -0.2841312087560064,
          0.5236876751102439,
          0.9541210263317852,
          0.5212559208396956,
          0.09864449597097691,
          0.8004225388801673,
          0.8844373049108054,
          0.14222429687242877,
          -0.4995777948490454,
          0.4849713513756104,
          -0.8161199183428605
        ],
        "playerName": "RFFSimulation",
        "converter": {}
      },
      "fitness": 0.22,
      "behaviours": [
        12.9,
        0.18,
        63.32,
        1.08
      ]
    }
  ],
  [
    {
      "value": [
        35,
        33,
        14,
        7
      ]
    },
    {
      "x": {
        "agentConfig": [
          0,
          3,
          1,
          1,
          2,
          0,
          0,
          0,
          2,
          0
        ],
        "weights": [
          0.969367965553279,
          0.7313870671799232,
          0.29800057924280376,
          -0.45100415015609263,
          -0.40599515096241867,
          -0.01439280446143143,
          -0.03807491515774353,
          -0.9226029360938692,
          -0.0110155111051351,
          0.18484189733805767,
          -0.165346132893875,
          -0.7323015401922122,
          -0.6554856105240068,
          0.09080508163475032,
          0.49141605899475804,
          0.8607167016605166,
          -0.3242987620995843,
          -0.5417067700859794,
          -0.0716446234236563,
          -0.8408861834534433,
          -0.14168292117558678,
          -0.27293297998139154,
          -0.19896661331778231,
          -0.987004380672696,
          0.6241317150008634,
          -0.04256788492270758,
          0.12350558730242356,
          -0.7669209748606354,
          0.026125916933241733,
          0.9988396776732038,
          0.9626997684891747,
          -0.5157772440441679,
          -0.9266460506203105,
          -0.22659777081162802,
          0.38352894190607034,
          -0.6140543114193069,
          0.9871765104682133,
          0.5113004932510585,
          -0.816626390538971,
          -0.7171157631615555,
          0.845037980462163,
          0.7926346879377497,
          0.8002721930395618,
          0.9469684358094521,
          -0.7450840055479653,
          -0.6696490566345794,
          -0.812639448461858,
          0.33442484707000486,
          0.14302362739916008,
          -0.42854684061128867,
          0.4168060193241492,
          -0.5554577438359773,
          0.7392977720419336,
          0.39878693044279556,
          -0.6903167544756663,
          0.31346419162367,
          -0.5903392044668132,
          0.48326212488937004,
          0.4839424088884654,
          -0.7748991432080674,
          0.1109954150408059,
          0.1664577878217639,
          -0.12917555706461492,
          -0.6674195970531636,
          0.9342252935405524,
          0.1461305472234551,
          -0.029219802532336026,
          -0.9425112859717233,
          0.45284841943912957,
          -0.30777215097587884,
          -0.0968463920571423,
          -0.12952630171237578,
          -0.5912780795009998,
          0.6385834512385453,
          -0.35040795045574225,
          0.35561928859131053,
          0.6438510574216021,
          0.9755514957380713,
          0.7993513399973036,
          -0.17767784398250375,
          -0.8736120395124869,
          -0.48858571273110973,
          -0.42463614611892675,
          0.152231583871006,
          0.4209984953506336,
          0.7754754675267359,
          -0.04685689625280087,
          -0.9448574056943362,
          0.01820957412449853,
          -0.896669879344494,
          -0.7196992392995543,
          -0.5434416036724856,
          -0.4356986255428341,
          0.6748802269702205,
          -0.037345216400509695,
          0.3509688469050696,
          -0.7772370419476295,
          0.1682423239655948,
          0.5036109957728383,
          0.12871758790913113,
          0.1502820253731465,
          0.6477731350743787,
          -0.533296756630695,
          0.12065970845799012,
          -0.6153063888590768,
          -0.6779846930477047
        ],
        "playerName": "RFFSimulation",
        "converter": {}
      },
      "fitness": 0.86,
      "behaviours": [
        23.08,
        2.18,
        27.2,
        3.06
      ]
    }
  ],
  [
    {
      "value": [
        30,
        27,
        17,
        8
      ]
    },
    {
      "x": {
        "agentConfig": [
          1,
          5,
          1,
          0,
          1,
          2,
          0,
          1,
          4,
          1
        ],
        "weights": [
          -0.5610444095911076,
          -0.07107163626685198,
          -0.32333978721133083,
          0.514672375616632,
          0.966070972774443,
          -0.5692700478203545,
          -0.36696360298244746,
          -0.5592391649640518,
          -0.46717426742026635,
          -0.14072673436966987,
          0.1596410777116095,
          -0.4606598944560709,
          0.2656399037969992,
          -0.10911893077723556,
          -0.37413464141935826,
          0.9322922732112955,
          0.36149264111045043,
          -0.5588606625927381,
          0.9552418751656189,
          -0.08430455487397337,
          0.8553883605484871,
          -0.6628722059360321,
          0.4954740757613487,
          0.9621948412142345,
          -0.686211016153331,
          0.6897413397655909,
          -0.3705967773815757,
          -0.676359140648148,
          0.24069503521831215,
          0.47397502145774806,
          0.6098850646052894,
          0.35221998599000126,
          0.2662597337249224,
          0.5613748933216307,
          0.41600011422549876,
          -0.3241185991239701,
          0.033525691627642074,
          -0.7523160229381718,
          0.3049751767907791,
          0.443940483825352,
          0.10707472628997272,
          -0.8199580802562676,
          0.1736463070197629,
          0.0013190413981467586,
          0.19808611405314114,
          -0.4880765564327285,
          -0.15475249021646165,
          0.5549596800621219,
          -0.46649934650396596,
          -0.8996690992776011,
          -0.03823867675408876,
          0.6635299096986955,
          -0.7073086948555216,
          -0.39141788870261474,
          -0.7109782477752935,
          0.7116100883211618,
          -0.3067548994552489,
          0.4893646965677636,
          0.9312123868822157,
          -0.07786294667090021,
          0.5281625152336324,
          -0.003445126698858436,
          -0.796644013325112,
          0.9159534782210239,
          0.7399852399633624,
          -0.3893720415760995,
          -0.27515539668012434,
          0.34489119939218216,
          -0.03693445947142249,
          -0.43868515066387204,
          -0.3259870803171232,
          0.7048951840727926,
          0.8733935065538343,
          0.49248736763291023,
          -0.9167892981350327,
          -0.921728032502295,
          -0.34389787419088913,
          0.7380843312957819,
          -0.4442180629247823,
          -0.7407743572960608,
          0.9339728525152375,
          0.16421621469760272,
          -0.14918594763558213,
          0.4844222338467672,
          -0.9040328210394923,
          0.08141683680727363,
          0.40847056538285664,
          0.8204006262939014,
          0.12301410008524871,
          0.3423368046954667,
          -0.9218235008615294,
          0.15222793561690895,
          0.7289843929219828,
          -0.5859973858113969,
          0.06387705022542334,
          0.672873491298646,
          0.9179880059042052,
          0.9500926337264162,
          -0.584956036438153,
          -0.20964432812499822,
          -0.09516747955034721,
          -0.8124896035611147,
          -0.730942799564273,
          -0.5502082114845732,
          -0.24631596709304127,
          -0.6471373837470491
        ],
        "playerName": "RFFSimulation",
        "converter": {}
      },
      "fitness": 0.42,
      "behaviours": [
        19.92,
        1.78,
        33.98,
        3.82
      ]
    }
  ],
  [
    {
      "value": [
        21,
        6,
        27,
        6
      ]
    },
    {
      "x": {
        "agentConfig": [
          0,
          5,
          2,
          1,
          2,
          1,
          1,
          2,
          0,
          1
        ],
        "weights": [
          0.26419747173093544,
          -0.121981161155156,
          0.7927418966973134,
          -0.8454165689362207,
          0.5642064107316673,
          0.18404475709158152,
          -0.6287597415962123,
          -0.07940316982843854,
          0.2265107526824668,
          -0.7080935689248855,
          -0.9753458870874048,
          0.12300476492338719,
          0.25617523543334597,
          0.6906371077915097,
          0.5798074663155453,
          -0.7390428531872402,
          0.6963256166772396,
          -0.8113805096561082,
          0.03505170195654461,
          -0.9719279551290769,
          -0.3587482807690343,
          0.20826146152124747,
          -0.7534966703690487,
          -0.4886360366608338,
          -0.245635271575809,
          -0.482878825918194,
          -0.24899743628170734,
          0.7507233736753138,
          0.6567923318859377,
          0.20901841650685649,
          -0.1965097048993394,
          0.7234627134569804,
          0.11684869306800438,
          0.01624886998776387,
          -0.19779581704663096,
          0.8672701977907067,
          -0.9024311491115917,
          0.3640940450366945,
          0.933298369332948,
          -0.6337572364117579,
          -0.5910490047241428,
          0.9713996557414359,
          0.08719332774446964,
          0.5984958627507426,
          -0.036497351049104676,
          0.256072519015079,
          0.8821664708474648,
          0.38017740203566985,
          0.44814008624636714,
          0.32192340762889815,
          -0.023603124714424606,
          0.939540292333132,
          -0.3975567029321003,
          -0.11663667842945147,
          -0.2421194977703569,
          0.9160564541315959,
          -0.7672777669153843,
          -0.872963303380524,
          0.9723355708048547,
          0.10338353701444714,
          0.5933031194562179,
          -0.7854452286282676,
          -0.11757887088178753,
          0.14132345305234106,
          -0.8935485575682285,
          -0.10193051460584757,
          0.1472939037992016,
          0.9107399314066662,
          -0.18513865910313698,
          -0.4494930353387374,
          -0.23026627623293083,
          -0.003269444872515903,
          -0.13436477591357932,
          0.8048573923345563,
          0.178768101110937,
          -0.7408233656244954,
          0.6455489710550051,
          -0.048003378380037764,
          -0.20106724044062418,
          0.2861230548195586,
          0.7907025446907112,
          -0.7359078232771692,
          0.3030050484904905,
          -0.6957325876364464,
          0.7395282004092851,
          0.490725973496261,
          0.1532531887209423,
          -0.01783356511610079,
          -0.3468778646027346,
          0.9174422425859137,
          -0.9930554872953754,
          -0.5144040984457372,
          -0.6756220558947645,
          0.5815086688513962,
          0.09506170055837715,
          -0.8691718503891268,
          -0.46259123437455707,
          0.5072567542076878,
          -0.22112283709036706,
          0.030419403114884336,
          0.46569839939332636,
          -0.8465553881620702,
          0.14723969211447963,
          0.23742715116602642,
          0.3868741372423974,
          -0.3423352713911425
        ],
        "playerName": "RFFSimulation",
        "converter": {}
      },
      "fitness": 0.28,
      "behaviours": [
        13.64,
        0.36,
        52.54,
        2.52
      ]
    }
  ],
  [
    {
      "value": [
        13,
        1,
        33,
        10
      ]
    },
    {
      "x": {
        "agentConfig": [
          0,
          3,
          3,
          0,
          1,
          1,
          0,
          2,
          4,
          1
        ],
        "weights": [
          -0.17697466506526882,
          0.6826723918312494,
          0.6318826940444582,
          0.30689323018820636,
          -0.0880490673094334,
          -0.7708811709109602,
          -0.2444380123870018,
          0.05177675916136493,
          -0.8975084235815625,
          -0.15297481669430368,
          -0.041998632474305575,
          -0.43665336651001807,
          0.007613589303157031,
          0.9113811808825496,
          -0.9067287303356557,
          -0.9694445197264858,
          0.1979188297841532,
          0.2825661917584117,
          -0.8159452288219498,
          0.5692362446330166,
          0.6734192705585975,
          -0.03924135632894887,
          0.7978803171562765,
          0.25720433062673576,
          -0.2147656077186033,
          0.7839720875930489,
          -0.3112629921465351,
          -0.5855670715263885,
          -0.7223181553551343,
          -0.024556318674553657,
          0.9614583247113739,
          0.06000304145303503,
          -0.56431335954424,
          0.36367702992901774,
          0.8619617067077245,
          -0.7236414179170407,
          0.1993856876633484,
          0.17852224404587513,
          -0.295363452519086,
          0.07272427050210606,
          0.5472583924706143,
          0.4692512597959533,
          -0.5811255121423715,
          0.2633716669302797,
          -0.5489330733879045,
          -0.6043327682937496,
          -0.27006017525062953,
          -0.13725131977678995,
          0.2703434211525979,
          0.910862762034991,
          0.08508149545535582,
          -0.4516860320197684,
          0.5811131753443848,
          -0.31567858084534306,
          0.09398984668979682,
          -0.14675321604976999,
          -0.877002011231097,
          0.5066343446833486,
          -0.5265940906964084,
          0.9250312805210368,
          0.8007948452299596,
          0.8721819426516577,
          -0.7311068042939615,
          -0.07775891580451266,
          -0.508919972946984,
          -0.046291090698195925,
          -0.5275146341354762,
          -0.5793201312770289,
          0.7813404640457908,
          -0.23720080086280237,
          0.06312651579488482,
          -0.4386398131354987,
          0.7085885934461507,
          0.9328349480971803,
          0.9675230779547803,
          -0.9033682605296329,
          0.06636844407379594,
          0.2661023916185996,
          -0.5277688589904743,
          -0.022901659008532027,
          0.9135160035536103,
          -0.045714764985474776,
          -0.7864959508401854,
          0.6707909181934897,
          0.5449875690195911,
          -0.7883355915424313,
          -0.97037018042051,
          -0.982608284721388,
          0.37452513667286724,
          -0.04707882121522644,
          0.6811903792538656,
          0.09413351692369054,
          0.9308793410842873,
          -0.8974815066338797,
          -0.272122030923442,
          0.3063252037658941,
          -0.516235462089984,
          -0.8597854614961262,
          -0.30379316685841684,
          -0.2857161441959919,
          -0.30732621274884786,
          -0.4326611574536199,
          0.08066205447834007,
          0.4697810868153871,
          -0.8888665289853235,
          -0.8789592868349725
        ],
        "playerName": "RFFSimulation",
        "converter": {}
      },
      "fitness": 0.1,
      "behaviours": [
        8.16,
        0.02,
        64.42,
        4.56
      ]
    }
  ],
  [
    {
      "value": [
        21,
        4,
        31,
        8
      ]
    },
    {
      "x": {
        "agentConfig": [
          1,
          2,
          3,
          0,
          0,
          0,
          1,
          2,
          3,
          0
        ],
        "weights": [
          -0.880663462400282,
          -0.28758883261018475,
          -0.9345631894578414,
          -0.5803757398165248,
          -0.5894090118853281,
          -0.08624330703772043,
          -0.22284041485545192,
          0.21548718452743798,
          0.5131539979300386,
          -0.8061382371446171,
          0.5867242098534815,
          -0.9868415376377859,
          0.33632108354413814,
          0.13925257235592436,
          0.9771526428221322,
          0.05773910180216557,
          -0.37252240751159027,
          -0.4550203127181438,
          -0.4327395769457443,
          -0.6290908854647195,
          0.8224582274193151,
          -0.002315758460319728,
          -0.6423301111191431,
          0.7511698342520741,
          -0.9337425453400243,
          -0.5558451316836337,
          0.30980254819485276,
          0.16366019781789998,
          -0.5514142357402565,
          -0.6764388589793298,
          0.123634496207075,
          -0.1669153495368283,
          -0.9680307653346842,
          0.8278785055684346,
          0.6444514026764034,
          -0.3791312680392882,
          -0.6542065068315772,
          0.9038460570715681,
          -0.5442068547151167,
          -0.40226450274081293,
          0.6778957480407177,
          0.7211283099286179,
          -0.09476872183149476,
          0.11547529862502115,
          -0.28398748632562354,
          -0.4948211363777857,
          0.06157531378523551,
          0.13675893468715805,
          0.8745929758848277,
          -0.13036658153962888,
          -0.08344272441719447,
          -0.9005778907369197,
          0.9881910349857939,
          -0.9181139548051676,
          0.5209968370175453,
          0.17172798650536403,
          0.9608534855605313,
          0.05683215879342707,
          0.6849027914650501,
          -0.6023081246492719,
          0.4316229544691852,
          0.2975892232399091,
          0.37291955437244084,
          -0.06336911547584423,
          0.5494790366893012,
          0.4883341158628711,
          0.9909799134327064,
          -0.6313205651318843,
          -0.45325704422847735,
          0.9932245447735681,
          -0.6130196753512871,
          0.8680890071474057,
          -0.04182448436732966,
          0.12670001764891992,
          0.5777448340847553,
          -0.06129059232299472,
          -0.9463005891398408,
          0.734285812946798,
          -0.03349890871733585,
          -0.638873322459246,
          -0.6641176343705792,
          -0.6406485856977777,
          -0.8704592123089796,
          0.018510954521862022,
          -0.20098171494546468,
          -0.9298962600119998,
          0.12769317606477104,
          0.3483050472685647,
          -0.9451510147691078,
          0.8824225199202782,
          -0.2623082931276064,
          0.30946411929728135,
          0.40067035750458957,
          -0.36202605117051845,
          -0.999532204713744,
          0.960033013947827,
          0.43877096255757686,
          0.1833672195399212,
          -0.9521419544031162,
          0.007428218361361649,
          0.9518543154399466,
          0.7449457015280025,
          -0.7038343658262263,
          -0.9761330333727527,
          0.3972980368741157,
          0.5051333274893905
        ],
        "playerName": "RFFSimulation",
        "converter": {}
      },
      "fitness": 0.74,
      "behaviours": [
        13.6,
        0.2,
        60.1,
        3.62
      ]
    }
  ],
  [
    {
      "value": [
        31,
        22,
        20,
        14
      ]
    },
    {
      "x": {
        "agentConfig": [
          0,
          4,
          3,
          1,
          1,
          1,
          3,
          2,
          0,
          1
        ],
        "weights": [
          -0.5921624920829414,
          -0.9834352792759458,
          -0.3883953424691131,
          -0.1510738820903168,
          -0.9181777102695627,
          0.26722375896631223,
          -0.8635937438740018,
          -0.7927426521466561,
          -0.8521392654467013,
          0.5525436208572192,
          0.3256578696286001,
          0.49969093948765253,
          -0.5182476668980189,
          0.16672323148794255,
          0.9446904017924345,
          -0.6069954161052853,
          0.7767939809465598,
          0.42118337953063567,
          0.2603087918876057,
          0.5565500311004872,
          0.8791563016855226,
          0.7974655022934634,
          -0.1087778645279791,
          -0.5666068119693735,
          -0.7485948915821983,
          -0.39286395304984967,
          0.8286416020071963,
          -0.4910307846790083,
          0.31276444735503084,
          -0.8324528527793826,
          -0.787443288852244,
          -0.5379215432814952,
          -0.780829806976487,
          -0.9801194362714045,
          0.7949029345342822,
          0.8818793290038702,
          0.02311694646614537,
          -0.7040172935190829,
          -0.07096237619729551,
          0.595859346560738,
          0.0927536121813517,
          0.9830739566118614,
          -0.6043566479885747,
          0.07759711423058824,
          0.17163622476362117,
          0.5404958029226814,
          0.4083818882910992,
          -0.11054686710455752,
          0.5250006007571051,
          -0.9097642252592073,
          -0.26167549124658485,
          -0.33584278257511335,
          0.24536824139103008,
          -0.7669502698338253,
          -0.9456125544691103,
          -0.2594120455568454,
          0.9797554291208475,
          -0.5654221827978194,
          0.29770487105026255,
          -0.7571322707655257,
          0.09270515807899371,
          0.8809296097928974,
          0.19107486318633304,
          -0.8717753180475314,
          -0.4061829779737529,
          0.7207917763168306,
          0.8303159709754031,
          -0.4720980265540904,
          0.035402214468985616,
          0.6911888798727479,
          -0.28742333224962424,
          0.5667214933891764,
          -0.9746554103243856,
          -0.733392154204221,
          -0.4726578380948814,
          0.7707388732200748,
          0.0022006843060127235,
          0.6762725865401302,
          -0.4309143145661247,
          -0.8412467060334967,
          0.48402641602799146,
          -0.5980642887814203,
          0.7262162254569968,
          0.16226461781640933,
          0.12936992717231388,
          0.09862983857137886,
          0.6591756244632865,
          0.629798484392484,
          -0.3616765630602825,
          0.27340167231931134,
          -0.9987569322034602,
          -0.6546524442380437,
          -0.22651900835933536,
          0.5121280903896692,
          0.19880645338559577,
          -0.2729943820365739,
          -0.4048993213110359,
          0.5620931506214528,
          -0.046435385021041053,
          -0.3293003514190016,
          0.38172414376949915,
          -0.8419183418467306,
          0.1373266009880647,
          0.8652523455713792,
          0.6469589196305758,
          -0.8776756233892382
        ],
        "playerName": "RFFSimulation",
        "converter": {}
      },
      "fitness": 0.8,
      "behaviours": [
        20.5,
        1.42,
        38.5,
        6.96
      ]
    }
  ],
  [
    {
      "value": [
        30,
        20,
        19,
        11
      ]
    },
    {
      "x": {
        "agentConfig": [
          1,
          5,
          1,
          0,
          0,
          0,
          1,
          0,
          3,
          2
        ],
        "weights": [
          0.22386800953531072,
          0.24202778292147298,
          -0.41329390743724836,
          -0.6803702360848085,
          -0.395655226736366,
          -0.4940716823661755,
          -0.21862325342012578,
          0.987486039122569,
          0.7414982046557685,
          0.19067657066372012,
          0.10970150423738767,
          0.8989801600477154,
          0.8980438061492055,
          -0.4113587051460439,
          -0.4860267589657099,
          0.06674603935990264,
          -0.5960005380638631,
          0.4899852513256777,
          0.9132526543938755,
          0.913850242184914,
          -0.5648647806480105,
          0.12583601196457028,
          -0.8719638335786846,
          -0.11126841585999481,
          -0.7975951565237547,
          -0.621161926479346,
          -0.6229308336611279,
          0.847797246085225,
          0.9454872151009468,
          -0.054281732465814914,
          -0.11115353125246608,
          0.0787832228015315,
          0.5630177673601866,
          0.2790734955771581,
          -0.8589556845696713,
          0.761814685667181,
          0.7140436570152364,
          -0.9274071241680442,
          -0.22566868441674148,
          0.6514311491917011,
          -0.2103101580543969,
          0.46610976845190444,
          -0.6772897037956143,
          -0.18833183533213482,
          0.28097549471333094,
          0.9708385477293777,
          0.5607437564720419,
          -0.6523838488305256,
          0.7581741437738965,
          0.5199661270472498,
          -0.5112787806200985,
          -0.7492950357735051,
          -0.07093626202090109,
          0.7395502517885717,
          0.7600275947173045,
          -0.28870929958808733,
          -0.9421341824400409,
          0.0644919461601412,
          0.7006772166285564,
          -0.4490503621770108,
          0.40362620539544425,
          -0.6016916173488207,
          0.9791788107002262,
          -0.21178768662926428,
          0.27624313586814386,
          -0.19738344743422043,
          -0.5443981238415152,
          -0.2247016111062481,
          -0.18969912414687284,
          0.13924037538773582,
          0.7719169406938786,
          -0.17025799286991394,
          0.6213212694620995,
          0.35543185574797787,
          -0.15861461137842636,
          -0.16637555234663348,
          0.1359979933395541,
          -0.06722485189542415,
          0.5529782728683867,
          -0.1155402127025793,
          0.577431086371325,
          0.9129206228898752,
          -0.27249409048555995,
          0.7556070585316614,
          0.33833388752561144,
          0.8683737967939558,
          0.6453436833068058,
          0.6604103344052461,
          0.7896357224003845,
          -0.795857335054891,
          -0.6886577820621913,
          0.6130968162954817,
          -0.5511414437527964,
          0.2561244678538237,
          0.030713763488051438,
          -0.4592091591432226,
          -0.12790256516126397,
          0.7946916252926588,
          0.8403890900995303,
          0.22482935131701898,
          -0.36461048953643105,
          -0.2529858219884664,
          -0.12645702572820072,
          0.13589391157349895,
          0.3357069903587966,
          0.21923474210359073
        ],
        "playerName": "RFFSimulation",
        "converter": {}
      },
      "fitness": 0.8,
      "behaviours": [
        19.58,
        1.3,
        36.34,
        5.32
      ]
    }
  ],
  [
    {
      "value": [
        6,
        1,
        37,
        13
      ]
    },
    {
      "x": {
        "agentConfig": [
          1,
          2,
          3,
          1,
          2,
          1,
          3,
          1,
          1,
          0
        ],
        "weights": [
          -0.06313267730782557,
          -0.6554756330850968,
          0.2941493428272546,
          0.944015908063637,
          -0.8212245387642343,
          -0.6069003378177078,
          0.16058126755560287,
          0.6133233965328151,
          -0.7087912346404643,
          -0.6427506885690264,
          0.9502797805555989,
          -0.8520608861703118,
          0.6787883400372525,
          0.7134747235909309,
          0.6578687500276752,
          0.3138053298513688,
          -0.20506139278027824,
          -0.5342344306708648,
          0.9488026910535348,
          0.7768391581640419,
          -0.11865829814955009,
          -0.12760843217833484,
          0.3178514244672441,
          0.8404450782753443,
          0.8141448851439135,
          0.2583602041130846,
          -0.2193621085736137,
          -0.2322077609170219,
          -0.6524915919245708,
          -0.7018600657823033,
          0.14760510069118604,
          0.2797371684467582,
          0.45328594011565526,
          -0.7319350283029704,
          -0.630755770237182,
          0.9618522264161513,
          0.42633151886160947,
          -0.9350785676796043,
          -0.556633653004589,
          -0.480903235104138,
          0.9581314291947738,
          -0.19024425950348745,
          0.9396553215784709,
          0.0842467396569564,
          0.4771617175637719,
          0.27524776998562195,
          -0.6763082981000079,
          0.11627707741453186,
          0.7125749297579236,
          0.48631866275860336,
          0.9520903657333952,
          0.8174684179161358,
          0.6585237549574756,
          0.017472258351135084,
          -0.1376515412656769,
          -0.5469117766032043,
          0.8996315250795732,
          0.7466966212370485,
          -0.704547157846128,
          0.4750747216823463,
          0.6038229963229911,
          0.12458060019683947,
          0.26624927777522056,
          0.9312302478255676,
          -0.6030679309645497,
          0.37862802245474736,
          -0.5639706651043308,
          0.28400770619534677,
          0.8042057547594985,
          -0.5034191953597247,
          0.0437432755316598,
          -0.5319464823252671,
          0.9770274742887715,
          -0.6811097463349187,
          0.7167009997572606,
          0.7832472700483004,
          0.018885283600212244,
          0.6193035506263791,
          -0.39142402000048726,
          -0.9499425500302079,
          -0.617185591183105,
          0.6638608135276269,
          -0.49801979689788345,
          -0.653390517262376,
          -0.4667540659015563,
          -0.587573227088453,
          -0.7351689452002854,
          -0.3980580921367032,
          -0.6516034949020608,
          0.2632080908830683,
          0.36418507461601135,
          -0.6624966691358956,
          0.5850386178539657,
          0.039536254937019066,
          0.018165391261685926,
          0.9290220898578372,
          -0.8643084123535056,
          0.7795246079277418,
          0.9997419673500023,
          0.9034575612095226,
          -0.22102103743740176,
          0.8130344376696943,
          0.15865129092930275,
          -0.009179125996220838,
          0.65709933614236,
          0.5967152833179232
        ],
        "playerName": "RFFSimulation",
        "converter": {}
      },
      "fitness": 0.0,
      "behaviours": [
        3.72,
        0.0,
        73.34,
        6.3
      ]
    }
  ],
  [
    {
      "value": [
        28,
        19,
        23,
        1
      ]
    },
    {
      "x": {
        "agentConfig": [
          1,
          3,
          0,
          0,
          0,
          0,
          1,
          3,
          0,
          0
        ],
        "weights": [
          -0.69777847795364,
          0.6879566677865572,
          0.7079524306445202,
          -0.27066682179841295,
          -0.8041729136058875,
          0.049095874162535136,
          -0.897182279814198,
          -0.17299329456565093,
          -0.1469042380599277,
          0.05896685284652259,
          -0.049197305303655625,
          -0.009045635999963997,
          -0.15765184475081906,
          0.029631821867075248,
          -0.20936237383085476,
          0.6339532852154275,
          -0.19889780781586008,
          -0.554167745462236,
          0.3319141781597432,
          -0.5362238496934806,
          -0.8022179596034622,
          -0.7060694497911955,
          0.458929332296208,
          -0.8979648120830153,
          0.9262228352002906,
          -0.2075510728461456,
          0.4931371869073644,
          -0.10701510748732201,
          -0.8602289430202774,
          -0.3556145083385276,
          -0.010828338811522453,
          -0.32031208895790253,
          -0.8912672253649243,
          -0.4884378465600199,
          -0.7523926042754405,
          0.6862775402135226,
          0.8243750856333494,
          0.053839716253037295,
          0.1983277349411683,
          -0.9311228172061901,
          0.5746398596052127,
          0.5811127163519567,
          0.34157297356904226,
          -0.815933631032391,
          0.7811815409699152,
          0.13357461188704955,
          0.029444577143847628,
          0.17261068371710753,
          0.01429321065167044,
          0.635821879796808,
          0.5288444089153752,
          -0.932499326690178,
          0.2917405662237147,
          -0.33705535521664864,
          0.0275309500211931,
          0.30917345718735767,
          -0.4805270465212308,
          0.311828339827523,
          -0.9718216619144666,
          0.287118736506101,
          -0.7533621906523895,
          -0.31153024839753196,
          -0.5789742981041057,
          -0.674100849231893,
          -0.2157257899484053,
          -0.39781071727305495,
          0.933909041300838,
          0.3949420588855064,
          0.1765174711345452,
          -0.7998018260338178,
          0.6291699209052555,
          -0.25470977861166477,
          -0.4849025397963913,
          -0.5189413524593638,
          -0.3498610757423306,
          -0.3371758381388399,
          0.6523680849676756,
          -0.10684723784637651,
          0.51559452942358,
          -0.42370082814375265,
          -0.5049423076198494,
          -0.44564611987251745,
          -0.08119848414820052,
          0.8698674246904188,
          0.7503832866373392,
          0.02167220267969916,
          0.2084362425928632,
          0.9235833109097791,
          0.24812506761732145,
          0.9947252150610393,
          -0.4880913276172161,
          -0.8582808465012826,
          0.7767104659624073,
          0.8544606882735164,
          -0.19270535699903601,
          0.02754565566385514,
          0.7483097687016815,
          0.5186388171538625,
          0.15829523574119553,
          -0.2754396752837114,
          0.9473997225670094,
          -0.26184205310038267,
          0.7973422369273375,
          0.8679746921719962,
          0.11920290924406807,
          -0.33661341785854804
        ],
        "playerName": "RFFSimulation",
        "converter": {}
      },
      "fitness": 0.88,
      "behaviours": [
        18.42,
        1.2,
        44.82,
        0.18
      ]
    }
  ],
  [
    {
      "value": [
        14,
        1,
        38,
        1
      ]
    },
    {
      "x": {
        "agentConfig": [
          0,
          2,
          2,
          1,
          2,
          1,
          1,
          2,
          0,
          1
        ],
        "weights": [
          0.26419747173093544,
          -0.121981161155156,
          0.7927418966973134,
          -0.8454165689362207,
          0.5642064107316673,
          0.18404475709158152,
          -0.6287597415962123,
          -0.07940316982843854,
          0.2265107526824668,
          -0.7080935689248855,
          -0.9753458870874048,
          0.12300476492338719,
          0.25617523543334597,
          0.6906371077915097,
          0.5798074663155453,
          -0.7390428531872402,
          0.6963256166772396,
          -0.8113805096561082,
          0.03505170195654461,
          -0.9719279551290769,
          -0.3587482807690343,
          0.20826146152124747,
          -0.7534966703690487,
          -0.4886360366608338,
          -0.245635271575809,
          -0.482878825918194,
          -0.24899743628170734,
          0.7507233736753138,
          0.6567923318859377,
          0.20901841650685649,
          -0.1965097048993394,
          0.7234627134569804,
          0.11684869306800438,
          0.01624886998776387,
          -0.19779581704663096,
          0.8672701977907067,
          -0.9024311491115917,
          0.3640940450366945,
          0.933298369332948,
          -0.6337572364117579,
          -0.5910490047241428,
          0.9713996557414359,
          0.08719332774446964,
          0.5984958627507426,
          -0.036497351049104676,
          0.256072519015079,
          0.8821664708474648,
          0.38017740203566985,
          0.44814008624636714,
          0.32192340762889815,
          -0.023603124714424606,
          0.939540292333132,
          -0.3975567029321003,
          -0.11663667842945147,
          -0.2421194977703569,
          0.9160564541315959,
          -0.7672777669153843,
          -0.872963303380524,
          0.9723355708048547,
          0.10338353701444714,
          0.5933031194562179,
          -0.7854452286282676,
          -0.11757887088178753,
          0.14132345305234106,
          -0.8935485575682285,
          -0.10193051460584757,
          0.1472939037992016,
          0.9107399314066662,
          -0.18513865910313698,
          -0.4494930353387374,
          -0.23026627623293083,
          -0.003269444872515903,
          -0.13436477591357932,
          0.8048573923345563,
          0.178768101110937,
          -0.7408233656244954,
          0.6455489710550051,
          -0.048003378380037764,
          -0.20106724044062418,
          0.2861230548195586,
          0.7907025446907112,
          -0.7359078232771692,
          0.3030050484904905,
          -0.6957325876364464,
          0.7395282004092851,
          0.490725973496261,
          0.1532531887209423,
          -0.01783356511610079,
          -0.3468778646027346,
          0.9174422425859137,
          -0.9930554872953754,
          -0.5144040984457372,
          -0.6756220558947645,
          0.5815086688513962,
          0.09506170055837715,
          -0.8691718503891268,
          -0.46259123437455707,
          0.5072567542076878,
          -0.22112283709036706,
          0.030419403114884336,
          0.46569839939332636,
          -0.8465553881620702,
          0.14723969211447963,
          0.23742715116602642,
          0.3868741372423974,
          -0.3423352713911425
        ],
        "playerName": "RFFSimulation",
        "converter": {}
      },
      "fitness": 0.08,
      "behaviours": [
        8.86,
        0.0,
        74.12,
        0.14
      ]
    }
  ],
  [
    {
      "value": [
        25,
        11,
        24,
        11
      ]
    },
    {
      "x": {
        "agentConfig": [
          1,
          2,
          1,
          0,
          1,
          2,
          3,
          3,
          1,
          1
        ],
        "weights": [
          -0.923451917332512,
          0.547713108868257,
          -0.5170081753993725,
          -0.3572033798176961,
          0.4243509090107249,
          -0.1357196832266434,
          0.1271531630421201,
          0.8563160476768095,
          -0.15914633765506214,
          0.13402077116208777,
          0.6898425375249839,
          0.821798492516068,
          -0.34365343243261504,
          0.40970028244334644,
          -0.6764576158697944,
          0.6621966208178236,
          0.48342791475302516,
          -0.705362388215701,
          0.3221599020107293,
          -0.21578744347013212,
          0.7323647631055552,
          0.7532101683306458,
          -0.5056784469280124,
          -0.9170913206085691,
          -0.7259010606195271,
          0.3978178574264295,
          -0.7038397694632774,
          -0.8051718298287738,
          0.381331906005822,
          0.8539275297487339,
          -0.9496833552220689,
          -0.48839984206489784,
          -0.6386778575617329,
          0.5411504876897277,
          0.8923291270702405,
          0.6835828352749795,
          -0.8602650299550216,
          -0.9928675308952153,
          0.9625390962633189,
          0.42317583467022346,
          0.4630849476363219,
          -0.1876358415322399,
          -0.19890698116738736,
          -0.4399887226867949,
          -0.6419833352060453,
          0.8878482767541251,
          -0.09442549198935146,
          0.5053112744171706,
          -0.9811291992483069,
          0.2738872402536614,
          -0.02474682338171319,
          -0.4497226734376252,
          -0.6093132555805061,
          0.19708385104325865,
          0.4928904278345303,
          -0.2465441232303005,
          0.3729956707876394,
          0.5539753257364615,
          -0.01550486224337222,
          0.5646013368944289,
          -0.20953869659150692,
          0.04354934666034427,
          -0.4506245950932255,
          -0.2123622752428509,
          -0.9403713811543206,
          -0.5727815209054685,
          -0.9327142321970903,
          -0.9971042631625779,
          -0.17325662250169405,
          0.693658146990332,
          -0.13357786510128555,
          -0.8511170633264733,
          -0.24019004956567525,
          0.2672408048680033,
          -0.4245295570858669,
          0.6064207785601778,
          -0.8512438510110363,
          -0.17737269005177714,
          -0.615133011793418,
          -0.16693872247117958,
          7.784478308345832E-4,
          0.7544050707542012,
          0.006883110536768378,
          0.3632737797811849,
          -0.08635713551784585,
          -0.10051061072744272,
          0.25109839949027113,
          -0.1800285370414887,
          0.16792115351618664,
          0.7213345896789098,
          -0.6787187217716193,
          0.4755234027155264,
          -0.8001559063293404,
          -0.16117253217178562,
          0.6916469916365973,
          0.8554782249710067,
          0.8996571863984464,
          -0.4809348598089971,
          -0.2650810584400194,
          -0.10419780944573098,
          0.02606683955444833,
          0.5520470052552038,
          -0.8484308773841587,
          -0.7554868730436626,
          0.435569225757509,
          0.7866389666204787
        ],
        "playerName": "RFFSimulation",
        "converter": {}
      },
      "fitness": 0.52,
      "behaviours": [
        16.02,
        0.68,
        46.46,
        5.34
      ]
    }
  ],
  [
    {
      "value": [
        33,
        29,
        13,
        9
      ]
    },
    {
      "x": {
        "agentConfig": [
          1,
          1,
          0,
          1,
          0,
          1,
          2,
          2,
          4,
          0
        ],
        "weights": [
          -0.16005915511759072,
          -0.06318022354346264,
          -0.12170346791790809,
          0.1508085673049211,
          0.6348536822714534,
          0.14740652286684908,
          0.7290697288739756,
          0.5183078773359475,
          -0.9349317214016373,
          0.6510154565076212,
          0.1451761679355883,
          0.6923090724755507,
          0.31865035529855446,
          0.9799076849141057,
          -0.5456197813920971,
          0.5550616147551164,
          0.9796043810632407,
          0.29258586815885845,
          0.08630936636903463,
          -0.9098129364657708,
          0.6436789225354262,
          0.8696755111420718,
          0.47069251039566473,
          -0.4361363743673121,
          0.1509339429228056,
          -0.7190343047010539,
          0.5763174042952068,
          -0.7792926829319806,
          -0.5165287131584428,
          -0.7880478642592472,
          -0.9771037282643635,
          -0.219457186500998,
          0.03493202543902196,
          -0.9504477046454554,
          -0.6125172754836254,
          -0.5851637089524804,
          0.17906819184415457,
          -0.4995080088762478,
          -0.420963533961352,
          -0.6633596346613893,
          -0.15210120736511445,
          -0.247810768589535,
          0.9691850569612563,
          0.6554791740825958,
          -0.8243363622905966,
          0.9847905720779369,
          0.34418508653270563,
          -0.27131974623453115,
          0.17299152175061283,
          -0.5956571710799812,
          -0.31746201436162425,
          0.8832373458749936,
          0.8664023902399931,
          -0.6090887540858374,
          0.2646700155148589,
          0.08736686774431357,
          0.37146612309255533,
          0.8417829714311273,
          0.685537497037706,
          -0.08150105217838921,
          0.9636437078671154,
          -0.6612763337477403,
          0.9679724142969424,
          -0.9954784344335263,
          -0.6309594027862444,
          -0.6204181095982215,
          -0.8359633540348788,
          0.007674942347254854,
          0.21800295824191873,
          -0.41163434320831693,
          0.5836057851772003,
          -0.8244286778542387,
          -0.11230650933558795,
          0.5542422678385575,
          -0.8961428854176732,
          -0.49860686359675355,
          0.8054843533027491,
          0.748741124323224,
          0.8902888409414191,
          0.6154013090461725,
          0.6932088692803342,
          -0.1682318464879009,
          -0.70064854208993,
          -0.3275373181788539,
          0.20301693645915697,
          -0.41913325349830166,
          -0.26527510890809514,
          0.705384534603565,
          -0.07121869761866884,
          0.6644905668261514,
          0.793727899352078,
          -0.8185782187222967,
          -0.12729364958557055,
          0.5288796509083016,
          -0.8326997769653626,
          -0.17059945353418482,
          -0.8950073698326457,
          -0.2205394748651215,
          0.44645017309649826,
          -0.8025194387826575,
          0.5751149514012992,
          -0.38848103496700337,
          0.24001378509158355,
          -0.14334410822005528,
          -0.18352645425165925,
          -0.9187781098742671
        ],
        "playerName": "RFFSimulation",
        "converter": {}
      },
      "fitness": 0.96,
      "behaviours": [
        21.4,
        1.92,
        25.12,
        4.3
      ]
    }
  ],
  [
    {
      "value": [
        30,
        25,
        14,
        13
      ]
    },
    {
      "x": {
        "agentConfig": [
          1,
          2,
          2,
          1,
          0,
          1,
          2,
          3,
          2,
          2
        ],
        "weights": [
          -0.8894780120403216,
          0.9358381970957859,
          0.7630752238708485,
          0.6462147061084615,
          -0.7965130619885072,
          -0.5307947462150033,
          -0.08546818676177326,
          -0.4445709581276973,
          -0.08610195816724175,
          -0.7041434961253248,
          0.7145346035429578,
          -0.4031884406611348,
          0.8746698696543478,
          0.8161285922807231,
          0.21090419622729972,
          0.9791427781063844,
          -0.5446934712415497,
          0.45307634960675913,
          -0.7740460400847635,
          0.13381916257735416,
          0.21429564708953608,
          0.6576646574788829,
          0.5678039782344311,
          0.24108755098700052,
          -0.3104524417794925,
          -0.1957942009908038,
          0.7457858184797064,
          0.15949530230952913,
          -0.24210214869382152,
          0.6391890640423863,
          0.47662135408265605,
          0.7664294794157795,
          -0.4533561858559654,
          -0.09827192837369236,
          -0.44874047669072037,
          0.45394626240700475,
          0.1945402594086849,
          -0.2485712150515864,
          0.4779606122150739,
          -0.6770789404842683,
          0.6366307203811503,
          -0.2804406552632073,
          0.7254187258900389,
          0.4798769376720662,
          0.026746106242063528,
          0.04198178484902404,
          -0.6395821267274906,
          0.7646773090378032,
          -0.5865469450620555,
          -0.5626173531518814,
          0.4077184145455506,
          0.2235967337905449,
          -0.15030999313466453,
          0.6619187405245814,
          0.35557553970094746,
          -0.3088866210370689,
          0.24328028255680678,
          -0.4985286657812915,
          0.8884938229851573,
          0.9550917007087132,
          -0.055034873863186284,
          -0.74471877623559,
          0.14952417441941201,
          0.15385558805797395,
          0.3225536873814938,
          -0.7801855715960913,
          0.6176143388191655,
          0.2899774070164223,
          0.38423804011396134,
          0.19928721278564554,
          -0.9687741579126794,
          -0.955561351742831,
          -0.10892282701234346,
          0.6493560108653254,
          -0.30236600938635205,
          -0.5638559694675942,
          -0.6618961393695706,
          -0.2969424226322024,
          0.9980305399728193,
          -0.7043985014365113,
          -0.3145352928019336,
          0.033161325168547195,
          -0.06824817195712174,
          -0.992094107203688,
          -0.21454612596210554,
          0.2726750743662383,
          -0.8613416636491822,
          -0.47100561876890423,
          0.0782564428780359,
          -0.45467757644122386,
          0.9968942654504351,
          0.2904689243201455,
          -0.681331421600323,
          -0.4496105161190278,
          0.11395999082163621,
          -0.7178907648034383,
          0.848016566636077,
          0.6014153080848041,
          0.8122318838131237,
          -0.6624722332369584,
          0.23994829561795905,
          -0.9642199497851229,
          0.05576842115924885,
          -0.5527532591253734,
          -0.9742750188688998,
          0.49232138815969817
        ],
        "playerName": "RFFSimulation",
        "converter": {}
      },
      "fitness": 0.88,
      "behaviours": [
        19.58,
        1.64,
        26.94,
        6.36
      ]
    }
  ],
  [
    {
      "value": [
        34,
        32,
        16,
        7
      ]
    },
    {
      "x": {
        "agentConfig": [
          0,
          5,
          1,
          1,
          2,
          0,
          0,
          0,
          2,
          0
        ],
        "weights": [
          0.969367965553279,
          0.7313870671799232,
          0.29800057924280376,
          -0.45100415015609263,
          -0.40599515096241867,
          -0.01439280446143143,
          -0.03807491515774353,
          -0.9226029360938692,
          -0.0110155111051351,
          0.18484189733805767,
          -0.165346132893875,
          -0.7323015401922122,
          -0.6554856105240068,
          0.09080508163475032,
          0.49141605899475804,
          0.8607167016605166,
          -0.3242987620995843,
          -0.5417067700859794,
          -0.0716446234236563,
          -0.8408861834534433,
          -0.14168292117558678,
          -0.27293297998139154,
          -0.19896661331778231,
          -0.987004380672696,
          0.6241317150008634,
          -0.04256788492270758,
          0.12350558730242356,
          -0.7669209748606354,
          0.026125916933241733,
          0.9988396776732038,
          0.9626997684891747,
          -0.5157772440441679,
          -0.9266460506203105,
          -0.22659777081162802,
          0.38352894190607034,
          -0.6140543114193069,
          0.9871765104682133,
          0.5113004932510585,
          -0.816626390538971,
          -0.7171157631615555,
          0.845037980462163,
          0.7926346879377497,
          0.8002721930395618,
          0.9469684358094521,
          -0.7450840055479653,
          -0.6696490566345794,
          -0.812639448461858,
          0.33442484707000486,
          0.14302362739916008,
          -0.42854684061128867,
          0.4168060193241492,
          -0.5554577438359773,
          0.7392977720419336,
          0.39878693044279556,
          -0.6903167544756663,
          0.31346419162367,
          -0.5903392044668132,
          0.48326212488937004,
          0.4839424088884654,
          -0.7748991432080674,
          0.1109954150408059,
          0.1664577878217639,
          -0.12917555706461492,
          -0.6674195970531636,
          0.9342252935405524,
          0.1461305472234551,
          -0.029219802532336026,
          -0.9425112859717233,
          0.45284841943912957,
          -0.30777215097587884,
          -0.0968463920571423,
          -0.12952630171237578,
          -0.5912780795009998,
          0.6385834512385453,
          -0.35040795045574225,
          0.35561928859131053,
          0.6438510574216021,
          0.9755514957380713,
          0.7993513399973036,
          -0.17767784398250375,
          -0.8736120395124869,
          -0.48858571273110973,
          -0.42463614611892675,
          0.152231583871006,
          0.4209984953506336,
          0.7754754675267359,
          -0.04685689625280087,
          -0.9448574056943362,
          0.01820957412449853,
          -0.896669879344494,
          -0.7196992392995543,
          -0.5434416036724856,
          -0.4356986255428341,
          0.6748802269702205,
          -0.037345216400509695,
          0.3509688469050696,
          -0.7772370419476295,
          0.1682423239655948,
          0.5036109957728383,
          0.12871758790913113,
          0.1502820253731465,
          0.6477731350743787,
          -0.533296756630695,
          0.12065970845799012,
          -0.6153063888590768,
          -0.6779846930477047
        ],
        "playerName": "RFFSimulation",
        "converter": {}
      },
      "fitness": 0.68,
      "behaviours": [
        22.16,
        2.1,
        31.54,
        3.44
      ]
    }
  ],
  [
    {
      "value": [
        33,
        26,
        15,
        10
      ]
    },
    {
      "x": {
        "agentConfig": [
          1,
          3,
          1,
          1,
          0,
          2,
          2,
          2,
          2,
          2
        ],
        "weights": [
          0.4615459536656088,
          -0.35615231711736817,
          -0.17405795659070544,
          -0.25345984942963695,
          0.2905884747759091,
          -0.5120336450849112,
          -0.35132469670561517,
          -0.5060232045644493,
          0.7272335623121986,
          0.8315863964936483,
          -0.33145051953301374,
          -0.1362242478231417,
          -0.9190242941350228,
          -0.7634169791742997,
          0.431776194360987,
          -0.9282670948005629,
          -0.116129635247189,
          -0.660636891154849,
          -0.22042789782355854,
          -0.3410856701107796,
          -0.13165333990800243,
          0.09577756234153156,
          0.914191021075482,
          -0.15808391309811842,
          0.7846817746590047,
          0.7267340762934125,
          -0.16751917021013263,
          -0.6824825712041069,
          -0.8231476564254145,
          0.7356658464586989,
          0.2544682651975465,
          -0.6842663131976996,
          0.14367720553647811,
          0.7303383837928663,
          0.11392663849667595,
          -0.6621463963359673,
          0.5828732160243639,
          -0.7946939683932888,
          -0.8201646833181544,
          -0.2788767735656028,
          0.44884494971429834,
          -0.07234288324082838,
          0.4420928957021366,
          -0.06068258728847398,
          0.15073583450105477,
          -0.8824851071595572,
          0.521799077012107,
          -0.6214823558223499,
          0.3754686463511323,
          -0.7739099852057956,
          0.555872663761487,
          0.21999338788107226,
          -0.6587922164905569,
          0.787907820046094,
          0.757728094862693,
          -0.9828383579156954,
          -0.23012121287306853,
          -0.4398379713073599,
          -0.8298164689184828,
          0.5711783213200494,
          -0.2869166843471609,
          0.9609749888118886,
          0.00372869741684001,
          0.7897926453036579,
          -0.22604907240023153,
          -0.32032796921357476,
          -0.6072669802106259,
          0.3566738443136279,
          0.23817264114672576,
          -0.7439939379467673,
          0.40412734970274444,
          0.2434983391752239,
          -0.8393362600281009,
          0.41159677059905286,
          0.6975464931306692,
          -0.6353378235611435,
          0.550006768865575,
          -0.034323824637168654,
          -0.6371278029850136,
          0.004563680384956692,
          0.4510289179714473,
          0.27856186392995075,
          0.15057008925599713,
          0.0399773043092424,
          -0.05342935648857594,
          0.34010537046038625,
          0.5621659184743373,
          0.4351193919596068,
          -0.1172940943189813,
          -0.14330695854866238,
          0.08266169234271326,
          0.004584124950846924,
          0.46737739054802807,
          0.9892042446135325,
          0.2136426232760269,
          -0.9805949379891967,
          -0.19938664328848832,
          0.7556592512227687,
          -0.09471814323653094,
          0.8740782751154141,
          0.8651954449137023,
          0.5361183529336717,
          0.48740090277835746,
          0.7374584536725848,
          0.5398504594652016,
          -0.3962788458698929
        ],
        "playerName": "RFFSimulation",
        "converter": {}
      },
      "fitness": 0.88,
      "behaviours": [
        21.38,
        1.72,
        29.96,
        4.88
      ]
    }
  ],
  [
    {
      "value": [
        28,
        17,
        20,
        16
      ]
    },
    {
      "x": {
        "agentConfig": [
          1,
          5,
          0,
          0,
          2,
          0,
          1,
          1,
          3,
          0
        ],
        "weights": [
          -0.31093045437546385,
          -0.5588303940553181,
          -0.2038441246126219,
          0.5309955169486653,
          0.6419375181042322,
          -0.08724708903062273,
          0.9880939807136164,
          -0.9930459298188921,
          -0.8121881430119571,
          0.9920579724018443,
          -0.5098179875541975,
          0.0967439698288226,
          -0.25824969418787513,
          0.4947863365308012,
          -0.2919147049462114,
          0.7316804003240611,
          0.20039061709116712,
          -0.2158860047463116,
          -0.5779422217688308,
          -0.5536583281546754,
          -0.8004281091268912,
          0.7065833386625286,
          0.3145612499220529,
          -0.14194341034260494,
          -0.676534594719175,
          -0.699251722048805,
          -0.11600558056364751,
          0.13035706545976367,
          -0.4197825796325172,
          0.7600781051507985,
          -0.041051041088902895,
          0.8403782009878382,
          0.39855926955532706,
          0.7742053464330165,
          -0.501887964508839,
          0.0940174984518305,
          -0.09820609619370302,
          -0.9223207399963114,
          0.3941381349391644,
          0.218991770549682,
          -0.7199797001172916,
          -0.19703326851330027,
          0.5955156394296703,
          0.914759830949927,
          -0.2915894427867354,
          0.06451873819506715,
          -0.9813422656025748,
          -0.6503945181332305,
          -0.5511915974695447,
          -0.9067006017216446,
          -0.5568505861691819,
          0.3690049073282138,
          -0.47613024620046773,
          -0.8037468801929235,
          -0.13371385299596072,
          -0.2842698268328987,
          -0.33258042890226736,
          0.8327623859173419,
          -0.3612580861285697,
          -0.039031994809342496,
          -0.8683470778932116,
          -0.8197714532728639,
          -0.8885907482487043,
          0.7070626303831373,
          -0.6287395061663885,
          0.7034837823150324,
          -0.5058454402510806,
          -0.45368208244497876,
          -0.3734878065315843,
          -0.552176965284948,
          0.16043765674824173,
          0.2466236318609396,
          -0.008214102759467767,
          0.04302085250074761,
          0.7274457681814732,
          -0.31650263839734905,
          -0.31701882891130917,
          -0.26422253209100677,
          -0.10040400206745259,
          -0.850536513427224,
          0.9067109738081771,
          -0.8393843606309759,
          0.2839637357952267,
          0.8455166995547467,
          0.9861174256302361,
          -0.9856711945361458,
          0.16939691085503883,
          0.5957475468574878,
          -0.7873884230009427,
          -0.6833415771123794,
          -0.39322026763208173,
          -0.8749658432207079,
          0.2697884951854834,
          -0.4800428996848445,
          -0.9638878220183784,
          0.601033826535639,
          -0.9847754537678548,
          -0.6268281515212457,
          0.17677502104664966,
          0.5655343587765587,
          -0.09218545413467982,
          0.15055984486083873,
          0.9305531739777062,
          -0.13344421343096857,
          0.432760949293985,
          -0.3768718744958701
        ],
        "playerName": "RFFSimulation",
        "converter": {}
      },
      "fitness": 0.7,
      "behaviours": [
        18.58,
        1.08,
        39.9,
        7.56
      ]
    }
  ],
  [
    {
      "value": [
        19,
        5,
        32,
        5
      ]
    },
    {
      "x": {
        "agentConfig": [
          1,
          3,
          1,
          0,
          1,
          0,
          2,
          2,
          1,
          0
        ],
        "weights": [
          -0.38169776553597257,
          -0.9398147084773525,
          -0.6833928487409913,
          -0.4806524573541462,
          0.26797134171042414,
          0.867320533501805,
          -0.4919072400366866,
          -0.5282547392337555,
          0.9772675675144957,
          -0.27108906044825787,
          0.625815323583983,
          0.22052452645299736,
          -0.8764380057770249,
          0.8733383107620507,
          0.871998239455531,
          -0.06538071144944824,
          0.9239863271563156,
          0.75302886542652,
          -0.9921832084979985,
          0.8388005789536557,
          0.5694640025465225,
          0.6117445862713273,
          -0.4402358601967049,
          -0.44560906134667255,
          0.6038904553607454,
          0.3755917334071608,
          0.7321351886115965,
          -0.7565368174643463,
          0.5880751332322869,
          -0.5667629967470047,
          0.058403800695303154,
          -0.09576029231999761,
          0.7150098700697338,
          0.7009005418561243,
          -0.01752743452655725,
          -0.2232607973417895,
          0.2324814272111284,
          0.2602725990265575,
          -0.7185228363250669,
          0.4915431392978791,
          -0.7189999863943657,
          0.8125789150603333,
          0.5250308519349569,
          -0.6691159079366849,
          -0.9305325409899023,
          -0.7904020487333014,
          0.61149686908118,
          -0.2299140182212971,
          -0.8120369748601175,
          0.40251182231745153,
          0.83008089031872,
          0.3287135547301203,
          0.2964769797524329,
          0.2920495803939904,
          0.8682376451532317,
          -0.315382353740981,
          -0.5696241575345826,
          0.16846116619501217,
          -0.28290979173448383,
          0.9903901654978209,
          -0.27216389447833134,
          -0.30256251413501056,
          -0.47673848217956216,
          0.38057095710738875,
          0.5114365788149289,
          -0.2618297577131037,
          0.0937237473102499,
          -0.23072264067391002,
          -0.654448273239429,
          0.6723241055335718,
          -0.019028652652317346,
          0.21175441837773623,
          0.9431430909173255,
          0.37777039154442504,
          0.8590286414757293,
          -0.6603268777942335,
          0.6099975536053039,
          0.49851144174077966,
          -0.7534947349385981,
          0.6788307046158368,
          0.2914148903194054,
          0.24230147497753496,
          -0.45888397483380605,
          0.019236468241123683,
          -0.7741994526686504,
          -0.4199515802123901,
          0.8007842928088336,
          0.43139385331796043,
          0.7115718522291279,
          0.42615959611143217,
          0.739652678279116,
          -0.991081754845134,
          -0.44176013031047834,
          -0.8534284050229552,
          0.003025792881551359,
          0.9664573755703594,
          -0.5805183065286605,
          0.571283626488384,
          -0.056525242339744874,
          0.33320993388247255,
          -0.6045289741972077,
          0.5807910205600193,
          -0.15896456661277814,
          -0.8438337758953898,
          -0.9563110861468764,
          -0.7091062043127263
        ],
        "playerName": "RFFSimulation",
        "converter": {}
      },
      "fitness": 0.28,
      "behaviours": [
        12.08,
        0.3,
        62.84,
        2.28
      ]
    }
  ],
  [
    {
      "value": [
        32,
        27,
        20,
        11
      ]
    },
    {
      "x": {
        "agentConfig": [
          0,
          5,
          1,
          1,
          0,
          2,
          3,
          0,
          3,
          2
        ],
        "weights": [
          -0.6068652637943543,
          0.674976943273736,
          -0.7490162895606187,
          -0.09235015309866634,
          0.9405783185580516,
          -0.9709508733719769,
          0.060621003541658114,
          -0.7741456652900507,
          0.9101473095095192,
          0.4987864248645677,
          -0.13276539252709596,
          -0.44161147317189986,
          -0.4998065892211323,
          0.974070609069803,
          -0.6845987287499327,
          -0.8371202460144429,
          0.05925227729609528,
          -0.7156181709314766,
          -0.5026813248710862,
          -0.9070236463842223,
          -0.5625439293033894,
          -0.9122730227526936,
          0.3221856951124107,
          0.97246998434029,
          0.39745669094695457,
          -0.6431244733854651,
          0.7092848217517573,
          0.934871007941888,
          0.9574803723840701,
          0.9942133791635073,
          -0.451324691138729,
          -0.7549008746405448,
          0.5723356020309511,
          0.5928542053144998,
          -0.5621417385916345,
          -0.11246945816405596,
          0.6539003212013688,
          0.9104754752318571,
          -0.17027070172415026,
          -0.7652796914777305,
          -0.9091822019324138,
          -0.766325572136048,
          0.4165866215121885,
          -0.19630365104456238,
          -0.8521668293810862,
          -0.5155320487349129,
          -0.6730844624606338,
          0.0618012209820451,
          0.4084055291692641,
          -0.3431124472427711,
          0.02612381350789228,
          0.26163394070283785,
          -0.7300656004541257,
          0.9704494388220357,
          -0.31064443543733145,
          -0.6352763578280725,
          0.9091419201000472,
          0.9886076690825876,
          0.2539638207468946,
          -0.7438554524876491,
          -0.39414476789237574,
          -0.1258738884047379,
          -0.6388242492019194,
          -0.342640266831838,
          -0.15336261444668264,
          0.9396339086344854,
          -0.03906254079593041,
          0.4121594395975239,
          0.725416480091446,
          -0.2995438256318672,
          0.48087765041329367,
          -0.8493622036088773,
          0.8164686090755127,
          -0.2518594672112602,
          0.1497842800668645,
          -0.2712700582150429,
          -0.08418967983916481,
          0.9369282433810362,
          0.3179393886574524,
          0.29590963462847863,
          -0.16973822403262995,
          -0.3882535891024774,
          0.4311119992949035,
          -0.6387746205480842,
          0.7391433837263481,
          -0.09487423987038746,
          0.691961446818278,
          -0.19206793695204438,
          0.5617729798399171,
          -0.5082224888326814,
          0.38205638314053925,
          0.44955146825710846,
          0.23463263746288243,
          0.6133899158940093,
          -0.6803313709034304,
          0.4252755227479321,
          -0.1647218362911036,
          -0.32746623254293317,
          -0.00704654681220962,
          -0.4997981235792588,
          -0.9142326719467977,
          0.24339401878359035,
          -0.46491895274371364,
          -0.8340284402482134,
          0.9265852023804759,
          0.958373510825939
        ],
        "playerName": "RFFSimulation",
        "converter": {}
      },
      "fitness": 0.4,
      "behaviours": [
        21.18,
        1.76,
        38.1,
        5.12
      ]
    }
  ],
  [
    {
      "value": [
        31,
        24,
        17,
        9
      ]
    },
    {
      "x": {
        "agentConfig": [
          1,
          3,
          0,
          1,
          0,
          0,
          2,
          2,
          2,
          1
        ],
        "weights": [
          0.8280408579374385,
          -0.07124641651661978,
          -0.015305575560010665,
          0.1403565968592162,
          -0.958682175606953,
          -0.20468010975545892,
          -0.06501247783595909,
          -0.6762757919521385,
          0.31818732306214925,
          0.7092750647826356,
          -0.6146407973621284,
          0.9464393964435267,
          -0.44051738223394676,
          0.6604926448393031,
          -0.9767522047691914,
          0.7594308605720248,
          -0.1422817498074871,
          -0.7693330626939923,
          -0.28150233227251964,
          0.5752600891319262,
          -0.7752133005010711,
          0.2806984448665688,
          0.7810333350217566,
          0.3437983353672549,
          0.6461039498729206,
          -0.3768264996246331,
          -0.5057694447972343,
          -0.037704219183935406,
          0.2898775473710695,
          0.09699147397157182,
          -0.6291756650584279,
          0.6441226503490103,
          -0.4228750659995104,
          -0.45872984028418595,
          0.9863937543053447,
          -0.4682098959097434,
          0.758023713248023,
          0.30823970582404026,
          0.2161697873895836,
          0.16368715032519554,
          -0.36187997966913477,
          0.1599119139110372,
          0.2341121734811651,
          -0.6097024760381298,
          0.6764034889091939,
          -0.33910881366671886,
          -0.2710918541209173,
          0.38448891783951966,
          0.7761533686122655,
          0.5097707207379218,
          0.4497451468910536,
          -0.4982049337153367,
          -0.18601629529804153,
          0.6441357473164064,
          0.4154160914259566,
          -0.07956100839504887,
          0.1764132022495839,
          -0.5907253825771575,
          0.9035165922250314,
          -0.7728258414443738,
          -0.5982340836466551,
          -0.40172510472302614,
          -0.31780187455652253,
          -0.5861514058452022,
          -0.6018459768233655,
          0.7512616551265807,
          -0.14485736911862945,
          0.1109244158991185,
          0.14824839632452957,
          -0.25588779083062585,
          -0.8388702215646726,
          -0.6919858857686694,
          0.31349571458828485,
          0.40205971865979073,
          0.6027680181151229,
          0.2978227026287952,
          -0.785105987929376,
          -0.35882347112976065,
          -0.12533372244480523,
          -0.8712869395593632,
          0.29439117529778724,
          -0.5291937098862365,
          0.21952527140883626,
          -0.537560504073795,
          -0.6495749601051706,
          0.08259102819142572,
          -0.9386702545529193,
          -0.5925761639982512,
          -0.4069241643324306,
          -0.7931802510509534,
          -0.9519718722077546,
          -0.3657251163512478,
          -0.12124462042113016,
          0.9343999028128824,
          0.9817869969520736,
          -0.12091846378242277,
          0.36131074358228044,
          -0.717165118581319,
          -0.47688783961879144,
          -0.19866268940932508,
          -0.7641273184523487,
          -0.07283430753584619,
          0.525831140206177,
          0.08718233537362652,
          -0.7462676531050649,
          -0.27808486935822874
        ],
        "playerName": "RFFSimulation",
        "converter": {}
      },
      "fitness": 0.96,
      "behaviours": [
        20.52,
        1.56,
        32.34,
        4.08
      ]
    }
  ],
  [
    {
      "value": [
        23,
        8,
        25,
        8
      ]
    },
    {
      "x": {
        "agentConfig": [
          0,
          3,
          0,
          1,
          2,
          1,
          0,
          0,
          3,
          2
        ],
        "weights": [
          0.6734437001919134,
          -0.21519482068181106,
          -0.3559060403404819,
          0.6966891112175071,
          0.7041533589463587,
          0.05533151014087423,
          0.7627753811728786,
          0.5992257560715948,
          0.22304046089087848,
          0.7623465730629111,
          -0.3169492210975622,
          -0.022261845345547426,
          -0.8966080688656828,
          0.03738868111129867,
          -0.33410767894460314,
          0.9476047298039378,
          -0.1729396302603019,
          0.7883816104038264,
          0.7075268224257452,
          0.21423975306467868,
          0.6769673458723531,
          0.0964939032794534,
          0.5442797886063282,
          0.35801509017275257,
          0.42844929945901744,
          -0.9724339937075199,
          0.4809995709911481,
          -0.04068256469030196,
          0.0019087922731511053,
          0.32301001732464263,
          0.014313600270196014,
          -0.0485024638539,
          -0.5525618922373148,
          -0.20358454655779235,
          -0.8385776217693091,
          -0.7679541117054445,
          0.10278435993021717,
          0.6859214465763706,
          -0.09290973318108753,
          0.26740706847536133,
          -0.20077061072176838,
          0.6987446741111729,
          0.24594401689995027,
          -0.8055756035693291,
          -0.414340225070317,
          -0.966919307766728,
          -0.07585498346371633,
          0.751482482776793,
          -0.4006935511476244,
          -0.7260764644165001,
          0.1739528533792436,
          0.26499574840774254,
          -0.5676643626594982,
          -0.2668223338003206,
          0.486650954917917,
          0.8719675480825522,
          0.6266767528171191,
          -0.45923657437146037,
          -0.21624050416528107,
          0.17692293769947032,
          -0.22482468382424825,
          0.5922458811090208,
          -0.7765877287494611,
          0.6215967821565269,
          0.11536253947508679,
          0.319845661157415,
          -0.6817713007374182,
          -0.011663413275119883,
          -0.527163708882872,
          0.17751651451926453,
          -0.9570360073471982,
          0.6632575204256674,
          0.9444508900831581,
          -0.28289491834659763,
          -0.8253251056310293,
          0.5527654359911649,
          -0.19278282849884887,
          0.18143420293683188,
          0.2350906147963019,
          0.8771417411651092,
          -0.20298404350579546,
          0.6514807645080687,
          -0.9056678019854638,
          0.4574620979829309,
          0.12193313715568221,
          -0.04135377659587247,
          -0.45292375600066737,
          0.5671990904680493,
          -0.6417743383628549,
          0.8094468201246234,
          0.9867126016239898,
          0.9374369088620809,
          -0.27736771509498426,
          0.8687778603246608,
          -0.3200016138029922,
          0.08470470374911687,
          -0.8770543863013864,
          0.9092353976355003,
          -0.9158361341580727,
          -0.2269874305184587,
          0.8594649547798887,
          0.5578061964061967,
          -0.8496212821651505,
          0.12675346102729224,
          -0.1168474647147093,
          -0.3424351558055303
        ],
        "playerName": "RFFSimulation",
        "converter": {}
      },
      "fitness": 0.7,
      "behaviours": [
        15.06,
        0.48,
        48.02,
        3.98
      ]
    }
  ],
  [
    {
      "value": [
        15,
        4,
        42,
        1
      ]
    },
    {
      "x": {
        "agentConfig": [
          0,
          0,
          2,
          1,
          2,
          1,
          1,
          2,
          0,
          1
        ],
        "weights": [
          0.26419747173093544,
          -0.121981161155156,
          0.7927418966973134,
          -0.8454165689362207,
          0.5642064107316673,
          0.18404475709158152,
          -0.6287597415962123,
          -0.07940316982843854,
          0.2265107526824668,
          -0.7080935689248855,
          -0.9753458870874048,
          0.12300476492338719,
          0.25617523543334597,
          0.6906371077915097,
          0.5798074663155453,
          -0.7390428531872402,
          0.6963256166772396,
          -0.8113805096561082,
          0.03505170195654461,
          -0.9719279551290769,
          -0.3587482807690343,
          0.20826146152124747,
          -0.7534966703690487,
          -0.4886360366608338,
          -0.245635271575809,
          -0.482878825918194,
          -0.24899743628170734,
          0.7507233736753138,
          0.6567923318859377,
          0.20901841650685649,
          -0.1965097048993394,
          0.7234627134569804,
          0.11684869306800438,
          0.01624886998776387,
          -0.19779581704663096,
          0.8672701977907067,
          -0.9024311491115917,
          0.3640940450366945,
          0.933298369332948,
          -0.6337572364117579,
          -0.5910490047241428,
          0.9713996557414359,
          0.08719332774446964,
          0.5984958627507426,
          -0.036497351049104676,
          0.256072519015079,
          0.8821664708474648,
          0.38017740203566985,
          0.44814008624636714,
          0.32192340762889815,
          -0.023603124714424606,
          0.939540292333132,
          -0.3975567029321003,
          -0.11663667842945147,
          -0.2421194977703569,
          0.9160564541315959,
          -0.7672777669153843,
          -0.872963303380524,
          0.9723355708048547,
          0.10338353701444714,
          0.5933031194562179,
          -0.7854452286282676,
          -0.11757887088178753,
          0.14132345305234106,
          0.8308964576588775,
          -0.10193051460584757,
          0.1472939037992016,
          0.9107399314066662,
          -0.18513865910313698,
          -0.4494930353387374,
          -0.23026627623293083,
          -0.003269444872515903,
          -0.13436477591357932,
          0.8048573923345563,
          0.178768101110937,
          -0.7408233656244954,
          0.6455489710550051,
          -0.048003378380037764,
          -0.20106724044062418,
          0.2861230548195586,
          0.7907025446907112,
          -0.7359078232771692,
          0.3030050484904905,
          -0.6957325876364464,
          0.7395282004092851,
          0.490725973496261,
          0.1532531887209423,
          -0.01783356511610079,
          -0.3468778646027346,
          0.9174422425859137,
          -0.9930554872953754,
          -0.5144040984457372,
          -0.6756220558947645,
          0.5815086688513962,
          0.09506170055837715,
          -0.8691718503891268,
          -0.46259123437455707,
          0.5072567542076878,
          -0.22112283709036706,
          0.030419403114884336,
          0.46569839939332636,
          -0.8465553881620702,
          0.14723969211447963,
          0.23742715116602642,
          0.3868741372423974,
          -0.3423352713911425
        ],
        "playerName": "RFFSimulation",
        "converter": {}
      },
      "fitness": 0.1,
      "behaviours": [
        9.84,
        0.22,
        82.12,
        0.16
      ]
    }
  ],
  [
    {
      "value": [
        19,
        3,
        36,
        2
      ]
    },
    {
      "x": {
        "agentConfig": [
          1,
          2,
          3,
          1,
          2,
          1,
          3,
          2,
          4,
          2
        ],
        "weights": [
          -0.06686856256777296,
          0.10056610501031615,
          -0.0889374235734306,
          -0.5547746199306456,
          0.12923324480574228,
          -0.24542306667868097,
          0.8577562053032648,
          0.51093629266506,
          -0.5677716181281085,
          0.18541499240115766,
          0.9104035090669922,
          0.6571150170933655,
          -0.16889991107293323,
          0.2770233959556492,
          0.7856875512077235,
          0.6403922332542722,
          -0.20807992596477765,
          0.8032125756231405,
          0.8644363744897101,
          0.8005281956963455,
          -0.3233830731618792,
          0.8206207105413192,
          0.8066433949995744,
          0.46460482820436955,
          0.28973720196659203,
          0.16203344141732035,
          0.6231240615065445,
          -0.7126993551975978,
          -0.914024920485538,
          -0.12222027795177737,
          -0.6296258984893146,
          0.42281701269283967,
          -0.2705506146449579,
          -0.9157509211801791,
          0.824647005383855,
          -0.683396271808085,
          0.4164104238164714,
          0.3524044105332542,
          0.243222284414361,
          -0.1398921425026518,
          0.6562617214450819,
          0.5054916510067058,
          0.6352886163269673,
          -0.33065042809870904,
          -0.9485152854224774,
          -0.5060242421225913,
          0.8418192001159626,
          0.3282066194000224,
          0.025258708096217886,
          0.8770613742712785,
          -0.8367293701879472,
          0.5798663434462612,
          -0.583730263080207,
          -0.6360156526256635,
          -0.7241124803956944,
          0.6549830498169769,
          -0.6065928401831631,
          -0.14541247353347853,
          -0.25814844637491885,
          0.19265685865966198,
          0.23874765178449686,
          0.46752406171066685,
          0.545463075703464,
          0.5404270070588635,
          0.2054317666065859,
          -0.8442422659440747,
          -0.2230001558027177,
          0.6120526265016168,
          0.877739504404752,
          -0.31714050925244575,
          0.8378480416035679,
          -0.06306996235138285,
          0.243875015740999,
          -0.03007338191213793,
          -0.6450447297811985,
          -0.9474242225238338,
          -0.9623253522397517,
          0.12177922092866056,
          -0.6303918171862914,
          -0.028319085880264216,
          -0.18634614026618967,
          0.8024171518357335,
          0.30498996200953377,
          0.09782159695986903,
          0.6905133636663146,
          -0.9464518309330012,
          -0.28107364470652296,
          -0.33101168373808987,
          0.7314266536512122,
          0.13632674919220067,
          -0.08731744007466147,
          -0.4243258164177697,
          -0.47486461116692924,
          0.5252706405975263,
          -0.9063749441809807,
          -0.7696576994893687,
          -0.30991870039914327,
          0.7946506467981826,
          -0.020982577785384926,
          -0.9423326867864539,
          -0.2554932671446106,
          -0.1885227398532472,
          0.48017048046220046,
          -0.8699719128257009,
          0.068658970936053,
          -0.614464521836559
        ],
        "playerName": "RFFSimulation",
        "converter": {}
      },
      "fitness": 0.36,
      "behaviours": [
        12.08,
        0.16,
        70.0,
        0.58
      ]
    }
  ],
  [
    {
      "value": [
        24,
        9,
        24,
        11
      ]
    },
    {
      "x": {
        "agentConfig": [
          1,
          2,
          1,
          0,
          1,
          2,
          0,
          1,
          4,
          1
        ],
        "weights": [
          -0.5610444095911076,
          -0.07107163626685198,
          -0.32333978721133083,
          0.514672375616632,
          0.966070972774443,
          -0.5692700478203545,
          -0.36696360298244746,
          -0.5592391649640518,
          -0.46717426742026635,
          -0.14072673436966987,
          0.1596410777116095,
          -0.4606598944560709,
          0.2656399037969992,
          -0.10911893077723556,
          -0.37413464141935826,
          0.9322922732112955,
          0.36149264111045043,
          -0.5588606625927381,
          0.9552418751656189,
          -0.08430455487397337,
          0.8553883605484871,
          -0.6628722059360321,
          0.4954740757613487,
          0.9621948412142345,
          -0.686211016153331,
          0.6897413397655909,
          -0.3705967773815757,
          -0.676359140648148,
          0.24069503521831215,
          0.47397502145774806,
          0.6098850646052894,
          0.35221998599000126,
          0.2662597337249224,
          0.5613748933216307,
          0.41600011422549876,
          -0.3241185991239701,
          0.033525691627642074,
          -0.7523160229381718,
          0.3049751767907791,
          0.443940483825352,
          0.10707472628997272,
          -0.8199580802562676,
          0.1736463070197629,
          0.0013190413981467586,
          0.19808611405314114,
          -0.4880765564327285,
          -0.15475249021646165,
          0.5549596800621219,
          -0.46649934650396596,
          -0.8996690992776011,
          -0.03823867675408876,
          0.6635299096986955,
          -0.7073086948555216,
          -0.39141788870261474,
          -0.7109782477752935,
          0.7116100883211618,
          -0.3067548994552489,
          0.4893646965677636,
          0.9312123868822157,
          -0.07786294667090021,
          0.5281625152336324,
          -0.003445126698858436,
          -0.796644013325112,
          0.9159534782210239,
          0.7399852399633624,
          -0.3893720415760995,
          -0.27515539668012434,
          0.34489119939218216,
          -0.03693445947142249,
          -0.43868515066387204,
          -0.3259870803171232,
          0.7048951840727926,
          0.8733935065538343,
          0.49248736763291023,
          -0.9167892981350327,
          -0.921728032502295,
          -0.34389787419088913,
          0.7380843312957819,
          -0.4442180629247823,
          -0.7407743572960608,
          0.9339728525152375,
          0.16421621469760272,
          -0.14918594763558213,
          0.4844222338467672,
          -0.9040328210394923,
          0.08141683680727363,
          0.40847056538285664,
          0.8204006262939014,
          0.12301410008524871,
          0.3423368046954667,
          -0.9218235008615294,
          0.15222793561690895,
          0.7289843929219828,
          -0.5859973858113969,
          0.06387705022542334,
          0.672873491298646,
          0.9179880059042052,
          0.9500926337264162,
          -0.584956036438153,
          -0.20964432812499822,
          -0.09516747955034721,
          -0.8124896035611147,
          -0.730942799564273,
          -0.5502082114845732,
          -0.24631596709304127,
          -0.6471373837470491
        ],
        "playerName": "RFFSimulation",
        "converter": {}
      },
      "fitness": 0.36,
      "behaviours": [
        15.48,
        0.54,
        47.68,
        5.34
      ]
    }
  ],
  [
    {
      "value": [
        14,
        1,
        40,
        4
      ]
    },
    {
      "x": {
        "agentConfig": [
          0,
          0,
          0,
          0,
          1,
          1,
          1,
          1,
          4,
          1
        ],
        "weights": [
          -0.6814778777677342,
          0.10509787421505923,
          0.5726947010489274,
          -0.8843612218887604,
          -0.09719457164958212,
          -0.12124462309321271,
          0.7767667050948464,
          0.4860041614109101,
          -0.9123834232092831,
          -0.0923429029942211,
          -0.15632673874738723,
          0.7658310657075762,
          0.2890678665065194,
          0.2537314772959698,
          -0.8940375906407416,
          0.9331768339240669,
          0.9228871160266781,
          -0.4719844902689727,
          0.5636003106221212,
          0.3972772188075484,
          0.47588618325063536,
          0.7302459675321238,
          -0.23078471513481258,
          -0.45132064646517334,
          0.9849028095098815,
          -0.997042832723775,
          0.8742627966768961,
          -0.8359026175927453,
          -0.647525200461329,
          0.2786628935601563,
          -0.2570889923562589,
          0.2861694316554655,
          -0.7257893786949066,
          -0.9024740424257025,
          0.41739896761142203,
          -0.22162764374973665,
          -0.538977199898756,
          0.23424967386223283,
          -0.8419264123452659,
          0.3979280195644861,
          0.31009374497100395,
          0.19675113428476476,
          0.7832631382406887,
          -0.06538530081860094,
          -0.7883536076503461,
          -0.8544936304852153,
          0.0986003468195551,
          -0.2690265453778815,
          -0.7257036917408339,
          -0.6687160581890037,
          0.8323588553230452,
          0.7294788554064708,
          -0.5900366051855721,
          0.7603128840736044,
          -0.31717807050395996,
          -0.9151791925633725,
          -0.5599739999913178,
          0.46975809307671046,
          -0.1643458897680674,
          -0.6654771213228461,
          0.16760233951755277,
          0.5327055014277282,
          0.6237003265398802,
          -0.8613004389311125,
          -0.7934523008986452,
          -0.28931405593862536,
          -0.12141001057793299,
          -0.32016509588506925,
          0.7659588099324008,
          0.5330963527829116,
          0.9629766200478034,
          -0.043958699500534104,
          -0.4403196416724282,
          -0.4932961443275168,
          -0.5258038128558615,
          -0.5936641142891437,
          -0.45648904181746874,
          -0.8552526747764713,
          -0.825418048532299,
          -0.4259490244206501,
          -0.7214902389083493,
          0.5539781846230212,
          0.8306249943710147,
          -0.15542823588378574,
          -0.6229924765120503,
          0.4293115112753856,
          -0.6673766245325454,
          0.6861733113804327,
          -0.2913705216872837,
          0.47958520017699113,
          -0.28158279670932074,
          0.2778075215339866,
          0.8268400719925904,
          0.5442545910867791,
          -0.4607426279092641,
          0.9252673182192832,
          -0.5777771330327484,
          0.959676949576602,
          -0.6171882053513671,
          0.2472354389600151,
          -0.4830874733381374,
          -0.9050313940996304,
          -0.6922362326236984,
          0.7553013544388247,
          -0.41470190509730487,
          -0.5987538843057492
        ],
        "playerName": "RFFSimulation",
        "converter": {}
      },
      "fitness": 0.02,
      "behaviours": [
        9.0,
        0.04,
        78.98,
        1.72
      ]
    }
  ],
  [
    {
      "value": [
        32,
        28,
        15,
        11
      ]
    },
    {
      "x": {
        "agentConfig": [
          1,
          3,
          0,
          1,
          0,
          1,
          0,
          3,
          4,
          0
        ],
        "weights": [
          0.37562554854301755,
          0.363816641783431,
          -0.713584291544682,
          -0.5115713120135523,
          -0.13437863707266406,
          0.9239466295132501,
          -0.7385232022698838,
          -0.5253109680146217,
          0.5308961633492559,
          -0.7113157814195596,
          0.31779601795862034,
          -0.21389765190457966,
          0.042435426013284205,
          0.6377023385802398,
          -0.9323974006612115,
          0.226029124869646,
          0.08287417411655484,
          -0.5415540972635215,
          0.8154914476496198,
          -0.7985782958572201,
          -0.9249133857887222,
          0.612400565822526,
          -0.4597437681538339,
          0.6828777587356303,
          -0.9002269846858357,
          0.07908284219137407,
          -0.9967500662268405,
          -0.6387557442037011,
          0.6197804784441718,
          0.6463666564761092,
          -0.15582540156852076,
          0.30161377944718204,
          0.7558481268135129,
          0.14584099941685524,
          -0.8165965543132987,
          0.5068843757055144,
          0.5479190479345153,
          0.2244695460051973,
          -0.5293572820622454,
          -0.023119432268323914,
          -0.11188425279643632,
          0.09890346230435876,
          0.10294382836897431,
          -0.9146371692018533,
          -0.37407207870720605,
          0.25637462763647556,
          0.6807786900022166,
          -0.6039197504551561,
          0.7231156184781451,
          -0.35382337601094993,
          0.6790951992538592,
          0.40034868927939193,
          0.2752827919057561,
          0.5483167796331614,
          0.7809720832011526,
          -0.917533524160044,
          -0.2809698079156975,
          0.011003299367583486,
          0.15469618414518704,
          0.7056058410386521,
          -0.3919505830505283,
          -0.4837934209118284,
          -0.449212023292235,
          -0.24035186271834386,
          -0.03152706622870416,
