[
  [
    {
      "value": [
        10,
        1,
        42,
        4
      ]
    },
    {
      "x": {
        "agentConfig": [
          0,
          1,
          3,
          1,
          0,
          1,
          0,
          2,
          4,
          0
        ],
        "weights": [
          0.11801701427070066,
          -0.5820862577246655,
          -0.3220370100554746,
          0.33248923116686124,
          0.9967530375825859,
          -0.26522198393182106,
          -0.32859162266076436,
          0.41992176064444675,
          -0.2912969980812583,
          -0.7566581795474432,
          -0.10973083713836052,
          -0.45530217581966737,
          0.5091477424991644,
          -0.8398076284201474,
          0.23602008346118963,
          0.7232497508665721,
          -0.31041178618976395,
          0.20860900015883188,
          0.8939160882727577,
          0.9143814499881653,
          -0.9014188796072498,
          0.021332758378137973,
          0.08904360140627166,
          -0.7294883533520518,
          -0.9202018190483658,
          -0.5574310142071512,
          0.2979550578990693,
          -0.4808626024387548,
          0.44748588786592025,
          -0.495813975943483,
          -0.8067079978935108,
          -0.24172941418918703,
          0.6995833602858741,
          -0.24072330668397668,
          -0.03987045730909622,
          -0.11094723761711922,
          -0.6886679523379078,
          0.1269521385454233,
          -0.9533972415166596,
          -0.5892928491476166,
          0.6572899233278122,
          0.43544075851856334,
          -0.10229503326974876,
          0.3674395185452506,
          0.8772411363951855,
          0.44626832232250657,
          0.7699744570780698,
          -0.136147043843164,
          0.8315699541357919,
          0.3004979556088212,
          -0.6638844831082993,
          -0.24510537671214339,
          -0.8157545055838427,
          -0.951287889902392,
          0.46242709422026507,
          -0.13169452210653665,
          -0.39335672498931507,
          -0.7903775914497326,
          0.27824091632093095,
          -0.5680022821100021,
          0.1130057485085112,
          0.1478946715001379,
          -0.5446014542074873,
          -0.7442631120465986,
          0.6184238112177367,
          0.46998168035828813,
          -0.5228743199920358,
          0.655959413512369,
          0.9527988710904449,
          -0.3925422258926199,
          -0.4005104611214816,
          0.11450945211165409,
          -0.23067765940647567,
          -0.7094472729107244,
          -0.8050467708286464,
          -0.7734683320826488,
          -0.9464107533434876,
          0.710286649114577,
          0.21636996767214844,
          -0.3802902677738347,
          -0.7304611775445806,
          0.8258093397982129,
          -0.36891284078690667,
          0.21649403142464396,
          0.57099503463066,
          -0.5057490322064182,
          -0.1513412819779778,
          -0.537085653624241,
          -0.037343744016006264,
          -0.11640500002962173,
          0.4019928873266141,
          -0.03797292568329125,
          0.8119628107064785,
          -0.025213498034684978,
          0.44058961947169917,
          -0.6730005179547824,
          -0.3066511994402381,
          0.867491952139507,
          0.9558511251514608,
          -0.9917137772922882,
          0.18896240331749614,
          0.0746306750106156,
          0.08227597229214934,
          0.3513071695790586,
          -0.02498292319982265,
          -0.9759995360984843
        ],
        "playerName": "RFFSimulation",
        "converter": {}
      },
      "fitness": 0.016666666666666666,
      "behaviours": [
        6.366666666666666,
        0.016666666666666666,
        82.68333333333334,
        1.9166666666666667
      ]
    }
  ],
  [
    {
      "value": [
        28,
        24,
        17,
        14
      ]
    },
    {
      "x": {
        "agentConfig": [
          0,
          5,
          2,
          0,
          1,
          0,
          2,
          2,
          0,
          1
        ],
        "weights": [
          0.9868964642033724,
          -0.7699438137763088,
          0.938949166485967,
          0.14894798585196178,
          -0.49451862866306695,
          0.5861952408322213,
          0.720402360042687,
          0.7722070515631663,
          0.1132484435391059,
          -0.08452921793017087,
          -0.5157939919789625,
          0.05626063143371263,
          0.9243203147390076,
          0.02885675180645242,
          -0.7962490257514969,
          0.955325490874902,
          -0.04260037105595105,
          -0.5764673771782609,
          -0.46043553489263234,
          -0.6900690834228558,
          -0.609950889490364,
          0.3144830817407165,
          -0.5728059710926359,
          -0.06719808720917775,
          -0.18630899836647363,
          0.5824202928468505,
          -0.33489131566893526,
          -0.25950905396807333,
          -0.5936215949392369,
          -0.415132698775176,
          0.8268972453399379,
          0.13638448390693303,
          0.020470397933709306,
          0.18544392332192383,
          0.6833710497352172,
          -0.709834738110974,
          -0.6750795759548316,
          0.32709990806003186,
          0.24400796877740993,
          0.9607644145559044,
          -0.6530347258051927,
          -0.9917566917921299,
          -0.4864986481413027,
          0.07428935482032673,
          -0.9744195952526835,
          -0.3835858056180581,
          -0.8919937288301005,
          0.3953681954082986,
          -0.2808543818177842,
          0.23235882787716178,
          -0.012996337380028589,
          0.3198034717902123,
          0.002343206607607673,
          -0.26193973060433007,
          0.7305304725325812,
          -0.9316190019367838,
          -0.45761202636058695,
          0.34548666210900825,
          0.02785306924467701,
          -0.6238660138721088,
          -0.6377316498232166,
          -0.4914802850979205,
          -0.6575119096358517,
          0.14831406058540142,
          -0.6212459742402581,
          -0.9112691753006557,
          -0.9201956317183437,
          -0.5062248900606818,
          -0.25449474786830506,
          -0.8836265755114252,
          -0.992733994261189,
          -0.9515712626151789,
          0.236695921254932,
          -0.4788347551633294,
          0.16370652693509635,
          0.565882991230078,
          -0.3258584658798471,
          -0.1968643384543134,
          -0.957148622852888,
          -0.6206707553657898,
          -0.7689992872249536,
          -0.22798239207307724,
          -0.5523665518644563,
          0.5281954972587266,
          -0.6623030073700638,
          0.20436597801211498,
          -0.914323669272469,
          0.09503706374266474,
          -0.12921331748699805,
          0.5507877488847364,
          0.7126455469320141,
          0.6125892049513135,
          -0.6769247119141864,
          -0.3286276580661527,
          -0.5710011032626887,
          -0.7221410106227097,
          0.7333640390564695,
          0.9856134281613746,
          0.5969930173546774,
          -0.8504130553999358,
          0.2967864321079723,
          -0.6061827203472117,
          0.7686322821313307,
          0.5073620974753703,
          0.7817718929541186,
          -0.13980492346737194
        ],
        "playerName": "RFFSimulation",
        "converter": {}
      },
      "fitness": 0.23333333333333334,
      "behaviours": [
        18.183333333333334,
        1.5833333333333333,
        32.88333333333333,
        6.516666666666667
      ]
    }
  ],
  [
    {
      "value": [
        34,
        31,
        13,
        8
      ]
    },
    {
      "x": {
        "agentConfig": [
          1,
          2,
          2,
          0,
          1,
          1,
          1,
          1,
          2,
          1
        ],
        "weights": [
          -0.004771115857312713,
          0.24598040281034295,
          -0.16633099279336072,
          0.28610932753051843,
          0.12788504785856536,
          0.9664199616284566,
          -0.1753164604484938,
          0.7609431047567776,
          0.27282149539493505,
          -0.8234759807287062,
          0.791776141056544,
          -0.8081696758686603,
          -0.2352180862126323,
          -0.44334597833378075,
          0.6025976458634132,
          0.274673575141096,
          -0.18361866034195673,
          0.5446325282325963,
          -0.04198495693367632,
          -0.8553844767914986,
          -0.3981802481521308,
          -0.19253640399176697,
          -0.09834687734958347,
          0.679326030584581,
          0.8919737465563964,
          -0.8639104843565348,
          -0.27809070091595633,
          0.7434227916459533,
          -0.1897361935577344,
          0.20611646214089085,
          0.6605651437457924,
          0.013246510370379383,
          -0.7662285245239246,
          -0.06935607329505378,
          0.5784463160402384,
          0.33566528350846814,
          0.3816606036207981,
          -0.022963271565126453,
          -0.4725892312621085,
          0.4515351522643982,
          -0.7869673335082263,
          -0.572319461419895,
          0.03927298793909739,
          0.35389814561059363,
          0.3989275317620502,
          0.5354660599805685,
          0.8661004465737876,
          -0.4470495365068876,
          0.8382550616261482,
          -0.9420504649566881,
          0.8926463594276508,
          0.0842685926701896,
          -0.04497462545526987,
          0.7498401337190459,
          0.9905109127839473,
          0.2237327207900015,
          -0.655680130327067,
          0.2516685944841812,
          -0.3050482692856471,
          -0.43795928358491,
          -0.2729736165939829,
          -0.16680600867082296,
          -0.2409084447044234,
          0.3436587765752732,
          0.6284373737658655,
          -0.7666908184023977,
          0.8766004166404642,
          -0.21049175179401103,
          -0.2866095754725193,
          0.1839078796194964,
          -0.8372432515145958,
          -0.5003593250065967,
          0.2907065969423055,
          0.11338023065799785,
          0.3451201848209189,
          0.9716073100963463,
          -0.8577385253807337,
          0.9961064273215243,
          -0.961122592368709,
          0.7721808466114692,
          0.5371017358312071,
          -0.6524789551803039,
          0.9682502727336937,
          0.964542150374992,
          0.058597224060976005,
          -0.03997613437976266,
          0.5441828776054307,
          0.019996181194680274,
          -0.2973017709427108,
          -0.8667833559549607,
          0.8198539937732023,
          0.6327357345994524,
          -0.40205574461497084,
          0.8726472621499,
          0.5193871679277582,
          -0.3918763271437289,
          -0.34705006630531776,
          -0.185552628799047,
          -0.42853867611494834,
          -0.6905816479215474,
          0.45467100431797336,
          -0.5210491516800297,
          0.3783508417374202,
          0.024819743283070572,
          0.8208313343443439,
          -0.13541423459182056
        ],
        "playerName": "RFFSimulation",
        "converter": {}
      },
      "fitness": 0.9833333333333333,
      "behaviours": [
        22.3,
        2.05,
        24.4,
        3.783333333333333
      ]
    }
  ],
  [
    {
      "value": [
        34,
        31,
        13,
        6
      ]
    },
    {
      "x": {
        "agentConfig": [
          1,
          1,
          2,
          0,
          2,
          1,
          0,
          1,
          1,
          1
        ],
        "weights": [
          -0.9177609993947908,
          -0.5404208216363862,
          -0.8397059673137206,
          -0.09089667541796453,
          0.6791572550914609,
          0.8736564043965818,
          -0.3801150024216502,
          -0.8362137503835647,
          0.1573043855583809,
          -0.7659069354421715,
          -0.5476960888458144,
          -0.1322102749322973,
          -0.7955081681850886,
          -0.0701486043316446,
          -0.8173196092380421,
          0.7124442758959857,
          0.3663705134670292,
          0.2850022744580383,
          0.6622921456751496,
          0.05441990388096851,
          -0.23257709997823972,
          -0.6222007564509286,
          0.2763440358579081,
          -0.9782649481126093,
          1.2424598280502686E-4,
          0.03019568094756364,
          0.38122599997574924,
          0.18086389212763487,
          -0.6594630300363926,
          0.7417905839985541,
          0.6461151678224122,
          -0.7179075520245255,
          0.49743039095395836,
          0.46914433296007774,
          0.30386702752498107,
          0.25847755260149086,
          0.2133465046111016,
          -0.1591433681859169,
          -0.2912836997070152,
          0.874466309986488,
          0.20985993610824805,
          0.650752969108578,
          -0.9466113510474294,
          0.2034356175734784,
          0.20560932587143355,
          -0.7140209218204114,
          -0.3841988633985427,
          -0.5408846013496382,
          -0.9654956540298119,
          -0.8762442807108604,
          0.48560758443365315,
          0.6140623770727607,
          0.25284124190505364,
          -0.13000053930084077,
          -0.636576687989648,
          0.7090533581279677,
          0.04788878674183428,
          0.3149679583997236,
          -0.2693576421910322,
          -0.20952848572396499,
          -0.2531673370676226,
          -0.9544582231790717,
          0.45533738462653583,
          -0.9915392512353696,
          0.7737962274548975,
          -0.7192925241422106,
          -0.2701889762233287,
          0.5668280821881317,
          0.5139831990226447,
          -0.8137398479452922,
          -0.8720536986850351,
          0.93637523300738,
          -0.7821848519870576,
          -0.2233032388557865,
          -0.4744195442436012,
          -0.9734546449733816,
          0.8142660950404632,
          0.8267240672907403,
          0.6447060259095396,
          -0.14402718446326435,
          0.3014236219953217,
          -0.9082405650531882,
          0.06238004611626047,
          -0.32927183731454046,
          -0.7563653067983034,
          0.5762539550007384,
          -0.3321987866828271,
          0.42975200303309635,
          0.8284218044870244,
          -0.4093770013400031,
          -0.2439077393284732,
          0.11017644006825389,
          0.922684164222219,
          -0.09798055488883906,
          -0.7850963550077823,
          0.3809342465645238,
          -0.38347430288577655,
          -0.5888592320989054,
          0.590032109384147,
          0.8512603761486786,
          0.8543804739937808,
          -0.5232873916060996,
          -0.7911737784074151,
          -0.6786076318967798,
          -0.07306564533985371,
          -0.7387552395314994
        ],
        "playerName": "RFFSimulation",
        "converter": {}
      },
      "fitness": 0.9166666666666666,
      "behaviours": [
        22.166666666666668,
        2.0166666666666666,
        25.3,
        2.5833333333333335
      ]
    }
  ],
  [
    {
      "value": [
        15,
        1,
        31,
        10
      ]
    },
    {
      "x": {
        "agentConfig": [
          1,
          3,
          0,
          1,
          0,
          1,
          2,
          2,
          3,
          0
        ],
        "weights": [
          0.056119951718599737,
          -0.5141094470340564,
          0.19958146253030984,
          0.4584025758966235,
          -0.09245514064540616,
          -0.17959491768627345,
          -0.8353357071752463,
          -0.8859314505374725,
          -0.506753221766691,
          0.5182642209477133,
          -0.7683980073705099,
          -0.3688196605782108,
          -0.8441689691056624,
          0.2050899633867842,
          0.7724048339367824,
          0.223933593037414,
          0.4000905313407297,
          -0.7206707203472731,
          -0.251037733395989,
          0.3653036919447532,
          -0.42228370394370995,
          0.04090212641589708,
          -0.06412895686902131,
          0.9985882167534557,
          -0.9764976836307322,
          -0.948061765266486,
          -0.3419796714065866,
          0.5767715138999279,
          -0.663535286788465,
          0.6949943336939413,
          -0.18454410795163567,
          -0.299232253055878,
          -0.32687527544616746,
          -0.8539005676014546,
          -0.5768763157739214,
          0.9108034798246962,
          -0.8434693508806788,
          -0.2055738523490418,
          0.41067061167329255,
          0.5309024846277133,
          -0.1965747480417559,
          0.5173415603178737,
          -0.9924404364948958,
          0.37463942580175624,
          -0.26671012926479665,
          0.1590424708559346,
          0.6813319949874708,
          0.5910326940599606,
          0.8468278677755077,
          0.06293423731389636,
          -0.6980678377025642,
          0.9626478900867439,
          -0.352224841774317,
          0.5723646104279345,
          0.9725824512154544,
          0.5636892643573956,
          -0.5692439189771028,
          0.041277855520986284,
          0.7977791031693273,
          0.8440569105111384,
          0.6692295982164906,
          -0.9141931594494745,
          0.7515558160891993,
          0.9260527291754266,
          0.11139943158789545,
          -0.4402252863399263,
          0.7642393637617928,
          0.18361957365459625,
          -0.17171031932906322,
          0.05153025214112872,
          -0.8364988448505317,
          0.019703038852432186,
          -0.7429838563056732,
          -0.4235058270217493,
          0.6855859714315711,
          0.16552619238265942,
          0.14361056866393151,
          0.579247295502916,
          0.41517689395941626,
          0.7962727849049758,
          0.21358456809930249,
          -0.6390559019831012,
          0.21743495239204025,
          0.29087642630785093,
          0.38474663302357937,
          0.6122885218888134,
          0.49332809339344097,
          -0.4406838032203624,
          0.38561548053806094,
          0.8592616266827973,
          0.4194440575970253,
          -0.4809765249101541,
          0.6754920111682681,
          -0.681755114898245,
          0.2260592187777848,
          0.5227063276245132,
          -0.635061675336676,
          -0.09086525797582956,
          -0.47768732090386967,
          -0.6768976074659778,
          -0.12925682926647752,
          0.9894975709967437,
          0.19491493792390813,
          0.505873151317223,
          -0.25972669691652683,
          -0.250231549854651
        ],
        "playerName": "RFFSimulation",
        "converter": {}
      },
      "fitness": 0.15,
      "behaviours": [
        9.616666666666667,
        0.03333333333333333,
        61.583333333333336,
        4.8
      ]
    }
  ],
  [
    {
      "value": [
        33,
        28,
        14,
        9
      ]
    },
    {
      "x": {
        "agentConfig": [
          1,
          1,
          0,
          1,
          1,
          1,
          1,
          0,
          0,
          0
        ],
        "weights": [
          -0.0035002815077327387,
          0.09936741966590712,
          -0.07954658713053409,
          0.516326361586853,
          0.36761471616791086,
          -0.985844574041814,
          -0.12396176666024528,
          -0.19733241704065452,
          -0.5914652052045413,
          0.6044433257614485,
          -0.19758557720852687,
          -0.8612591240935221,
          -0.2243693948748786,
          0.10041738811492507,
          0.326967608629287,
          0.9528479281384017,
          0.6265285706908594,
          -0.9409649213899629,
          -0.6283663205525352,
          0.817931824408239,
          0.22490800249636234,
          -0.4758429076357358,
          0.2796547508025753,
          -0.36928535544163177,
          0.7176488028871184,
          -0.5007576961984181,
          -0.07742348119810227,
          -0.8648326564103139,
          -0.443930867089257,
          0.9216314443092368,
          -0.4585449418109451,
          0.11312565607227465,
          0.8630732467083373,
          -0.5143511650912,
          0.687567676544045,
          0.7543211519828215,
          0.9406052330140733,
          0.38245372540319433,
          -0.6982477631903239,
          0.470048026571112,
          -0.9331153387512405,
          -0.6922228188898609,
          0.7078257308901947,
          -0.27085962095716054,
          -0.24952314726747726,
          -0.0656176656984302,
          -0.9056373477275232,
          -0.6281130850680909,
          -0.3116705023351858,
          -0.5457101113949863,
          0.9204403785892206,
          -0.7030359008733953,
          -0.1825153777844697,
          0.7665131267824083,
          0.6047882366370019,
          0.4184212441340376,
          0.05525393440849524,
          -0.5807493366554783,
          0.8441039969757007,
          -0.6457957446956317,
          -0.40977693579754604,
          0.2718622643948838,
          0.9551302859855524,
          0.43465826475085634,
          0.9165286358777973,
          -0.585242465995053,
          0.7464111577372099,
          0.3089019168963443,
          -0.8035700802012451,
          -0.5950719611188844,
          0.5994774157618208,
          0.6789196475092238,
          -0.008724384833876275,
          -0.9397394498018079,
          0.6755376495480858,
          0.5056712856345464,
          -0.08145653690192378,
          0.6487172868426139,
          -0.5374208397512978,
          0.40847130002514875,
          0.3727093671479347,
          -0.3811235412407883,
          0.23911215369564887,
          0.9183435747776436,
          0.09028043654877926,
          0.7879266041341422,
          -0.5453816508646101,
          0.7480099149371375,
          0.044404475390814824,
          0.8510132256336238,
          -0.4869075274221071,
          -0.6943757659383254,
          -0.07795331983004572,
          0.4322132298974575,
          -0.0051051944720112985,
          -0.6936818683788746,
          -0.7331974107118733,
          0.05561623525796322,
          -0.036540529900220386,
          0.5250744676226469,
          0.2629936676607454,
          0.13569491614723805,
          -0.3227675298263657,
          0.4864015720282886,
          -0.9082285035569289,
          -0.15881488260567522
        ],
        "playerName": "RFFSimulation",
        "converter": {}
      },
      "fitness": 0.95,
      "behaviours": [
        21.633333333333333,
        1.85,
        26.0,
        4.166666666666667
      ]
    }
  ],
  [
    {
      "value": [
        33,
        30,
        18,
        10
      ]
    },
    {
      "x": {
        "agentConfig": [
          1,
          5,
          2,
          1,
          1,
          2,
          1,
          3,
          4,
          0
        ],
        "weights": [
          -0.09870495531616452,
          0.8371402500064453,
          0.4062065750300696,
          -0.8715661464567594,
          -0.07355862097275545,
          0.21366262948843429,
          0.5320087038021104,
          0.16910340066692853,
          0.002472998823489281,
          0.7107585946406207,
          0.6900387124038037,
          -0.5802685586938847,
          -0.7816219135526776,
          -0.08795058145562762,
          0.3242141744531113,
          0.13759107541227533,
          -0.053532169907936966,
          0.1248586038038284,
          -0.31848127875574206,
          0.10687598429782197,
          0.12664102043728942,
          0.32043512008631114,
          -0.11796554718205576,
          0.6494583224627113,
          0.3114079999634771,
          -0.5021458720253007,
          -0.9106364181083737,
          -0.8263873394314607,
          -0.6102961805057123,
          -0.9790273660959514,
          -0.12767931189429338,
          0.45949690995084524,
          -0.23115152447803555,
          0.9172703762495542,
          0.991355838161301,
          -0.14911473534430253,
          0.7178398796334888,
          0.1293602648749399,
          -0.9517549347544334,
          0.05585086182596832,
          -0.43850525533959694,
          -0.725595541627549,
          -0.2948353832462527,
          0.35479887348537154,
          0.4637782879892203,
          0.5936262841878228,
          0.5093430718632752,
          0.6724542513859129,
          -0.35000556811579076,
          -0.536438531824972,
          -0.24793790791264136,
          -0.8088889895075688,
          0.09133398030737738,
          -0.9073557561568943,
          0.2458576225561664,
          0.9656535440156773,
          -0.08839157049903612,
          0.8411779868847375,
          -0.5786519789977245,
          0.3465633447428851,
          -0.925176629717662,
          0.9796929084673429,
          -0.27480300191234,
          -0.074672799806204,
          0.27357477772871786,
          0.6401460246989001,
          -0.056705318789499026,
          -0.8126328982193156,
          0.36207926914189836,
          -0.7836276486499392,
          0.7783200248866606,
          -0.9091856069893371,
          0.16397722340431486,
          0.5346492939843355,
          0.7784250912600312,
          0.38515379084874257,
          -0.9661236118630727,
          -0.2578112772645129,
          -0.45613989025383894,
          -0.35803345036241185,
          0.1629311394817079,
          -0.9491748247732916,
          0.030936354150020717,
          -0.30929523206685006,
          -0.7074191301897725,
          0.2251210701197741,
          0.7278014507983155,
          0.4356325726129968,
          -0.7631004752368455,
          -0.9814361630443322,
          -0.5059186549085928,
          -0.12422868621385508,
          -0.5871643675603755,
          -0.3615184884076845,
          -0.06348097524087182,
          -0.4421080578771315,
          -0.5610488448943434,
          -0.2402419057126597,
          0.3353206004511722,
          -0.3367020731870505,
          0.787094690407705,
          0.6093822164775486,
          0.3409956566188621,
          0.4623468680662117,
          0.45777379926062656,
          0.20831554181605938
        ],
        "playerName": "RFFSimulation",
        "converter": {}
      },
      "fitness": 0.38333333333333336,
      "behaviours": [
        21.566666666666666,
        1.95,
        35.8,
        4.85
      ]
    }
  ],
  [
    {
      "value": [
        8,
        1,
        40,
        8
      ]
    },
    {
      "x": {
        "agentConfig": [
          0,
          1,
          3,
          1,
          0,
          1,
          0,
          2,
          4,
          0
        ],
        "weights": [
          0.11801701427070066,
          -0.5820862577246655,
          -0.3220370100554746,
          0.33248923116686124,
          0.9967530375825859,
          -0.26522198393182106,
          -0.32859162266076436,
          0.41992176064444675,
          -0.2912969980812583,
          -0.7566581795474432,
          -0.10973083713836052,
          -0.45530217581966737,
          0.5091477424991644,
          -0.8398076284201474,
          0.23602008346118963,
          0.7232497508665721,
          -0.31041178618976395,
          0.20860900015883188,
          -0.40291553224425813,
          0.9143814499881653,
          -0.9014188796072498,
          0.021332758378137973,
          0.08904360140627166,
          -0.7294883533520518,
          -0.9202018190483658,
          -0.5574310142071512,
          0.2979550578990693,
          -0.4808626024387548,
          0.44748588786592025,
          -0.495813975943483,
          -0.8067079978935108,
          -0.24172941418918703,
          -0.381138822137979,
          -0.24072330668397668,
          -0.03987045730909622,
          -0.11094723761711922,
          -0.6886679523379078,
          0.1269521385454233,
          -0.9533972415166596,
          -0.5892928491476166,
          0.6572899233278122,
          0.43544075851856334,
          -0.10229503326974876,
          0.3674395185452506,
          0.8772411363951855,
          0.44626832232250657,
          0.7699744570780698,
          -0.136147043843164,
          0.8315699541357919,
          0.3004979556088212,
          -0.6638844831082993,
          -0.24510537671214339,
          -0.8157545055838427,
          -0.951287889902392,
          0.46242709422026507,
          -0.13169452210653665,
          -0.39335672498931507,
          -0.7903775914497326,
          0.27824091632093095,
          -0.5680022821100021,
          -0.6612410464047973,
          0.1478946715001379,
          -0.5446014542074873,
          -0.7442631120465986,
          0.6184238112177367,
          0.46998168035828813,
          -0.5228743199920358,
          0.655959413512369,
          0.9527988710904449,
          -0.3925422258926199,
          -0.4005104611214816,
          0.11450945211165409,
          -0.23067765940647567,
          -0.7094472729107244,
          -0.8050467708286464,
          -0.7734683320826488,
          -0.9464107533434876,
          0.710286649114577,
          0.21636996767214844,
          -0.3802902677738347,
          -0.7304611775445806,
          0.8258093397982129,
          -0.36891284078690667,
          0.21649403142464396,
          0.57099503463066,
          -0.5057490322064182,
          -0.1513412819779778,
          -0.537085653624241,
          -0.037343744016006264,
          -0.11640500002962173,
          0.4019928873266141,
          -0.03797292568329125,
          0.8119628107064785,
          -0.025213498034684978,
          0.44058961947169917,
          -0.6730005179547824,
          -0.3066511994402381,
          0.867491952139507,
          0.9558511251514608,
          -0.9917137772922882,
          0.18896240331749614,
          0.0746306750106156,
          0.08227597229214934,
          0.3513071695790586,
          -0.02498292319982265,
          -0.9759995360984843
        ],
        "playerName": "RFFSimulation",
        "converter": {}
      },
      "fitness": 0.0,
      "behaviours": [
        5.216666666666667,
        0.0,
        78.01666666666667,
        3.7666666666666666
      ]
    }
  ],
  [
    {
      "value": [
        29,
        24,
        18,
        12
      ]
    },
    {
      "x": {
        "agentConfig": [
          1,
          0,
          0,
          1,
          2,
          2,
          0,
          2,
          3,
          2
        ],
        "weights": [
          0.9122534804198847,
          0.056166153515096795,
          -0.4475284474891874,
          0.3640334246004546,
          -0.34540818915829186,
          -0.667433660334736,
          -0.8623442931744432,
          0.5178529145152526,
          -0.6196972360078452,
          0.9167025562517688,
          -0.575047764343595,
          0.21647181932329773,
          0.8379571043595266,
          0.8984956895142411,
          -0.38461682404303543,
          0.619646923252388,
          0.48787960047575174,
          0.8602746861479911,
          -0.6858865246249293,
          -0.7167974802603707,
          0.6342683117758317,
          0.34954673449124285,
          -0.16176979963493765,
          -0.2339440973475373,
          -0.4763605272229614,
          -0.3900821925665532,
          -0.5054595870092977,
          -0.6637558918372473,
          -0.7192467403375624,
          -0.8023346212495601,
          -0.8786065149775526,
          0.3028679831838028,
          0.9145024692787598,
          -0.9490804331593048,
          0.8311130995496336,
          0.9715732030819788,
          0.050076220550267614,
          -0.9196389476214861,
          -0.40529956440096604,
          -0.7456087808820444,
          0.5300371104152604,
          0.41479725667952616,
          0.07805049075680781,
          -0.4395341026727413,
          -0.42422077189038965,
          -0.9380673953971146,
          -0.031000829770306604,
          -0.24760505219599227,
          -0.18783755312882255,
          -0.06590000233670956,
          -0.07290065609179086,
          -0.3263820852896351,
          0.1319470206408786,
          0.9406752673914378,
          -0.7569001101428563,
          0.03548646975042291,
          -0.8870208479091122,
          0.1633488524340534,
          -0.6873184050581522,
          0.2983551642981839,
          -0.5000916192524776,
          0.007381778621685431,
          0.10908105488722275,
          0.589234091645324,
          0.12354370689900018,
          0.6614270537189733,
          -0.018188046563810456,
          -0.33075192234335393,
          0.554785573629732,
          -0.7995501922264068,
          0.31377167757704827,
          0.49735032371038246,
          -0.22360313914482388,
          0.23073289612875691,
          -0.16340146628089647,
          -0.9675587556919167,
          -0.7952944093562633,
          -0.8970915097980732,
          0.7342235206199086,
          0.5742466162459507,
          0.5046600956145366,
          -0.5915922413473469,
          0.057139139084726676,
          -0.8359880755443658,
          -0.1845156209753105,
          0.7266761384365377,
          -0.5750155333560976,
          -0.6507267073478518,
          0.24051140902738677,
          0.4049520005759313,
          -0.4873745042593236,
          -0.03733123949760908,
          -0.2464022802855339,
          0.5293624283047813,
          -0.6050134340338909,
          0.47295578066147304,
          0.035853862127458,
          0.18554091475224865,
          0.46846777036094944,
          -0.06289539085438323,
          -0.8197496932786055,
          -0.39107378064635934,
          0.3718605488599507,
          0.615541171596683,
          -0.31201121111231855,
          0.8893534660556859
        ],
        "playerName": "RFFSimulation",
        "converter": {}
      },
      "fitness": 0.8,
      "behaviours": [
        19.183333333333334,
        1.55,
        35.95,
        5.5
      ]
    }
  ],
  [
    {
      "value": [
        26,
        19,
        17,
        11
      ]
    },
    {
      "x": {
        "agentConfig": [
          0,
          5,
          2,
          0,
          1,
          0,
          2,
          2,
          2,
          1
        ],
        "weights": [
          0.9868964642033724,
          -0.7699438137763088,
          0.938949166485967,
          0.14894798585196178,
          -0.49451862866306695,
          0.5861952408322213,
          0.720402360042687,
          0.7722070515631663,
          0.1132484435391059,
          -0.08452921793017087,
          -0.5157939919789625,
          0.05626063143371263,
          0.9243203147390076,
          0.02885675180645242,
          -0.7962490257514969,
          0.955325490874902,
          -0.04260037105595105,
          -0.5764673771782609,
          -0.46043553489263234,
          -0.6900690834228558,
          -0.609950889490364,
          0.3144830817407165,
          -0.5728059710926359,
          -0.06719808720917775,
          -0.18630899836647363,
          0.5824202928468505,
          -0.33489131566893526,
          -0.25950905396807333,
          -0.5936215949392369,
          -0.415132698775176,
          0.8268972453399379,
          0.13638448390693303,
          0.020470397933709306,
          0.18544392332192383,
          0.6833710497352172,
          -0.709834738110974,
          -0.6750795759548316,
          0.32709990806003186,
          0.24400796877740993,
          0.9607644145559044,
          -0.6530347258051927,
          -0.9917566917921299,
          -0.4864986481413027,
          0.07428935482032673,
          -0.9744195952526835,
          -0.3835858056180581,
          -0.8919937288301005,
          0.3953681954082986,
          -0.2808543818177842,
          0.23235882787716178,
          -0.012996337380028589,
          0.3198034717902123,
          0.002343206607607673,
          -0.26193973060433007,
          0.7305304725325812,
          -0.9316190019367838,
          -0.45761202636058695,
          0.34548666210900825,
          0.02785306924467701,
          -0.6238660138721088,
          -0.6377316498232166,
          -0.4914802850979205,
          -0.6575119096358517,
          0.14831406058540142,
          -0.6212459742402581,
          -0.9112691753006557,
          -0.9201956317183437,
          -0.5062248900606818,
          -0.25449474786830506,
          -0.8836265755114252,
          -0.992733994261189,
          -0.9515712626151789,
          0.236695921254932,
          -0.4788347551633294,
          0.16370652693509635,
          0.565882991230078,
          -0.3258584658798471,
          -0.1968643384543134,
          -0.957148622852888,
          -0.6206707553657898,
          -0.7689992872249536,
          -0.22798239207307724,
          -0.5523665518644563,
          0.5281954972587266,
          -0.6623030073700638,
          0.20436597801211498,
          -0.914323669272469,
          0.09503706374266474,
          -0.12921331748699805,
          0.5507877488847364,
          0.7126455469320141,
          0.6125892049513135,
          -0.6769247119141864,
          -0.3286276580661527,
          -0.5710011032626887,
          -0.7221410106227097,
          0.7333640390564695,
          0.9856134281613746,
          0.5969930173546774,
          -0.8504130553999358,
          0.2967864321079723,
          -0.6061827203472117,
          0.7686322821313307,
          0.5073620974753703,
          0.7817718929541186,
          -0.13980492346737194
        ],
        "playerName": "RFFSimulation",
        "converter": {}
      },
      "fitness": 0.23333333333333334,
      "behaviours": [
        16.8,
        1.2,
        32.93333333333333,
        5.0
      ]
    }
  ],
  [
    {
      "value": [
        1,
        1,
        40,
        7
      ]
    },
    {
      "x": {
        "agentConfig": [
          0,
          1,
          1,
          1,
          1,
          0,
          3,
          1,
          3,
          1
        ],
        "weights": [
          0.3046765068651476,
          0.20548825386358915,
          0.29051516063310046,
          -0.41897677936094757,
          0.9503863726746786,
          -0.9675198317144309,
          -0.28483803483203785,
          0.5648397773907075,
          0.9567537568789415,
          0.6508230670393109,
          -0.9241325991898619,
          -0.04931423311210459,
          -0.42195593993641634,
          0.5062785171161441,
          -0.743689121120868,
          -0.26531603753166166,
          0.43220337152239674,
          0.6715029957221361,
          0.7016218189597825,
          0.28289175628591123,
          -0.913237505104457,
          0.6556900344351653,
          0.4903078428829579,
          0.10965459880598805,
          0.24448995884261704,
          -0.4557376183449442,
          -0.011860278853190298,
          0.2809401173228252,
          -0.48677074338542936,
          0.9906469694392741,
          -0.6962193447123504,
          0.19181259166519538,
          0.7306853450135191,
          0.14661998945360266,
          0.033526039317006484,
          -0.47765552931185296,
          0.8637516109794681,
          0.7446620583167534,
          -0.8874030452576782,
          -0.11482628568542719,
          0.613299129545072,
          -0.7647836883620236,
          -0.01699013664060134,
          0.8580506744725951,
          0.02917516598034875,
          -0.8663043636370893,
          0.7431223062362546,
          0.898206396179396,
          0.6764891107121753,
          0.5465388048296518,
          0.4615329955419911,
          0.2609952517550327,
          -0.8069109005083779,
          -0.7774329855613065,
          0.41809250135504117,
          0.6684782946721817,
          -0.5605360793335565,
          0.4153474198588103,
          0.677359159219576,
          -0.05568274855158584,
          -0.13387036870225044,
          -0.6557781545057704,
          0.10491260430934402,
          -0.13544821301900267,
          -0.7901090377971904,
          0.10611237874699309,
          -0.29548406508137326,
          0.06953577290327084,
          -0.8208050307005801,
          0.5171690322712374,
          0.9841951036886294,
          0.04051173010400122,
          -0.5998787733150008,
          -0.4472223807062421,
          0.9518824878315102,
          0.8650057200433918,
          -0.43161631434147796,
          0.806398618783936,
          -0.7036498964130489,
          0.7984275163053463,
          0.4890442788168792,
          -0.2978382142740632,
          -0.673264884878451,
          -0.5250352841131938,
          -0.5155307390487618,
          0.07309375475639657,
          0.3240395713264468,
          -0.9709375371210252,
          0.5123855987113433,
          -0.8436908122395248,
          -0.8994366358532158,
          0.359482953465182,
          -0.740276636964752,
          -0.9415507664015847,
          0.7683083221058775,
          -0.6988571625006545,
          0.46425883678684077,
          -0.690896097059529,
          0.984969122532998,
          0.5656291971168088,
          0.7649000473574024,
          -0.7530912754776271,
          0.2762044879567722,
          0.9694984702608545,
          -0.5072146641440161,
          0.6724584760199195
        ],
        "playerName": "RFFSimulation",
        "converter": {}
      },
      "fitness": 0.0,
      "behaviours": [
        0.03333333333333333,
        0.0,
        79.13333333333334,
        3.0
      ]
    }
  ],
  [
    {
      "value": [
        16,
        4,
        34,
        7
      ]
    },
    {
      "x": {
        "agentConfig": [
          1,
          0,
          2,
          0,
          2,
          2,
          2,
          3,
          4,
          1
        ],
        "weights": [
          -0.08514750400054472,
          0.30910843286507306,
          -0.6972543335167622,
          -0.10049650023830137,
          0.6273470436449053,
          -0.7381306178734639,
          -0.912079581846712,
          0.24025882025327272,
          0.2778309451689298,
          -0.37439796028460925,
          0.10227340046524325,
          -0.11784750468257998,
          0.7057755966260977,
          0.6116829791500444,
          0.6911733591772977,
          0.47739392208470477,
          -0.34000846884486857,
          0.3627274491201853,
          -0.03712276835830708,
          -0.9942593808758062,
          -0.9957569218130298,
          0.2918396858421881,
          -0.7348271611623474,
          -0.5977908524790021,
          -0.05825905330588865,
          0.7291462221967442,
          -0.42771345193176225,
          -0.9590720660906205,
          -0.14181849711871375,
          -0.002743911398096044,
          0.9608278131126704,
          0.5024394882574181,
          -0.44316765105693756,
          0.2892434274550568,
          0.8086207220257302,
          -0.16503825436982655,
          0.8954907090389759,
          0.5372020587001023,
          -0.13214887310066592,
          -0.1341773370857715,
          -0.8660312295741033,
          0.8363746603857358,
          -0.055965223193319646,
          -0.9725164766413235,
          -0.3379102365619271,
          0.9293117928029364,
          -0.4451078385710896,
          0.6332718857403845,
          -0.7979948130725063,
          0.75646963705212,
          0.6482916605072588,
          0.5711455222747852,
          -0.9350272608971333,
          0.14410816114670877,
          0.22600218950187734,
          0.9795143912757012,
          0.5915618760978243,
          -0.6726951600831057,
          -0.4499257979670497,
          -0.3726507901197298,
          0.5155825616972045,
          0.19535169793062623,
          0.5012456217836871,
          -0.5584917788584902,
          0.6658611417336093,
          -0.10124268584605223,
          -0.38615147932564264,
          -0.09258138372303937,
          0.15631412403738532,
          -0.22847248690484778,
          -0.6707310956580057,
          -0.08505021341961094,
          -0.9863995005652846,
          -0.6006472069696136,
          -0.9099082590561554,
          0.029520514907303452,
          0.052960140676167944,
          0.10378248823229508,
          0.039640116556418414,
          -0.8608150337652682,
          0.7366741452832064,
          0.11441993768503322,
          0.2966964247794517,
          -0.038355728521854315,
          0.7359117616461999,
          -0.7343750817915145,
          -0.9572285680871708,
          -0.009164119744300203,
          -0.03444430106587282,
          0.18116370597555975,
          0.9893644983009586,
          -0.8790464196095955,
          -0.027073372447158794,
          -0.4003004278060043,
          0.18523750571438224,
          0.40645587671491357,
          0.7351548921321232,
          -0.25402987254109743,
          -0.42119746611842723,
          0.19982306050591636,
          -0.8437232125639531,
          -0.5330495898146417,
          0.2683011326574265,
          0.2545256611719695,
          0.8539596294210468,
          0.2292549180318202
        ],
        "playerName": "RFFSimulation",
        "converter": {}
      },
      "fitness": 0.23333333333333334,
      "behaviours": [
        10.016666666666667,
        0.21666666666666667,
        67.05,
        3.1166666666666667
      ]
    }
  ],
  [
    {
      "value": [
        23,
        9,
        26,
        15
      ]
    },
    {
      "x": {
        "agentConfig": [
          1,
          4,
          0,
          0,
          2,
          1,
          2,
          3,
          2,
          1
        ],
        "weights": [
          0.7635407579576075,
          0.20073136714005257,
          0.807532888397561,
          0.7577152462475212,
          -0.2900773994395234,
          0.9344194689168503,
          0.7630279499019439,
          -0.10597644431663378,
          0.3897766460886565,
          -0.5603224373661622,
          -0.24587953120085415,
          0.12451245230539354,
          -0.7369840903772602,
          0.07272174468782877,
          0.26023752661037136,
          -0.2774169047977262,
          -0.12125878916055366,
          0.792873804193027,
          -0.5758746719402514,
          -0.687895948612572,
          -0.6442244672460054,
          0.1623052872759605,
          0.7446036684286337,
          -0.5660332214143429,
          0.6282305967984565,
          0.1555670310974333,
          0.848592412364177,
          0.3706997471242348,
          0.41710364315437154,
          0.8400014915442013,
          0.16375863073689767,
          -0.872848653543405,
          0.12523118232922537,
          -0.19741449123217425,
          0.8307141088698797,
          -0.18904494928092253,
          -0.8482454272096709,
          -0.42429229167508353,
          -0.22623164414398733,
          -0.43530690009281736,
          -0.5164196941050332,
          0.25383470759307736,
          -0.5081778266686121,
          0.672378619268881,
          0.8451460519986478,
          -0.0050245704846236805,
          -0.16393554174930935,
          0.4960787420001249,
          -0.8258684575393107,
          -0.8346943320175635,
          0.8087125722976791,
          0.4942047670357834,
          -0.2604181726553809,
          0.5122668827951959,
          -0.752884616555791,
          -0.2688017260513853,
          -0.16976222159308052,
          -0.05909156209332145,
          -0.8498840239108469,
          -0.9909549732539282,
          0.6146980903299619,
          0.2201935945302309,
          0.3586490186406217,
          -0.9657473504151024,
          -0.4886361790787257,
          -0.7395563465203734,
          -0.6798738902303205,
          -0.1203701559743815,
          -0.7950543198405857,
          -0.5199513906682691,
          0.7462400835823195,
          -0.5915915180540168,
          -0.6923584034131105,
          -0.7809764177549039,
          0.11639868341925275,
          -0.7010458222594647,
          -0.4130788660885365,
          -0.8410545967053797,
          0.18407381967970426,
          0.8415119244416185,
          -0.331819833127732,
          0.2732565490869421,
          -0.08906654835058059,
          0.7741384916835119,
          -0.8306411695557743,
          0.9588753134941577,
          -0.41630088777427554,
          0.08317522742704186,
          0.33594297449162314,
          -0.3104936822529978,
          -0.7387485468852448,
          -0.08568161116608741,
          0.4185968692482618,
          -0.21700310670612422,
          -0.8454164378901672,
          0.5235474816980232,
          -0.7279946320958535,
          0.689538991862946,
          0.05978068031713901,
          -0.45712528364119054,
          0.9523287666645712,
          -0.415531118066401,
          -0.4557175949522625,
          0.7440823791784543,
          0.45200414736902417,
          -0.011129695088151426
        ],
        "playerName": "RFFSimulation",
        "converter": {}
      },
      "fitness": 0.6833333333333333,
      "behaviours": [
        14.966666666666667,
        0.5333333333333333,
        50.35,
        7.25
      ]
    }
  ],
  [
    {
      "value": [
        27,
        17,
        22,
        10
      ]
    },
    {
      "x": {
        "agentConfig": [
          1,
          3,
          0,
          0,
          1,
          2,
          0,
          1,
          2,
          2
        ],
        "weights": [
          0.2845945250686701,
          0.07072521576618906,
          0.5566583005720096,
          -0.6664043542686893,
          -0.4464078553585489,
          0.13625634352455318,
          -0.5265416553727817,
          -0.8459155617759717,
          0.8751222655764563,
          -0.6994612334686048,
          0.9705140646186781,
          -0.9148432874645485,
          -0.8656511239785194,
          -0.814003545256027,
          -0.8998027511750544,
          -0.1673053745950952,
          0.6332771298034245,
          0.3399680900800728,
          0.3241671219102298,
          -0.41584494805224703,
          0.7701463529636703,
          0.19171690495484972,
          0.3196257767206485,
          -0.9457887962380931,
          0.04897921403855676,
          0.8760499888623501,
          -0.69991340636118,
          -0.29241874854947403,
          -0.7076048266813781,
          -0.24387205625155817,
          0.6778652134280836,
          -0.32771204854937275,
          -0.14537594062101378,
          -0.5200016244464585,
          -0.89941968726939,
          -0.6102014802024651,
          0.6179843945192873,
          -0.030160291977986642,
          -0.8384693235554312,
          -0.855806106664929,
          0.604918222175908,
          -0.13014402945921888,
          -0.5861085128469934,
          -0.7292772455885266,
          0.1490029571273348,
          -0.33178482327988923,
          -0.2887476213197404,
          -0.9352033248221703,
          0.7421891568474179,
          0.9603770721294591,
          -0.6479025568935135,
          0.19568695589120755,
          -0.08815958578232674,
          0.1356110138994855,
          -0.9765952630903545,
          0.7748865091540238,
          0.7799805994068549,
          0.14545433963579724,
          -0.8813774452663707,
          -0.8626970012870103,
          0.3184805875642658,
          0.9523187224686449,
          0.6478561363577608,
          -0.13584646041425774,
          -0.2622530875177038,
          -0.24159796965700786,
          0.6631778618587605,
          0.6096328209861057,
          0.9327996630760573,
          0.17951803176410897,
          -0.11044833705529356,
          0.889131217023371,
          0.45945863815821575,
          -0.8445915334255119,
          0.08193997412915133,
          -0.855018330181865,
          -0.8753179962805548,
          -0.4224439112962317,
          0.5217412115696196,
          0.12641744178576642,
          0.9489314528162622,
          -0.6325305562950905,
          -0.9792182816323087,
          0.9036259568886005,
          -0.005234405292532829,
          0.052863824336455645,
          0.8186660121145888,
          0.6814872422774065,
          -0.6453087677578409,
          -0.2338840336901764,
          0.8393670530021711,
          0.9867883458850286,
          -0.5473698243252836,
          -0.9711771579892903,
          0.9155149533695301,
          0.7734083468631179,
          0.7371882109372279,
          0.6882483958038934,
          -0.20607712970612968,
          -0.47682795474508843,
          0.8312398703100337,
          -0.06410513046590194,
          0.003464715133997043,
          0.5157725056476794,
          0.25117158789586935,
          0.4653891599722133
        ],
        "playerName": "RFFSimulation",
        "converter": {}
      },
      "fitness": 0.36666666666666664,
      "behaviours": [
        17.85,
        1.1,
        43.666666666666664,
        4.633333333333334
      ]
    }
  ],
  [
    {
      "value": [
        33,
        24,
        18,
        9
      ]
    },
    {
      "x": {
        "agentConfig": [
          0,
          4,
          2,
          0,
          1,
          1,
          1,
          0,
          3,
          1
        ],
        "weights": [
          0.19852889101375593,
          0.7418083246288352,
          -0.1183084716497238,
          -0.415573903972446,
          -0.49589927266924283,
          -0.8562893825102857,
          -0.604899955503925,
          -0.2573801555697981,
          -0.8469931318073671,
          0.24879623631713743,
          -0.5938235231926197,
          0.2904624083096148,
          0.12469625530491779,
          0.5897288688214086,
          0.021609484082368846,
          0.5790010486034314,
          0.6022888827906665,
          0.02526402448789855,
          -0.6054723820417844,
          0.9520929862744592,
          -0.1935896851003862,
          -0.7152548862099333,
          -0.8183434203719961,
          0.445328954405249,
          -0.9982877402018286,
          0.7197854243344606,
          -0.8495126172441478,
          -0.7355612969643899,
          -0.17737642503284157,
          0.8066537263674791,
          -0.5878973374375354,
          -0.3576394418492559,
          -0.26129335971177725,
          -0.30516505433399166,
          0.7103861995725866,
          0.9573603188823638,
          -0.783680831362692,
          -0.5883098717890367,
          -0.7840814328576746,
          -0.1597123188255991,
          0.9321125258044884,
          0.21009330812277227,
          0.35294067789691264,
          -0.5927382232509235,
          0.2552238921972043,
          -0.014624492785949572,
          0.3303444518178458,
          -0.2752192530559123,
          0.13884812160419813,
          0.6898598187334919,
          0.25272833151515317,
          0.147452608005453,
          0.5482041789632204,
          0.2377244818899884,
          -0.044867038747434584,
          -0.7357514590894356,
          0.6007374403430057,
          0.5198833653827688,
          -0.9648482922304014,
          -0.15261722942357325,
          0.7057293217184324,
          -0.16197211938069977,
          0.9486871837027249,
          0.418625863216078,
          0.16431191998333872,
          -0.6810748026773614,
          0.49070420088913336,
          -0.16893815185835548,
          0.9272148121702093,
          -0.31547665131497804,
          -0.5000925412840362,
          0.6100025117546264,
          0.5063984728094981,
          -0.8696348784074885,
          0.20635007325749322,
          0.7049754108825022,
          0.39805780906564525,
          -0.9957341521812695,
          0.2835578789085176,
          -0.2245948072169235,
          0.7983058169997566,
          -0.5208351621752254,
          0.37183133514416156,
          -0.834189101339575,
          -0.12082226247021755,
          0.4785111337100185,
          -0.39303341451615714,
          0.32204542404668834,
          0.4414219927375562,
          -0.26050042163579623,
          -0.48128609754507923,
          0.5583056333792367,
          0.37187404616550457,
          0.0889242911036825,
          -0.44412910503300895,
          -0.194654152817908,
          0.007035882887527878,
          -0.24162835793196846,
          0.4499853403003593,
          -0.7464706338812035,
          -0.7591859500257538,
          0.8799260692105784,
          0.647220835277019,
          0.6500570457857975,
          0.013194373619738853,
          0.18051748045313976
        ],
        "playerName": "RFFSimulation",
        "converter": {}
      },
      "fitness": 0.8333333333333334,
      "behaviours": [
        21.366666666666667,
        1.5833333333333333,
        35.833333333333336,
        4.216666666666667
      ]
    }
  ],
  [
    {
      "value": [
        28,
        18,
        21,
        7
      ]
    },
    {
      "x": {
        "agentConfig": [
          0,
          5,
          2,
          1,
          0,
          0,
          0,
          2,
          0,
          0
        ],
        "weights": [
          -0.3922635900316136,
          -0.7723066129865317,
          -0.17210286774870842,
          -0.1925030616899861,
          -0.7445501643578425,
          0.4726963224056071,
          0.4157279743306468,
          0.2781865795466234,
          -0.6419606333422143,
          -0.08862984624356685,
          0.9403091690429946,
          -0.5660114449380067,
          0.44749606919343443,
          -0.7836938066038135,
          0.015182732732921478,
          -0.6508467685099144,
          0.7363057840021541,
          0.30921206869933626,
          -0.15202146429423413,
          0.7601151032825735,
          -0.9556441505362332,
          -0.057878547156160476,
          0.5393161072021642,
          0.013303426976414734,
          0.08947581362045565,
          -0.636494532232436,
          -0.35497130088032325,
          0.7682954939206366,
          0.765696728834208,
          0.2544057014771963,
          -0.6544779993261278,
          0.7127210435090552,
          0.7383917157191449,
          -0.8470885160427977,
          -0.9475947353780563,
          0.6097795486521373,
          -0.5469616502947214,
          0.1810069067857063,
          -0.16863708150582357,
          -0.37381454122642044,
          0.48442186864505987,
          0.046017332690385215,
          0.6315621236792772,
          -0.9221903349877436,
          -0.95432390920803,
          0.009586858961755818,
          0.9857192510255757,
          0.4822378316991405,
          -0.5683629856805676,
          0.8003221412551351,
          0.5812773837698828,
          -0.8780796790432353,
          0.18856264033169046,
          0.29194138024012184,
          0.9019747866594106,
          -0.801458548180245,
          -0.11764977966313506,
          0.17696940754190327,
          4.1144974070861373E-4,
          -0.901312516424289,
          -0.5200399613032478,
          0.8367236894966472,
          0.3860509027317651,
          -0.7071512530755395,
          0.5638340735216438,
          -0.8584605973651833,
          -5.797705974384115E-4,
          0.9542410074120864,
          -0.133325408658042,
          0.010883689046467637,
          -0.7078982299192222,
          0.5108871590057802,
          -0.05597316095502136,
          -0.778786263419708,
          -0.4565642716794409,
          0.03385204240509321,
          -0.8053122838804792,
          0.17013562020716178,
          0.7186833614687587,
          -0.38352377482420064,
          -0.1059594514474298,
          -0.9113759541146476,
          -0.5902736341873982,
          -0.2860915971997786,
          0.4229942467233694,
          -0.46123351796187717,
          0.6982082866827095,
          0.7891888633208288,
          -0.5447169058671941,
          -0.05730183054227855,
          0.14234976885165906,
          0.5515895743190531,
          -0.49153834137357544,
          -0.6409022954749937,
          -0.48750032332968174,
          -0.4251308753418468,
          0.9690075448947262,
          0.7568157268365441,
          0.3868105099950023,
          0.14755516029718607,
          -0.5304777391864599,
          -0.36908718665273654,
          -0.7327441733993625,
          0.8343185934019774,
          -0.6738999075661931,
          0.9645856756642677
        ],
        "playerName": "RFFSimulation",
        "converter": {}
      },
      "fitness": 0.8,
      "behaviours": [
        18.383333333333333,
        1.1666666666666667,
        40.93333333333333,
        3.033333333333333
      ]
    }
  ],
  [
    {
      "value": [
        21,
        6,
        26,
        13
      ]
    },
    {
      "x": {
        "agentConfig": [
          0,
          3,
          3,
          1,
          0,
          2,
          3,
          1,
          1,
          0
        ],
        "weights": [
          -0.8117732736719943,
          0.8667983359030353,
          -0.09860761551008523,
          0.6974873625492892,
          0.5203046237618731,
          -0.6944781434435934,
          -0.7135670140000179,
          0.04854075240574218,
          -0.15783366679882338,
          -0.0948592834350852,
          0.47608538215760476,
          -0.8312491275884586,
          -0.18935223729253758,
          -0.14129460029211005,
          -0.9901572927604974,
          0.5381506169100787,
          0.3886404511928432,
          -0.3976671854556153,
          0.7735374038504526,
          0.9240613107353677,
          0.9242595228261661,
          0.17393728814805987,
          0.39206347882538606,
          0.3607274073251785,
          0.25264305510553253,
          0.8827541380584634,
          -0.11476163759312152,
          0.39631780739145617,
          0.3292317893826424,
          0.37516677915879515,
          0.47163116555862983,
          -0.32965725475423757,
          -0.5790420723452172,
          -0.4719498092512051,
          0.7040122787041212,
          -0.7385109089524637,
          -0.538150320770836,
          0.5090473645463189,
          -0.518593165429875,
          0.18532891572100452,
          0.8221349010628516,
          0.8138988415483539,
          0.9065633265041555,
          0.9233109996418449,
          0.4450078912008064,
          0.12414704508851915,
          -0.5560233353299735,
          -0.07110371146744976,
          0.07279905606618797,
          -0.575757329701247,
          0.3824325533365862,
          0.6836526370344671,
          0.11436621345835452,
          -0.0247193123997691,
          0.21736916060775924,
          -0.9344233852385295,
          -0.4018943556543275,
          0.46329943766029524,
          0.24217875309533188,
          0.5438641085523017,
          -0.3899434746204471,
          -0.07672301058705222,
          0.3739022724762613,
          0.028803391649336207,
          0.6341529415950944,
          -0.11433636002979997,
          -0.9624049636744687,
          0.08241832855914644,
          -0.7082454668804188,
          -0.3995076261002555,
          0.7949729385376636,
          -0.36505717920967706,
          -0.8798347243037639,
          -0.8351889557285956,
          0.32677426095310524,
          -0.645840986797209,
          -0.7650721239132001,
          0.9123847739755542,
          -0.6353985122087735,
          -0.6209126277766117,
          -0.01174035578991739,
          -0.4796807315245002,
          0.2168355995903073,
          0.2564677239996418,
          0.06607370934419787,
          -0.05454107315099033,
          -0.3554567731543541,
          0.607924481083636,
          0.8586073162863392,
          -0.4758831765771556,
          0.017124705815112495,
          -0.6923374626552388,
          -0.6052421984860574,
          0.3518969863221726,
          0.9137803775734417,
          -0.23500714868209172,
          0.6478037586949756,
          0.4060724748093558,
          -0.36430019973873073,
          -0.7170596437583401,
          -0.39973164249641147,
          0.7811853755597902,
          -0.5447940698496785,
          -0.5963606747426087,
          -0.9017410483657735,
          -0.1207615108675617
        ],
        "playerName": "RFFSimulation",
        "converter": {}
      },
      "fitness": 0.3,
      "behaviours": [
        13.733333333333333,
        0.36666666666666664,
        51.96666666666667,
        6.166666666666667
      ]
    }
  ],
  [
    {
      "value": [
        12,
        1,
        31,
        9
      ]
    },
    {
      "x": {
        "agentConfig": [
          1,
          2,
          1,
          1,
          0,
          2,
          3,
          3,
          4,
          1
        ],
        "weights": [
          0.48356470382157735,
          0.634745717675919,
          -0.19538916216293956,
          -0.8331691471367537,
          -0.9961260487595882,
          0.02878676761458898,
          0.65682710930471,
          0.6654008835088197,
          0.7729843132798448,
          0.14591903350699553,
          -0.553585303940918,
          -0.4231930071676888,
          0.1272064200902967,
          -0.9662021104097391,
          -0.023155632751384214,
          -0.18883134091648524,
          0.8271740198034065,
          0.9164465463750469,
          -0.6033950441479923,
          0.7949047992823182,
          -0.9164659895603273,
          0.033475143481919156,
          -0.9080246390057563,
          -0.9174709659618423,
          0.365643278194816,
          0.19206947178904876,
          0.11307738827766434,
          -0.8368211046189449,
          0.17790355890756615,
          0.07429237078119622,
          0.5063182362657181,
          0.7944610578944349,
          0.13094359806752265,
          -0.6870586683968909,
          0.8501580974321741,
          0.19814432964167428,
          -0.1600632101500743,
          -0.11758951698575881,
          0.2774672344438771,
          0.016689370026599093,
          0.4499191279230299,
          -0.553292044050739,
          0.3165645605112737,
          0.05655305198738292,
          0.918052302999949,
          -0.03501765875513296,
          -0.0056411220731078515,
          -0.46633779134771314,
          -0.4246470778617095,
          0.07561561737923816,
          0.8188400414694055,
          -0.21159825434199986,
          0.945489059847705,
          -0.4368574063649273,
          0.49449807227665143,
          0.2519172336411757,
          -0.6841788721188684,
          0.5579602578706697,
          -0.47692585385575414,
          -0.1775162236892185,
          0.13594445886832185,
          -0.9730060099689755,
          -0.7966235949904648,
          0.7501474364808496,
          -0.03843236555470364,
          -0.4158104152891988,
          0.9677222941688994,
          0.6297973118627493,
          -0.6333611843412821,
          0.6829040543766318,
          -0.5211044756127619,
          0.1672801036432392,
          -0.9857881756457523,
          -0.15202845274386179,
          -0.5396639142181254,
          0.010122687351311388,
          0.9066193529933095,
          -0.23657715583875172,
          0.8436077737581349,
          -0.8761197426751861,
          0.7281018644171937,
          -0.24745940194790506,
          0.4910173537582381,
          -0.05291894654075002,
          -0.8518841106122925,
          -0.5298638603603609,
          -0.5124132289102497,
          -0.1278073426090196,
          -0.028874107035584462,
          0.4726352950145236,
          0.7954082809034129,
          0.47698683163789557,
          -0.9012393095691045,
          0.7397654923853201,
          0.9247403625625703,
          -0.6298666436358038,
          0.41279370535813387,
          -0.8076613667439512,
          -0.7999696415681476,
          0.5168070426546925,
          0.8924851930155524,
          -0.21617277415993552,
          -0.8146216134539843,
          -0.525455779266008,
          -0.45259842287194574,
          -0.160865202630468
        ],
        "playerName": "RFFSimulation",
        "converter": {}
      },
      "fitness": 0.05,
      "behaviours": [
        7.733333333333333,
        0.0,
        61.06666666666667,
        4.133333333333334
      ]
    }
  ],
  [
    {
      "value": [
        1,
        1,
        45,
        7
      ]
    },
    {
      "x": {
        "agentConfig": [
          1,
          1,
          3,
          0,
          0,
          2,
          1,
          3,
          1,
          0
        ],
        "weights": [
          0.9508835123418382,
          -0.5804219242069362,
          0.10029313111809968,
          0.006633710263961756,
          -0.40524770895831974,
          -0.5926873934214616,
          0.1996986874606299,
          0.06509111547067459,
          0.6613523842824565,
          0.8709316169136689,
          -0.25026899878303976,
          0.7176296544219154,
          0.9805484352401919,
          0.9645021485924203,
          0.5828871581018316,
          0.5774463103000234,
          -0.4813816956364836,
          0.8638270649844795,
          0.9063643820572556,
          0.0011982418891876012,
          0.1999389400884075,
          -0.0657632743293024,
          -0.15751855933637748,
          -0.3125783894894183,
          0.06801439595192349,
          -0.75487655243947,
          -0.9617909094180701,
          0.45033672209539843,
          -0.14866354799909542,
          -0.03600511652945415,
          0.19152693751486294,
          -0.6643954773504226,
          -0.17035258600130798,
          -0.678975837829255,
          -0.04634824230279522,
          0.43405282867185013,
          -0.2112490395734341,
          0.5557803898043852,
          -0.6599887804499505,
          -0.4986572296463654,
          -0.19290276080904345,
          -0.45897644657195524,
          -0.48083571675744063,
          -0.19399967890835068,
          0.6349447366555145,
          -0.3758468740086409,
          -0.35230176667518465,
          0.5051905480753447,
          0.5069804566413729,
          -0.3648991625141429,
          -0.7195395324183362,
          0.28706417993637623,
          -0.628141979503964,
          -0.019836446505486105,
          -0.1906893848058826,
          0.020461510398487315,
          -0.272809062139181,
          0.2744729598643414,
          0.36990767336760455,
          0.7172091372884095,
          -0.4838826806897518,
          -0.9384968944484997,
          -0.2951263299136859,
          -0.7607994420602813,
          0.8716293389319285,
          -0.1737796654963144,
          0.5830056334282485,
          -0.12809706358024342,
          0.8874396218593321,
          -0.2708175860776394,
          -0.4519675657703004,
          -0.8621132136916436,
          -0.9507652236439206,
          0.2720965285271377,
          0.006745422237857124,
          0.03842736152656756,
          0.4777441381273384,
          0.4510509274562762,
          0.9651553645635309,
          0.2881808065114937,
          0.715130250764658,
          0.8618351104142381,
          -0.917339307980362,
          -0.9526101825118249,
          0.4287851208941278,
          -0.3075305101258641,
          0.13803632746985794,
          0.15802843074703565,
          -0.8883045177014262,
          0.5712664397004479,
          -0.5126163603976219,
          0.9547470251848764,
          -0.37388278368631456,
          -0.1655510880718456,
          -0.35699218138941724,
          0.3484329633964187,
          0.2673782361085315,
          0.935556021479393,
          0.7135186544420384,
          0.06965449152181336,
          -0.0827935626676295,
          0.4395667162830126,
          0.11927793587224622,
          0.7112094173629506,
          0.8110580550997661,
          -0.6721220958215031
        ],
        "playerName": "RFFSimulation",
        "converter": {}
      },
      "fitness": 0.0,
      "behaviours": [
        0.0,
        0.0,
        88.33333333333333,
        3.0
      ]
    }
  ],
  [
    {
      "value": [
        29,
        19,
        20,
        10
      ]
    },
    {
      "x": {
        "agentConfig": [
          1,
          5,
          2,
          0,
          0,
          1,
          2,
          1,
          2,
          2
        ],
        "weights": [
          -0.8318774951973189,
          -0.2537780586992764,
          0.5754932028035846,
          -0.7280773824621891,
          -0.6686389990322328,
          -0.20979783899300775,
          0.650916362947557,
          0.07348026663271656,
          -0.21672387065499432,
          -0.15780228787119266,
          -0.6078522274875708,
          -0.9099753914213617,
          0.05995106332320077,
          0.11133927353219386,
          0.5304226119335851,
          0.2727182875780252,
          -0.07081352104617356,
          0.7515831817021268,
          0.6437374126678823,
          0.29706528078652905,
          0.6025795734002546,
          0.427533373901815,
          0.44797060625087526,
          -0.22572005290453423,
          0.4091681123946127,
          0.9510358939489922,
          0.6958388001548386,
          0.3449822621517993,
          0.8682006728084797,
          -0.41129588798700745,
          -0.8933983955292937,
          0.7172919430021931,
          -0.41507789663175765,
          0.7049865908658286,
          0.5170054468208054,
          -0.6929026804686336,
          -0.05790882991644564,
          0.032342482241515924,
          0.27403533246989276,
          0.29647795340412975,
          0.17127672421246443,
          0.049542948486624994,
          0.782621382618734,
          -0.35303692108957363,
          0.06180464197853586,
          -0.29893085865269864,
          -0.9234743829535512,
          -0.11248866861635753,
          0.3015582834107233,
          0.005031397219430689,
          -0.7017880697335539,
          -0.6572000159599147,
          -0.7573383400776017,
          0.9739873078384349,
          0.053580361117670616,
          0.8756150464507884,
          0.7464036219065848,
          0.7124887038428225,
          0.750025842448949,
          -0.8121627635826658,
          0.6855885593402258,
          0.5571416704922563,
          -0.7686417869975743,
          0.25772120383949315,
          0.6688283436723192,
          0.6894164602196384,
          -0.7093001386103084,
          -0.41313082775448384,
          -0.3998825547990892,
          0.7783965293218749,
          0.9725544387516276,
          -0.41149728140080466,
          0.798361823593887,
          -0.09988908401987873,
          0.967818943636932,
          0.6693401189871002,
          0.5753598067832397,
          -0.76795494137741,
          0.8605887523600368,
          -0.6594107181517779,
          -0.592937721640669,
          -0.1641198471576446,
          -0.4968153744984203,
          0.03926982789684241,
          -0.8682339077004897,
          0.21846290048544525,
          0.3759071806896912,
          -0.7507193419245703,
          0.9702243590231425,
          0.30046170837439723,
          -0.5693962263851142,
          0.9823326592575983,
          -0.41351580248715125,
          -0.07588221530270944,
          -0.37778926716073147,
          -0.2879304746378224,
          -0.10540859645581047,
          -0.9040471892212467,
          -0.8999896400448819,
          0.4504021547708694,
          -0.1348710343323689,
          -0.21275142287031978,
          0.8604235021326507,
          -0.18671383274572806,
          0.1968852699057695,
          -0.6954340400254253
        ],
        "playerName": "RFFSimulation",
        "converter": {}
      },
      "fitness": 0.8166666666666667,
      "behaviours": [
        19.0,
        1.2333333333333334,
        38.25,
        4.516666666666667
      ]
    }
  ],
  [
    {
      "value": [
        24,
        10,
        25,
        11
      ]
    },
    {
      "x": {
        "agentConfig": [
          1,
          2,
          0,
          0,
          1,
          2,
          1,
          0,
          1,
          2
        ],
        "weights": [
          0.5144862180396959,
          -0.6954093383529345,
          -0.766645663459145,
          0.9151018287706092,
          0.24774223885807767,
          -0.11322506216648831,
          0.27525012456198206,
          0.6552767316576098,
          -0.554187351191936,
          0.17112884666415096,
          0.40001426096653625,
          0.5148563240656447,
          0.23458023987469634,
          -0.07540889762423175,
          -0.17302952305937436,
          0.8180624547090951,
          0.38930639826761326,
          0.6763152027400805,
          0.7142368297258646,
          0.6314795352505307,
          0.9056162204876985,
          0.7674276808301759,
          0.140111908397492,
          -0.46660446837858127,
          0.6684007772500233,
          0.35107553295905847,
          0.6040400916991755,
          -0.9389985923614312,
          0.6132295942846215,
          -0.06879779483983195,
          -0.7604004870793346,
          -0.30169715555842824,
          -0.11380701857712605,
          0.7179452736695131,
          0.32453461299847586,
          0.48830163215533573,
          -0.31807638037962827,
          -0.6704978536286987,
          -0.8720660920395245,
          0.13620635171161322,
          0.6758731637491702,
          -0.8152366916721769,
          0.6522305359414771,
          0.8161367986530261,
          -0.7342506679571423,
          0.3079647624462132,
          0.40778233538451647,
          0.8019876096908969,
          0.19834601092770932,
          0.20606628014382866,
          3.657654095658991E-4,
          -0.4861789616368417,
          0.5818277173661015,
          0.9815133796540509,
          0.016996415073018856,
          0.6043623179924063,
          0.7698571409258161,
          -0.0925048521237215,
          0.4630666106366683,
          -0.694127822630084,
          -0.8472164659875825,
          0.3197629430925786,
          0.8338692091301656,
          -0.5841232188696857,
          0.5024369143874632,
          0.8685275545186002,
          -0.20384581512018118,
          -0.9790635860863772,
          -0.8090977960597752,
          -0.07409327390257414,
          0.41044381510268657,
          0.3408386319612928,
          -0.6600258590589267,
          0.2588470826708895,
          0.8424087105822575,
          -0.07869617547132268,
          -0.2431765062965343,
          0.9543971386848131,
          0.5916867273266124,
          0.8114951539293231,
          0.37273210927724576,
          -0.9763364525162059,
          0.409104421532259,
          0.3333270710755194,
          0.8255830324301663,
          0.11273265877267025,
          0.27833745463662374,
          -0.41722930126965196,
          0.8131195561311599,
          0.3132953562667051,
          0.10562752255289687,
          -0.10094389459072506,
          -0.10718426900717803,
          -0.8073356819151989,
          0.09124758885539164,
          -0.8041234487923246,
          -0.48447107146591484,
          -0.14767255510400035,
          0.14898943628995553,
          -0.7305990691797388,
          0.253932313070915,
          -0.9238669338715646,
          0.1950216616635354,
          -0.01889488937649686,
          0.42305477798617264,
          -0.556343330518067
        ],
        "playerName": "RFFSimulation",
        "converter": {}
      },
      "fitness": 0.4666666666666667,
      "behaviours": [
        15.466666666666667,
        0.6166666666666667,
        48.333333333333336,
        5.2
      ]
    }
  ],
  [
    {
      "value": [
        1,
        1,
        53,
        7
      ]
    },
    {
      "x": {
        "agentConfig": [
          1,
          0,
          2,
          1,
          0,
          0,
          0,
          1,
          1,
          2
        ],
        "weights": [
          0.23449338935890585,
          0.07882930269160981,
          0.5245757178745452,
          0.5485643483780545,
          0.21348682772024263,
          -0.4877396329154229,
          0.17992728158385907,
          -0.21597830975465793,
          0.40917217057630495,
          0.8268124651503475,
          -0.12002749487620235,
          0.6999853227863855,
          -0.9474208114764007,
          0.6861656814915171,
          -0.9729227903903568,
          -0.017444681825622865,
          -0.4333471462746121,
          0.12566203782889152,
          0.8889807075863501,
          -0.8564567640223182,
          0.46944099955796337,
          0.9228225828553671,
          -0.5975639302115019,
          0.5972050821614143,
          -0.7570024164179818,
          0.5994279485913021,
          -0.9072568569217601,
          -0.4097518895150727,
          -0.8241251873918949,
          0.03813328879151778,
          0.7273988283278618,
          -0.4450041148411017,
          0.9234059198273421,
          0.01104177816816132,
          -0.6603318104647404,
          -0.6986995224642836,
          0.32880840574723713,
          0.7946143276806212,
          -0.6620425096312399,
          -0.1290065854600586,
          0.9094653948333125,
          0.4847460562408157,
          -0.4405509867517552,
          0.8493694630132362,
          -0.6634286280155655,
          0.6277930383428711,
          -0.6684651434242201,
          0.4614013698943469,
          -0.7773432746318167,
          0.34778630778069597,
          0.8721657186562068,
          0.8760867201796725,
          0.5803323704448549,
          0.27702314569552366,
          -0.3096916902103257,
          -0.1994697876792597,
          -0.5730734309717951,
          -0.7133217429064718,
          -0.9597166056774291,
          -0.3339310760516907,
          0.1835103667479563,
          0.2660317192606436,
          0.9388348666572983,
          0.4919510626972079,
          0.7531402468151842,
          0.013362485259550638,
          0.7713575470542529,
          -0.14221925572153182,
          0.4619716767810549,
          0.6785100374568891,
          -0.9062094156518596,
          -0.6758536724968345,
          0.4082265329045953,
          0.1365597083787753,
          0.8792605395387705,
          -0.8884488226076732,
          0.18782600642296776,
          0.1740607986527707,
          -0.836363086722183,
          -0.11903008028437068,
          0.45182751416919076,
          0.43363842096943794,
          0.8117408959881487,
          0.055056061358595754,
          -0.7003666836837543,
          0.6898147532581669,
          0.9560260279653507,
          -0.7227702290602913,
          0.12326596322950834,
          0.21830778880661872,
          -0.44787199661995136,
          -0.6734216118566041,
          -0.8081655192746757,
          0.7730280504421136,
          0.45075821868291954,
          -0.9102954960813112,
          -0.9983575919676451,
          0.9994484743223284,
          0.40299495195339197,
          0.03635993902788481,
          0.21621806131741494,
          0.989974193317519,
          0.49610312270515555,
          -0.9460922784572583,
          0.8818745652460844,
          0.12639331027856615
        ],
        "playerName": "RFFSimulation",
        "converter": {}
      },
      "fitness": 0.0,
      "behaviours": [
        0.0,
        0.0,
        105.85,
        3.0
      ]
    }
  ],
  [
    {
      "value": [
        13,
        1,
        28,
        16
      ]
    },
    {
      "x": {
        "agentConfig": [
          0,
          3,
          3,
          0,
          1,
          1,
          2,
          0,
          4,
          0
        ],
        "weights": [
          -0.5745386433019615,
          -0.309835215327916,
          -0.010806182063116454,
          0.4541338401330872,
          -0.6222985490200674,
          0.07238860969066296,
          -0.7274063601508893,
          -0.4126088795863201,
          -0.3790412939570824,
          0.8540787401985437,
          0.17598372084905667,
          -0.41498336144751535,
          -0.41026581804004714,
          0.5883243032844343,
          -0.5629887905732116,
          -0.9846978248664073,
          0.27681247530126596,
          -0.49072389885590306,
          -0.352824022688655,
          0.5070490441378059,
          -0.054837514128844855,
          0.12270061712298963,
          0.4527613470462035,
          -0.3952359648483488,
          0.5991631114311302,
          -0.602268071204427,
          0.9489580285509174,
          -0.5156391992436695,
          0.7044731267971149,
          -0.40544914571210655,
          0.8199771792063837,
          -0.27086414004588155,
          0.5384415601512849,
          -0.5165762235565037,
          0.4517757395962987,
          -0.8822606328304692,
          -0.49196587646127865,
          0.9937353862794038,
          -0.019654286661635156,
          -0.309683839359598,
          -0.21017097936028395,
          0.1773551288736801,
          0.03734736432958563,
          0.2359432045768679,
          -0.27328700528214767,
          -0.22112254913010765,
          0.8161941597919566,
          -0.21605461010555338,
          -0.4415126571373589,
          -0.3240182617896359,
          -0.9944744727969368,
          -0.31637805962205734,
          -0.7313281278774231,
          0.9863586051019746,
          0.12333125326315253,
          0.42137150107200605,
          -0.40262815738414215,
          -0.2666457510999991,
          0.8338207494510985,
          0.45115514132528034,
          0.6001520210601883,
          0.6206863507772313,
          -0.05954404217106224,
          -0.9963095631812224,
          -0.4745597162359294,
          0.6872888431453203,
          -0.07760149464199628,
          -0.9082770135886347,
          -0.7619401629022098,
          0.3965459803948277,
          -0.8820542316071023,
          0.7431744985616049,
          -0.06593053996672138,
          0.059878688631164634,
          -0.042637781174345246,
          -0.1290797700645021,
          0.47216720068344875,
          0.4028499804497774,
          -0.9911621281231107,
          -0.8725992191948555,
          -0.7105075447103799,
          -0.4473409625611833,
          0.02513530338865011,
          -0.40577264395830404,
          0.5747388103705955,
          0.7590966377188058,
          -0.335185229985429,
          0.22139236825646536,
          -0.8609312253810211,
          -0.2432622403874869,
          -0.889246223247715,
          -0.44235002755349173,
          -0.7446015626344613,
          -0.165649276492436,
          -0.5799923878191087,
          -0.4969151775633145,
          0.6292001420186832,
          0.3982043241876352,
          0.11288316394873044,
          -0.4331597298578431,
          0.6190471840567684,
          -0.9008409809257643,
          -0.7545709065669264,
          0.427430164063789,
          -0.15729564926929984,
          0.43912974130117144
        ],
        "playerName": "RFFSimulation",
        "converter": {}
      },
      "fitness": 0.08333333333333333,
      "behaviours": [
        8.583333333333334,
        0.03333333333333333,
        55.85,
        7.8
      ]
    }
  ],
  [
    {
      "value": [
        24,
        11,
        23,
        10
      ]
    },
    {
      "x": {
        "agentConfig": [
          1,
          2,
          0,
          0,
          1,
          2,
          1,
          0,
          1,
          2
        ],
        "weights": [
          0.5144862180396959,
          -0.6954093383529345,
          -0.766645663459145,
          0.9151018287706092,
          0.24774223885807767,
          -0.11322506216648831,
          0.27525012456198206,
          0.6552767316576098,
          -0.554187351191936,
          0.17112884666415096,
          0.40001426096653625,
          0.5148563240656447,
          0.23458023987469634,
          -0.07540889762423175,
          -0.17302952305937436,
          0.8180624547090951,
          0.38930639826761326,
          0.6763152027400805,
          0.7142368297258646,
          0.6314795352505307,
          0.9056162204876985,
          0.7674276808301759,
          0.140111908397492,
          -0.46660446837858127,
          0.6684007772500233,
          0.35107553295905847,
          0.6040400916991755,
          -0.9389985923614312,
          0.6132295942846215,
          -0.06879779483983195,
          -0.7604004870793346,
          -0.30169715555842824,
          -0.11380701857712605,
          0.7179452736695131,
          0.32453461299847586,
          0.48830163215533573,
          -0.31807638037962827,
          -0.6704978536286987,
          -0.8720660920395245,
          0.13620635171161322,
          0.6758731637491702,
          -0.8152366916721769,
          0.6522305359414771,
          0.8161367986530261,
          -0.7342506679571423,
          0.3079647624462132,
          0.40778233538451647,
          0.8019876096908969,
          0.19834601092770932,
          0.20606628014382866,
          3.657654095658991E-4,
          -0.4861789616368417,
          0.5818277173661015,
          0.9815133796540509,
          0.016996415073018856,
          0.6043623179924063,
          0.7698571409258161,
          -0.0925048521237215,
          0.4630666106366683,
          -0.694127822630084,
          -0.8472164659875825,
          0.3197629430925786,
          0.8338692091301656,
          -0.5841232188696857,
          0.5024369143874632,
          0.8685275545186002,
          -0.20384581512018118,
          -0.9790635860863772,
          -0.8090977960597752,
          -0.07409327390257414,
          0.41044381510268657,
          0.3408386319612928,
          -0.6600258590589267,
          0.2588470826708895,
          0.8424087105822575,
          -0.07869617547132268,
          -0.2431765062965343,
          0.9543971386848131,
          0.5916867273266124,
          0.8114951539293231,
          0.37273210927724576,
          -0.9763364525162059,
          0.409104421532259,
          0.3333270710755194,
          0.8255830324301663,
          0.11273265877267025,
          0.27833745463662374,
          0.22625470869289122,
          0.8131195561311599,
          0.3132953562667051,
          0.10562752255289687,
          -0.10094389459072506,
          -0.10718426900717803,
          -0.8073356819151989,
          0.09124758885539164,
          -0.8041234487923246,
          -0.48447107146591484,
          -0.14767255510400035,
          0.14898943628995553,
          -0.7305990691797388,
          -0.10859070184277342,
          -0.9238669338715646,
          0.1950216616635354,
          -0.01889488937649686,
          0.42305477798617264,
          -0.556343330518067
        ],
        "playerName": "RFFSimulation",
        "converter": {}
      },
      "fitness": 0.4166666666666667,
      "behaviours": [
        15.8,
        0.6833333333333333,
        45.766666666666666,
        4.733333333333333
      ]
    }
  ],
  [
    {
      "value": [
        28,
        16,
        23,
        1
      ]
    },
    {
      "x": {
        "agentConfig": [
          0,
          2,
          1,
          1,
          2,
          0,
          0,
          0,
          4,
          2
        ],
        "weights": [
          0.28185925108881693,
          0.7959489308673895,
          0.6936511732145421,
          0.8652060612908175,
          -0.9160190799448484,
          0.854097025270858,
          0.3946726642015972,
          0.6807805538772498,
          -0.8471657924916194,
          -0.4412452729675329,
          0.8528732932401475,
          -0.38708379829269113,
          -0.23484765144225217,
          0.17571122060661648,
          0.378295366358534,
          0.45210052527624245,
          -0.08290955851207293,
          0.33569438840312893,
          0.9166980423453432,
          -0.03298388672351438,
          -0.24344905696455021,
          -0.44337762196260644,
          0.22524598512604,
          -0.509798777110775,
          0.7434621613047514,
          0.7604861735722193,
          -0.26068349206354413,
          0.33382079427146705,
          0.0546719328566494,
          -0.3093144839555768,
          -0.8519360251867303,
          0.04390998256951861,
          -0.4823019428759874,
          -0.26865541867631215,
          -0.7547909821745866,
          0.12840477027249797,
          0.1876536288178916,
          -0.21166418049904423,
          0.23284763708031586,
          0.08372820677726,
          0.5742442535795926,
          -0.3875556573355903,
          -0.6700958429359392,
          0.29665299280882884,
          -0.5191870707710686,
          0.22830862429086674,
          -0.7268206927196925,
          -0.2873849388932248,
          -0.5650149616063589,
          0.9784746726523759,
          0.09777350668308715,
          -0.9613944786842832,
          -0.22945504196736732,
          -0.8998934192957151,
          0.4449929884373367,
          0.6882214158303401,
          -0.437245554031791,
          0.7225971077551343,
          -0.4303248819236205,
          0.6784089658257864,
          -0.17560075293386235,
          -0.29247367330839236,
          -0.7948031606212951,
          -0.7481135079377903,
          -0.3625692905506668,
          0.8481194274579125,
          -0.506741643207989,
          0.1261864831716646,
          0.22514553767141243,
          0.6035573075310745,
          -0.7031369199978188,
          0.9597098584113137,
          0.36242607905168756,
          -0.23580263837127058,
          0.38874183306965304,
          -0.12286050216577227,
          -0.02335896738368226,
          0.22696487927617626,
          -0.7562020860881369,
          0.711010805592829,
          0.3093848993126762,
          0.40587758073772684,
          -0.53702176992265,
          0.9931933425447241,
          0.5893122778424318,
          0.7108710328926406,
          0.21730336085107815,
          -0.33051194220859026,
          0.8089019811280835,
          -0.0012064040677757237,
          -0.47538307237641786,
          0.012499200013566636,
          -0.09693683772593076,
          -0.06635591331026824,
          -0.3420554024562883,
          -0.7276074812014601,
          0.39507411653467717,
          0.7888279617565981,
          -0.4668214547780556,
          0.23210512203934974,
          0.4054229751639489,
          -0.6175890329223319,
          -0.46486564335430147,
          -0.9769754933004904,
          -0.18830297458838374,
          -0.4429476063826736
        ],
        "playerName": "RFFSimulation",
        "converter": {}
      },
      "fitness": 0.9833333333333333,
      "behaviours": [
        18.366666666666667,
        1.0333333333333334,
        44.96666666666667,
        0.0
      ]
    }
  ],
  [
    {
      "value": [
        32,
        24,
        14,
        13
      ]
    },
    {
      "x": {
        "agentConfig": [
          1,
          1,
          1,
          0,
          0,
          0,
          0,
          1,
          2,
          0
        ],
        "weights": [
          -0.04746822433227815,
          -0.7111282045363188,
          -0.8129112109377479,
          -0.9865167418375191,
          -0.2625398527246512,
          0.9771022560039437,
          0.8992776268802603,
          0.6431687924415321,
          0.1591244563860441,
          -0.6326936715592011,
          0.2396892422344319,
          0.15044167634471894,
          -0.9491731643073358,
          -0.6785656389000907,
          0.9713883254978857,
          -0.5925285239403806,
          -0.2873204001450378,
          0.7308858671225618,
          0.28876695778722294,
          -0.5577925852832342,
          -0.265846868662154,
          0.981855549206881,
          0.3394192105089042,
          0.6088871996233236,
          0.775350766010763,
          0.42782207466655486,
          -0.21783439639478663,
          -0.9017609073800217,
          -0.36968628757660804,
          0.4722685546058347,
          -0.38824254317422424,
          0.14925431908735476,
          0.9757375768599039,
          -0.7270742595107695,
          0.3421185018719277,
          -0.23613930970491093,
          0.35105960328936536,
          0.04953278875878686,
          -0.43618910222096985,
          -0.27221891566887524,
          0.12095450834758847,
          -0.4896867121949098,
          -0.1222616981064446,
          -0.6946869429617477,
          -0.561145259854386,
          -0.9919323885513149,
          -0.7440701517568931,
          -0.8972793391994889,
          -0.4398114965677289,
          0.6949851882295288,
          0.9915740616757851,
          0.2843802771761119,
          0.24660820761703706,
          -0.8340158085923297,
          0.5743024233592307,
          -0.42222249766512343,
          -0.5424413023589654,
          -0.13641110235123666,
          0.06304818947572888,
          -0.6820959759839658,
          -0.9568856764949609,
          0.8630577547985663,
          0.8276362399362645,
          0.1585573000899394,
          -0.26790978527314224,
          0.5646790244178326,
          0.8915859126177508,
          0.017497936692290716,
          -0.6479867367316221,
          0.2908535174811493,
          -0.4675613797993119,
          0.3243741704291412,
          0.9226146531504575,
          -0.181212998636616,
          -0.7177507669431378,
          -0.2952251628600553,
          0.032084833770222865,
          -0.5246815876475597,
          0.01970796145922371,
          -0.13927404931155762,
          -0.2645898998237626,
          0.5786127491348148,
          -0.5433110540506672,
          0.5973988966230361,
          0.1066874470446979,
          0.7321508199078075,
          0.995848674467321,
          0.6977514295999643,
          0.5323926237527721,
          -0.24034899528816434,
          -0.32777416865200704,
          0.6612757925662354,
          -0.14984460463195526,
          -0.08473852870543652,
          -0.30937760122949287,
          0.19998140945952936,
          0.5176721534731628,
          0.41156460889693003,
          0.9318745207760664,
          -0.17580716899389004,
          0.13896661249813302,
          -0.721362431907925,
          0.7249477338990384,
          -0.14730378017053725,
          0.8802851627216952,
          -0.8993823498818045
        ],
        "playerName": "RFFSimulation",
        "converter": {}
      },
      "fitness": 0.8833333333333333,
      "behaviours": [
        20.95,
        1.5333333333333334,
        27.233333333333334,
        6.3
      ]
    }
  ],
  [
    {
      "value": [
        17,
        5,
        17,
        13
      ]
    },
    {
      "x": {
        "agentConfig": [
          1,
          1,
          2,
          0,
          0,
          0,
          2,
          3,
          3,
          0
        ],
        "weights": [
          0.14372898190795302,
          -0.5263789780716253,
          0.012960603759838207,
          0.15211932202696543,
          -0.9548300402429433,
          -0.6959989355477996,
          -0.32907420612553606,
          0.22468868795421826,
          0.495076913427936,
          -0.3506737951505867,
          -0.9129317601991869,
          -0.012502446581492244,
          0.016517919270143677,
          -0.13276287210539572,
          0.340397479396491,
          -0.11219199102840127,
          0.6442205374094256,
          -0.5066951871316352,
          0.26766927987865285,
          0.05980903339359256,
          -0.16485420993729782,
          -0.7042093893695089,
          0.7751600023379228,
          -0.42183790265678645,
          -0.4581704202635237,
          -0.8944446210769015,
          0.9209049901637023,
          -0.00204429448265242,
          -0.43328338513117304,
          -0.5089980020902019,
