[
  [
    {
      "value": [
        29,
        28,
        14,
        10
      ]
    },
    {
      "x": {
        "agentConfig": [
          1,
          2,
          3,
          1,
          0,
          2,
          2,
          2,
          2,
          1
        ],
        "weights": [
          -0.7905106279495631,
          0.043518632841194504,
          -0.2526120400053997,
          -0.16504152226449653,
          -0.09852188253652705,
          -0.06106106726237859,
          -0.35046110077347925,
          0.3006287020833347,
          -0.6224919890856646,
          -0.1671735816557094,
          -0.8617556537389153,
          -0.8304192744144363,
          -0.9547394715941089,
          -0.44610588172015686,
          -0.06245899168101143,
          0.6049131013573421,
          -0.18859996333037476,
          0.6846527244765039,
          0.9509811540270874,
          -0.4189515282108194,
          0.007090952927396144,
          -0.05977108437118317,
          -0.3125096260089497,
          -0.33011777725052105,
          0.3496726825756431,
          -0.09279070428138336,
          0.15493233532583406,
          -0.7347655919430196,
          0.9818133214312716,
          0.26244334108815437,
          -0.15429171308504253,
          0.08135900073614977,
          0.8736025213927145,
          0.22650612079221033,
          -0.9108883076755541,
          -0.9477194939655054,
          0.42968680348583477,
          0.45378495599083934,
          -0.9919532137439286,
          0.8622436004008969,
          0.012689241480876357,
          -0.17907798079804582,
          -0.4068877361742076,
          -0.746422722960074,
          0.2757969255363264,
          -0.3523910821236662,
          0.9949409844722363,
          0.9867899391875459,
          0.6915404021719522,
          0.768495221428062,
          -0.9639228601799954,
          0.8687283114797699,
          0.47042913587784496,
          -0.4277604857396926,
          0.15656385694815134,
          -0.3818514464781122,
          -0.8177510709387241,
          -0.36650423977410895,
          -0.46719620557986796,
          0.5040624984071944,
          0.8244662832376841,
          -0.11410553626256137,
          0.9471461269663171,
          -0.3292607722289562,
          0.8263266670366947,
          0.4188430774633136,
          0.13604507804829113,
          0.8542567503711731,
          0.5338734497192874,
          0.928236018421988,
          0.8075235561411691,
          -0.2009856333301856,
          0.09025564738301695,
          0.6109305596447021,
          0.2940686760847233,
          -0.9013682318682827,
          0.30733191738056287,
          -0.13489024986475617,
          -0.10502562487390077,
          0.41417725884005807,
          -0.8812793897030404,
          -0.45658017459311995,
          -0.637461929462019,
          0.0636825229997946,
          0.5110850684488448,
          0.7030348606294421,
          -0.3005907309718949,
          -0.16958362355482737,
          -0.5504158737736304,
          0.8065672678974165,
          -0.5402229049292735,
          -0.496592593012406,
          -0.7549410627816044,
          -0.8499921927719043,
          -0.9150235413753229,
          -0.8577810205627847,
          0.05466760404903526,
          0.9286453921985525,
          -0.5455189843687702,
          -0.6510028824198866,
          0.7643192748595824,
          -0.20081827183333423,
          0.7961440086955962,
          0.9343265850490474,
          -0.6295992933034009,
          -0.9439786536009831
        ],
        "playerName": "RFFSimulation",
        "converter": {}
      },
      "fitness": 1.0,
      "behaviours": [
        19.0,
        1.8,
        26.1,
        4.6
      ]
    }
  ],
  [
    {
      "value": [
        34,
        31,
        13,
        8
      ]
    },
    {
      "x": {
        "agentConfig": [
          1,
          3,
          3,
          1,
          2,
          0,
          0,
          1,
          3,
          2
        ],
        "weights": [
          -0.9724304208322037,
          -0.8395867489583317,
          -0.30133965356107395,
          -0.013366405159897399,
          0.40139667555376946,
          0.5328515979837969,
          0.9094849204156239,
          -0.9180948281140995,
          0.9441805283453444,
          -0.5196399884778802,
          -0.790643451573815,
          0.6859226722243199,
          -0.3186200362099372,
          0.8153000217591435,
          -0.4749439838863412,
          0.10084719982321788,
          -0.13069513666090482,
          -0.5293402224326602,
          0.9992090269704008,
          0.1955638871675136,
          -0.232491156978182,
          0.801255532699966,
          0.5676609604456833,
          0.9844076680709197,
          0.8176092155847172,
          -0.9860898120456216,
          0.2600822175330815,
          -0.38519663736816634,
          -0.420574670458991,
          0.8514255130724715,
          -0.1391726594137721,
          -0.5674173965641822,
          -0.32428254656321465,
          0.19618056484723034,
          0.3737133869065341,
          -0.5089944365789063,
          0.209697839404817,
          0.6127043912450736,
          0.8535222150301109,
          0.37928045338572436,
          -0.3551222808195025,
          -0.985413038702823,
          -0.40132746538715547,
          0.5686405164951478,
          0.9747034235800569,
          0.6196079400244388,
          0.4436481825703422,
          -0.3911976523972147,
          -0.8401743440926965,
          -0.852022695748055,
          -0.053590254477979604,
          0.45489700560758983,
          -0.7262623455800483,
          0.8220999352345009,
          -0.3648427973956272,
          0.9647288784414982,
          -0.42709353406810546,
          0.14228928685832765,
          -0.8395483760495674,
          0.17848423200129027,
          -0.20458531033330218,
          -0.35862756866077183,
          -0.8071545899194768,
          0.37777708784410646,
          -0.6074815799237439,
          0.8621440885259952,
          -0.787190152339585,
          -0.8818156788624274,
          -0.8895804590156309,
          -0.34485729350015926,
          0.9588909837541022,
          0.4391894781703427,
          0.36493975914365673,
          -0.43976271986388316,
          -0.7683360660418459,
          -0.7222814304751088,
          0.1896755947562525,
          0.5140294004659587,
          -0.00480250849881636,
          -0.2537821148719708,
          -0.8113974841208911,
          0.41609063361245635,
          -0.7256189672066913,
          0.38348943909378996,
          -0.11301024512213509,
          0.19057040595306596,
          -0.7843941408556792,
          -0.25373571641875525,
          -0.8501255612200487,
          0.8957265061629445,
          -0.1400646990065102,
          -0.2182388515194844,
          0.9252375251228471,
          0.16244436635351178,
          0.6720364775673315,
          0.3062417369515953,
          0.4694126503612226,
          0.7838277584501709,
          0.6747888827754989,
          -0.38815875880490647,
          0.42515041571414525,
          0.6314594580205266,
          0.15862481809085138,
          -0.2662828413420506,
          0.6481509811986896,
          0.23994518992318437
        ],
        "playerName": "RFFSimulation",
        "converter": {}
      },
      "fitness": 0.9,
      "behaviours": [
        22.0,
        2.0,
        25.1,
        3.7
      ]
    }
  ],
  [
    {
      "value": [
        32,
        26,
        17,
        13
      ]
    },
    {
      "x": {
        "agentConfig": [
          0,
          4,
          1,
          1,
          0,
          1,
          0,
          2,
          2,
          1
        ],
        "weights": [
          0.1158644264090074,
          -0.8099851719417313,
          0.4040820252865145,
          -0.19532678963502748,
          -0.9146985248072073,
          0.09816811211011611,
          0.08532927676428881,
          0.9745935681432301,
          -0.26295170646543853,
          -0.3755540146470515,
          -0.10261599069527372,
          -0.3587118402316638,
          0.10240664182737413,
          -0.7906002715114389,
          -0.15998643161783832,
          -0.9207781967232884,
          -0.7694506777368848,
          -0.865157451434805,
          0.4346295546703216,
          -0.6030059114620401,
          -0.36402398546880055,
          0.8683013655136573,
          -0.43686384679578305,
          0.9433575835054981,
          -0.7883082227515317,
          -0.44063600244629186,
          0.10834755560335152,
          -0.1054194376023454,
          0.42677367790007237,
          -0.5710502363708567,
          -0.7648532814876505,
          0.417503655058461,
          -0.253870372789363,
          -0.6977031733845318,
          0.6769484198092881,
          -0.03134734334369904,
          0.6418961759528587,
          -0.14127426542471766,
          0.22992029345754772,
          -0.7317120802148593,
          -0.6899389057623349,
          0.30600310522073615,
          -0.19219393468011936,
          0.27928521703121945,
          -0.7374618058007196,
          0.13439650271177417,
          0.8730858738369278,
          0.12425818150620604,
          -0.6659384830653838,
          -0.6347237010144937,
          -0.16440104623366047,
          0.29034944880719493,
          -0.6750919652815464,
          0.28138576361514844,
          0.09764525047359052,
          0.6996314593566877,
          0.4945967574526162,
          -0.989333004647178,
          -0.17502796564751044,
          -0.7359247593755629,
          0.42835481998310465,
          0.5327952704379251,
          -0.7640560808077612,
          -0.602440241777884,
          -0.5827201630837651,
          -0.3126594995484606,
          0.22658279154830674,
          0.6234109975116053,
          0.4247700540683952,
          -0.41526037979981534,
          0.4870576863687708,
          0.8944748494693662,
          0.9559331335901973,
          -0.5439703480414757,
          -0.08440674412967963,
          -0.4662559532695274,
          0.7033261475325456,
          0.42455708192534813,
          -0.9013438225054733,
          0.8070748014385281,
          -0.28848109719047854,
          -0.05735582631706504,
          -0.09832881432954732,
          0.05554400199596499,
          -0.015385510095296429,
          -0.2915411608546077,
          0.802406669018314,
          -0.9564854404221412,
          0.9550003189036265,
          -0.23689950215613353,
          0.4995622942009421,
          0.7194910022487406,
          0.03824512472428232,
          -0.8348205560161877,
          0.5419806877032662,
          -0.05963690782927733,
          -0.3818041869603368,
          -0.8500665745365115,
          -0.7507036724544298,
          -0.12434764206654458,
          -0.7620286885782093,
          0.0021904232078842067,
          -0.9672748264649111,
          -0.21311043455065137,
          0.5166888923144528,
          0.0072523736552201346
        ],
        "playerName": "RFFSimulation",
        "converter": {}
      },
      "fitness": 0.9,
      "behaviours": [
        20.8,
        1.7,
        32.1,
        6.2
      ]
    }
  ],
  [
    {
      "value": [
        26,
        17,
        17,
        9
      ]
    },
    {
      "x": {
        "agentConfig": [
          0,
          5,
          2,
          0,
          2,
          0,
          3,
          0,
          0,
          0
        ],
        "weights": [
          0.41092226967441325,
          -0.8797102425115733,
          0.44899751911637,
          0.9689545813715439,
          -0.5930298711703279,
          -0.9682230934084213,
          -0.1714128331727749,
          -0.36546838721951236,
          0.1119101472972246,
          -0.08865521370719254,
          0.6178168748140138,
          0.48937767428735324,
          0.7235257456279733,
          0.09595571162547456,
          0.13073435643337827,
          -0.8497888399247622,
          -0.16171706300398037,
          0.7511970400253811,
          -0.3494656743267579,
          -0.21217427538520273,
          0.2840453677054495,
          -0.06735791267590363,
          0.8319807255404041,
          -0.5426155072814538,
          0.22973126793884946,
          -0.30422542844988687,
          0.5242333718345893,
          0.3347272456457675,
          -0.8223149088888015,
          -0.3580122819466218,
          -0.2658889968021869,
          -0.9540955132733171,
          -0.7488207740878317,
          -0.014563248548876029,
          -0.33728761219166015,
          -0.5798591990139372,
          0.3086005978232442,
          0.7352878071005888,
          -0.7262906096976915,
          0.5835012240516404,
          0.8475178857457324,
          0.9101722346203462,
          0.689515146616662,
          -0.7372699429081493,
          -0.59403372772123,
          0.8364217059183232,
          0.8619212296050056,
          0.38080297150337383,
          -0.7750740822289779,
          -0.47107679801430025,
          0.4266894972509536,
          0.4187215829918456,
          0.30511282453530186,
          -0.08679877264228497,
          -0.5730265868035671,
          0.20853022468385363,
          -0.3271604457745896,
          -0.7804021673275108,
          0.6783353805333399,
          0.5792484854609101,
          0.663845352072497,
          0.2651881548740338,
          0.9485164150159173,
          0.31842500133098994,
          -0.6593654036049275,
          -0.46366604718204374,
          -0.16199406107842895,
          0.7655378748800781,
          0.7780045843574577,
          -0.0054557149199203625,
          0.2728496214873257,
          -0.9805218578347978,
          -0.11691744530623627,
          0.350576159058402,
          0.8590233672822554,
          0.22087293822663634,
          0.660333942537801,
          0.18647630539208038,
          0.9980935183800197,
          0.6610166397239186,
          0.3886440048018136,
          -0.2474714566550591,
          0.6267724108054833,
          -0.42730345517292756,
          -0.9532853631552374,
          0.5258375477424773,
          -0.2816298165204205,
          0.3742142450150969,
          -0.49533882244334304,
          -0.3104535057009592,
          0.27203382763804007,
          -0.13358089801254058,
          0.49383138936708115,
          0.5764497396681711,
          -0.5839448187688472,
          0.4235871191553131,
          0.1735125527948651,
          -0.1819709389860238,
          0.4644204392861926,
          -0.4275072705846559,
          -0.7676686524953482,
          0.4497068682544243,
          -0.7088363946589871,
          -0.4799625331008772,
          0.8937918473660262,
          0.5453748925773518
        ],
        "playerName": "RFFSimulation",
        "converter": {}
      },
      "fitness": 0.4,
      "behaviours": [
        16.7,
        1.1,
        33.5,
        4.4
      ]
    }
  ],
  [
    {
      "value": [
        33,
        32,
        18,
        8
      ]
    },
    {
      "x": {
        "agentConfig": [
          0,
          3,
          1,
          1,
          2,
          0,
          3,
          0,
          3,
          1
        ],
        "weights": [
          0.5979170949541226,
          0.3892540682965677,
          -0.7559438845563007,
          0.23313224709771618,
          -0.8852571023325668,
          0.8225929753626244,
          -0.9098611020119953,
          0.521589708098559,
          0.5482442316821827,
          0.959327603309529,
          0.27842497758426177,
          -0.45462665540466984,
          -0.4425701242900366,
          -0.5436844825276925,
          0.8452922725937764,
          0.05439655256850218,
          0.6233099636907258,
          0.3810708550579718,
          0.8474441864611488,
          0.18049320323237916,
          0.6033718599766498,
          0.7655234857444873,
          0.005699903728236366,
          0.01421473992367428,
          0.7714022410288,
          0.6064431584503824,
          -0.28949572129351053,
          0.1631131088182891,
          -0.4841884541288346,
          -0.2247638066480031,
          0.5046959819020542,
          -0.7955885203058388,
          0.5825082934077341,
          -0.8466625135123984,
          0.7782149896742288,
          0.9547317992322666,
          -0.2262383455341943,
          0.9754366155944976,
          0.34106909432695365,
          0.3018131235333017,
          -0.6476196945799348,
          -0.15870716428837017,
          -0.21497775066240155,
          -0.022079859562142312,
          0.05092704811626758,
          -0.8520913115350055,
          -0.8988945870490193,
          0.10190788211720037,
          -0.45142072465833905,
          -0.20265224301289209,
          0.8891934543152051,
          -0.4233270830170248,
          -0.4463647289045165,
          0.951498063849308,
          0.6775313844662127,
          -0.49901226220668615,
          -0.7824417871963418,
          0.3335980765555897,
          -0.6357669029530051,
          -0.3605191417060325,
          0.5068386412116979,
          0.11735749247760019,
          0.5994183050586752,
          -0.3082096167668502,
          -0.6281514797195726,
          -0.20197870649081318,
          -0.9542082653383985,
          -0.3883159076280758,
          -0.9227502258709901,
          -0.3942593343956693,
          -0.11288877027453292,
          -0.4507943403219712,
          0.8964106093720532,
          -0.9998699421262254,
          -0.3018693085192812,
          0.12367120618223826,
          0.5226739196753085,
          0.5759059994601299,
          -0.15375505834443226,
          -0.31739280907750134,
          0.013212999158896732,
          0.31301720054717297,
          -0.03579528225721185,
          0.961484761618915,
          0.8565996193267973,
          0.5206935825043533,
          0.7149091483772649,
          -0.8686270733348695,
          -0.15689924610836625,
          0.05335488319526993,
          -0.4717869205050782,
          0.6063970440032915,
          -0.18288918916570807,
          -0.5826627685421981,
          -0.42197426552319484,
          -0.8198436506462725,
          0.10401662812582146,
          0.24091035425265894,
          0.9011685499096564,
          -0.9299821692281851,
          0.42918291736061187,
          -0.7539255559893019,
          -0.5369995686937012,
          -0.729528403781315,
          -0.5153624799997492,
          0.33914086422959633
        ],
        "playerName": "RFFSimulation",
        "converter": {}
      },
      "fitness": 0.5,
      "behaviours": [
        21.8,
        2.1,
        34.5,
        3.7
      ]
    }
  ],
  [
    {
      "value": [
        28,
        19,
        23,
        10
      ]
    },
    {
      "x": {
        "agentConfig": [
          1,
          5,
          2,
          0,
          1,
          1,
          3,
          1,
          2,
          2
        ],
        "weights": [
          0.7172120559801518,
          0.5095442436238069,
          -0.47653880904263834,
          -0.5747697815841462,
          0.2788292799405174,
          -0.6997312802272273,
          0.5156874230554962,
          -0.023770062777309864,
          0.19236529859044893,
          -0.3869424439384659,
          -0.35750286145713916,
          0.473106247354413,
          -0.3439204899427024,
          -0.845186054532322,
          0.774507109548559,
          0.5157800966837598,
          0.7902777504723184,
          0.47598720496185076,
          0.7661304411798016,
          -0.4514426205603277,
          -0.12775452590930336,
          -0.05745609484625391,
          0.6341789345902158,
          -0.2891641462647385,
          -0.654929577561004,
          -0.8764321048142145,
          0.38624033002543867,
          -0.6630085724815322,
          -0.11027720630615923,
          0.75934426628648,
          0.8399552274797113,
          -0.7951298421798856,
          -0.46859960934205613,
          -0.9529505222667312,
          -0.13778945324751057,
          -0.13917188937988967,
          -0.2547111620617468,
          -0.6340651923810081,
          0.8576555033508197,
          -0.6097240036007698,
          0.8335253550723287,
          -0.23884441943086343,
          0.048838112898851316,
          0.8562024779443349,
          0.464296828822496,
          -0.4848350789303304,
          0.11564985987470888,
          -0.7058359135726853,
          0.19564299479136604,
          0.9578561471867044,
          -0.9003429577173485,
          -0.3692529027252056,
          -0.9493243489188241,
          -0.6985966315316177,
          -0.8707114319823326,
          -0.816479554263688,
          0.7675668028647225,
          -0.2669843480629006,
          -0.5152605741814691,
          -0.4959839248900342,
          0.21679761867892733,
          -0.7414142949375593,
          0.7968407071474022,
          0.2412874219831238,
          0.6598017294344847,
          0.8624799010913831,
          -0.23796289961797434,
          0.43211323819584857,
          -0.9827227077104141,
          -0.5665186711996886,
          0.656003837964835,
          0.1649294694899992,
          -0.8779185800119822,
          0.6041640380298399,
          -0.8586747567268256,
          -0.08191336521851023,
          -0.9492368617908293,
          -0.8392575503127873,
          -0.6099522725321174,
          0.03904726653538515,
          0.05942997537386563,
          -0.9972964858639481,
          -0.6201886129517171,
          0.8096523260316484,
          -0.6062150409098848,
          -0.23370179517071055,
          -0.6273460742909494,
          0.33360177634801635,
          -0.7001891601321142,
          0.1732313441447122,
          -0.9515281629790968,
          -0.9141900909603062,
          -0.06928053190934769,
          0.9256559303384349,
          -0.45948532951067755,
          0.37931159104230017,
          0.5274245965623574,
          0.540844137677694,
          -0.29182189296755334,
          -0.766088196898103,
          -0.7560633760975921,
          -0.0963283316749537,
          -0.6172472143602725,
          0.17178514684660962,
          -0.7042806656523004,
          -0.48768163692781896
        ],
        "playerName": "RFFSimulation",
        "converter": {}
      },
      "fitness": 1.0,
      "behaviours": [
        18.4,
        1.2,
        45.6,
        4.7
      ]
    }
  ],
  [
    {
      "value": [
        35,
        25,
        14,
        5
      ]
    },
    {
      "x": {
        "agentConfig": [
          0,
          1,
          0,
          0,
          1,
          1,
          1,
          2,
          2,
          2
        ],
        "weights": [
          0.017534780276226236,
          -0.4972007322664027,
          0.8886454544221947,
          -0.923265802113381,
          0.5634689348002224,
          -0.675234062596515,
          -0.002535648937193269,
          -0.9886588029667436,
          0.13705298664645693,
          -0.382222141482109,
          -0.9734319664447384,
          0.7651124375504879,
          0.943223719191862,
          -0.2527433805295969,
          0.4425265663275726,
          -0.1709866963793183,
          0.6926211086070564,
          -0.007649361040525493,
          0.35262706007884725,
          0.857460072297239,
          0.18872282438658616,
          -0.8651976627486206,
          -0.289548158118343,
          0.4090853658020668,
          0.3426162530669352,
          0.7006869723763691,
          -0.5744351941686339,
          0.13545008402196168,
          0.9653216587711231,
          0.37730190680282716,
          -0.7522721641757593,
          -0.9066999956632071,
          -0.19327749284567153,
          0.6372488110977559,
          -0.1785391209841587,
          -0.9780190780568945,
          -0.25820160194149255,
          -0.07598143779975408,
          -0.8553510007387737,
          0.40614163002851034,
          0.7489968874591615,
          0.8881533649408826,
          0.8152906538104381,
          -0.06513040706486617,
          -0.6177784013840404,
          -0.889673924619494,
          -0.08662809559884521,
          -0.4280794379197188,
          -0.19294609419756648,
          0.507443161241901,
          -0.8597573036355486,
          -0.13228256496926427,
          -0.8465330769932953,
          0.1901429629936804,
          0.9257603487768851,
          -0.6276887065839829,
          -0.06856961448095822,
          -0.07517442533206875,
          0.6138576574938424,
          0.04951129493245787,
          -0.43755401363572655,
          -0.44938167746919944,
          -0.44991684333274384,
          -0.5540927896991465,
          -0.30080631039051053,
          -0.2885553722560483,
          0.9200504839922257,
          0.03452274841723746,
          -0.06289058420358429,
          -0.9143696261482623,
          -0.4743729898029192,
          0.6313546770901317,
          -0.23414430489852633,
          0.9302477512694196,
          -0.6639207019600868,
          0.07406732451448028,
          -0.8347127940570314,
          -0.7953384386960336,
          -0.38571326054862554,
          -0.5443716088917205,
          0.11965446798274004,
          -0.20249057361028533,
          -0.3064771288672796,
          0.12168695348644865,
          0.5054279413441687,
          -0.5463881561006227,
          0.06819586601816652,
          0.3690111122023536,
          0.3022673290518718,
          -0.11792508096205268,
          -0.6376702411089217,
          0.3233174057765096,
          -0.11669959912257144,
          -0.7758869100332559,
          0.9524592779528271,
          -0.17166004490639808,
          -0.7399836737247596,
          -0.43111419500519155,
          -0.452999528171804,
          0.344003867448202,
          -0.41128054235422784,
          -0.4720931555030634,
          0.8620514117235496,
          0.8300814997056183,
          -0.01037000228811591,
          -0.9866491609912897
        ],
        "playerName": "RFFSimulation",
        "converter": {}
      },
      "fitness": 1.0,
      "behaviours": [
        23.0,
        1.6,
        26.1,
        2.1
      ]
    }
  ],
  [
    {
      "value": [
        5,
        1,
        40,
        12
      ]
    },
    {
      "x": {
        "agentConfig": [
          0,
          1,
          2,
          0,
          0,
          1,
          3,
          1,
          1,
          0
        ],
        "weights": [
          0.905393740576645,
          -0.9954779258113189,
          0.17355346757634704,
          0.373209128676528,
          -0.025712989151340793,
          0.37694562337913395,
          -0.28443764524178916,
          -0.3024356528295806,
          0.07880789634213503,
          0.10314496081225544,
          0.9601330148552865,
          0.3905337302698608,
          0.21917082929641607,
          -0.9210918509213679,
          -0.09992234576203463,
          -0.16225828131561193,
          0.5658843524434964,
          -0.5640936599298745,
          0.40275385590936374,
          0.9276438352277099,
          -0.48235678779485225,
          -0.3007432021980727,
          -0.009458836814905558,
          0.8973800700569834,
          0.776243384581208,
          -0.6883884066638704,
          -0.587824598636369,
          0.8133733936468484,
          0.0159743087886397,
          0.4376513936310902,
          0.49352658537107796,
          -0.23050264430390133,
          -0.12466846417153588,
          0.7538790964063748,
          -0.18695230638289573,
          -0.16709685331919033,
          -0.5382145213171527,
          -0.4678755551582392,
          0.11626163567507897,
          -0.4726371190379124,
          0.335731391464247,
          0.7411855367139719,
          -0.9347044370547777,
          -0.7837505057819414,
          -0.9723633038897757,
          -0.8804509357698418,
          -0.086389888626895,
          -0.8679584927583346,
          0.5427924395950134,
          0.2131470806567075,
          -0.9972853423656931,
          -0.0034952028103309996,
          0.02096641934471255,
          -0.774376627389971,
          0.5967973073094996,
          -0.8145297688865532,
          0.7436455847366388,
          0.19459798683984575,
          0.5028417085660515,
          0.21439102509573438,
          0.019446675188256934,
          0.48593432611152476,
          0.16794101988480525,
          -0.044370411638563256,
          0.12866421680438278,
          -0.11097039040865808,
          0.5021619027601296,
          0.44568926283676347,
          -0.5291844506238328,
          0.6996626934693644,
          -0.4555492501275351,
          0.4003719238108616,
          -0.6655660890557982,
          -0.9070474640589208,
          0.27071556238017935,
          -0.3718922526014914,
          0.2962497879187078,
          0.8174924964613062,
          0.33735754271349805,
          -0.5835302324957943,
          -0.8427065032596015,
          -0.21725610854942512,
          0.3601667205891912,
          -0.33584912602932393,
          0.5363399238136557,
          0.46528689300402437,
          -0.5523629982041836,
          -0.9595536269070073,
          0.7665098851573184,
          0.2255422749627043,
          0.13939625269555078,
          -0.2234481132485553,
          -0.42126964898485864,
          -0.39490670547322915,
          -0.35541198232456095,
          -0.17224927980997018,
          -0.7938509211742995,
          -0.5342465545573436,
          0.3316817814467381,
          0.09283117247760342,
          -0.9935128375751301,
          -0.5649601687596297,
          -0.2096705343757872,
          -0.8631599650645496,
          0.47470624576970866,
          0.5387287888459953
        ],
        "playerName": "RFFSimulation",
        "converter": {}
      },
      "fitness": 0.0,
      "behaviours": [
        3.0,
        0.0,
        78.1,
        5.8
      ]
    }
  ],
  [
    {
      "value": [
        28,
        20,
        17,
        7
      ]
    },
    {
      "x": {
        "agentConfig": [
          0,
          5,
          2,
          0,
          2,
          0,
          3,
          0,
          0,
          0
        ],
        "weights": [
          0.41092226967441325,
          -0.8797102425115733,
          0.44899751911637,
          0.9689545813715439,
          -0.5930298711703279,
          -0.9682230934084213,
          -0.1714128331727749,
          -0.36546838721951236,
          0.1119101472972246,
          -0.08865521370719254,
          0.6178168748140138,
          0.48937767428735324,
          0.7235257456279733,
          0.09595571162547456,
          0.13073435643337827,
          -0.8497888399247622,
          -0.16171706300398037,
          0.7511970400253811,
          -0.3494656743267579,
          -0.21217427538520273,
          0.2840453677054495,
          -0.06735791267590363,
          0.8319807255404041,
          -0.5426155072814538,
          0.22973126793884946,
          -0.30422542844988687,
          0.5242333718345893,
          0.8065317894401225,
          -0.8223149088888015,
          -0.3580122819466218,
          -0.2658889968021869,
          -0.9540955132733171,
          -0.7488207740878317,
          -0.014563248548876029,
          -0.33728761219166015,
          -0.5798591990139372,
          0.3086005978232442,
          0.7352878071005888,
          -0.7262906096976915,
          0.5835012240516404,
          0.8475178857457324,
          0.9101722346203462,
          0.689515146616662,
          -0.7372699429081493,
          -0.59403372772123,
          0.8364217059183232,
          0.8619212296050056,
          0.38080297150337383,
          -0.7750740822289779,
          -0.47107679801430025,
          0.4266894972509536,
          0.4187215829918456,
          0.30511282453530186,
          -0.08679877264228497,
          -0.5730265868035671,
          0.20853022468385363,
          -0.3271604457745896,
          -0.7804021673275108,
          0.6783353805333399,
          0.5792484854609101,
          0.663845352072497,
          0.2651881548740338,
          0.9485164150159173,
          0.31842500133098994,
          -0.6593654036049275,
          -0.46366604718204374,
          -0.16199406107842895,
          0.7655378748800781,
          0.7780045843574577,
          -0.0054557149199203625,
          0.2728496214873257,
          -0.9805218578347978,
          -0.11691744530623627,
          0.350576159058402,
          0.8590233672822554,
          0.22087293822663634,
          0.660333942537801,
          0.18647630539208038,
          0.9980935183800197,
          0.6610166397239186,
          0.3886440048018136,
          -0.2474714566550591,
          0.6267724108054833,
          -0.42730345517292756,
          -0.9532853631552374,
          0.5258375477424773,
          -0.2816298165204205,
          0.3742142450150969,
          -0.49533882244334304,
          -0.3104535057009592,
          0.27203382763804007,
          -0.13358089801254058,
          0.49383138936708115,
          0.5764497396681711,
          -0.5839448187688472,
          0.4235871191553131,
          0.1735125527948651,
          -0.1819709389860238,
          0.4644204392861926,
          -0.4275072705846559,
          -0.7676686524953482,
          0.4497068682544243,
          -0.7088363946589871,
          -0.4799625331008772,
          0.8937918473660262,
          0.5453748925773518
        ],
        "playerName": "RFFSimulation",
        "converter": {}
      },
      "fitness": 0.4,
      "behaviours": [
        18.2,
        1.3,
        33.0,
        3.1
      ]
    }
  ],
  [
    {
      "value": [
        33,
        22,
        22,
        11
      ]
    },
    {
      "x": {
        "agentConfig": [
          1,
          3,
          1,
          1,
          2,
          2,
          1,
          0,
          0,
          2
        ],
        "weights": [
          -0.2348952821976531,
          -0.5330385836592513,
          0.6119637229586339,
          -0.7671368415069781,
          0.18957700554441326,
          0.03341920142543042,
          -0.5110523613462661,
          0.14682157388541284,
          -0.21153901018669652,
          -0.7893241015048427,
          -0.38214697703908196,
          0.5382417520446066,
          0.22162168226639567,
          0.8864028830246686,
          -0.17854537766848888,
          -0.9589220568177359,
          -0.7057576341336056,
          -0.6259725602209629,
          0.5582466650435016,
          0.07168127078029385,
          0.832896990236283,
          -0.9797796322032466,
          0.7516296621558172,
          -0.5135447286453614,
          -0.7874435495174232,
          0.552077992127848,
          -0.09480626260885838,
          -0.31312175869088565,
          -0.8841107638123695,
          -0.5119654819933492,
          0.05909113882471129,
          -0.7726268641899865,
          -0.6183934656464207,
          -0.14744404198595862,
          0.3241312817646562,
          0.05377161129607466,
          0.3864928688027638,
          -0.8368178339587939,
          0.22437259316628655,
          -0.6151151181783929,
          -0.6938454331906279,
          0.19950025401743265,
          0.8856247553866636,
          0.946958522169097,
          0.812407436973317,
          -0.5828533239167322,
          -0.7735822227460807,
          -0.21944489833428404,
          0.2906178618052957,
          -0.9640476483697651,
          -0.26036724431731106,
          0.16167381680319037,
          0.49819967971892654,
          -0.19013997122640314,
          -0.8028688709718743,
          -0.6863185210006832,
          0.7358620822487454,
          0.2772587926191987,
          -0.33364075998640175,
          0.5338953790355905,
          0.06609296848372281,
          -0.10610357673118442,
          0.59704645925144,
          0.11842420174289003,
          0.8887530251335738,
          -0.13345376331694903,
          -0.5822456955836348,
          -0.9588620542420054,
          0.2715471048412268,
          0.7341195475658493,
          0.07617634905008575,
          0.7274049322887892,
          -0.16647047121531489,
          -0.2160678801270357,
          0.2637277220646046,
          0.4604978609686612,
          0.6926902323912965,
          0.2443470463207189,
          0.6841047935491114,
          -0.03166189383356022,
          0.014060546221626558,
          -0.13896679496832554,
          -0.3428638584468915,
          0.5605116062455928,
          0.03266626821108032,
          0.942593726084525,
          -0.40661478267426854,
          -0.17974316889324893,
          -0.9239517857946651,
          -0.7476658062518626,
          0.43160795200272384,
          0.3033896978550641,
          -0.9260406108737915,
          -0.7735434943561559,
          -0.9996929620625221,
          -0.04410388706645629,
          -0.6817602913429028,
          -0.08502049935278899,
          0.44626684920025306,
          -0.9658102762701319,
          -0.17624103673698532,
          -0.22979667805937054,
          0.3670925307208719,
          -0.803204215467495,
          -0.4582895240268905,
          0.9485500763891932
        ],
        "playerName": "RFFSimulation",
        "converter": {}
      },
      "fitness": 0.6,
      "behaviours": [
        21.5,
        1.4,
        42.8,
        5.1
      ]
    }
  ],
  [
    {
      "value": [
        21,
        7,
        28,
        10
      ]
    },
    {
      "x": {
        "agentConfig": [
          1,
          4,
          3,
          1,
          1,
          0,
          0,
          1,
          3,
          2
        ],
        "weights": [
          0.4469908543250971,
          -0.8030050895766767,
          -0.981311153618303,
          0.19792867083979448,
          -0.8978976300662047,
          -0.4128518303787383,
          0.5670050324170541,
          -0.17872194300581667,
          0.7788415328877312,
          -0.4823589243145465,
          0.42570834125792034,
          -0.9277973632782732,
          0.3991674385454993,
          -0.8189863330349001,
          0.4355879454391809,
          0.6049978336419746,
          0.207962606456785,
          0.8884512092263219,
          -0.0019343962151203709,
          0.12447201378212602,
          0.3757919429140264,
          -0.7032652771350536,
          -0.22681085441567084,
          -0.5861721315277733,
          -0.822050532691692,
          0.4433063277991016,
          -0.9958843091317673,
          -0.04256716710608344,
          0.5518565936481892,
          0.0873136000458703,
          -0.72496963824245,
          -0.3309634301596571,
          -0.3272350121904273,
          0.8330119492303782,
          -0.7464132377913741,
          -0.6292382683829278,
          0.33810875462050416,
          -0.6970798387960926,
          0.025596429091565565,
          -0.3845430341558882,
          -0.5862597918222492,
          -0.7683600537770985,
          0.998834862542991,
          0.20476879461337893,
          -0.6293247560072404,
          -0.2327345284462019,
          0.034472462394158354,
          0.3275540608288632,
          0.028864488371285413,
          0.4958248386285973,
          0.4587791341445364,
          0.6280197232127103,
          -0.9751038292612204,
          -0.2547888733075634,
          -0.08560723607082354,
          -0.28975688570528635,
          -0.7665709713351754,
          0.578576235478035,
          -0.3704196174816985,
          0.5954908801224852,
          0.39754279106853785,
          -0.4468241878267438,
          -0.38443542899275873,
          -0.5289787107630666,
          -0.43891530932308864,
          0.799170546212278,
          -0.45387490878531045,
          -0.29618153205627085,
          0.5464817209572648,
          0.26390266499760684,
          0.6303284152083186,
          0.5399753628196182,
          0.6843778296861938,
          0.07068452176949713,
          0.6583778832036495,
          0.17020507456102085,
          -0.7231524495894548,
          0.8571494053543507,
          0.5822177069739263,
          0.9142279911171818,
          0.8638258597668977,
          0.686732478373578,
          0.48666442042379754,
          0.16154634908702858,
          -0.7372127761508276,
          0.6678636018196682,
          -0.3865191179869385,
          0.40338475888785874,
          -0.43540443777524973,
          -0.23102950516600163,
          -0.7800524547659482,
          -0.7996607318092646,
          0.7938379491226943,
          0.4834061559353964,
          0.485127188440017,
          -0.7474550617525944,
          -0.22015361959526514,
          0.9769294511053654,
          0.42115908751574427,
          -0.12606430473678665,
          0.9350011799715499,
          0.1413846988256342,
          0.8035600322334584,
          0.11943793388744961,
          -0.900198810188773,
          -0.4182601438108129
        ],
        "playerName": "RFFSimulation",
        "converter": {}
      },
      "fitness": 0.5,
      "behaviours": [
        13.9,
        0.4,
        54.1,
        4.5
      ]
    }
  ],
  [
    {
      "value": [
        29,
        16,
        22,
        7
      ]
    },
    {
      "x": {
        "agentConfig": [
          1,
          3,
          3,
          1,
          1,
          2,
          2,
          0,
          2,
          1
        ],
        "weights": [
          0.4578131783131403,
          -0.9149250544776442,
          0.7379161935705219,
          -0.6842302977182781,
          0.4483114201223166,
          -0.7893748634701281,
          0.8277569721565321,
          -0.25759718102530393,
          0.09474094014309942,
          -0.3058208914031413,
          0.4641408151329156,
          -0.10358100738354659,
          0.13278099451624792,
          0.015271661280168436,
          0.2078405034728268,
          -0.5263216887010977,
          0.518470192955808,
          0.5636069595792284,
          0.7170205577734761,
          -0.19150211891479474,
          -0.8701520797423026,
          0.3883383794468347,
          -0.5471037970718724,
          0.3304486017857018,
          0.004539821765777052,
          0.23806806778135692,
          -0.8458446758281679,
          0.7734498184312792,
          -0.5475407095222977,
          0.7859151616641593,
          0.5179479598067713,
          -0.11204412000675434,
          0.9081887145529746,
          0.10001528598001896,
          -0.04311057448730948,
          -0.2707060342327243,
          0.22549341359035302,
          -0.6016679877444207,
          -0.9543364317106178,
          0.729976819106986,
          0.2668127169613359,
          -0.08232606256707364,
          -0.6725473203780092,
          0.7110822050456584,
          -0.8965365817207764,
          0.33032927076804786,
          0.5195625819871308,
          0.7475535652486829,
          -0.08231962989014052,
          -0.44225656446143247,
          -0.16074951745006327,
          0.37454459696070397,
          0.7855110173831394,
          0.05918170994692096,
          -0.8350953025451175,
          0.006694258965248334,
          0.9199701998536063,
          -0.28566537677617876,
          -0.9456338695596509,
          -0.3605144529516502,
          0.6667526663020931,
          0.2723391951118803,
          0.26132123199223134,
          -0.08839411016897092,
          -0.42980844157788445,
          -0.9942953933245275,
          0.32233745408114367,
          0.42949390187534986,
          0.16504080602952298,
          -0.3138532438410875,
          -0.9687473440778134,
          0.8900217263035974,
          0.8000517420690731,
          -0.7096478828201143,
          0.17427037242312426,
          0.9845285655320013,
          0.7622025903445369,
          -0.052794171821972435,
          -0.23174616431432526,
          -0.6728138335298657,
          -0.7541678543800345,
          -0.44596415376078546,
          -0.7736482596137211,
          -0.27705700756969986,
          0.29881874256681384,
          -0.782060026152265,
          -0.6307698285409578,
          0.9750592071209878,
          0.7783355069993019,
          -0.7807220318354673,
          0.0068243803628345034,
          0.1295103403368827,
          -0.4383948946794618,
          -0.4520729030842989,
          -0.06533310341967047,
          0.5633030936654311,
          -0.21753322089327964,
          0.2289153102154362,
          -0.37951378919974066,
          -0.3539877030840921,
          -0.297541290853768,
          0.632560491351128,
          -0.3990860076653957,
          -0.161386159935478,
          -0.02448923009167303,
          -0.24473846812409317
        ],
        "playerName": "RFFSimulation",
        "converter": {}
      },
      "fitness": 0.6,
      "behaviours": [
        19.1,
        1.0,
        42.8,
        3.4
      ]
    }
  ],
  [
    {
      "value": [
        21,
        10,
        26,
        12
      ]
    },
    {
      "x": {
        "agentConfig": [
          0,
          4,
          3,
          0,
          0,
          0,
          0,
          0,
          0,
          2
        ],
        "weights": [
          0.09141785644998346,
          -0.8665099639742646,
          0.8894267750724048,
          -0.8548711646539373,
          0.6695872456230254,
          -0.39231441879658924,
          0.5862813776039513,
          -0.8536114260862071,
          -0.4307425547008692,
          -0.8898731854921427,
          -0.37687061705679614,
          -0.735260899940033,
          -0.18549434524391906,
          -0.543284859022523,
          0.3431317860793919,
          -0.38996583684191855,
          -0.9767442803304314,
          0.6105572830746655,
          0.07469794933391305,
          -0.24367212050254405,
          0.8902952963380546,
          -0.23190896952112539,
          0.532671840400105,
          0.7783308103236433,
          -0.18682231623400436,
          -0.6785885182535836,
          0.2917782782325813,
          0.8605070555564871,
          -0.5843186231679431,
          -0.3063164399888898,
          0.03673570526161041,
          0.7227706398468565,
          0.20109239900529174,
          0.24179470587348106,
          -0.9936668832483373,
          0.9602536179129031,
          0.24995487343003853,
          0.43016577156936564,
          0.07415878871227632,
          0.0606351669673999,
          0.27695504939577975,
          0.30190386425807136,
          0.24655982819659106,
          -0.658964213455242,
          -0.6709343334406404,
          -0.09175250243004718,
          -0.9911987753532985,
          -0.6625031613872143,
          -0.3766977201245909,
          -0.19548080260794665,
          0.9132851804905582,
          -0.716419201664011,
          -0.10841540607548095,
          0.9805659948294643,
          -0.9209199766066536,
          -0.7693563444071505,
          0.7818360749996536,
          0.6659351588475451,
          0.8599007596255828,
          -0.9091534019631442,
          -0.6414044763713345,
          0.33479693075328654,
          -0.16192734126627317,
          0.4249887922813582,
          0.5530551971977953,
          -0.06710811387821858,
          -0.4850997397159684,
          -0.8492396630397714,
          -0.4684189154325109,
          -0.1414527886351007,
          -0.40674555009144187,
          0.513028329505371,
          0.38341044271238744,
          -0.44792999400949496,
          -0.4139177621935093,
          -0.36371406540768647,
          -0.7276363268192438,
          0.6825928171880118,
          0.6349320152098434,
          -0.22959067025609659,
          0.2540471261717847,
          -0.13128808569509887,
          0.8854804826209797,
          -0.05561691504374511,
          -0.6708351169842341,
          0.6290235985489616,
          0.5424358262665472,
          0.1586705209903403,
          0.9851971989172597,
          0.8309309788853083,
          -0.18591605271948874,
          -0.524579426145193,
          -0.5271544724690436,
          0.29085779398007405,
          0.3571337968961408,
          0.40671878695562236,
          0.37028263879641155,
          -0.6237277922219178,
          0.5454097432296632,
          -0.1453939942915421,
          0.6073887618440077,
          -0.5303107485284715,
          0.9113287717168872,
          0.5226029104027903,
          -0.9462060678453021,
          -0.022914004558389545
        ],
        "playerName": "RFFSimulation",
        "converter": {}
      },
      "fitness": 0.7,
      "behaviours": [
        13.9,
        0.6,
        50.6,
        5.7
      ]
    }
  ],
  [
    {
      "value": [
        25,
        22,
        15,
        9
      ]
    },
    {
      "x": {
        "agentConfig": [
          0,
          5,
          2,
          0,
          2,
          0,
          3,
          0,
          0,
          0
        ],
        "weights": [
          0.41092226967441325,
          -0.8797102425115733,
          0.44899751911637,
          0.9689545813715439,
          -0.5930298711703279,
          -0.9682230934084213,
          -0.1714128331727749,
          -0.36546838721951236,
          0.1119101472972246,
          -0.08865521370719254,
          0.6178168748140138,
          0.48937767428735324,
          0.7235257456279733,
          0.09595571162547456,
          0.13073435643337827,
          -0.8497888399247622,
          -0.16171706300398037,
          0.7511970400253811,
          -0.3494656743267579,
          -0.21217427538520273,
          0.2840453677054495,
          -0.06735791267590363,
          0.8319807255404041,
          -0.5426155072814538,
          0.22973126793884946,
          -0.30422542844988687,
          0.5242333718345893,
          0.8065317894401225,
          -0.8223149088888015,
          -0.3580122819466218,
          -0.2658889968021869,
          -0.9540955132733171,
          -0.7488207740878317,
          -0.014563248548876029,
          -0.33728761219166015,
          -0.5798591990139372,
          0.3086005978232442,
          0.7352878071005888,
          -0.7262906096976915,
          0.5835012240516404,
          0.8475178857457324,
          0.9101722346203462,
          0.689515146616662,
          -0.7372699429081493,
          -0.59403372772123,
          0.8364217059183232,
          0.8619212296050056,
          0.38080297150337383,
          -0.7750740822289779,
          -0.47107679801430025,
          0.4266894972509536,
          0.4187215829918456,
          0.30511282453530186,
          -0.08679877264228497,
          -0.5730265868035671,
          0.20853022468385363,
          -0.3271604457745896,
          -0.7804021673275108,
          0.6783353805333399,
          0.5792484854609101,
          0.663845352072497,
          0.2651881548740338,
          0.9485164150159173,
          0.31842500133098994,
          -0.6593654036049275,
          -0.46366604718204374,
          -0.16199406107842895,
          0.7655378748800781,
          0.7780045843574577,
          -0.0054557149199203625,
          0.2728496214873257,
          -0.9805218578347978,
          -0.11691744530623627,
          0.350576159058402,
          0.8590233672822554,
          0.22087293822663634,
          0.660333942537801,
          0.18647630539208038,
          0.9980935183800197,
          0.6610166397239186,
          0.3886440048018136,
          -0.2474714566550591,
          0.6267724108054833,
          -0.42730345517292756,
          -0.9532853631552374,
          0.5258375477424773,
          -0.2816298165204205,
          0.3742142450150969,
          -0.49533882244334304,
          -0.3104535057009592,
          0.27203382763804007,
          -0.13358089801254058,
          0.49383138936708115,
          0.5764497396681711,
          -0.5839448187688472,
          0.4235871191553131,
          0.1735125527948651,
          -0.1819709389860238,
          0.4644204392861926,
          -0.4275072705846559,
          -0.7676686524953482,
          0.4497068682544243,
          -0.7088363946589871,
          -0.4799625331008772,
          0.8937918473660262,
          0.5453748925773518
        ],
        "playerName": "RFFSimulation",
        "converter": {}
      },
      "fitness": 0.4,
      "behaviours": [
        16.6,
        1.4,
        29.2,
        4.2
      ]
    }
  ],
  [
    {
      "value": [
        24,
        17,
        16,
        14
      ]
    },
    {
      "x": {
        "agentConfig": [
          1,
          2,
          3,
          0,
          1,
          1,
          3,
          0,
          1,
          1
        ],
        "weights": [
          -0.6249107001814904,
          0.6682692974424611,
          0.3684004478400964,
          -0.20895991322171836,
          0.19206146998261464,
          0.8382414365733379,
          -0.5311437412762305,
          0.12060526406028771,
          -0.9279951746685324,
          -0.012283532490424909,
          -0.40264525800573137,
          -0.19161832699730885,
          0.9796743995832182,
          -0.5809238018891465,
          -0.524923303539585,
          0.7483117730320885,
          0.40943648160141,
          0.2511970276030764,
          0.027943956235132683,
          -0.6907473724982589,
          -0.3134462799214628,
          0.21921003502945746,
          0.6211827862105985,
          -0.67917104688178,
          -0.8595260508155536,
          -0.6362647678566529,
          -0.25558795220724395,
          -0.29083271579565784,
          -0.7880492891886373,
          -0.6171543804271566,
          0.8702186152546485,
          -0.5252883532058239,
          -0.7937843480302944,
          0.7110299515419263,
          0.7658211762544103,
          0.15158531344707682,
          0.3673121101033481,
          -0.5070588125566597,
          -0.5934344430572698,
          -0.8522699685536848,
          0.22409009257581158,
          -0.4642696446648642,
          -0.17836502354096484,
          0.4373191143655677,
          0.746254555655746,
          0.05228408924191785,
          0.696498587997018,
          -0.03829314933144867,
          0.7492482041524466,
          0.5486974319264661,
          0.3632636583919149,
          -0.20755830291139787,
          -0.8003589814640744,
          -0.43716938214114487,
          -0.07076417184139361,
          -0.38036295660059505,
          0.5980900010143726,
          0.12681317915849322,
          -0.2743662882698936,
          -0.13258955165194752,
          0.45482248710000994,
          -0.19512479854132248,
          -0.9974560058519721,
          -0.4563481061698098,
          0.022987149055819778,
          0.9489002610599979,
          -0.14715565551134913,
          -0.469095698844326,
          0.9181075686061158,
          -0.5823888647184432,
          0.7169615732891486,
          0.48039057752374603,
          0.027264365843590044,
          -0.5786856922842276,
          0.50197341851695,
          -0.8258695903200082,
          -0.8004787467882208,
          0.38264518194555275,
          -0.657297039891725,
          -0.6996586988197058,
          0.6095022697145791,
          0.7447716685059427,
          0.3390952348127556,
          -0.5631595160631464,
          -0.6010827186517718,
          -0.4879709073595966,
          0.22330579339191936,
          0.7177147773793842,
          0.22622388742149013,
          0.9739752575982894,
          -0.15842708349800683,
          0.8969416951054816,
          -0.3074954603987792,
          -0.4576298744224945,
          -0.41991626136274607,
          0.1574123956472775,
          0.2620274247512824,
          -0.07839978584437013,
          0.4206874593298038,
          0.46107093694828993,
          -0.7411481186123732,
          0.9365829733368565,
          0.18144750472166704,
          0.49565151825434817,
          0.7962279417938014,
          -0.7417970450851026
        ],
        "playerName": "RFFSimulation",
        "converter": {}
      },
      "fitness": 0.6,
      "behaviours": [
        15.8,
        1.1,
        30.8,
        6.9
      ]
    }
  ],
  [
    {
      "value": [
        10,
        2,
        12,
        10
      ]
    },
    {
      "x": {
        "agentConfig": [
          1,
          2,
          3,
          0,
          1,
          1,
          3,
          0,
          1,
          1
        ],
        "weights": [
          -0.6249107001814904,
          0.6682692974424611,
          0.3684004478400964,
          -0.20895991322171836,
          0.19206146998261464,
          0.8382414365733379,
          -0.5311437412762305,
          0.12060526406028771,
          -0.9279951746685324,
          -0.012283532490424909,
          -0.40264525800573137,
          -0.19161832699730885,
          0.9796743995832182,
          -0.5809238018891465,
          -0.524923303539585,
          0.7483117730320885,
          0.40943648160141,
          0.2511970276030764,
          0.027943956235132683,
          -0.6907473724982589,
          -0.3134462799214628,
          0.21921003502945746,
          0.6211827862105985,
          -0.67917104688178,
          -0.8595260508155536,
          -0.6362647678566529,
          -0.25558795220724395,
          -0.29083271579565784,
          -0.7880492891886373,
          -0.6171543804271566,
          0.8702186152546485,
          -0.5252883532058239,
          -0.7937843480302944,
          0.7110299515419263,
          0.7658211762544103,
          0.15158531344707682,
          0.3673121101033481,
          -0.5070588125566597,
          -0.5934344430572698,
          -0.8522699685536848,
          0.22409009257581158,
          -0.4642696446648642,
          -0.17836502354096484,
          0.4373191143655677,
          0.746254555655746,
          0.05228408924191785,
          0.696498587997018,
          -0.03829314933144867,
          0.7492482041524466,
          -0.2459532512963467,
          0.3632636583919149,
          -0.20755830291139787,
          -0.8003589814640744,
          -0.43716938214114487,
          -0.07076417184139361,
          -0.38036295660059505,
          0.5980900010143726,
          0.12681317915849322,
          -0.2743662882698936,
          -0.13258955165194752,
          0.45482248710000994,
          -0.19512479854132248,
          -0.9974560058519721,
          -0.4563481061698098,
          0.022987149055819778,
          0.9489002610599979,
          -0.14715565551134913,
          -0.469095698844326,
          0.9181075686061158,
          -0.5823888647184432,
          0.7169615732891486,
          0.48039057752374603,
          0.027264365843590044,
          -0.5786856922842276,
          0.50197341851695,
          -0.8258695903200082,
          -0.8004787467882208,
          0.38264518194555275,
          -0.657297039891725,
          -0.6996586988197058,
          0.6095022697145791,
          0.7447716685059427,
          0.3390952348127556,
          -0.5631595160631464,
          -0.6010827186517718,
          -0.4879709073595966,
          0.22330579339191936,
          0.7177147773793842,
          0.22622388742149013,
          0.9739752575982894,
          -0.15842708349800683,
          0.8969416951054816,
          -0.3074954603987792,
          -0.4576298744224945,
          -0.41991626136274607,
          0.1574123956472775,
          0.2620274247512824,
          -0.07839978584437013,
          0.4206874593298038,
          0.46107093694828993,
          -0.7411481186123732,
          0.9365829733368565,
          0.18144750472166704,
          0.49565151825434817,
          0.7962279417938014,
          -0.7417970450851026
        ],
        "playerName": "RFFSimulation",
        "converter": {}
      },
      "fitness": 0.2,
      "behaviours": [
        6.1,
        0.1,
        22.5,
        4.8
      ]
    }
  ],
  [
    {
      "value": [
        25,
        8,
        28,
        11
      ]
    },
    {
      "x": {
        "agentConfig": [
          0,
          4,
          3,
          0,
          1,
          0,
          0,
          0,
          0,
          2
        ],
        "weights": [
          0.09141785644998346,
          -0.8665099639742646,
          0.8894267750724048,
          -0.8548711646539373,
          0.6695872456230254,
          -0.39231441879658924,
          0.5862813776039513,
          -0.8536114260862071,
          -0.4307425547008692,
          -0.8898731854921427,
          -0.37687061705679614,
          -0.735260899940033,
          -0.18549434524391906,
          -0.543284859022523,
          0.3431317860793919,
          -0.38996583684191855,
          0.3636706604476141,
          0.6105572830746655,
          0.07469794933391305,
          -0.24367212050254405,
          0.8902952963380546,
          -0.23190896952112539,
          0.532671840400105,
          0.7783308103236433,
          -0.18682231623400436,
          -0.6785885182535836,
          0.2917782782325813,
          0.8605070555564871,
          -0.5843186231679431,
          -0.3063164399888898,
          0.03673570526161041,
          0.7227706398468565,
          0.20109239900529174,
          0.24179470587348106,
          -0.9936668832483373,
          0.9602536179129031,
          0.24995487343003853,
          0.43016577156936564,
          0.07415878871227632,
          0.0606351669673999,
          0.27695504939577975,
          0.30190386425807136,
          0.24655982819659106,
          -0.658964213455242,
          -0.6709343334406404,
          -0.09175250243004718,
          -0.9911987753532985,
          -0.6625031613872143,
          -0.3766977201245909,
          -0.19548080260794665,
          0.9132851804905582,
          -0.716419201664011,
          -0.10841540607548095,
          0.9805659948294643,
          -0.9209199766066536,
          -0.7693563444071505,
          0.7818360749996536,
          0.6659351588475451,
          0.8599007596255828,
          -0.9091534019631442,
          -0.6414044763713345,
          0.33479693075328654,
          -0.16192734126627317,
          0.4249887922813582,
          0.5530551971977953,
          -0.06710811387821858,
          -0.4850997397159684,
          -0.8492396630397714,
          -0.4684189154325109,
          -0.1414527886351007,
          -0.40674555009144187,
          0.513028329505371,
          0.38341044271238744,
          -0.44792999400949496,
          -0.4139177621935093,
          -0.36371406540768647,
          -0.7276363268192438,
          0.6825928171880118,
          0.6349320152098434,
          -0.22959067025609659,
          0.2540471261717847,
          -0.13128808569509887,
          0.8854804826209797,
          -0.05561691504374511,
          -0.6708351169842341,
          0.6290235985489616,
          0.5424358262665472,
          0.1586705209903403,
          0.9851971989172597,
          0.8309309788853083,
          -0.18591605271948874,
          -0.524579426145193,
          -0.5271544724690436,
          0.29085779398007405,
          0.3571337968961408,
          0.40671878695562236,
          0.37028263879641155,
          -0.6237277922219178,
          0.5454097432296632,
          -0.1453939942915421,
          0.6073887618440077,
          -0.5303107485284715,
          0.9113287717168872,
          0.5226029104027903,
          -0.9462060678453021,
          -0.022914004558389545
        ],
        "playerName": "RFFSimulation",
        "converter": {}
      },
      "fitness": 0.6,
      "behaviours": [
        16.0,
        0.5,
        55.3,
        5.0
      ]
    }
  ],
  [
    {
      "value": [
        32,
        34,
        18,
        9
      ]
    },
    {
      "x": {
        "agentConfig": [
          0,
          4,
          2,
          1,
          2,
          2,
          0,
          3,
          2,
          1
        ],
        "weights": [
          -0.6296799463372578,
          -0.5060928983874464,
          -0.5610075934281964,
          -0.04113837894936556,
          0.00632751580571389,
          -0.3092527794315516,
          -0.11852092602810282,
          0.7891157180237582,
          0.6880455350720718,
          -0.7701299353709834,
          -0.13522229897276672,
          0.4023847749415115,
          -0.4120350322726227,
          -0.6402528499481037,
          -0.9022532509096532,
          0.9649599612244588,
          -0.3008561883311358,
          -0.39475794201518233,
          -0.31766079549399895,
          0.14233006727371467,
          -0.8777107243497793,
          0.7161840783201003,
          0.9380123572964245,
          0.026252882087308915,
          0.5860189036827774,
          0.03822349803587777,
          -0.3942906087802973,
          0.6209790749765645,
          -0.8911910340699112,
          0.4805896057278236,
          -0.20207073764587702,
          0.6540708730582425,
          -0.29472046105761573,
          -0.35986126601830515,
          -0.5382087969239493,
          -0.48172761467137715,
          -0.6538951905255379,
          0.8383451298039257,
          0.8348911516309441,
          0.004405465230775452,
          0.9999801674643991,
          0.8376532928053471,
          -0.6008613600186312,
          0.15127910268332956,
          0.517715634521936,
          -0.1741242130454672,
          -0.8243477927009313,
          0.01711760302420573,
          -0.6373323289699546,
          -0.1079142278898384,
          -0.1458170015570759,
          -0.5319734016819138,
          -0.2516385560424368,
          0.6647207321709958,
          -0.7865742566895357,
          0.18253351774858073,
          -0.3867039798668299,
          -0.9576231311377288,
          0.563968562439114,
          0.9872530379821387,
          -0.9554342941562379,
          0.02004195045392687,
          -0.4664780432069333,
          0.3672446787524253,
          -0.7439281466089622,
          -0.5017216326755958,
          -0.5855410050236158,
          -0.4643547112261699,
          0.033739378750505145,
          -0.33986613928017273,
          -0.4934110035578849,
          -0.19932584071179993,
          -0.3207069023080391,
          -0.9896757983388944,
          0.4134779809811555,
          -0.8658752153739362,
          0.9157899859771237,
          0.49349621882597994,
          0.08851869690835712,
          0.8239725365414128,
          0.9622433508509565,
          0.24314616318099147,
          0.5773458020793112,
          -0.11525645030080334,
          0.041316735627517254,
          0.46003363846256407,
          -0.9460793188311625,
          0.5028050222084179,
          -0.04679586985357398,
          0.6786971574577771,
          0.020274991580172097,
          0.2097533910938707,
          -0.9695441202003832,
          0.25294285073967737,
          -0.11265922689385266,
          -0.2944072804485849,
          -0.21735171034566503,
          -0.7240563574774714,
          0.03558709294421458,
          -0.705590120962275,
          0.8464373545543691,
          -0.652148576450428,
          -0.6840526828549363,
          -0.25122926850419924,
          -0.52432402040401,
          -0.3864090270672593
        ],
        "playerName": "RFFSimulation",
        "converter": {}
      },
      "fitness": 0.6,
      "behaviours": [
        21.2,
        2.2,
        35.2,
        4.2
      ]
    }
  ],
  [
    {
      "value": [
        26,
        25,
        18,
        15
      ]
    },
    {
      "x": {
        "agentConfig": [
          0,
          5,
          2,
          0,
          2,
          0,
          3,
          0,
          0,
          0
        ],
        "weights": [
          0.41092226967441325,
          -0.8797102425115733,
          0.44899751911637,
          0.9689545813715439,
          -0.5930298711703279,
          -0.9682230934084213,
          -0.1714128331727749,
          -0.36546838721951236,
          0.1119101472972246,
          -0.08865521370719254,
          0.6178168748140138,
          0.48937767428735324,
          0.7235257456279733,
          0.09595571162547456,
          0.13073435643337827,
          -0.8497888399247622,
          -0.16171706300398037,
          0.7511970400253811,
          -0.3494656743267579,
          -0.21217427538520273,
          0.2840453677054495,
          -0.06735791267590363,
          0.8319807255404041,
          -0.5426155072814538,
          0.22973126793884946,
          -0.30422542844988687,
          0.5242333718345893,
          0.8065317894401225,
          -0.8223149088888015,
          -0.3580122819466218,
          -0.2658889968021869,
          -0.9540955132733171,
          0.036408705888714366,
          -0.014563248548876029,
          -0.33728761219166015,
          -0.5798591990139372,
          0.3086005978232442,
          0.7352878071005888,
          -0.7262906096976915,
          0.5835012240516404,
          0.8475178857457324,
          0.9101722346203462,
          0.689515146616662,
          -0.7372699429081493,
          -0.59403372772123,
          0.8364217059183232,
          0.8619212296050056,
          0.38080297150337383,
          -0.7750740822289779,
          -0.47107679801430025,
          0.4266894972509536,
          0.4187215829918456,
          0.30511282453530186,
          -0.08679877264228497,
          -0.5730265868035671,
          0.20853022468385363,
          -0.3271604457745896,
          -0.7804021673275108,
          0.6783353805333399,
          0.5792484854609101,
          0.663845352072497,
          0.2651881548740338,
          0.9485164150159173,
          0.31842500133098994,
          -0.6593654036049275,
          -0.46366604718204374,
          -0.16199406107842895,
          0.7655378748800781,
          0.7780045843574577,
          -0.0054557149199203625,
          0.2728496214873257,
          -0.9805218578347978,
          -0.11691744530623627,
          0.350576159058402,
          0.8590233672822554,
          0.22087293822663634,
          0.660333942537801,
          0.18647630539208038,
          0.9980935183800197,
          0.6610166397239186,
          0.3886440048018136,
          -0.2474714566550591,
          0.6267724108054833,
          -0.42730345517292756,
          -0.9532853631552374,
          0.5258375477424773,
          -0.2816298165204205,
          0.3742142450150969,
          -0.49533882244334304,
          -0.3104535057009592,
          0.27203382763804007,
          -0.13358089801254058,
          0.49383138936708115,
          0.5764497396681711,
          -0.5839448187688472,
          0.4235871191553131,
          0.1735125527948651,
          -0.1819709389860238,
          0.4644204392861926,
          -0.4275072705846559,
          -0.7676686524953482,
          0.4497068682544243,
          -0.7088363946589871,
          -0.4799625331008772,
          0.8937918473660262,
          0.5453748925773518
        ],
        "playerName": "RFFSimulation",
        "converter": {}
      },
      "fitness": 0.1,
      "behaviours": [
        17.2,
        1.6,
        34.8,
        7.3
      ]
    }
  ],
  [
    {
      "value": [
        35,
        26,
        17,
        14
      ]
    },
    {
      "x": {
        "agentConfig": [
          0,
          3,
          1,
          1,
          2,
          0,
          3,
          0,
          4,
          1
        ],
        "weights": [
          0.5979170949541226,
          0.3892540682965677,
          -0.7559438845563007,
          0.23313224709771618,
          -0.8852571023325668,
          0.8225929753626244,
          -0.9098611020119953,
          0.521589708098559,
          0.5482442316821827,
          0.959327603309529,
          0.27842497758426177,
          -0.45462665540466984,
          -0.4425701242900366,
          -0.5436844825276925,
          0.8452922725937764,
          0.05439655256850218,
          0.6233099636907258,
          0.3810708550579718,
          0.8474441864611488,
          0.18049320323237916,
          0.6033718599766498,
          0.7655234857444873,
          0.005699903728236366,
          0.01421473992367428,
          0.7714022410288,
          0.6064431584503824,
          -0.28949572129351053,
          0.1631131088182891,
          -0.4841884541288346,
          -0.2247638066480031,
          0.5046959819020542,
          -0.7955885203058388,
          0.5825082934077341,
          -0.8466625135123984,
          0.7782149896742288,
          0.9547317992322666,
          -0.2262383455341943,
          0.9754366155944976,
          0.34106909432695365,
          0.3018131235333017,
          -0.6476196945799348,
          -0.15870716428837017,
          -0.21497775066240155,
          -0.022079859562142312,
          0.05092704811626758,
          -0.8520913115350055,
          -0.8988945870490193,
          0.10190788211720037,
          -0.45142072465833905,
          -0.20265224301289209,
          0.8891934543152051,
          -0.4233270830170248,
          -0.4463647289045165,
          0.951498063849308,
          0.6775313844662127,
          -0.49901226220668615,
          -0.7824417871963418,
          0.3335980765555897,
          -0.6357669029530051,
          -0.3605191417060325,
          0.5068386412116979,
          0.11735749247760019,
          0.5994183050586752,
          -0.3082096167668502,
          -0.6281514797195726,
          -0.20197870649081318,
          -0.9542082653383985,
          -0.3883159076280758,
          -0.9227502258709901,
          -0.3942593343956693,
          -0.11288877027453292,
          -0.4507943403219712,
          0.8964106093720532,
          -0.9998699421262254,
          -0.3018693085192812,
          0.12367120618223826,
          0.5226739196753085,
          0.5759059994601299,
          -0.15375505834443226,
          -0.31739280907750134,
          0.013212999158896732,
          0.31301720054717297,
          -0.03579528225721185,
          0.961484761618915,
          0.8565996193267973,
          0.5206935825043533,
          0.7149091483772649,
          -0.8686270733348695,
          -0.15689924610836625,
          0.05335488319526993,
          0.06342557963692896,
          0.6063970440032915,
          -0.18288918916570807,
          -0.5826627685421981,
          -0.42197426552319484,
          -0.8198436506462725,
          0.10401662812582146,
          0.24091035425265894,
          0.9011685499096564,
          -0.9299821692281851,
          0.42918291736061187,
          -0.7539255559893019,
          -0.5369995686937012,
          -0.729528403781315,
          -0.5153624799997492,
          0.33914086422959633
        ],
        "playerName": "RFFSimulation",
        "converter": {}
      },
      "fitness": 0.3,
      "behaviours": [
        23.0,
        1.7,
        32.3,
        6.9
      ]
    }
  ],
  [
    {
      "value": [
        38,
        31,
        18,
        11
      ]
    },
    {
      "x": {
        "agentConfig": [
          1,
          5,
          1,
          1,
          1,
          2,
          3,
          2,
          3,
          2
        ],
        "weights": [
          0.028122743555685892,
          0.38035894109404933,
          0.2712264488405547,
          0.8838220349283696,
          -0.887740209160375,
          -0.9358396802833497,
          0.9927291078048259,
          0.5357229309489053,
          0.7870921975337981,
          -0.6137415158063433,
          0.44014783873612306,
          0.9101875530214054,
          0.5716891250492324,
          0.5368935110069983,
          -0.25719939292706173,
          0.477486999554396,
          0.3917554222967481,
          -0.7071413144469316,
          -0.05963478324989979,
          0.15642908717773363,
          0.20674530199510066,
          0.1503518458474462,
          0.9069182643801736,
          -0.24621371971363137,
          -0.03911606378845134,
          0.6722529647323594,
          0.7203729173834947,
          -0.6097245704963077,
          0.6933626897254099,
          0.034019529777434165,
          -0.6512865423552321,
          -0.8087746058604741,
          -0.9566345678349033,
          0.7934072846073335,
          -0.1689330035674932,
          0.7173365807786307,
          -0.9015272016184566,
          0.7627397593032343,
          0.7507919978553053,
          -0.37930023868276774,
          -0.43961763510525076,
          -0.4715348254354048,
          -0.2705954481406505,
          0.8335090009501955,
          0.539773630741343,
          0.6412547975646334,
          0.9143040910903795,
          -0.7683316949316166,
          0.9425369568224999,
          -0.20908641924067273,
          -0.01009996838206817,
          0.16275669378889357,
          0.3724761527751843,
          -0.6161122738118434,
          0.11088270518938748,
          -0.5124163481480006,
          0.7509852342678878,
          0.8571713031507326,
          -0.6619787982231806,
          -0.1431692335519441,
          0.44209085744314836,
          -0.20907167777949476,
          0.6510125413050019,
          0.8290418762545073,
          -0.42835827011129934,
          -0.5768370810310499,
          -0.580453348930239,
          -0.8665098878740944,
          -0.557682836006421,
          -0.47671430469960274,
          0.33289196703006496,
          -0.10878555741828944,
          -0.528481270176701,
          -0.2525595857355978,
          0.21994796715219356,
          -0.07021448615085024,
          -0.08290258100274861,
          -0.42303032797351414,
          0.9358507818816977,
          0.462125062102662,
          -0.19373867114540255,
          0.7324153784898948,
          -0.4521412263815989,
          0.3469695642550561,
          0.9458986735111083,
          0.5589640842201906,
          -0.5776138132634696,
          0.9083336559314412,
          0.6679412332963741,
          0.2952638496559832,
          -0.5033070565061277,
          0.8635953103390417,
          0.051284613553403524,
          0.3660540523492404,
          0.012879336261530039,
          -0.7054100809933617,
          0.762172199148514,
          -0.11993349890285354,
          -0.7015246743530557,
          -0.20663426507732363,
          0.3678397603017656,
          -0.6318301901368457,
          -0.20294501995521919,
          -0.07598044567695017,
          -0.9963909233536197,
          0.46274695774386143
        ],
        "playerName": "RFFSimulation",
        "converter": {}
      },
      "fitness": 0.5,
      "behaviours": [
        24.7,
        2.0,
        35.5,
        5.0
      ]
    }
  ],
  [
    {
      "value": [
        19,
        1,
        32,
        11
      ]
    },
    {
      "x": {
        "agentConfig": [
          1,
          4,
          3,
          0,
          2,
          0,
          0,
          1,
          2,
          2
        ],
        "weights": [
          0.6786663316214765,
          0.34575977949253955,
          -0.9165678001111757,
          -0.005153826146599094,
          -0.9588432877455189,
          -0.09918930577447371,
          0.4550703137677168,
          0.6596154161057886,
          -0.7858259637146352,
          0.7096005616465835,
          0.6807698068033794,
          -0.623675283671022,
          -0.19043523831268283,
          0.5010569666486187,
          -0.3614243130524606,
          -0.6466132638377338,
          -0.10967309413115234,
          0.9129754439329598,
          -0.7267479215094665,
          -0.36677794907723804,
          -0.9780808154642915,
          0.10531778364147626,
          0.9110848387789654,
          0.9158360686422613,
          -0.020704935219928222,
          0.8819120679128365,
          0.46566934856116027,
          0.8587235562331015,
          -0.13221934603142493,
          -0.2958394029663296,
          0.8445596235461996,
          -0.3287224599875165,
          0.09755348695982913,
          0.5526272113503918,
          -0.04545579779719011,
          0.05039406247603795,
          -0.35437789006195897,
          -0.022858518068086697,
          0.1037061659982419,
          -0.4550191520014142,
          -0.6541546933662787,
          -0.12667822723274824,
          0.31131392777808786,
          0.29059221453030926,
          -0.43332845236476936,
          0.5331867999980442,
          -0.9380182855453105,
          0.7214298711632627,
          -0.4320806746698713,
          0.33978887676691705,
          -0.6215725253019206,
          0.34546357239954495,
          0.0720599393456911,
          0.11056883727746003,
          0.7375478472225632,
          -0.04055871960475055,
          -0.8578954997348931,
          -0.4586017897381145,
          -0.6825797292212845,
          -0.21592436440719398,
          -0.6726620572017963,
          0.463039096680107,
          -0.6617678326378753,
          0.9157063127333389,
          -0.7802162701912456,
          0.6940188429193994,
          -0.15197105156363233,
          -0.7807430577060797,
          -0.9415774468437523,
          -0.8413186766586787,
          -0.7954381498145515,
          -0.6716823464950936,
          -0.1751701447553724,
          -0.3635570881983763,
          -0.4158572986058313,
          -0.2282975685570341,
          0.3930376348679403,
          -0.9819534726456736,
          -0.5600697006427939,
          0.41184430408099315,
          -0.27193426739924953,
          0.26687270663824814,
          0.9385155994873187,
          0.35890830638511795,
          0.8717096544364904,
          0.41813284206089185,
          0.01696079752206603,
          0.3155168729657558,
          0.5108114278742433,
          -0.10396591294971746,
          0.836716365178199,
          -0.08950157570255768,
          0.2923817009608023,
          -0.811227204683654,
          -0.3508717267822823,
          -0.003914503029913252,
          -0.26841923804285006,
          0.49347773998291977,
          -0.5563114990455318,
          0.11150442186872533,
          -0.4472918861139339,
          -0.6720100770553792,
          0.21670290608514975,
          0.35691338153016794,
          0.609989647637879,
          0.3036322964509959
        ],
        "playerName": "RFFSimulation",
        "converter": {}
      },
      "fitness": 0.4,
      "behaviours": [
        12.5,
        0.0,
        63.4,
        5.0
      ]
    }
  ],
  [
    {
      "value": [
        28,
        17,
        20,
        12
      ]
    },
    {
      "x": {
        "agentConfig": [
          1,
          5,
          3,
          1,
          1,
          2,
          3,
          0,
          0,
          2
        ],
        "weights": [
          -0.4922440739297238,
          -0.6590294261012448,
          -0.929013894616451,
          0.3262464422863842,
          0.710575241745619,
          -0.08203510202426578,
          0.40433086218001035,
          0.7613031550094682,
          0.43265589687964723,
          -0.5647822146231143,
          0.2930392984105299,
          -0.5896937383647818,
          0.5843683529442016,
          -0.9818975426044703,
          0.30095632847665055,
          -0.25015211053652253,
          -0.8835840795627394,
          0.9314557891713626,
          0.1586281224400221,
          0.6053583495326522,
          -0.9330495886614296,
          -0.9822839459902868,
          0.2756173541911473,
          -0.654167210407518,
          -0.6165986910727057,
          0.7465817552658811,
          0.9556626759974438,
          0.15946992147158356,
          0.3738156936939938,
          0.9111638116165879,
          -0.4818865234941352,
          0.551640253678142,
          -0.3321026928434525,
          -0.3283790525306365,
          -0.5392901160811876,
          0.028868861367731258,
          -0.09417735972951524,
          -0.8742179907189256,
          0.04291978736329827,
          -0.43271807687615804,
          -0.9766956404359861,
          0.8772751007379183,
          0.2256852845141375,
          0.9112325011492748,
          -0.03573933102368465,
          0.1751999083354543,
          -0.22742963729227705,
          -0.9924135821674591,
          0.9278423191335401,
          0.11539372148191585,
          0.49894404582573504,
          0.9534150177442486,
          -0.1555426182828208,
          0.12185838501668012,
          0.14997249125494316,
          0.7196069078412746,
          -0.3241740506856281,
          0.4679308230817938,
          0.1948341003907217,
          0.6101761254647178,
          0.3469876535037453,
          0.9502950635030945,
          0.9437141488898417,
          -0.0731888566680099,
          0.6435737794817487,
          0.9949495268798103,
          0.8257732522862293,
          0.6304726465514159,
          -0.7544513644716728,
          0.4527590389941545,
          -0.5895729767695879,
          0.9266157679262559,
          0.21901393164105087,
          -0.866763212448382,
          -0.18908621338346876,
          0.6478764872440568,
          0.750561402814196,
          0.7287164699856887,
          -0.5217323016292561,
          -0.932171702657258,
          -0.3159516916445937,
          -0.8029087457298365,
          -0.9245439075060864,
          0.35168100447235573,
          0.5075632925494244,
          0.8998110681574416,
          -0.8844204721409377,
          0.23455848401689283,
          -0.1612620301612817,
          -0.16715369695163473,
          -0.6453256620658401,
          -0.2847416482401821,
          0.16945251307497267,
          0.14184048190336607,
          0.5487977314174886,
          -0.4368378035580558,
          -0.34362725577708697,
          -0.22130903144898473,
          0.1167164676777106,
          -0.7417698380356446,
          0.08164774343555958,
          -0.3646877408052851,
          0.4936600497445207,
          -0.3812201830472337,
          0.7584866919473119,
          -0.21864872730164686
        ],
        "playerName": "RFFSimulation",
        "converter": {}
      },
      "fitness": 0.3,
      "behaviours": [
        18.1,
        1.1,
        38.1,
        5.9
      ]
    }
  ],
  [
    {
      "value": [
        28,
        10,
        22,
        22
      ]
    },
    {
      "x": {
        "agentConfig": [
          1,
          4,
          2,
          1,
          0,
          0,
          0,
          0,
          4,
          1
        ],
        "weights": [
          0.4839461226425452,
          0.9642966410824172,
          -0.3884910420540526,
          -0.3021902591482495,
          -0.9537529069886665,
          -0.4745954447116947,
          -0.38110702377811223,
          -0.09962976741645524,
          0.7630027482204385,
          -0.9042441887468038,
          -0.11158595791064063,
          -0.2528949573325472,
          -0.10946793794467524,
          -0.18587866448417567,
          -0.9538944448184037,
          -0.023636182114289195,
          -0.4604591457362497,
          0.8499400982763512,
          -0.11778883143285013,
          -0.5259117760135081,
          -0.4752067019510344,
          -0.3467017521604032,
          -0.5802057304328538,
          -0.0067752817246600205,
          0.47475732726005826,
          0.034354288681491374,
          -0.5409500643842895,
          0.6197286397113126,
          0.6077783484212711,
          0.5417554126936774,
          -0.06936821578155472,
          0.26427378303806837,
          -0.9870222661176353,
          -0.0681474538943947,
          -0.7708018780119272,
          0.43729666224167474,
          0.018212066542750982,
          -0.34471054437567017,
          -0.1512288976171301,
          -0.6439794497646094,
          -0.7159294462437609,
          0.23480658806338672,
          0.10439369549071942,
          0.035619824627211694,
          -0.3679721183155866,
          -0.8321351031140223,
          -0.5000396917545364,
          -0.5672988925971023,
          -0.7034889186281981,
          0.5599618361057581,
          0.3899869459607994,
          0.9377928182509949,
          -0.7152205110090835,
          -0.920723880907754,
          -0.016522306038144974,
          0.5545510936249718,
          -0.16484315653148252,
          -0.9794551269832943,
          0.4509350081068768,
          -0.04309563236751579,
          0.5832960910209892,
          -0.7241591934929414,
          0.9209514476909393,
          -0.7186233393166517,
          0.9777978459851402,
          0.8321840878353322,
          -0.5092882078550232,
          0.9903427904936064,
          0.7306430781612847,
          -0.949311501174984,
          0.025124987133429144,
          -0.5670141093980039,
          0.6445434820016247,
          0.42920661883582945,
          -0.5178050828991945,
          0.8342435189960815,
          0.028450728123819546,
          0.8102063004154303,
          0.7776316233350029,
          -0.6419573918827848,
          0.09410898263166545,
          -0.9321265992535352,
          -0.21040681374945214,
          0.6196407330204474,
          -0.7793260407774258,
          -0.8067956403008858,
          -0.9951597497922362,
          0.5629062625871362,
          -0.21893638517829395,
          0.39311553064841553,
          0.5204762144722821,
          0.9718852340054907,
          -0.6571550721221322,
          -0.6706366466525933,
          -0.35916528365138656,
          -0.947981031496665,
          -0.511896536688395,
          0.9453339227483184,
          -0.8530305063393249,
          -0.5051082914036678,
          -0.7591186290663698,
          0.46352702210619867,
          -0.5334102780023333,
          -0.7685966357824141,
          -0.852588865176755,
          -0.9161750550752756
        ],
        "playerName": "RFFSimulation",
        "converter": {}
      },
      "fitness": 0.6,
      "behaviours": [
        18.0,
        0.6,
        42.0,
        10.7
      ]
    }
  ],
  [
    {
      "value": [
        33,
        25,
        21,
        7
      ]
    },
    {
      "x": {
        "agentConfig": [
          0,
          3,
          2,
          1,
          2,
          2,
          1,
          2,
          4,
          1
        ],
        "weights": [
          -0.5324731191985197,
          0.43554327426358586,
          0.6062556522503921,
          0.1296861506370246,
          0.8744779061996142,
          -0.45526806319382396,
          0.9715566712376438,
          -0.7368212803904362,
          -0.3327973535964506,
          0.794774946120564,
          -0.4247291193581899,
          -0.4776091732487535,
          0.5230680494829218,
          -0.8794112556185032,
          0.5992909892730058,
          -0.03611548008393961,
          -0.33293684128979817,
          0.45945633755875925,
          -0.5337173503913755,
          -0.6687423646394992,
          -0.8542206991966019,
          -0.21610340056264987,
          -0.6890037744331596,
          -0.02372992902654869,
          -0.4963018098794867,
          -0.715951402780395,
          -0.09054133934286646,
          0.03022358360348254,
          -0.6144699855156845,
          0.4738018973785161,
          -0.6084540212777663,
          -0.7156032738596931,
          -0.2300148858097184,
          -0.9328302683788154,
          0.6503271882489365,
          -0.033148708078682754,
          -0.9654970626587571,
          0.3561670724336983,
          0.26196176321021425,
          0.1439434804928028,
          0.8571030255520413,
          -0.48127872219332124,
          -0.057177362810407084,
          0.8283873502009105,
          0.08066327475333046,
          -0.20509092501109993,
          -0.9040919188113035,
          0.04173474789131637,
          0.09657089451641587,
          -0.20792122663134482,
          -0.1635041008067193,
          0.05765048282211138,
          -0.9511671240608324,
          -0.685817604231034,
          -0.9626160829840145,
          -0.15662113128216082,
          -0.7836271009162024,
          -0.9420919389017044,
          -0.6030475852034938,
          -0.6796892578434319,
          0.3003822543800201,
          -0.7220309645304559,
          -0.6913271508985546,
          -0.5194208621985064,
          -0.9747668691283871,
          0.09617000940104137,
          -0.6014198014065837,
          0.625123222493227,
          0.45560344828369614,
          -0.48636113102641243,
          -0.0023853631623789173,
          0.029680430999890817,
          0.7391021769362338,
          0.38287623707071416,
          0.5286304806460276,
          0.19867800567667593,
          0.6028260777817818,
          0.6060413573420145,
          0.8132604623552604,
          -0.46698637771503115,
          -0.1360819726854705,
          -0.3518415913375663,
          -0.3582867630569204,
          0.7162296069158669,
          -0.5416611562057252,
          -0.9113071535258104,
          -0.4010254790672525,
          0.4146001098418286,
          -0.9512958768114945,
          -0.6177865642633511,
          -0.8962295743263939,
          0.9901676767528984,
          -0.8588205041933907,
          -0.7413795496686735,
          0.8920444825281071,
          0.8417796414070089,
          0.8230666229689985,
          0.26568713531344224,
          0.7645890382761529,
          0.717692004131979,
          -0.27314482923360517,
          0.8414260572639005,
          -0.6811371224848448,
          0.884322997395492,
          -0.3668463435016167,
          0.0010588745245192488
        ],
        "playerName": "RFFSimulation",
        "converter": {}
      },
      "fitness": 0.6,
      "behaviours": [
        21.9,
        1.6,
        41.2,
        3.3
      ]
    }
  ],
  [
    {
      "value": [
        25,
        11,
        25,
        7
      ]
    },
    {
      "x": {
        "agentConfig": [
          0,
          3,
          2,
          1,
          2,
          2,
          1,
          3,
          4,
          1
        ],
        "weights": [
          -0.5324731191985197,
          0.43554327426358586,
          0.6062556522503921,
          0.1296861506370246,
          0.8744779061996142,
          -0.45526806319382396,
          0.9715566712376438,
          -0.7368212803904362,
          -0.3327973535964506,
          0.794774946120564,
          -0.4247291193581899,
          -0.4776091732487535,
          0.5230680494829218,
          -0.8794112556185032,
          0.5992909892730058,
          -0.03611548008393961,
          -0.33293684128979817,
          0.45945633755875925,
          -0.5337173503913755,
          -0.6687423646394992,
          -0.8542206991966019,
          -0.21610340056264987,
          -0.6890037744331596,
          -0.02372992902654869,
          -0.4963018098794867,
          -0.715951402780395,
          -0.09054133934286646,
          0.03022358360348254,
          -0.6144699855156845,
          0.4738018973785161,
          -0.6084540212777663,
          -0.7156032738596931,
          -0.2300148858097184,
          -0.9328302683788154,
          0.6503271882489365,
          -0.033148708078682754,
          -0.9654970626587571,
          0.3561670724336983,
          0.26196176321021425,
          0.1439434804928028,
          0.8571030255520413,
          -0.48127872219332124,
          -0.057177362810407084,
          0.8283873502009105,
          0.08066327475333046,
          -0.20509092501109993,
          -0.9040919188113035,
          0.04173474789131637,
          0.09657089451641587,
          -0.20792122663134482,
          -0.1635041008067193,
          0.05765048282211138,
          -0.9511671240608324,
          -0.685817604231034,
          -0.9626160829840145,
          -0.15662113128216082,
          -0.7836271009162024,
          -0.9420919389017044,
          -0.6030475852034938,
          -0.6796892578434319,
          0.3003822543800201,
          -0.7220309645304559,
          -0.6913271508985546,
          -0.5194208621985064,
          -0.9747668691283871,
          0.09617000940104137,
          -0.6014198014065837,
          0.625123222493227,
          0.45560344828369614,
          -0.48636113102641243,
          -0.0023853631623789173,
          0.029680430999890817,
          0.7391021769362338,
          0.38287623707071416,
          0.5286304806460276,
          0.19867800567667593,
          0.6028260777817818,
          0.6060413573420145,
          0.8132604623552604,
          -0.46698637771503115,
          -0.1360819726854705,
          -0.3518415913375663,
          -0.3582867630569204,
          0.7162296069158669,
          -0.5416611562057252,
          -0.9113071535258104,
          -0.4010254790672525,
          0.4146001098418286,
          -0.9512958768114945,
          -0.6177865642633511,
          -0.8962295743263939,
          0.9901676767528984,
          -0.8588205041933907,
          -0.7413795496686735,
          0.8920444825281071,
          0.8417796414070089,
          0.8230666229689985,
          0.26568713531344224,
          0.7645890382761529,
          0.717692004131979,
          -0.27314482923360517,
          0.8414260572639005,
          -0.6811371224848448,
          0.884322997395492,
          -0.3668463435016167,
          0.0010588745245192488
        ],
        "playerName": "RFFSimulation",
        "converter": {}
      },
      "fitness": 0.3,
      "behaviours": [
        16.1,
        0.7,
        48.5,
        3.3
      ]
    }
  ],
  [
    {
      "value": [
        39,
        37,
        18,
        14
      ]
    },
    {
      "x": {
        "agentConfig": [
          0,
          5,
          3,
          0,
          2,
          2,
          1,
          2,
          1,
          2
        ],
        "weights": [
          0.2950020936711959,
          0.10754050314416186,
          -0.252849372175626,
          0.4421980856267158,
          0.5850119909496359,
          0.266271877667714,
          -0.6723632102800994,
          -0.23625378752025972,
          -0.7946139367828784,
          -0.07287252970576397,
          0.9403586380129159,
          0.6106483166255141,
          -0.9047418439865302,
          0.9132289929040973,
          -0.8394101413813881,
          0.6478498506388286,
          0.866338382105631,
          0.4903325933384972,
          0.055329249059946406,
          0.452323521624993,
          -0.5082916925216379,
          0.8815369812090921,
          0.7560271533198022,
          0.7043190918583297,
          -0.13881235161701966,
          0.19484342655885678,
          0.2801160666550586,
          -0.5584807896013444,
          -0.018101609991610035,
          -0.1995071832477222,
          -0.9901461920459216,
          -0.9492768106948777,
          0.6905410530407379,
          -0.5764775418486003,
          -0.7688722637396461,
          0.05644587473438434,
          -0.8557083421982838,
          0.2579998980669931,
          -0.5584899269250989,
          -0.036915589409096894,
          0.07011505448796518,
          0.2629069510909372,
          0.7559940855236946,
          0.41707121404950165,
          -0.22231612509824283,
          0.46566246467051253,
          0.6704822935149923,
          0.7776974742404723,
          -0.7210190281256559,
          0.5777885225845198,
          -0.3127622916406483,
          0.8200569343966881,
          0.5080549237674072,
          0.5182401524995446,
          -0.13684927115739454,
          -0.25917528678279833,
          -0.40271174557430056,
          -0.4565663481405371,
          -0.7891862800821774,
          0.8973529963001756,
          -0.5580708640457803,
          0.5990256697712313,
          0.06403700896936182,
          -0.2171704533528378,
          0.3725275059505231,
          0.23700890628406568,
