[
  [
    {
      "value": [
        34,
        31,
        13,
        9
      ]
    },
    {
      "x": {
        "agentConfig": [
          1,
          0,
          0,
          0,
          1,
          1,
          0,
          1,
          3,
          2
        ],
        "weights": [
          -0.7576433025811662,
          0.9829718554905005,
          -0.30871926666674154,
          0.31288515207445133,
          0.8556227324985481,
          0.04375477768733105,
          -0.3515218720689872,
          -0.4313160818171211,
          0.22059930819363238,
          0.24478652548131152,
          0.5427104042498536,
          -0.6951239962514337,
          -0.43258131132829636,
          0.08209300010604381,
          -0.43841432237474187,
          0.1967038214780752,
          -0.18907094423827808,
          0.4254756732147724,
          0.5789929133364693,
          0.15079991321598252,
          0.28252731859573177,
          0.2272944189289441,
          -0.5639160257220923,
          0.4974225364170368,
          0.4128449191846748,
          -0.7445779683574716,
          0.6401806013310425,
          0.9524990019942199,
          0.9522621797225759,
          -0.8609941182518099,
          -0.3054420461079117,
          0.865651133693738,
          -0.6661956752798619,
          -0.13862503866748876,
          0.07088425547148258,
          -0.8526695576848187,
          0.863050536331476,
          -0.7573658934179102,
          -0.30257492316868295,
          -0.2923569091391358,
          0.5622655193983219,
          -0.07481051380281434,
          0.7599475983136235,
          -0.7586009679375849,
          -0.2989589064031417,
          -0.09134620621985312,
          0.5985893239863094,
          -0.24162819561851312,
          0.31331356185429016,
          0.7762812979874771,
          0.5327835669136105,
          -0.6152914942411223,
          0.3307008182890918,
          0.4132875304390835,
          -0.44233792263971483,
          -0.3491159778611794,
          -0.6453187638887283,
          0.23810996750149305,
          -0.9708165857388991,
          -0.26645551548137214,
          0.5452137201505376,
          0.7508704591611493,
          0.6915633793760378,
          -0.06695955098611006,
          -0.3790215335627165,
          -0.4509971238713715,
          -0.30058722825823603,
          0.04540128987304759,
          -0.4535065378390619,
          0.8682118261692366,
          0.6483151653099755,
          -0.7730430984435974,
          -0.8760580586983666,
          -0.8223671939672546,
          0.05140563000964682,
          0.45176527106527486,
          -0.5873767153178115,
          -0.6087337833026629,
          -0.8141602603610172,
          0.7264577858992958,
          -0.3334822056033011,
          0.8534609426357938,
          0.7818699449142226,
          -0.14593302496842564,
          0.3105347689698268,
          -0.5855730944047504,
          -0.36142477518423544,
          -0.27214479956355087,
          0.36858995972238096,
          -0.3675415487770173,
          0.9241165560195852,
          0.8881149129714625,
          0.7117386121168987,
          -0.5772462712652833,
          0.6547212979619985,
          -0.6106346072894526,
          0.5121662291347626,
          0.3184188432668682,
          0.6454245730176409,
          0.9023229696032451,
          0.3689194008535337,
          -0.08255211174525723,
          -0.9130728622899398,
          0.41447549950155294,
          -0.28616487890530773,
          -0.9398264060631125
        ],
        "playerName": "RFFSimulation",
        "converter": {}
      },
      "fitness": 1.0,
      "behaviours": [
        22.5,
        2.0,
        24.1,
        4.0
      ]
    }
  ],
  [
    {
      "value": [
        5,
        1,
        41,
        1
      ]
    },
    {
      "x": {
        "agentConfig": [
          1,
          0,
          0,
          1,
          0,
          2,
          1,
          1,
          2,
          1
        ],
        "weights": [
          -0.5360129968518121,
          -0.5022109999779651,
          0.9805682863140499,
          -0.31143554056831024,
          0.6063659303530389,
          -0.05725592948490399,
          0.786486284540473,
          0.5638187775722696,
          -0.1311783655606682,
          0.0715509810392243,
          -0.9272657385834027,
          0.7255535685535872,
          0.7771926155498066,
          -0.9238449973788212,
          0.7125467367821812,
          -0.5990131485489489,
          -0.20928918230571414,
          0.1850552405537842,
          -0.9929229534655453,
          0.4511124554912389,
          0.5803401516782507,
          0.8103857592604491,
          -0.9688500227816257,
          -0.8231528275900033,
          -0.21404703482600418,
          -0.20182185478915016,
          0.958615369243998,
          0.7615933607669603,
          -0.17923522599840913,
          -0.37780042812397663,
          0.014824850239266052,
          -0.0037257606355567408,
          -0.5347238749652581,
          -0.38628873217010673,
          -0.8411686765127111,
          -0.2838979562958368,
          -0.7707019985784047,
          0.13394786944891424,
          0.11548953384049354,
          -0.2759577348344513,
          -0.2405347750690261,
          0.9730694033260383,
          -0.04228534635255565,
          0.8841408241415325,
          -0.06902836693910741,
          0.198791981475551,
          0.08173237731624705,
          0.5385836363964076,
          0.6860872973579515,
          0.17985522103416862,
          0.12323384958919603,
          -0.5644389530730676,
          -0.8316529015862804,
          -0.4260613419696171,
          -0.8700740512454215,
          0.9507135640542812,
          -0.7498716066210018,
          -0.3034074749733149,
          0.13604584637288086,
          0.5431374865369198,
          -0.8373375905007858,
          0.8771996983984991,
          0.17698649209977324,
          -0.8923674031760707,
          0.611353723263228,
          -0.8400585574291468,
          -0.2627415456181674,
          0.16807751464155607,
          0.4956088682160029,
          0.022190129736581854,
          -0.3574086413748805,
          -0.2974795655653697,
          0.15120417933558827,
          -0.34029289001475904,
          -0.5129438934226385,
          0.7987775032569138,
          -0.10544944618522445,
          -0.17252395318900748,
          -0.1713328360760762,
          -0.6899672722929642,
          0.572041450117333,
          -0.7730449282669345,
          0.5920030933247731,
          -0.7868618610844438,
          0.8039980433330245,
          0.9949853770795751,
          0.3839605349075319,
          -0.5319862187581952,
          0.661554061494906,
          -0.023454635656700473,
          -0.24116439833849013,
          -0.16524728507836417,
          -0.37384985013214567,
          -0.8470061406422897,
          -0.1384951613318639,
          -0.6742624244869386,
          0.8551373735592092,
          -0.15060145429916583,
          0.33255564166610574,
          -0.24672089145459286,
          -0.9866849131724396,
          -0.8410013490309847,
          0.8767945341777059,
          0.17898974119655975,
          -0.7709405334781134,
          0.39980497074430166
        ],
        "playerName": "RFFSimulation",
        "converter": {}
      },
      "fitness": 0.0,
      "behaviours": [
        3.2,
        0.0,
        80.2,
        0.4
      ]
    }
  ],
  [
    {
      "value": [
        6,
        1,
        38,
        2
      ]
    },
    {
      "x": {
        "agentConfig": [
          1,
          0,
          0,
          1,
          0,
          0,
          1,
          1,
          2,
          1
        ],
        "weights": [
          -0.5360129968518121,
          -0.5022109999779651,
          0.9805682863140499,
          -0.31143554056831024,
          0.6063659303530389,
          -0.05725592948490399,
          0.786486284540473,
          0.5638187775722696,
          -0.1311783655606682,
          0.0715509810392243,
          -0.9272657385834027,
          0.7255535685535872,
          0.7771926155498066,
          -0.9238449973788212,
          0.7125467367821812,
          -0.5990131485489489,
          -0.20928918230571414,
          0.1850552405537842,
          -0.9929229534655453,
          0.4511124554912389,
          0.5803401516782507,
          0.8103857592604491,
          -0.9688500227816257,
          -0.8231528275900033,
          -0.21404703482600418,
          -0.20182185478915016,
          0.958615369243998,
          0.7615933607669603,
          -0.17923522599840913,
          -0.37780042812397663,
          0.014824850239266052,
          -0.0037257606355567408,
          -0.5347238749652581,
          -0.38628873217010673,
          -0.8411686765127111,
          -0.2838979562958368,
          -0.7707019985784047,
          0.13394786944891424,
          0.11548953384049354,
          -0.2759577348344513,
          -0.2405347750690261,
          0.9730694033260383,
          -0.04228534635255565,
          0.8841408241415325,
          -0.06902836693910741,
          0.198791981475551,
          0.08173237731624705,
          0.5385836363964076,
          0.6860872973579515,
          0.17985522103416862,
          0.12323384958919603,
          -0.5644389530730676,
          -0.8316529015862804,
          -0.4260613419696171,
          -0.8700740512454215,
          0.9507135640542812,
          -0.7498716066210018,
          -0.3034074749733149,
          0.13604584637288086,
          0.5431374865369198,
          -0.8373375905007858,
          0.8771996983984991,
          0.17698649209977324,
          -0.8923674031760707,
          0.611353723263228,
          -0.8400585574291468,
          -0.2627415456181674,
          0.16807751464155607,
          0.4956088682160029,
          0.022190129736581854,
          -0.3574086413748805,
          -0.2974795655653697,
          0.15120417933558827,
          -0.34029289001475904,
          -0.5129438934226385,
          0.7987775032569138,
          -0.10544944618522445,
          -0.17252395318900748,
          -0.1713328360760762,
          -0.6899672722929642,
          0.572041450117333,
          -0.7730449282669345,
          0.5920030933247731,
          -0.7868618610844438,
          0.8039980433330245,
          0.9949853770795751,
          0.3839605349075319,
          -0.5319862187581952,
          0.661554061494906,
          -0.023454635656700473,
          -0.24116439833849013,
          -0.16524728507836417,
          -0.37384985013214567,
          -0.8470061406422897,
          -0.1384951613318639,
          -0.6742624244869386,
          0.8551373735592092,
          -0.15060145429916583,
          0.33255564166610574,
          -0.24672089145459286,
          -0.9866849131724396,
          -0.8410013490309847,
          0.8767945341777059,
          0.17898974119655975,
          -0.7709405334781134,
          0.39980497074430166
        ],
        "playerName": "RFFSimulation",
        "converter": {}
      },
      "fitness": 0.0,
      "behaviours": [
        3.9,
        0.0,
        75.4,
        0.6
      ]
    }
  ],
  [
    {
      "value": [
        32,
        23,
        19,
        12
      ]
    },
    {
      "x": {
        "agentConfig": [
          1,
          3,
          3,
          1,
          0,
          2,
          0,
          0,
          3,
          1
        ],
        "weights": [
          0.8034324400578852,
          0.043170841340928856,
          -0.23759845583722905,
          0.9214600557343404,
          0.8307066475789111,
          0.740508249573347,
          -0.662140715051649,
          -0.5760352510658031,
          0.02193073507800758,
          0.7564851066686431,
          -0.7184773898727486,
          -0.008499911004248739,
          0.9541707974274036,
          0.08984964088257685,
          -0.462188103337144,
          -0.5910533850730415,
          0.2611476193445945,
          0.3918784824424304,
          0.17638864287351064,
          0.584549567992295,
          0.6677758252369872,
          -0.611435829915816,
          -0.10345539726687036,
          -0.8787457508696406,
          0.9739391087610965,
          0.016519148499577918,
          0.5860814249155724,
          -0.8933286784776626,
          -0.31321877980862434,
          0.8532234392980511,
          -0.693186802903524,
          0.8517133002294501,
          -0.13787957643033089,
          0.8616970217611393,
          0.2214003876289219,
          0.2786470846745388,
          -0.3605763862769522,
          -0.5283693442944324,
          0.1813036249187583,
          -0.8074898709119145,
          0.9411043711304103,
          0.5834609834200757,
          0.9632224964912446,
          -0.23445850098844145,
          -0.1442630995156411,
          0.20883158223673193,
          0.47146324066466394,
          -0.7775189046464042,
          0.33610668576225544,
          0.15033122006213095,
          0.6162578471730815,
          -0.06470505654532022,
          0.016846088677649584,
          0.3753567975329928,
          -0.9668661985368019,
          -0.08091360207516218,
          -0.8072685078767508,
          0.5533996002593184,
          -0.6739866414921976,
          -0.9333432143820517,
          -0.7024526504072102,
          0.6030077583173243,
          0.09679868983122786,
          -0.6326184918298519,
          -0.415250857813501,
          -0.9658700274548002,
          0.6667767174022949,
          0.82677228991874,
          0.13498692246509947,
          0.37349961178845215,
          -0.8997428645106258,
          0.8362971858720618,
          -0.19812122727434067,
          -0.9748289470079059,
          -0.09156645713694234,
          -0.661264974466907,
          -0.7437494452594624,
          0.5452726998277566,
          0.6415372299784972,
          -0.7074573185927551,
          -0.0996115258838135,
          0.499495114502742,
          0.4699299689025842,
          -0.3405820937854107,
          -0.9023228677610957,
          -0.1762143718700373,
          -0.19013876603202884,
          0.42244259259785943,
          0.8993251342441468,
          -0.07682662720161892,
          0.06719324097169022,
          -0.012105220449072807,
          -0.751291805796894,
          0.6206023039821471,
          0.6524746282372862,
          0.7320213687952024,
          -0.49481310696769576,
          -0.4928972733716057,
          0.5633228684093814,
          0.42476550396187585,
          0.053086197963688964,
          0.2465852942615212,
          0.035152393321015385,
          -0.20435286237410355,
          0.7478500776601755,
          -0.04700592336876652
        ],
        "playerName": "RFFSimulation",
        "converter": {}
      },
      "fitness": 0.3,
      "behaviours": [
        20.9,
        1.5,
        36.2,
        5.7
      ]
    }
  ],
  [
    {
      "value": [
        28,
        20,
        17,
        14
      ]
    },
    {
      "x": {
        "agentConfig": [
          0,
          4,
          2,
          0,
          1,
          1,
          2,
          2,
          0,
          2
        ],
        "weights": [
          0.34506992084912635,
          0.9675994017490697,
          0.2592982540099604,
          0.508748298828942,
          0.4817150134328265,
          0.742493220480251,
          0.5539814216947254,
          0.1858021609252749,
          -0.6833917300065162,
          -0.6644030512587762,
          0.35556912271868035,
          0.9355275746946843,
          0.46800130428616527,
          -0.20007411484561666,
          -0.802547365270099,
          -0.335884489827857,
          -0.20269468823822678,
          -0.18567801445242682,
          0.014890368951758992,
          0.546331265268394,
          -0.32152442496989253,
          -0.032003782380265466,
          0.8260903805989386,
          -0.5138630790522458,
          -0.06837186759898839,
          0.22402834801989835,
          -0.6663402525247608,
          -0.6465307595811125,
          -0.7890112300368117,
          -0.821416328260006,
          0.11249634734337222,
          0.09147221880962975,
          0.15485277787100205,
          -0.9216894492255938,
          -0.6509712156530536,
          -0.8345630411666813,
          -0.814688630637523,
          0.4665850386561581,
          0.4580366169635923,
          0.76415436599599,
          -0.5119203788920925,
          -0.20002795824760722,
          -0.6728874313831839,
          0.6663392478132102,
          -0.5921614562233182,
          -0.5905236525142106,
          0.4251554245337661,
          -0.2507622346977503,
          0.2620815646983279,
          -0.22314124826529724,
          0.5601109176248009,
          0.7434831660386452,
          -0.5934650904921632,
          -0.7455032659124354,
          -0.3174934676421861,
          0.02771780315313621,
          0.2777981131937921,
          0.07797151786360712,
          -0.19484697933365225,
          -0.9915475054138199,
          -0.9060694029665648,
          -0.19623307810313917,
          -0.1542853892162197,
          -0.054911953229178634,
          -0.08871310356763984,
          0.1501686728974736,
          -0.002321760509870874,
          0.9569757234832055,
          -0.18401800930082968,
          0.6276548172771044,
          0.09657845850038882,
          0.38884763699934854,
          0.17094649766111503,
          0.31577281138552205,
          0.3721655727293631,
          -0.287099190758789,
          0.04460895574227308,
          -0.3232994197294299,
          -0.0364703092705041,
          0.7102713065869042,
          0.21482137806469348,
          -0.6086075864595708,
          0.6230242392139951,
          0.8015888835750689,
          0.47172132983032444,
          0.8624138669084518,
          0.14615847481849342,
          0.08575481880595293,
          -0.6641969653843025,
          -0.7517274086841814,
          0.2384579021662343,
          0.8980393393846045,
          -0.2374526256559617,
          0.6772555592604064,
          0.7666193008964426,
          -0.48695211631623736,
          0.9225388236020713,
          0.6344860994023958,
          0.6401149445232339,
          -0.004941302277018389,
          0.7260762920366441,
          0.42411666448223206,
          0.9307290376502453,
          0.13768727221752508,
          0.4038613201485788,
          -0.9207219439141017
        ],
        "playerName": "RFFSimulation",
        "converter": {}
      },
      "fitness": 0.4,
      "behaviours": [
        18.4,
        1.3,
        33.9,
        6.7
      ]
    }
  ],
  [
    {
      "value": [
        10,
        1,
        25,
        2
      ]
    },
    {
      "x": {
        "agentConfig": [
          0,
          4,
          1,
          1,
          1,
          0,
          0,
          2,
          0,
          1
        ],
        "weights": [
          -0.4791629653262439,
          -0.6489947378040004,
          0.33834309264855,
          0.8705492824085879,
          -0.5324308253619612,
          -0.5560797857007278,
          -0.025578120989092623,
          0.6585096564663142,
          -0.08559458458439995,
          0.413137176784401,
          0.7369938831807721,
          0.42599410118516956,
          0.7797091606904296,
          0.49460125436499136,
          -0.9324854171790862,
          0.11104545116060338,
          0.11696944390090902,
          0.45153773310389145,
          0.49592658177384763,
          0.575629021555919,
          -0.6927736318562896,
          -0.23582430648197317,
          0.6289238747561978,
          -0.2954251447672285,
          0.11540590407692553,
          0.13633739723909866,
          -0.41410447756108115,
          0.5704401149100686,
          -0.5768758255647102,
          0.794052423785718,
          0.1804613877104928,
          -0.39863631142417955,
          -0.06314929918890799,
          0.11580830175303558,
          -0.08690923645189153,
          -0.7153102797236959,
          0.7191481511012738,
          -0.23899787866930522,
          0.6703726464360071,
          -0.9026615383677594,
          0.002033351509134862,
          0.6526121206583457,
          -0.08091520807360264,
          0.07460665817969558,
          0.4153338146595007,
          0.9220595301321497,
          -0.8617136017516764,
          0.7122831951136481,
          -0.5007588341207758,
          0.23868535447805606,
          -0.7497622696548787,
          0.7426674689108348,
          0.1690906926496707,
          0.8232198614643935,
          0.8910282666872675,
          0.7332830804273469,
          0.6617261983635343,
          0.8840747159677129,
          -0.4956274521726025,
          -0.5722194295704179,
          -0.5833652947075796,
          -0.7827582796521988,
          -0.5528886809458919,
          -0.718272390085595,
          -0.668633484511642,
          0.27503543373065886,
          -0.43746607460641873,
          -0.2583132415051519,
          -0.1204180862389368,
          -0.8641313204253842,
          -0.9922843306411187,
          -0.5258140971386096,
          0.6913953841947436,
          -0.503295208230701,
          0.5136419339303531,
          0.9718873928998473,
          0.3695159782545556,
          -0.938217416963028,
          0.7119697821040099,
          -0.25253321811545515,
          -0.44899000209339057,
          -0.48433694834814545,
          -0.3201458082872972,
          -0.3285857860551058,
          -0.47665850230310114,
          0.645600684058447,
          0.4343464776065151,
          -0.08182449391532254,
          -0.9353272645493005,
          0.11769477569203635,
          -0.2495516115806955,
          -0.5442483587111397,
          0.6022361851991445,
          -0.08677076147949858,
          0.38198518669790804,
          0.0470804159261351,
          0.26891721033526417,
          -0.503936959452163,
          -0.4679621552072488,
          0.3272253950032269,
          0.9870141256150178,
          0.4088860608164706,
          -0.7502462613738836,
          -0.3213984398491039,
          -0.6805280584109428,
          -0.8143916175548578
        ],
        "playerName": "RFFSimulation",
        "converter": {}
      },
      "fitness": 0.0,
      "behaviours": [
        6.0,
        0.0,
        48.4,
        0.5
      ]
    }
  ],
  [
    {
      "value": [
        3,
        1,
        39,
        3
      ]
    },
    {
      "x": {
        "agentConfig": [
          0,
          0,
          1,
          1,
          1,
          0,
          0,
          2,
          0,
          1
        ],
        "weights": [
          -0.4791629653262439,
          -0.6489947378040004,
          0.33834309264855,
          0.8705492824085879,
          -0.5324308253619612,
          -0.5560797857007278,
          -0.025578120989092623,
          0.6585096564663142,
          -0.08559458458439995,
          0.413137176784401,
          0.7369938831807721,
          0.42599410118516956,
          0.7797091606904296,
          0.49460125436499136,
          -0.9324854171790862,
          0.11104545116060338,
          0.11696944390090902,
          0.45153773310389145,
          0.49592658177384763,
          0.575629021555919,
          -0.6927736318562896,
          -0.23582430648197317,
          0.6289238747561978,
          -0.2954251447672285,
          0.11540590407692553,
          0.13633739723909866,
          -0.41410447756108115,
          0.5704401149100686,
          -0.5768758255647102,
          0.794052423785718,
          0.1804613877104928,
          -0.39863631142417955,
          -0.06314929918890799,
          0.11580830175303558,
          -0.08690923645189153,
          -0.7153102797236959,
          0.7191481511012738,
          -0.23899787866930522,
          0.6703726464360071,
          -0.9026615383677594,
          0.002033351509134862,
          0.6526121206583457,
          -0.08091520807360264,
          0.07460665817969558,
          0.4153338146595007,
          0.9220595301321497,
          -0.8617136017516764,
          0.7122831951136481,
          -0.5007588341207758,
          0.23868535447805606,
          -0.7497622696548787,
          0.7426674689108348,
          0.1690906926496707,
          0.8232198614643935,
          0.8910282666872675,
          0.7332830804273469,
          0.6617261983635343,
          0.8840747159677129,
          -0.4956274521726025,
          -0.5722194295704179,
          -0.5833652947075796,
          -0.7827582796521988,
          -0.5528886809458919,
          -0.718272390085595,
          -0.668633484511642,
          0.27503543373065886,
          -0.43746607460641873,
          -0.2583132415051519,
          -0.1204180862389368,
          -0.8641313204253842,
          -0.9922843306411187,
          -0.5258140971386096,
          0.6913953841947436,
          -0.503295208230701,
          0.5136419339303531,
          0.9718873928998473,
          0.3695159782545556,
          -0.938217416963028,
          0.7119697821040099,
          -0.25253321811545515,
          -0.44899000209339057,
          -0.48433694834814545,
          -0.3201458082872972,
          -0.3285857860551058,
          -0.47665850230310114,
          0.645600684058447,
          0.4343464776065151,
          -0.08182449391532254,
          -0.9353272645493005,
          0.11769477569203635,
          -0.2495516115806955,
          -0.5442483587111397,
          0.6022361851991445,
          -0.08677076147949858,
          0.38198518669790804,
          0.0470804159261351,
          0.26891721033526417,
          -0.503936959452163,
          -0.4679621552072488,
          0.3272253950032269,
          0.9870141256150178,
          0.4088860608164706,
          -0.7502462613738836,
          -0.3213984398491039,
          -0.6805280584109428,
          -0.8143916175548578
        ],
        "playerName": "RFFSimulation",
        "converter": {}
      },
      "fitness": 0.0,
      "behaviours": [
        1.8,
        0.0,
        76.3,
        1.4
      ]
    }
  ],
  [
    {
      "value": [
        29,
        22,
        18,
        7
      ]
    },
    {
      "x": {
        "agentConfig": [
          0,
          5,
          2,
          0,
          1,
          2,
          1,
          3,
          3,
          1
        ],
        "weights": [
          -0.13942084178912695,
          0.21019771315529123,
          -0.7669229851220964,
          0.3527234089958464,
          0.38323680103434543,
          0.29042212103919085,
          0.7015396960173192,
          -0.3484851306963599,
          0.7834175848734941,
          0.3389580845590825,
          -0.24550435107092694,
          0.906794759449681,
          -0.17969280478809013,
          0.8439933759647995,
          0.45876031576102183,
          0.47722378605675697,
          0.2673292327067245,
          -0.5945568827439727,
          0.2709614400370881,
          -0.5735870079705945,
          -0.5851531533956806,
          0.8102970579958422,
          0.21358157871307304,
          -0.9485036950105343,
          0.09119233647722202,
          0.45132239969771315,
          -0.9074477572562734,
          -0.8533093027648613,
          0.42474182668637184,
          0.6306864134155721,
          0.026968582150391107,
          0.06782199308274439,
          -0.8189201200973444,
          0.4795176623696047,
          -0.5459285029977716,
          -0.6155003912901553,
          -0.8168712982847239,
          0.9763760522539124,
          0.7277221822665512,
          0.1898246657151692,
          0.058442467149993904,
          0.8620570428302621,
          0.4461723723427584,
          0.9832201947068464,
          -0.6433028305670223,
          -0.8748931360541625,
          -0.2749883279510579,
          0.45017491996584735,
          -0.05826612613105708,
          -0.8281207609295995,
          0.7737516727059346,
          0.43339499993168373,
          -0.5136587241169581,
          0.7969178436670463,
          -0.6604162565418021,
          0.9230620743989326,
          0.8842914756627667,
          0.633900577039797,
          -0.15057275602052056,
          -0.0104024787779875,
          0.4429719951149118,
          -0.10566364609705481,
          0.4114610177342648,
          -0.7594618481151061,
          -0.16871633005764908,
          -0.10934301744064956,
          -0.7700891842180142,
          -0.3961706085435439,
          -0.0686967234544773,
          -0.9076997393938258,
          0.4419423622204397,
          -0.9769532419194522,
          -0.021462274137878046,
          0.2778341367860462,
          -0.09691145568609705,
          0.9957588025455171,
          -0.3255757913593593,
          0.723123692016111,
          0.027717040733362897,
          0.7944484639429044,
          -0.6839403432569613,
          0.304997254105162,
          -0.5663775455815687,
          0.6801115858897935,
          -0.5880299853664857,
          -0.09818054283576605,
          -0.15509369832170616,
          0.45185636446270405,
          0.7390591175475967,
          -0.46316601486511133,
          -0.5251152652519522,
          -0.72847129927753,
          0.34470382858863213,
          0.3370903042724531,
          0.9408436015714621,
          0.8605933176845633,
          0.6092915029573462,
          0.5702224350606651,
          0.6550373242201284,
          0.8872017722387489,
          -0.8416775109311836,
          -0.22669834626306118,
          -0.4085931553485942,
          0.6445838656473546,
          -0.8504697066786504,
          0.30243650358337426
        ],
        "playerName": "RFFSimulation",
        "converter": {}
      },
      "fitness": 0.4,
      "behaviours": [
        18.9,
        1.4,
        34.1,
        3.1
      ]
    }
  ],
  [
    {
      "value": [
        1,
        1,
        45,
        7
      ]
    },
    {
      "x": {
        "agentConfig": [
          1,
          1,
          3,
          0,
          1,
          1,
          2,
          0,
          1,
          1
        ],
        "weights": [
          0.07678806539544425,
          0.7177594896957025,
          0.22202770711589892,
          -0.40325341767491296,
          0.7382321502524745,
          -0.061571821161735096,
          -0.14267563012629547,
          0.12206784897906542,
          0.10552654558342112,
          -0.14717559441635353,
          -0.6824606738715748,
          0.5544360299645912,
          -0.28602329888249867,
          -0.9732086069506236,
          0.08985220387969384,
          -0.2584203254440358,
          -0.32837730383375807,
          0.5322767787110925,
          0.06657698767540743,
          0.06986297913417383,
          -0.6249696324584564,
          -0.09516345971084195,
          -0.3320636970820996,
          -0.9675142380879505,
          0.13647588212661743,
          0.9664668062447364,
          -0.9364839591256922,
          0.7812053685886551,
          -0.10163269771320094,
          0.1334530287157547,
          -0.03390571282060417,
          -0.9443148493749367,
          -0.6779272966494818,
          -0.4816194604254991,
          -0.13588315287871877,
          -0.8947232676653043,
          0.7121535398838597,
          0.3874017199364106,
          -0.9858311884830957,
          -0.998754271971376,
          0.4733303471232817,
          -0.6516900767579985,
          -0.9676288164041236,
          0.08315488280519379,
          0.09633485006907239,
          0.021921689808888756,
          0.5037079573794443,
          0.19132076691055233,
          0.03013209908588288,
          0.8887237992634109,
          -0.32913082469073895,
          -0.19203612078759935,
          -0.7781768580002031,
          -0.4953069154527303,
          0.9692718275585182,
          0.26287483663082734,
          0.5918677767977369,
          0.3446511145553861,
          0.9424992758358182,
          0.7551221672293806,
          -0.7389057383749786,
          0.15846896759497486,
          -0.09752119361585465,
          -0.8994682757856554,
          -0.04270823190398665,
          0.9148895435765798,
          0.5912933772837121,
          -0.16463158730681693,
          0.05180107720894811,
          0.15968894096915842,
          0.05660328652956381,
          0.5898569796219069,
          -0.37748950037533247,
          -0.07064829733344014,
          -0.0297693723732817,
          -0.5091212053521332,
          0.5046706289720078,
          0.23838614013828474,
          -0.30046201766381264,
          0.7613875578418496,
          0.6199128670893601,
          -0.4021382639390154,
          -0.4161889326225672,
          0.6547872953219032,
          -0.7868691312464933,
          -0.9752988539037399,
          -0.9270674734904867,
          -0.604278902500079,
          -0.9191449497198787,
          -0.43428562444095364,
          -0.3467872617700314,
          0.894421694375654,
          0.6897571009214125,
          0.487314637212354,
          -0.18467821697804432,
          0.6599769062984688,
          0.4049129612958613,
          -0.02869070147447972,
          0.7118440164021795,
          -0.44143171977159024,
          -0.4299271289557529,
          0.4091115645610528,
          0.6070557369860698,
          0.8459421317557099,
          -0.5814854314235447,
          0.20117316932549212
        ],
        "playerName": "RFFSimulation",
        "converter": {}
      },
      "fitness": 0.0,
      "behaviours": [
        0.0,
        0.0,
        89.3,
        3.0
      ]
    }
  ],
  [
    {
      "value": [
        34,
        23,
        20,
        30
      ]
    },
    {
      "x": {
        "agentConfig": [
          1,
          5,
          1,
          1,
          2,
          2,
          0,
          0,
          2,
          0
        ],
        "weights": [
          -0.14220365455531736,
          -0.5916442442926841,
          -0.09545164731577604,
          -0.16117868630408738,
          -0.7007529774324197,
          -0.5152287873349786,
          0.6691954019616775,
          -0.15779210996209714,
          0.16436092176975303,
          0.4352391429678235,
          -0.8825032769044621,
          0.3950726416249344,
          0.38882068055402796,
          -0.9272025974114293,
          -0.05997403005433122,
          0.5075388308681008,
          0.16720612738982266,
          0.08989327869204833,
          -0.15978199510012248,
          -0.9299973780786446,
          -0.804096068380648,
          0.7871771607259359,
          -0.8554724030152077,
          0.3018147565449698,
          0.784076373567248,
          -0.8200468204752469,
          0.8683248453124361,
          0.736828861414627,
          -0.2844375305918003,
          0.3402579292799601,
          -0.2692485750154636,
          0.19070249515899107,
          -0.5190861874041677,
          0.14699173985044633,
          -0.3706584994482873,
          5.389641212001361E-4,
          0.29759426372721687,
          -0.5065204208927565,
          0.16528840881190576,
          -0.7643388423900417,
          0.19770210000594357,
          -0.5587072578036705,
          0.9528167034220378,
          -0.45098736020801655,
          -0.6136003278756157,
          0.8111145100897714,
          0.6511970605472732,
          -0.12811699385278175,
          -0.939434135053242,
          0.2658866588685127,
          -0.07448020854464166,
          -0.7496407468344175,
          -0.07398735759046415,
          0.8795679783861852,
          -0.1275792120600996,
          -0.21989384639488052,
          0.7629369318078703,
          0.38516132444577056,
          -0.16046794304141376,
          -0.18321614346086235,
          -0.436894442079121,
          0.2595641714788801,
          -0.9774933121694076,
          0.42261197575800047,
          0.9986007277788964,
          0.19336087750787856,
          0.7410464798562948,
          -0.6447058403272945,
          0.280780135781302,
          -0.34950998226654817,
          0.8754388846507548,
          0.8137195902278251,
          0.8294350071940777,
          0.7382842912635816,
          0.5876874619483587,
          -0.37443936972718483,
          -0.4040428763356161,
          0.8222770596356375,
          0.15639837906944787,
          -0.4049100583579066,
          -0.6293464624010352,
          -0.10450291482967389,
          -0.47783590399864795,
          -0.6747575080044736,
          -0.046823048005847356,
          0.15006618936462646,
          -0.029737577608100585,
          0.9861518017716513,
          -0.32363316631728734,
          -0.6116321796671247,
          0.27006866279910713,
          0.22309215594133103,
          -0.5523757489887227,
          -0.3369919400152974,
          -0.45434463312009,
          0.6799625670727332,
          -0.7917265964230735,
          -0.15075731234912637,
          0.16963309980970243,
          0.4601502714369381,
          -0.4898118636899964,
          -0.2695013102439183,
          -0.9476361563151598,
          0.25481581963615363,
          0.7702926548914342,
          -0.3829300445847472
        ],
        "playerName": "RFFSimulation",
        "converter": {}
      },
      "fitness": 0.2,
      "behaviours": [
        22.3,
        1.5,
        39.0,
        14.9
      ]
    }
  ],
  [
    {
      "value": [
        24,
        10,
        25,
        12
      ]
    },
    {
      "x": {
        "agentConfig": [
          0,
          5,
          2,
          1,
          1,
          1,
          0,
          2,
          4,
          2
        ],
        "weights": [
          0.26133751110450487,
          0.9367862629734642,
          -0.8395724489981562,
          -0.874393375463921,
          -0.018430022237428956,
          0.10494282659653487,
          -0.3154492661277628,
          0.19987630644216403,
          -0.8031783764402776,
          0.7628883292091457,
          0.13095952391432686,
          0.6834638519522991,
          -0.6715899216356385,
          0.6325883864510526,
          -0.919757151342512,
          0.23107999364397758,
          0.5565008900994222,
          0.8087342876839168,
          0.9389298397481116,
          -0.6415991921868569,
          0.23375332456104925,
          0.49981067187702677,
          0.25929496198747737,
          0.09793917982583156,
          0.15646636926398183,
          -0.9931337952858315,
          0.5385199718378542,
          0.14069606479838148,
          -0.5586676233181695,
          0.009238592591369166,
          0.19942218750910023,
          -0.14816226044544734,
          0.6797351544368708,
          0.3350752049983394,
          -0.3399634064011514,
          -0.9181540752072053,
          -0.9721440326248694,
          -0.9142868531576436,
          0.6669171178088193,
          0.7902918756136124,
          0.9396799552355031,
          -0.14360336803484608,
          0.39710218106737205,
          -0.8424115935753564,
          -0.638676179852792,
          0.8021875332884614,
          0.22626457032698455,
          -0.9192227896940306,
          -0.6210676234038786,
          -0.7036633503545897,
          0.5156476170945177,
          -0.26738864752880454,
          0.5487215405658792,
          -0.13039132092964656,
          0.28796460710275795,
          -0.7911034513364745,
          -0.5634277538081411,
          0.6026427791988058,
          0.24251845679130635,
          0.19725790463409476,
          0.2559076705810224,
          -0.5554466289321298,
          -0.7976240761935989,
          0.07120101344829788,
          0.9164158549131769,
          0.4329311687011064,
          -0.20849130315701858,
          0.8465414383473586,
          0.28250578931751336,
          -0.14514460352706338,
          0.9073925454312879,
          -0.967023068544546,
          -0.010785000886171847,
          0.015482299561608182,
          0.38463315694731737,
          0.5717827133824678,
          0.7746138358910948,
          -0.5297717231017278,
          -0.86223444842663,
          -0.22868881409552322,
          0.9615797936596737,
          -0.6714814906785171,
          0.026452152082074187,
          -0.5648185925808584,
          -0.5418563580890405,
          -0.448474453313946,
          0.7038831411994899,
          0.2237471909111819,
          -0.5555624829874692,
          -0.9567246528726601,
          -0.21074012321919033,
          0.6976346840381344,
          -0.22439770212341847,
          0.773951236186093,
          -0.15217883783637975,
          -0.5371555438534006,
          -0.9461595277124573,
          0.17617944127602048,
          0.8669500758140563,
          -0.6298843075384557,
          0.3091290414871579,
          -0.3804667717763335,
          0.1844765958085557,
          0.8169535847510565,
          0.2769343357547054,
          -0.10455476214833404
        ],
        "playerName": "RFFSimulation",
        "converter": {}
      },
      "fitness": 0.8,
      "behaviours": [
        15.9,
        0.6,
        49.6,
        5.7
      ]
    }
  ],
  [
    {
      "value": [
        13,
        7,
        13,
        6
      ]
    },
    {
      "x": {
        "agentConfig": [
          0,
          2,
          3,
          1,
          1,
          0,
          0,
          3,
          0,
          2
        ],
        "weights": [
          0.4778237202731339,
          0.4613439062641418,
          -0.26093831781499066,
          -0.8035077905834649,
          0.5555316626923998,
          -0.6467580798169608,
          0.5264755709040276,
          0.03193416391636528,
          0.9220506888118163,
          0.4619641206523941,
          -0.546341670720814,
          -0.5297746784639874,
          0.6900119591600735,
          0.5336838609474657,
          -0.6332702713517329,
          0.7608095707939533,
          0.28701037212310565,
          0.7988205476012056,
          0.7020617782364282,
          -0.03160824237892501,
          0.07247004514492139,
          -0.7071550890605489,
          -0.19304329949296783,
          0.9543193518255797,
          -0.9044517081233012,
          -0.9542615694630348,
          -0.7760963466900415,
          -0.7035264339998961,
          -0.27496790204756905,
          0.2646796161869047,
          -0.075195700601562,
          0.8747812455627013,
          -0.3145684155587811,
          -0.769766733019116,
          -0.9696164313093041,
          0.4764119190536398,
          -0.26130221372000184,
          -0.21547820417798658,
          -0.8386681336503861,
          0.964179618664122,
          -0.6067194930416093,
          -0.9894398156632171,
          -0.7584484830058473,
          0.3036188228564618,
          -0.8348168755267733,
          0.9851405973062204,
          -0.689790637395117,
          0.05866020578855147,
          0.1829576253923222,
          -0.6666455425622664,
          -0.3018740697081508,
          0.8427829705566277,
          0.8838093386073511,
          0.4197028218292931,
          -0.21464203406000038,
          -0.34802531993499874,
          0.726227703882649,
          -0.607824668705149,
          -0.5193390063278149,
          -0.9922181175543201,
          -0.20481747072960266,
          -0.6086607974380007,
          -0.45015360435739415,
          0.4031886462331584,
          -0.5564993930748705,
          0.20726567756999725,
          0.9688743251735288,
          0.6710130791712552,
          -0.5568835585104259,
          -0.7685282758374017,
          0.5888540092211552,
          -0.4160357877939913,
          -0.48753034743683865,
          0.6468397525238261,
          0.5739489149988559,
          0.24745656515675618,
          -0.4586014751376193,
          -0.8558596873499633,
          0.30951419494788923,
          0.6607304778271077,
          -0.6475418695548416,
          0.2102120468969204,
          -0.22337910020931062,
          -0.80121852701255,
          -0.5823301262001996,
          0.6397153851558879,
          0.7504498632573349,
          0.7070541843595435,
          0.5922859609952618,
          -0.6069206684373174,
          0.6038661559048404,
          -0.597191077689766,
          -0.3677677055469655,
          -0.04353538437147275,
          0.9838138607513336,
          -0.158476658061655,
          0.029469850302257683,
          0.9552684870783754,
          0.1769976599907377,
          -0.16635604109240432,
          0.529594143020411,
          -0.06909924558827063,
          -0.40735292159245273,
          -0.6135445324242297,
          0.5885685444451434,
          -0.08873722768406189
        ],
        "playerName": "RFFSimulation",
        "converter": {}
      },
      "fitness": 0.2,
      "behaviours": [
        8.6,
        0.4,
        24.5,
        2.7
      ]
    }
  ],
  [
    {
      "value": [
        17,
        1,
        38,
        6
      ]
    },
    {
      "x": {
        "agentConfig": [
          0,
          3,
          3,
          0,
          2,
          1,
          0,
          1,
          2,
          1
        ],
        "weights": [
          0.7000953883965018,
          0.3967365232839033,
          -0.19144110274099413,
          0.51922520051135,
          -0.4003413643260152,
          0.21879787662192007,
          -0.8196198083460744,
          0.9997218642782555,
          -0.5722277861612737,
          0.6806271283653897,
          0.9959164445164597,
          0.8253561226304236,
          -0.6444418134012608,
          0.9009488734899136,
          -0.16469619582469686,
          0.2995960259236399,
          -0.6738899249212378,
          0.7205325783443151,
          -0.5851377348097482,
          0.761245618126615,
          0.5269938529964917,
          0.2919862164049918,
          0.7624172692366029,
          0.19161174061037234,
          -0.13515901073345127,
          -0.754306673022721,
          0.8144219059279483,
          0.9203054643451303,
          -0.6985297223997327,
          -0.17107289191187625,
          -0.470332458907067,
          0.03862628020413705,
          0.8973017308412339,
          -0.020372144490380606,
          0.8819479781291981,
          -0.774820749476584,
          -0.5433440705669117,
          -0.5767152678419007,
          0.4241218728536884,
          -0.6534200487289441,
          0.7808580605465856,
          0.5708138037849504,
          -0.49140549928144783,
          0.41680358050061095,
          0.7088960500662131,
          0.24727919691225697,
          -0.29568038572778965,
          -0.7180610835444712,
          0.3617090444581692,
          0.09575683507879829,
          0.4679992764676628,
          -0.2571895627907188,
          0.30501122911539325,
          0.8775924566030964,
          0.7072381457612329,
          0.736134949231597,
          0.7068835044623354,
          0.8297601338444753,
          0.5159866655445249,
          -0.3344173660258314,
          -0.009805168667783581,
          0.7419798001998101,
          -0.9323142816315746,
          0.007314810737061528,
          0.9662413941357066,
          0.48070565487056927,
          0.4191034552435373,
          0.9102750003489926,
          0.9848217302378102,
          -0.6859498525535033,
          0.8079334106527805,
          -0.3302884723823354,
          -0.7527073071918244,
          -0.4188382633282808,
          0.919800264079857,
          -0.32688580390848965,
          0.10298018484798543,
          0.001527846514223885,
          0.5553990765042793,
          0.7009504831079851,
          -0.11435402899183278,
          -0.7658727709634179,
          -0.8539292231295286,
          -0.6897109589513426,
          0.645540461826501,
          0.17330849618076183,
          -0.3538047584721504,
          0.43760255557287286,
          0.9938995627998901,
          0.9077268518627892,
          -0.5266382890785466,
          -0.6722556113375784,
          0.20057148827256865,
          -0.7293790347054843,
          0.3723539561444962,
          -0.5707033942115389,
          0.6717875131124886,
          0.47416845674343566,
          -0.6534342943642963,
          0.9921906245833698,
          -0.01608072841027086,
          -0.5523913758052037,
          -0.8694591240449958,
          0.7617041283318711,
          0.7603928630417873,
          -0.811723851524315
        ],
        "playerName": "RFFSimulation",
        "converter": {}
      },
      "fitness": 0.0,
      "behaviours": [
        11.1,
        0.0,
        74.5,
        2.8
      ]
    }
  ],
  [
    {
      "value": [
        31,
        28,
        17,
        13
      ]
    },
    {
      "x": {
        "agentConfig": [
          1,
          5,
          1,
          1,
          2,
          2,
          0,
          0,
          2,
          0
        ],
        "weights": [
          -0.14220365455531736,
          -0.5916442442926841,
          -0.09545164731577604,
          -0.16117868630408738,
          -0.7007529774324197,
          -0.5152287873349786,
          0.6691954019616775,
          -0.15779210996209714,
          0.16436092176975303,
          0.4352391429678235,
          -0.8825032769044621,
          0.3950726416249344,
          0.38882068055402796,
          -0.9272025974114293,
          -0.05997403005433122,
          0.5075388308681008,
          0.16720612738982266,
          0.08989327869204833,
          -0.15978199510012248,
          -0.9299973780786446,
          -0.804096068380648,
          0.7871771607259359,
          -0.8554724030152077,
          0.3018147565449698,
          0.784076373567248,
          -0.8200468204752469,
          0.8683248453124361,
          0.736828861414627,
          -0.2844375305918003,
          0.3402579292799601,
          -0.2692485750154636,
          0.19070249515899107,
          -0.5190861874041677,
          0.14699173985044633,
          -0.3706584994482873,
          5.389641212001361E-4,
          0.29759426372721687,
          -0.5065204208927565,
          0.16528840881190576,
          -0.7643388423900417,
          0.19770210000594357,
          -0.5587072578036705,
          0.9528167034220378,
          -0.45098736020801655,
          -0.6136003278756157,
          0.8111145100897714,
          0.6511970605472732,
          -0.12811699385278175,
          -0.939434135053242,
          0.2658866588685127,
          -0.07448020854464166,
          -0.7496407468344175,
          -0.07398735759046415,
          -0.9315729229157621,
          -0.1275792120600996,
          -0.21989384639488052,
          0.7629369318078703,
          0.38516132444577056,
          -0.16046794304141376,
          -0.18321614346086235,
          -0.436894442079121,
          0.2595641714788801,
          -0.9774933121694076,
          0.42261197575800047,
          0.9986007277788964,
          0.19336087750787856,
          0.7410464798562948,
          -0.6447058403272945,
          0.280780135781302,
          -0.34950998226654817,
          0.8754388846507548,
          0.8137195902278251,
          0.8294350071940777,
          0.7382842912635816,
          0.5876874619483587,
          -0.37443936972718483,
          -0.4040428763356161,
          0.8222770596356375,
          0.15639837906944787,
          -0.4049100583579066,
          -0.6293464624010352,
          -0.10450291482967389,
          -0.47783590399864795,
          -0.6747575080044736,
          -0.046823048005847356,
          0.15006618936462646,
          -0.029737577608100585,
          0.9861518017716513,
          -0.32363316631728734,
          -0.6116321796671247,
          0.27006866279910713,
          0.22309215594133103,
          -0.5523757489887227,
          -0.3369919400152974,
          -0.45434463312009,
          0.6799625670727332,
          -0.7917265964230735,
          -0.15075731234912637,
          0.16963309980970243,
          0.4601502714369381,
          -0.4898118636899964,
          -0.2695013102439183,
          -0.9476361563151598,
          0.25481581963615363,
          0.7702926548914342,
          -0.3829300445847472
        ],
        "playerName": "RFFSimulation",
        "converter": {}
      },
      "fitness": 0.5,
      "behaviours": [
        20.6,
        1.8,
        33.2,
        6.0
      ]
    }
  ],
  [
    {
      "value": [
        34,
        31,
        14,
        8
      ]
    },
    {
      "x": {
        "agentConfig": [
          0,
          0,
          3,
          1,
          0,
          2,
          2,
          2,
          2,
          2
        ],
        "weights": [
          -0.9954855568335488,
          -0.35231085928422745,
          -0.5129019976455178,
          0.8324289007254029,
          -0.6085152425037299,
          0.25702718828182225,
          -0.6039378124895787,
          0.10281996680153571,
          -0.41744917836037976,
          -0.3371141574576353,
          0.7731445396721759,
          -0.19816528648364762,
          0.8161698850000103,
          -0.09498268838084756,
          -0.6340018636441018,
          -0.29938316405224086,
          0.08204327624902508,
          -0.3684505374204994,
          0.25499743622294146,
          0.5035455756282301,
          0.6423290256133616,
          -0.494335537440459,
          0.027070577860565992,
          -0.5144857643986522,
          0.7528838757191472,
          0.6905570660627509,
          0.5643858082725726,
          -0.28271634479950714,
          0.606079956178049,
          -0.16880957943806352,
          0.7985403893259282,
          -0.6469060712629677,
          -0.809429860287932,
          0.7033205508926443,
          0.7359759237445542,
          -0.26208107240859446,
          -0.500297069916303,
          -0.9852859644529604,
          0.07792396903048449,
          -0.06254780792431869,
          0.3191173929945672,
          0.7204361194061868,
          -0.1617368760155362,
          0.7021158619970986,
          -0.3146242935838637,
          -0.3464601008147268,
          -0.494753154044826,
          0.847087109145285,
          -0.9686806299684139,
          -0.7255596241590374,
          0.49814020677793547,
          -0.43646020418837606,
          0.020163246064195395,
          -0.093290235422818,
          0.9373803433144661,
          -0.7279977255141572,
          0.11917000179048887,
          0.9539849912803535,
          -0.9230445647627394,
          -0.7130645455307529,
          0.07507469737031136,
          -0.7178710570378526,
          -0.8597263553304049,
          0.7823381634706306,
          0.6272588769562903,
          0.20274325622581468,
          -0.24412793687758927,
          0.3313899329491856,
          -0.9689996986391272,
          0.3085806287976194,
          -0.29310587450950276,
          0.638844813852685,
          0.2619529666155749,
          -0.2116398801419661,
          0.28834198986859594,
          0.9930926711898325,
          -0.8656589969455981,
          -0.2120596926610554,
          0.20868771779765893,
          0.4355074758403339,
          -0.010823267919751967,
          -0.11324082975663341,
          -0.3224934167244413,
          -0.3220946494597141,
          0.09514246011033745,
          -0.17709708706006988,
          -0.9116272481042753,
          -0.6053616149277052,
          -0.5463966013760615,
          0.22711799063459792,
          0.5363364039621985,
          0.6740533047230708,
          -0.689453362352126,
          -0.6844648842783585,
          -0.698120852861801,
          0.13474662822055095,
          0.35207018535444856,
          0.24282556963984203,
          -0.6116771155571041,
          -0.5047478080002656,
          -0.703626499938514,
          -0.8680346398739112,
          0.2172454271596116,
          -0.7685010573328575,
          -0.6059706945804115,
          0.6737331557051474
        ],
        "playerName": "RFFSimulation",
        "converter": {}
      },
      "fitness": 0.9,
      "behaviours": [
        22.3,
        2.0,
        26.5,
        3.5
      ]
    }
  ],
  [
    {
      "value": [
        35,
        31,
        11,
        6
      ]
    },
    {
      "x": {
        "agentConfig": [
          1,
          1,
          1,
          0,
          0,
          2,
          0,
          2,
          2,
          0
        ],
        "weights": [
          -0.8446293540275089,
          0.8589236223168473,
          0.37259906855377056,
          -0.6658285220256894,
          -0.7644034459541869,
          -0.9424799250591769,
          0.6359007664845806,
          0.42740300672901,
          0.6169800727968533,
          -0.22488111869759675,
          -0.8443926266126516,
          0.6445743158086776,
          -0.9354847654522136,
          -0.026771574351047267,
          -0.21731426629232442,
          0.5078713829347732,
          -0.8123818632872213,
          -0.5215452938937397,
          0.30214498792801714,
          -0.06960540019265493,
          -0.9805883850376778,
          -0.8486999790541923,
          -0.3426733349647384,
          -0.6761144865622399,
          -0.5167965205090774,
          -0.5738810020265774,
          0.3067800559366598,
          -0.9531211966017676,
          -0.9071002791638427,
          -0.7137434530993616,
          0.34269063207032957,
          -0.6089050434719498,
          -0.935829877236168,
          -0.10340220241846598,
          -0.38884360536365836,
          -0.5066587630498156,
          0.905764918709641,
          -0.16353825492254237,
          0.7484363040274329,
          -0.6878575514406358,
          -0.4845438595324514,
          0.15897346046324912,
          -0.2163781241837086,
          0.12277581822312422,
          -0.17734209484359464,
          -0.6512457452956246,
          -0.24298803960408444,
          -0.13866304494189818,
          0.09985629381733974,
          0.657969975815363,
          0.6647989956640328,
          0.0879182908629117,
          0.20755899386421972,
          -0.7285166208658418,
          -0.035498079263754256,
          -0.6590670892653281,
          0.24255151776115302,
          0.28505752135749285,
          -0.13808918529545644,
          -0.7809290070830761,
          0.3268262043735206,
          0.576260990571178,
          0.6491346512194338,
          0.6543286928715835,
          -0.3953722023229067,
          0.30592972526050866,
          -0.5253263016611183,
          0.5290026722271439,
          -0.09236225708690893,
          -0.9912583678000724,
          -0.8997362115878351,
          -0.9585037524749194,
          -0.9966034943053526,
          -0.9853350917563644,
          -0.5644296179121366,
          0.04023647885689319,
          -0.14035653326585118,
          -0.711256728268947,
          -0.05936401933244695,
          -0.07804504228172915,
          -0.0626706834487527,
          -0.31511550626163154,
          -0.6526848354377364,
          -0.3699625159814164,
          0.16763644392295785,
          -0.9199781169128369,
          0.5747568919322799,
          0.7906015687544026,
          0.973419578648798,
          0.8882214238400421,
          -0.7996757394731964,
          -0.9115865631960873,
          0.46305736725039615,
          0.050011073447992827,
          -0.6038314618268779,
          -0.3882905166543398,
          -0.24521663547011263,
          0.7504099957070147,
          -0.14699695742641317,
          0.08444051051522683,
          0.2821447072767762,
          -0.1601590096403771,
          -0.11354981959785548,
          0.6564093161919387,
          -0.11368829609071951,
          -0.7846891647031746
        ],
        "playerName": "RFFSimulation",
        "converter": {}
      },
      "fitness": 1.0,
      "behaviours": [
        22.7,
        2.0,
        21.9,
        2.5
      ]
    }
  ],
  [
    {
      "value": [
        22,
        2,
        25,
        11
      ]
    },
    {
      "x": {
        "agentConfig": [
          1,
          1,
          1,
          0,
          1,
          2,
          2,
          1,
          4,
          1
        ],
        "weights": [
          0.009136495255406718,
          0.946965520945342,
          0.16253204215394934,
          0.9640550532876255,
          -0.4527979486387539,
          0.8981343925433674,
          0.18991187920493746,
          0.9078005930524107,
          0.10399806926926192,
          0.5229715158953054,
          0.43616770076896416,
          0.7204441620804576,
          -0.3466338807639262,
          0.4692861780465729,
          0.02316580206373753,
          -0.8022860018739371,
          0.04293129218696201,
          -0.5643919335417844,
          -0.8701780344925432,
          0.2773269718155933,
          -0.40566570921233214,
          0.16495779470302008,
          -0.2353633863746496,
          0.22078633475688036,
          -0.03126055612260559,
          0.3990374369294074,
          0.05915204388243178,
          0.05152855894610653,
          -0.7960700317716061,
          -0.8882492822647177,
          -0.026006233800135004,
          0.5302429520070691,
          0.3156292561907865,
          -0.5945858457426074,
          -0.9232630965005573,
          0.5438892921571361,
          -0.595484537338157,
          0.07997445648523782,
          -0.11908341616164697,
          -0.05685739950974211,
          0.8217252165102187,
          0.07499983673858823,
          -0.8719210650019678,
          0.5836974653747571,
          -0.3805305404239139,
          -0.2638334002588414,
          0.34984832790425235,
          0.6100665180405085,
          -0.750286560691402,
          0.1724157224428715,
          0.06456356612050684,
          0.8662124550668329,
          -0.7272993504489156,
          0.846906044608184,
          -0.9568853110224751,
          0.7255540347819647,
          -0.3015718395699005,
          -0.015654561069773143,
          -0.7788103921817859,
          -0.39640860025581515,
          -0.49198987931143634,
          0.37923313139947123,
          0.04021872976782692,
          -0.05040177922660005,
          0.8881928731843849,
          0.7540003248507632,
          -0.7331176839066247,
          -0.39046848704868475,
          -0.2388854495208994,
          -0.05701140346576161,
          0.6711254734540915,
          0.11051325910852117,
          -0.6972709433355253,
          -0.13233999109886274,
          0.33520208459709044,
          0.6379408339399217,
          0.31714340456234225,
          -0.47961614107407047,
          0.821347879004694,
          -0.740513364487382,
          0.5704446792893543,
          -0.011399189950599187,
          -0.05673881618475862,
          -0.7040501001565247,
          0.48642189697304317,
          -0.07188453918244742,
          0.4666472637851533,
          -0.35287188956152593,
          0.9679150852554872,
          -0.1662758570393308,
          0.7066609701245947,
          -0.6484235866108063,
          0.531353053439289,
          -0.042664223783931865,
          -0.3048395634518193,
          0.6923286988125843,
          -0.5716311507703347,
          0.7881978948669761,
          0.35826205505663333,
          -0.2436439394820582,
          -0.022789680598788165,
          0.63679285258636,
          -0.025233801218326635,
          0.5137412509055612,
          0.9379908940429833,
          0.05342243627307486
        ],
        "playerName": "RFFSimulation",
        "converter": {}
      },
      "fitness": 0.3,
      "behaviours": [
        14.0,
        0.1,
        48.0,
        5.0
      ]
    }
  ],
  [
    {
      "value": [
        29,
        26,
        19,
        17
      ]
    },
    {
      "x": {
        "agentConfig": [
          0,
          4,
          2,
          1,
          2,
          0,
          0,
          3,
          4,
          2
        ],
        "weights": [
          0.8507875038398574,
          -0.9450013613728612,
          -0.05478453625845514,
          -0.9155060174241028,
          -0.5225951290899671,
          0.35651317043367325,
          -0.4578411070288204,
          0.1544852586143166,
          -0.6294452700288715,
          0.14194436588849157,
          0.06877346673782592,
          -0.9881419697684277,
          0.21519693399894968,
          0.10527366025392748,
          -0.12267776452567092,
          0.5316778601943768,
          0.8808653564651849,
          0.060409345237801615,
          0.12479723360509754,
          0.10984774660588048,
          -0.3444417109042823,
          -0.36538262628223017,
          -0.8598423314657448,
          0.7276562751927196,
          0.6413590662040285,
          0.9719021984607961,
          0.31001773402720256,
          0.6849981518269486,
          0.16243296161634713,
          0.4205208321675489,
          0.6781578497156504,
          -0.3272615230634961,
          0.9911264977010008,
          -0.5379853191154542,
          0.19056091460027602,
          -0.8308544941187606,
          0.21547150751314414,
          -0.01515199227474362,
          -0.6834968754107618,
          -0.9777316126761753,
          0.6514758723344198,
          0.4139438241117521,
          -0.3624423020541012,
          -0.48040871672014807,
          -0.15384008293474327,
          -0.8218870839934496,
          -0.07980284655585113,
          -0.7517528191914031,
          0.9223766937823903,
          0.5305728575252022,
          -0.8259914853277144,
          -0.38647171483036,
          -0.21596888946112847,
          0.83345797922875,
          0.24636367550760618,
          -0.9896170378485414,
          -0.46960747801671787,
          -0.9245749349639978,
          0.6157153781990323,
          -0.6679577797890344,
          -0.6792279400530274,
          -0.3878393341171831,
          -0.78048285870932,
          0.7518720784779922,
          -0.6140845129519457,
          -0.09719838824406324,
          -0.6109059569256319,
          -0.47099903949376865,
          0.40003901234502837,
          -0.6390190496077619,
          0.26261911666440807,
          -0.03477544122423892,
          0.007515245803496384,
          -0.6525833821009441,
          0.40867810941102745,
          -0.41985601566286634,
          -0.059206970671345616,
          0.8016621138299822,
          -0.1832662891743171,
          0.07344561516810932,
          -0.12878559435737236,
          -0.956158129401496,
          -0.10287153656412484,
          -0.2923155048831503,
          0.9019687503032934,
          0.8728975036222513,
          -0.31790626195788585,
          -0.628113511142232,
          0.44250358029733095,
          -0.7539264878294629,
          0.030559752866627043,
          0.7757368028209057,
          -0.9037114803138482,
          -0.45492474823044127,
          0.31339085043410053,
          0.976076470770088,
          -0.851092210714929,
          0.7175333786338076,
          -0.20800305561590737,
          0.7518811145762292,
          -0.7389655571162723,
          0.4281142996707543,
          0.7021016050030591,
          -0.7791510523447356,
          -0.949082559849419,
          -0.23818271768762278
        ],
        "playerName": "RFFSimulation",
        "converter": {}
      },
      "fitness": 0.6,
      "behaviours": [
        19.2,
        1.7,
        36.9,
        8.3
      ]
    }
  ],
  [
    {
      "value": [
        12,
        10,
        14,
        8
      ]
    },
    {
      "x": {
        "agentConfig": [
          0,
          1,
          0,
          0,
          2,
          1,
          0,
          2,
          4,
          1
        ],
        "weights": [
          0.8772313960862992,
          0.026406370611052887,
          -0.6961600113566357,
          -0.19091183957811864,
          0.9469484559825441,
          -0.606287388700488,
          -0.8599129962346332,
          0.4980522364620523,
          0.0792948614000526,
          -0.7972735577149075,
          0.3156089452390418,
          -0.836740946880917,
          0.5873686186325757,
          -0.8784897173251307,
          -0.3266424161035755,
          -0.36706554433639216,
          -0.39136429423620056,
          0.05209840428160595,
          -0.647212216092371,
          0.8961738182991041,
          -0.05344923585684791,
          -0.5758576432677904,
          -0.27004116306362635,
          0.8489271757165013,
          0.4970946821063189,
          0.29254367090081335,
          -0.015667786243289017,
          -0.8161530289017984,
          -0.9330692908939602,
          0.09899900756396907,
          0.9905673497731851,
          0.4020852565427362,
          0.18870944564089842,
          0.8343338912673113,
          -0.68630172851959,
          -0.6666669141394637,
          -0.5996198505274435,
          -0.22204341231241398,
          -0.7713504100282851,
          -0.4789043329688085,
          -0.6208058573717812,
          0.9927156486556787,
          -0.10987027513165004,
          -0.6365979603506902,
          0.3074153985717818,
          0.3178973944050174,
          -0.9534826206831077,
          -0.005150673625950564,
          0.8955797007875856,
          0.7300541408044208,
          -0.9785654081815136,
          0.5540860994916259,
          -0.3995269466805704,
          0.630805333337275,
          -0.9207212635885595,
          0.7015417099802361,
          -0.25117176257132634,
          0.8727083567014899,
          0.74606344027997,
          -0.9645881748116267,
          -0.48593436411419644,
          -0.8512514768724506,
          -0.8255034064331823,
          -0.6003860710762325,
          -0.0077666303011953985,
          0.7479498555426896,
          0.22230199299118936,
          0.985628723889727,
          -0.015370151690660139,
          0.6190628729893113,
          -0.44463138406761327,
          0.600847400044618,
          0.5184192022679897,
          -0.8137616362992273,
          0.7923906577356798,
          0.509247792180342,
          -0.3771205110536433,
          -0.5749523378082002,
          0.475239063479576,
          0.8459243073983209,
          0.42775032818972103,
          -0.6658337790992637,
          0.4793827172194949,
          -0.23479798401471697,
          -0.7385242274483617,
          0.12748669122328793,
          -0.6287429288245459,
          -0.7972340560081996,
          -0.8990342774321243,
          0.22338419108454777,
          -0.8254450235155348,
          -0.5845586767091633,
          -0.5391723159742319,
          0.4223070917069818,
          -0.9750073991131378,
          -0.6920372412717903,
          0.6088485816456497,
          0.5408212801084118,
          0.2731824678504915,
          -0.035725299258821064,
          -0.1441654437191311,
          0.20968824722285273,
          0.7378225777043805,
          -0.22839336712364777,
          0.5917447634294701,
          0.545510971447688
        ],
        "playerName": "RFFSimulation",
        "converter": {}
      },
      "fitness": 0.3,
      "behaviours": [
        7.9,
        0.6,
        26.3,
        3.7
      ]
    }
  ],
  [
    {
      "value": [
        25,
        8,
        28,
        1
      ]
    },
    {
      "x": {
        "agentConfig": [
          1,
          3,
          3,
          1,
          2,
          1,
          2,
          0,
          1,
          0
        ],
        "weights": [
          0.8165565455395762,
          -0.9762551258793317,
          -0.15277318145538166,
          -0.12521962699576994,
          -0.022340154069480977,
          0.49822520378856905,
          0.29001616133675334,
          -0.9900577560012422,
          0.9669397433398026,
          0.4887200461075203,
          -0.40831929600986694,
          0.9090414197653849,
          -0.9490091390168389,
          -0.8499242802114588,
          0.7608884415658896,
          0.13957247957359376,
          -0.40743721685564216,
          -0.44220254361307565,
          0.49880462988726704,
          0.1295649420148446,
          0.6042336553703522,
          -0.37626366427592806,
          -0.11966998065473855,
          -0.9575229146696924,
          0.7151872912163666,
          -0.06845209423792653,
          -0.7744278719160316,
          0.6236489767395534,
          0.3441227516398282,
          -0.08370118029584295,
          0.1274315932605079,
          0.09210691334755117,
          0.7326550808492818,
          0.2520533307956512,
          -0.2562380160031841,
          -0.8777866225691673,
          -0.5826072040907853,
          0.313222259088934,
          0.6676416611697926,
          0.4928602870219718,
          -0.2947938419789353,
          0.13991151836928828,
          -0.04312700404903125,
          0.07760654355044294,
          -0.2349710505530671,
          0.46446099516825035,
          -0.7660975716098044,
          -0.49263564288680217,
          0.06086383219031366,
          0.04581532974740443,
          0.15993434013057906,
          -0.9420599366551743,
          0.024490055006465283,
          0.8103242461642579,
          0.0420875247538226,
          -0.9020584155844174,
          0.10269983049115927,
          0.1120205179758833,
          0.8500237185528163,
          -0.22173570973239687,
          -0.38728137271449703,
          -0.19762077376388598,
          -0.5014461840198123,
          0.5525727190131844,
          0.2007918143948375,
          -0.260987107963488,
          -0.10469375021039795,
          -0.41110256631385056,
          -0.8772508982722997,
          0.8647113637548003,
          -0.04237953347063694,
          0.1656696502806292,
          0.051685705356442124,
          0.052688896686472475,
          -0.42959391386488943,
          0.7412201261498632,
          -0.33327260733924446,
          -0.4591473632354124,
          0.2867864515976919,
          -0.4560297424544486,
          -0.11182464737478104,
          -0.03263911705554179,
          0.4659237914489409,
          -0.7487512815517867,
          0.2981538357384803,
          -0.2283077601532293,
          0.4975007036006758,
          0.6078678458137194,
          -0.9777876479317453,
          -0.9600998006204504,
          -0.22008828330724883,
          -0.31870104818819733,
          -0.8538373598136229,
          0.7496803469824616,
          0.1992958076827711,
          -0.14151248001004424,
          -0.3962422107732979,
          0.8103307351700868,
          -8.80382371274635E-4,
          0.6600532733856799,
          0.39464973210329535,
          0.2946391995312243,
          -0.8649010899419345,
          0.9808224545249908,
          -0.021610613993351846,
          0.82418471888533
        ],
        "playerName": "RFFSimulation",
        "converter": {}
      },
      "fitness": 0.8,
      "behaviours": [
        16.6,
        0.5,
        55.3,
        0.4
      ]
    }
  ],
  [
    {
      "value": [
        29,
        25,
        17,
        10
      ]
    },
    {
      "x": {
        "agentConfig": [
          1,
          4,
          3,
          0,
          0,
          2,
          0,
          0,
          3,
          2
        ],
        "weights": [
          0.3580445075431098,
          -0.8003441015227901,
          -0.8588429983236565,
          0.7651253341100743,
          -0.06761327743895507,
          -0.8984478348545506,
          -0.005000355371638676,
          0.7797196177250676,
          -0.22353296128300348,
          0.3893980453892285,
          0.9666778642150062,
          0.7807444199986275,
          -0.09897302003078878,
          0.08795643529691888,
          -0.13888152059817105,
          0.5837287007397769,
          -0.3509889836455413,
          -0.7888404692133748,
          0.7563141226397061,
          -0.9194372298955562,
          -0.8091547698363903,
          0.054093063837048705,
          0.5160589072715247,
          -0.9455901207846902,
          0.638384973380703,
          -0.7607756911813308,
          0.3625459293992166,
          0.5272122937939887,
          0.5236874329067767,
          0.019376167957266155,
          0.677833361879427,
          -0.9582915163536943,
          0.7500906921315997,
          -0.7205963300022351,
          -0.15423661702264857,
          -0.24941866057764828,
          -0.4530882677315835,
          0.18048026559671637,
          0.6509967520603241,
          -0.7814402678579861,
          -0.5545987550978329,
          0.4553571552625739,
          0.5194037412185672,
          0.4389997937311949,
          -0.15757655997610498,
          0.9899096166109369,
          0.7141299807088854,
          0.7246742929636671,
          -0.6703438747984976,
          -0.4842613606124351,
          0.49423453130233574,
          0.8532029705037674,
          -0.36006613284463795,
          -0.009450669038683746,
          -0.8021248089742785,
          -0.8692416256174578,
          0.7986869342151051,
          -0.4425199417559673,
          0.2295942271399507,
          -0.1166139131581645,
          -0.13274488432393583,
          -0.1484900378035492,
          0.011335621635441218,
          0.2934806952918141,
          -0.4738154387712925,
          -0.13947461892249646,
          0.09940399035967262,
          0.4696620567519645,
          -0.32955636409759026,
          -0.44942119793678503,
          -0.12534820277027414,
          -0.8285005574860433,
          -0.8251780069331887,
          -0.9706727423969128,
          0.48076180292717297,
          -0.29376483963477784,
          0.03660491471408567,
          -0.8514099435453442,
          0.015567189548165272,
          -0.8271393109317116,
          0.21394400422443005,
          0.1364188963802051,
          -0.6270673783223664,
          -0.5503968752373569,
          0.6521716677931135,
          -0.8989734328104408,
          -0.41220440310947937,
          0.10408199028802056,
          0.22663713258833695,
          -0.9366263510282578,
          -0.9454537148621913,
          -0.2489002276008241,
          -0.37053178569347023,
          -0.44783463586106986,
          0.5690028554325175,
          -0.7087673530474292,
          -0.4110083158353579,
          -0.2655353373660443,
          -0.21318413585874385,
          -0.06590873516323215,
          0.2343736901456397,
          -0.44292039211389245,
          0.39621511563766854,
          0.9433237711792133,
          0.9043688885869292,
          0.43833735916424765
        ],
        "playerName": "RFFSimulation",
        "converter": {}
      },
      "fitness": 0.7,
      "behaviours": [
        19.2,
        1.6,
        33.4,
        4.7
      ]
    }
  ],
  [
    {
      "value": [
        1,
        1,
        46,
        7
      ]
    },
    {
      "x": {
        "agentConfig": [
          1,
          1,
          3,
          0,
          1,
          1,
          2,
          0,
          1,
          1
        ],
        "weights": [
          0.07678806539544425,
          0.7177594896957025,
          0.22202770711589892,
          -0.40325341767491296,
          0.7382321502524745,
          -0.061571821161735096,
          -0.14267563012629547,
          0.12206784897906542,
          0.10552654558342112,
          -0.14717559441635353,
          -0.6824606738715748,
          0.5544360299645912,
          -0.28602329888249867,
          -0.9732086069506236,
          0.08985220387969384,
          -0.2584203254440358,
          -0.32837730383375807,
          0.5322767787110925,
          0.06657698767540743,
          0.06986297913417383,
          -0.6249696324584564,
          -0.09516345971084195,
          -0.3320636970820996,
          -0.9675142380879505,
          0.13647588212661743,
          0.9664668062447364,
          -0.9364839591256922,
          0.7812053685886551,
          -0.10163269771320094,
          0.1334530287157547,
          -0.03390571282060417,
          -0.9443148493749367,
          -0.6779272966494818,
          -0.4816194604254991,
          -0.13588315287871877,
          -0.8947232676653043,
          0.7121535398838597,
          0.3874017199364106,
          -0.9858311884830957,
          -0.998754271971376,
          0.4733303471232817,
          -0.6516900767579985,
          -0.9676288164041236,
          0.08315488280519379,
          0.09633485006907239,
          0.021921689808888756,
          0.5037079573794443,
          0.19132076691055233,
          0.03013209908588288,
          0.8887237992634109,
          -0.32913082469073895,
          -0.19203612078759935,
          -0.7781768580002031,
          -0.4953069154527303,
          0.9692718275585182,
          0.26287483663082734,
          0.5918677767977369,
          0.3446511145553861,
          0.9424992758358182,
          0.7551221672293806,
          -0.7389057383749786,
          0.15846896759497486,
          -0.09752119361585465,
          -0.8994682757856554,
          -0.04270823190398665,
          0.9148895435765798,
          0.5912933772837121,
          -0.16463158730681693,
          0.7030089889580959,
          0.15968894096915842,
          0.05660328652956381,
          0.5898569796219069,
          -0.37748950037533247,
          -0.07064829733344014,
          -0.0297693723732817,
          -0.5091212053521332,
          0.5046706289720078,
          0.23838614013828474,
          -0.30046201766381264,
          0.7613875578418496,
          0.6199128670893601,
          -0.4021382639390154,
          -0.4161889326225672,
          0.6547872953219032,
          -0.7868691312464933,
          -0.9752988539037399,
          -0.9270674734904867,
          -0.604278902500079,
          -0.9191449497198787,
          -0.43428562444095364,
          -0.3467872617700314,
          0.894421694375654,
          0.6897571009214125,
          0.487314637212354,
          -0.18467821697804432,
          0.6599769062984688,
          0.4049129612958613,
          -0.02869070147447972,
          0.7118440164021795,
          -0.44143171977159024,
          -0.4299271289557529,
          0.4091115645610528,
          0.6070557369860698,
          0.8459421317557099,
          -0.5814854314235447,
          0.20117316932549212
        ],
        "playerName": "RFFSimulation",
        "converter": {}
      },
      "fitness": 0.0,
      "behaviours": [
        0.0,
        0.0,
        91.7,
        3.0
      ]
    }
  ],
  [
    {
      "value": [
        18,
        2,
        28,
        13
      ]
    },
    {
      "x": {
        "agentConfig": [
          1,
          3,
          0,
          1,
          0,
          1,
          0,
          2,
          2,
          0
        ],
        "weights": [
          -0.9170540646425178,
          -0.8530362208422884,
          0.8364618633454968,
          -0.5495504678175265,
          -0.04872576616287594,
          0.4836449833451004,
          0.5881593142359784,
          -0.4343080435248914,
          0.8681618584205422,
          0.13415988760608255,
          -0.3209162139313795,
          0.39229017082860396,
          -0.09437996413730887,
          -0.3352139322767649,
          -0.8786755873402778,
          0.21659690018029165,
          0.347427472677285,
          -0.07925609594073446,
          -0.3039992574151249,
          -0.603526559185624,
          0.6218901499211702,
          0.2048497044347497,
          0.4393067686350558,
          0.04352216702826106,
          0.8262923857323414,
          0.3152713903062241,
          0.6360488564685136,
          -0.8232437445485137,
          0.6321636188118034,
          0.45660742942978993,
          0.22015274665504658,
          0.44884237068732524,
          -0.9031873693570671,
          -0.6470364872475585,
          0.4991928088485069,
          -0.6082455614042994,
          -0.29459190335547536,
          -0.23134536316409005,
          0.20007522030697844,
          -0.46312021919950186,
          -0.17078510627530785,
          -0.9183872939187407,
          0.9755839054663429,
          -0.26467729352233893,
          0.7094202849246256,
          0.5565337167586566,
          -0.28342272357563947,
          0.5373529199884286,
          0.0623160640357352,
          0.5292512557396774,
          0.2822015989395039,
          -0.41435000568674973,
          0.4504274605099272,
          -0.15922386038844527,
          0.5905644563914816,
          0.6351973128538289,
          0.6755099820662644,
          0.5488952663030784,
          0.4048903083676372,
          0.03338346832855277,
          0.6231626472452736,
          -0.8028239677389397,
          0.6052589748870632,
          0.277070494551344,
          0.22513395806496805,
          -0.2643243442411043,
          0.2536040713224301,
          0.609093081168911,
          0.50422584151814,
          0.5646075006993927,
          -0.6602713812539098,
          -0.4751455033766707,
          -0.9719720044880611,
          -0.8883297926143889,
          0.7386720773522626,
          -0.4696103612019118,
          -0.4784559329424174,
          -0.14430138294016293,
          0.6148414565463822,
          0.5264674557294826,
          -0.12490143998752012,
          -0.22625235128514976,
          0.2758968282811076,
          0.7890086391883875,
          0.3327421476796846,
          0.815674370390921,
          0.3094608050348462,
          -0.3257022135117875,
          0.25770002283661286,
          0.19973702929374193,
          -0.27170183185215424,
          -0.10182773023754721,
          -0.4547622667390523,
          0.07468070924250658,
          0.8046914190872045,
          -0.4784274806457911,
          -0.5103543359178537,
          0.408235348589743,
          0.2923150323735926,
          0.6205426136491434,
          -0.28912814330482894,
          0.8389030036603253,
          -0.18601003449185805,
          -0.9730272469882222,
          0.6076614391919193,
          0.6673645748890487
        ],
        "playerName": "RFFSimulation",
        "converter": {}
      },
      "fitness": 0.4,
      "behaviours": [
        11.7,
        0.1,
        54.8,
        6.2
      ]
    }
  ],
  [
    {
      "value": [
        4,
        1,
        37,
        2
      ]
    },
    {
      "x": {
        "agentConfig": [
          0,
          0,
          1,
          1,
          1,
          0,
          0,
          2,
          0,
          1
        ],
        "weights": [
          -0.4791629653262439,
          0.36896241167821886,
          0.33834309264855,
          0.8705492824085879,
          -0.5324308253619612,
          -0.5560797857007278,
          -0.025578120989092623,
          0.6585096564663142,
          -0.08559458458439995,
          0.413137176784401,
          0.7369938831807721,
          0.42599410118516956,
          0.7797091606904296,
          0.49460125436499136,
          -0.9324854171790862,
          0.11104545116060338,
          0.11696944390090902,
          0.45153773310389145,
          0.49592658177384763,
          0.575629021555919,
          -0.6927736318562896,
          -0.23582430648197317,
          0.6289238747561978,
          -0.2954251447672285,
          0.11540590407692553,
          0.13633739723909866,
          -0.41410447756108115,
          0.5704401149100686,
          -0.5768758255647102,
          0.794052423785718,
          0.1804613877104928,
          -0.39863631142417955,
          -0.06314929918890799,
          0.11580830175303558,
          -0.08690923645189153,
          -0.7153102797236959,
          0.7191481511012738,
          -0.23899787866930522,
          0.6703726464360071,
          -0.9026615383677594,
          0.002033351509134862,
          0.6526121206583457,
          -0.08091520807360264,
          0.07460665817969558,
          0.4153338146595007,
          0.9220595301321497,
          -0.8617136017516764,
          0.7122831951136481,
          -0.5007588341207758,
          0.23868535447805606,
          -0.7497622696548787,
          0.7426674689108348,
          0.1690906926496707,
          0.8232198614643935,
          0.8910282666872675,
          0.7332830804273469,
          0.6617261983635343,
          0.8840747159677129,
          -0.4956274521726025,
          -0.5722194295704179,
          -0.5833652947075796,
          -0.7827582796521988,
          -0.5528886809458919,
          -0.718272390085595,
          -0.668633484511642,
          0.27503543373065886,
          -0.43746607460641873,
          -0.2583132415051519,
          -0.1204180862389368,
          -0.8641313204253842,
          -0.9922843306411187,
          -0.5258140971386096,
          0.6913953841947436,
          -0.503295208230701,
          0.5136419339303531,
          0.9718873928998473,
          0.3695159782545556,
          -0.938217416963028,
          0.7119697821040099,
          -0.25253321811545515,
          -0.44899000209339057,
          -0.48433694834814545,
          -0.3201458082872972,
          -0.3285857860551058,
          -0.47665850230310114,
          0.645600684058447,
          0.4343464776065151,
          -0.08182449391532254,
          -0.9353272645493005,
          0.11769477569203635,
          -0.2495516115806955,
          -0.5442483587111397,
          0.6022361851991445,
          -0.08677076147949858,
          0.38198518669790804,
          0.0470804159261351,
          0.26891721033526417,
          -0.503936959452163,
          -0.4679621552072488,
          0.3272253950032269,
          0.9870141256150178,
          0.4088860608164706,
          -0.7502462613738836,
          -0.3213984398491039,
          -0.6805280584109428,
          -0.8143916175548578
        ],
        "playerName": "RFFSimulation",
        "converter": {}
      },
      "fitness": 0.0,
      "behaviours": [
        2.0,
        0.0,
        73.1,
        0.7
      ]
    }
  ],
  [
    {
      "value": [
        23,
        11,
        23,
        15
      ]
    },
    {
      "x": {
        "agentConfig": [
          0,
          5,
          1,
          0,
          2,
          0,
          1,
          2,
          2,
          0
        ],
        "weights": [
          0.6576637253128972,
          -0.7637732484783204,
          0.5185430205436456,
          -0.7350529444249234,
          0.23875551236988724,
          -0.771036858463549,
          0.4561874768001517,
          0.8871824976050804,
          0.11488514609120726,
          -0.020174317206516523,
          0.07818126989073959,
          -0.43341734397712717,
          0.6386981731907262,
          -0.7728542312547266,
          0.4510791702252326,
          -0.47848696223259624,
          -0.060872653221874407,
          -0.567587239863278,
          0.24423466051457776,
          -0.9654522756211565,
          0.8353987551034134,
          -0.01795560834708998,
          0.8228234412327275,
          -0.26527664488540537,
          -0.5815861823738098,
          0.9450367309506682,
          -0.24001831510588767,
          0.8214450299578104,
          -0.8644948868864422,
          -0.6774100979825006,
          -0.5355902225080567,
          0.003055162803000222,
          -0.5491067118186341,
          -0.4597410041385719,
          0.13736926925230097,
          0.2687779154409331,
          0.452999102017567,
          0.31013233041483224,
          0.853079421705901,
          -0.479043765523558,
          0.14109426897486355,
          -0.07000693224265864,
          -0.8009015849664074,
          0.5652009872309414,
          -0.45239831833473865,
          -0.41162753188157297,
          0.6183507931334293,
          -0.010725128389132754,
          0.3386841544683339,
          -0.6911433227630115,
          -0.6379570848581828,
          0.05723685420112856,
          0.08458932224559135,
          -0.20603755378078237,
          -0.2072155185711524,
          -0.09642326526361722,
          0.0025457780586670697,
          -0.38165103827805047,
          -0.33018656588966855,
          -0.9672290260267171,
          0.6488340527840144,
          0.973088025886671,
          0.0032996735626995566,
          -0.58710385389938,
          0.7729841683876046,
          0.477165719378835,
          0.6663505989385332,
          0.29763744817069915,
          -0.6541204965093215,
          0.4493444372517401,
          -0.6391447172532552,
          0.3192344556251183,
          0.6348750715590521,
          0.47296437534119207,
          -0.9701366188469074,
          0.3656081685081478,
          -0.8771343125206774,
          -0.9117808682389246,
          -0.6936926727977111,
          0.2881178310384198,
          -0.9454309833105816,
          -0.989107956292842,
          -0.2595867584315521,
          0.5820976038219834,
          0.4421149768041659,
          0.403492972558515,
          -0.9578794799342585,
          0.8405275855782055,
          -0.5266376447165781,
          -0.5858113244698278,
          -0.6535230157945082,
          0.0018962110475562177,
          0.44019140738709184,
          -0.5491266977509153,
          -0.29530606603377474,
          -0.8034856240339603,
          0.5403482024944986,
          0.4721777077031417,
          -0.7192199816915483,
          0.3412443579157556,
          0.2052466469509051,
          0.9541706659212672,
          -0.6557302673365237,
          0.5408102036109201,
          -0.0325399928367216,
          0.13095708212187995
        ],
        "playerName": "RFFSimulation",
        "converter": {}
      },
      "fitness": 0.2,
      "behaviours": [
        14.8,
        0.7,
        45.6,
        7.4
      ]
    }
  ],
  [
    {
      "value": [
        17,
        1,
        38,
        2
      ]
    },
    {
      "x": {
        "agentConfig": [
          0,
          2,
          2,
          0,
          2,
          1,
          1,
          3,
          4,
          2
        ],
        "weights": [
          0.0038381751737428527,
          0.19477367940748413,
          -0.8647037521039167,
          0.9699257408402442,
          0.9663152277776392,
          -0.9832780754257451,
          -0.13491129587707462,
          -0.34946853597003,
          0.5436906960052537,
          -0.2719733680553793,
          -0.3024520475039685,
          0.7594469755784463,
          -0.4235419517925476,
          -0.7228102939986918,
          0.8525062503136265,
          0.1267581221205143,
          -0.2415433007721821,
          0.2602903361030495,
          -0.2075931439040537,
          0.3084580799644363,
          0.9632728563421076,
          0.15416070044190078,
          -0.9891515221577345,
          -0.5668886124153449,
          0.9788301418351535,
          0.37530848136704575,
          0.43564932287626124,
          0.741970807077484,
          -0.706214206929282,
          -0.5995135316671316,
          -0.8777278110475817,
          -0.05776323191835209,
          0.9094258142467162,
          -0.15698613218831503,
          -0.9752184061841995,
          -0.8173968459249077,
          0.5433320064255711,
          -0.4003439330222538,
          0.8053311407497303,
          -0.28781548018341074,
          0.046169939666965254,
          -0.03392703311167988,
          0.8795079159032977,
          0.0983750663186127,
          0.37052686532985724,
          0.9645498960041226,
          -0.8063111681831174,
          -0.7438587534754599,
          0.01080541351593256,
          0.035926853996062214,
          0.5918913215473998,
          -0.5192962193100867,
          0.4757578956040136,
          0.7183464554706853,
          -0.9465698474691606,
          0.17751778747412095,
          0.06032355859572602,
          0.9686424532460507,
          -0.430981041935828,
          0.04791251940051833,
          -0.04899033965268473,
          0.37789561802931626,
          0.9717838473901692,
          0.11570626015110896,
          -0.4708647970198314,
          -0.30911466973547475,
          0.6509849772576297,
          0.16956380925479353,
          0.6288342314944295,
          0.7598694013938054,
          0.7500687881920887,
          0.9478182962681114,
          -0.5382062837485739,
          0.3463272432845841,
          -0.8129966232893688,
          -0.29306902624417885,
          -0.06172045083063038,
          -0.9699956061364898,
          -0.3663236211039447,
          -0.3082825589310254,
          -0.8059181575046555,
          0.8928008655643804,
          0.45246304284243655,
          0.46491950514921476,
          -0.72441152045066,
          0.6157467446477216,
          -0.4880985199340515,
          0.05565779927748693,
          0.14027572563857515,
          0.16051389100383462,
          -0.21026224012070238,
          -0.5492489855726699,
          0.39748043572723124,
          -0.6973864113829993,
          -0.27956527492937355,
          -0.9201581470444486,
          -0.4556018705480207,
          0.9416353383289722,
          0.35556362850947765,
          -0.3652769093843109,
          0.8448292812560942,
          -0.6654176016274647,
          0.5793280943942598,
          -0.18479048028077605,
          -0.5467268399813792,
          -0.8184337193828759
        ],
        "playerName": "RFFSimulation",
        "converter": {}
      },
      "fitness": 0.4,
      "behaviours": [
        11.2,
        0.0,
        74.5,
        0.5
      ]
    }
  ],
  [
    {
      "value": [
        15,
        1,
        44,
        5
      ]
    },
    {
      "x": {
        "agentConfig": [
          1,
          0,
          3,
          0,
          2,
          1,
          2,
          0,
          4,
          2
        ],
        "weights": [
          -0.9294107852048339,
          0.6361379040642143,
          -0.7521039221680437,
          0.6768095799647806,
          -0.9035332708290897,
          -0.6716798342195314,
          -0.9245147680561565,
          -0.06699285264337718,
          -0.5349539174247167,
          0.6364346532248779,
          0.09447002212715372,
          -0.10798464463256296,
          0.17049933885661628,
          -0.16791289187217906,
          -0.6028731944217043,
          0.5294945753489728,
          0.4758527859504573,
          0.7888419068962331,
          0.36979075218385815,
          -0.7195773032185784,
          0.9873258280343824,
          0.4705840045246832,
          -0.44769398967844176,
          -0.15058896933341748,
          0.5205879459004032,
          -0.11917989512398708,
          -0.09900320384745553,
          0.40337639966937955,
          0.9474706473493435,
          0.925617395181588,
          -0.10532688791228373,
          -0.5481930590737383,
          -0.5207490828008228,
          -0.2614201760729591,
          -0.027986474040708087,
          -0.15318848993582557,
          0.1726994749758337,
          0.6744667212091604,
          0.8999952714138053,
          -0.9754049087328234,
          0.837665836484988,
          -0.6012395503027914,
          0.8468705608963827,
          0.8619570763287341,
          -0.019949243508720294,
          0.2836937690999284,
          -0.8304847700532838,
          -0.6641382285679924,
          0.9315935241341331,
          0.6669494954003552,
          -0.7761948279513806,
          0.5510828120474238,
          0.897981290637593,
          0.43744996407374237,
          -0.13199726160180125,
          -0.3596219145575583,
          -0.7006358897438034,
          -0.11664482226381057,
          -0.24703541791310402,
          0.5436029289680526,
          0.4824388393206218,
          -0.22940728912007557,
          -0.020689612571602733,
          -0.2633759675154985,
          0.6508425473224935,
          -0.7840548936034464,
          -0.7494810998794506,
