[
  [
    {
      "value": [
        33,
        26,
        14,
        17
      ]
    },
    {
      "x": {
        "agentConfig": [
          1,
          3,
          3,
          0,
          0,
          0,
          1,
          3,
          3,
          1
        ],
        "weights": [
          0.00457849175166869,
          -0.2155873906330832,
          -0.8341489040098451,
          -0.15834649233790388,
          -0.51631359210799,
          -0.07738824576853909,
          -0.25700650626190646,
          -0.09468875255376252,
          0.9096015012770795,
          -0.43248033662902263,
          0.6607932583933038,
          0.9863908849559693,
          -0.19632062742866618,
          -0.5303083743272661,
          0.30225860345662703,
          0.0749417771373817,
          -0.9668406099980993,
          0.4996443900112475,
          -0.5685858778595194,
          -0.6526249798061794,
          -0.2596692180563982,
          -0.24938549660532106,
          -0.0810192602937132,
          -0.022147767290855214,
          -0.43134038135861674,
          -0.9580697254435395,
          -0.8962082567946588,
          -0.8126453000893796,
          -0.6927245073592789,
          0.3511346934900368,
          -0.7243979349220064,
          -0.19435928524875123,
          0.38185759213183523,
          0.9002623891135817,
          -0.5221615909449104,
          0.4748136233117686,
          0.2391002254395036,
          0.6314387073632028,
          0.8542275938772306,
          0.289240235817684,
          0.6035785923765653,
          0.6292350882914766,
          -0.8988677248940424,
          0.1450729696742905,
          0.8299762620910307,
          0.681980742286318,
          0.23781296443289324,
          0.3636468873303518,
          -0.86972344361434,
          -0.37850448332788367,
          0.8697263670606619,
          0.256535858001411,
          0.3246601370192177,
          -0.6595247216965296,
          -0.6046394958226102,
          0.21607086893185978,
          -0.05350750763870549,
          0.45902598606795464,
          0.19499768393754002,
          0.643635551777729,
          -0.97407493943907,
          0.49660931674513575,
          0.7401870114864011,
          0.5690729223133997,
          -0.3167254411295186,
          0.10292682768089678,
          -0.22440103476228268,
          0.16805052082034666,
          0.7824855496496754,
          -0.5889630877251482,
          -0.7496750428174086,
          -0.4497516386336504,
          -0.673377385441879,
          0.8982630900658874,
          -0.4864246644806336,
          -0.8302515038047658,
          -0.9785223699138046,
          -0.724781550775558,
          0.440120365778907,
          -0.9999781781711787,
          0.4900199638968312,
          0.8705370009389173,
          0.6137086431451495,
          0.21942219806050822,
          -0.010442839196211473,
          0.7386670608200485,
          0.4720890644645901,
          0.5691146689560542,
          -0.8348860707653101,
          -0.7096508684011973,
          -0.5948483382315761,
          0.7738791257256483,
          -0.6333209831992854,
          -0.3698351046249717,
          -0.8019053357823223,
          0.45724763504290844,
          0.3646090028174882,
          -0.017189654084686312,
          0.9244149564231394,
          -0.16405219333373489,
          0.916619338420807,
          0.5995115237438422,
          -0.5810901730633411,
          0.14464156410051632,
          -0.4285661038777595,
          -0.641732929678354
        ],
        "playerName": "RFFSimulation",
        "converter": {}
      },
      "fitness": 1.0,
      "behaviours": [
        21.333333333333332,
        1.6666666666666667,
        27.1,
        8.433333333333334
      ]
    }
  ],
  [
    {
      "value": [
        32,
        32,
        13,
        8
      ]
    },
    {
      "x": {
        "agentConfig": [
          1,
          1,
          0,
          1,
          2,
          0,
          2,
          0,
          2,
          1
        ],
        "weights": [
          0.22294635999243595,
          -0.3536713521959114,
          0.16890650588460088,
          0.4110064320865978,
          -0.10541334721725826,
          0.055431145938673154,
          0.3298664609411375,
          -0.43779523183618996,
          -0.9869957454544929,
          0.9991985751417698,
          0.4392917110633505,
          -0.6642498350944568,
          0.7225158437589676,
          -0.6704595205892998,
          0.5556249678436489,
          0.22778220241987146,
          -0.7505496971308321,
          0.9258044131156511,
          0.668475339527659,
          -0.8054617411699645,
          0.7271031995698376,
          -0.9269319261524995,
          -0.27845551681206526,
          -0.373181183450243,
          0.02047145451266541,
          0.2558763339371395,
          0.7973520362055415,
          0.5173942842414128,
          -0.7443844397807327,
          0.073295477749453,
          -0.38847484748827776,
          -0.38195456152867346,
          -0.36806832267010114,
          0.36592145836581413,
          0.8648096748784295,
          -0.5760550918339302,
          -0.17528017910218452,
          0.8427450369811464,
          0.7138496050357053,
          -0.32339713032228046,
          0.05965198784244752,
          0.5055425029182903,
          -0.35282623574405814,
          -0.25738415645034163,
          0.9285366565660418,
          -0.009274244838225254,
          0.3907173415713614,
          0.7039726494959093,
          0.41499623340041536,
          -0.4166485925440915,
          0.11759817010878182,
          0.28668812081715367,
          -0.4222262018708822,
          -0.8947450099225407,
          -0.8002427871202926,
          -0.1419505324078818,
          -0.9121751214743008,
          -0.8609601350836547,
          0.014464318300040357,
          -0.3612227241012198,
          0.5120767096896346,
          0.12191886528019302,
          0.9065794417908346,
          0.00491758421080335,
          0.7308795917146804,
          0.7281698446953941,
          0.3078521536917096,
          -0.7047022714731714,
          -0.31718578781744045,
          -0.3437666105809787,
          0.22743070620489214,
          -0.10610595768298725,
          0.7496609297884291,
          -0.5537538344455355,
          0.8531445876330168,
          0.5224752579077445,
          -0.4740239979955556,
          -0.7239310014446068,
          0.8410136617785531,
          -0.34259913278395615,
          0.4618617223523227,
          -0.18136601395736696,
          -0.9791718423355875,
          0.7754696260570995,
          -0.07584265480968422,
          -0.8092983982069448,
          0.7085346151327245,
          0.7372287546981453,
          0.5904184981566531,
          0.7828832534076293,
          -0.40844716086211497,
          0.03217012179137346,
          -0.22830676694952534,
          -0.6669487191475016,
          0.24104068168205517,
          -0.16124482656090922,
          -0.7457560715508444,
          0.990023113095043,
          0.7055126148003428,
          -0.1067734922021617,
          0.5570042628276815,
          0.311672841507425,
          -0.6468900249907705,
          -0.985321258045567,
          -0.8792981606505106,
          0.1513885433275537
        ],
        "playerName": "RFFSimulation",
        "converter": {}
      },
      "fitness": 0.9,
      "behaviours": [
        20.8,
        2.066666666666667,
        25.633333333333333,
        3.933333333333333
      ]
    }
  ],
  [
    {
      "value": [
        12,
        4,
        33,
        8
      ]
    },
    {
      "x": {
        "agentConfig": [
          1,
          0,
          2,
          0,
          2,
          2,
          2,
          2,
          0,
          0
        ],
        "weights": [
          0.8953012885513942,
          -0.4432924510612051,
          0.2431175240634511,
          0.8722698468264429,
          0.70709850622685,
          0.004611989521005944,
          -0.6592363711734632,
          0.32566093749065494,
          0.8450300404718847,
          -0.1203888194159306,
          -0.607434499686762,
          -0.4396114690817965,
          0.6896153100853151,
          -0.4042378866522407,
          0.1933247629769217,
          0.863337700543884,
          0.22994659632830117,
          0.5038887694676917,
          0.4554688845889703,
          -0.4784814160277078,
          -0.8407437937878697,
          0.45276398354052483,
          -0.7663365763106489,
          0.28896107142143435,
          0.02489065006040292,
          0.3452654125964203,
          0.955497897395061,
          0.039166372124700644,
          -0.11387797012118628,
          0.08092406042138323,
          -0.8115672091660087,
          0.5541034366209974,
          -0.13513232313985069,
          -0.9014503822916249,
          -0.3889134775080241,
          0.8792550621154702,
          0.21852915911866266,
          -0.6326179997803218,
          0.30733193727052854,
          0.9652335477861056,
          0.12080298203292794,
          -0.8775152260997816,
          -0.5354384451920915,
          -0.579998290944052,
          0.20545553721707588,
          -0.1001388849849798,
          0.8328725136628539,
          0.11175017591198055,
          0.10969537383447903,
          -0.5009609019089376,
          -0.11018771358473889,
          -0.9090016341005511,
          0.7479173829712662,
          -0.614361591833374,
          0.5557166145429298,
          0.8415012380130114,
          -0.14676751457458326,
          0.8645062777269081,
          -0.4824375596560344,
          -0.7769399714125484,
          -0.5566609353786127,
          0.897296896755633,
          0.7446484524001209,
          -0.3646489946669793,
          -0.701069088975915,
          -0.8566893580185018,
          0.6173071019425076,
          0.9104013740266783,
          -0.7130212003803749,
          0.17182273140135118,
          0.24024235481356415,
          0.23235732417663968,
          -0.5821372209317075,
          0.19808626294656873,
          -0.025022505644928472,
          -0.013294671613398812,
          -0.10552783559904522,
          -0.3103904879462902,
          0.0012895772934164995,
          -0.14287799021408643,
          0.09303229999569629,
          -0.8557530391201729,
          -0.19460462074981288,
          0.7166457059947922,
          -0.5904434319395666,
          0.7599322058147309,
          0.8930464021450708,
          0.9008762102300092,
          0.21246353892434788,
          -0.9660445610218071,
          0.7385802422936836,
          0.304426315569726,
          -0.23896113218417292,
          -0.6605465918820048,
          0.0063658521094012155,
          -0.5921359651574054,
          -0.11893664682547644,
          -0.6509531013156642,
          -0.5810283445510576,
          0.8208994148183846,
          0.4330683711896055,
          -0.18967560197758515,
          -0.703224138377837,
          0.21858637828521577,
          -0.8346794189994184,
          0.625138174980953
        ],
        "playerName": "RFFSimulation",
        "converter": {}
      },
      "fitness": 0.16666666666666666,
      "behaviours": [
        7.366666666666666,
        0.23333333333333334,
        64.06666666666666,
        3.566666666666667
      ]
    }
  ],
  [
    {
      "value": [
        28,
        21,
        19,
        8
      ]
    },
    {
      "x": {
        "agentConfig": [
          1,
          0,
          3,
          0,
          2,
          2,
          2,
          1,
          0,
          0
        ],
        "weights": [
          0.027355716537126096,
          -0.6322261691257365,
          0.07639410060791985,
          0.021164866356565115,
          -0.5298575965912726,
          -0.05841908458605727,
          -0.1818441894070557,
          -0.24962659510985064,
          0.014401026025533836,
          0.008078691146225836,
          0.3838510890166924,
          0.16623344239662474,
          0.3925886267984795,
          -0.2920960214514703,
          0.2161479028394122,
          -0.06839562476410532,
          0.8780387314303144,
          0.7070980057724154,
          -0.6061170431462182,
          -0.3732939012991525,
          -0.11950227806898828,
          -0.8230411645092726,
          -0.18603217890645252,
          0.4037273339888072,
          -0.6470955555431188,
          0.7366415148567498,
          0.09557943977448202,
          -0.4708609225744338,
          -0.06840676499759746,
          0.968673932153699,
          0.3055726412897364,
          -0.5165483383664453,
          0.6637403893904241,
          0.9398233838632011,
          -0.05805621468069955,
          -0.2333302903941128,
          -0.5799831757215583,
          0.794512293233762,
          -0.7374354981501285,
          -0.1512846992813166,
          0.6470477330386009,
          -0.06475033896968374,
          -0.990704600744736,
          -0.19239541832161233,
          0.9834226432944964,
          -0.43569186574951324,
          0.8529803928610438,
          0.11417958707243914,
          0.4446388916211792,
          0.43314413891062165,
          0.4727126931917429,
          -0.249288333103459,
          -0.6234974736225574,
          -0.4691772908596108,
          -0.9168462374042698,
          0.3917093774602525,
          -0.8168487562979123,
          0.1399751490223271,
          -0.5634213626875015,
          -0.2712210028075779,
          -0.044995666817599034,
          0.1985827605819528,
          0.8517094058601935,
          -0.8125990066419235,
          0.5535855930585383,
          0.22814597506293932,
          0.6592912612953381,
          0.2620025478957746,
          0.4543058759922409,
          0.22356336815720312,
          0.604755073060661,
          -0.5132794920336519,
          -0.2950685784697116,
          0.8473110709454894,
          0.2112014433483138,
          0.6627656873465728,
          -0.2733928409983768,
          0.030278278405506454,
          0.8813315475950589,
          0.37931500044689126,
          -0.6340585140178343,
          -0.34611915638720947,
          0.6048411692069982,
          -0.9066273001006036,
          -0.3991968403815531,
          0.3728397651945592,
          -0.46181577187147904,
          -0.9249409786145313,
          0.609118440172848,
          -0.1647224703828607,
          -0.5634960695304776,
          0.37829877905922205,
          0.5290997766963441,
          0.5665509107491404,
          0.9429183954941198,
          0.66289890836346,
          0.17097590155257736,
          0.6055041952639759,
          0.07824057822436403,
          0.1725194909852763,
          0.18443554826011788,
          0.6165924302684018,
          0.9246007686433662,
          -0.5359422232133375,
          0.7426363010560904,
          -0.35140982093153683
        ],
        "playerName": "RFFSimulation",
        "converter": {}
      },
      "fitness": 0.6333333333333333,
      "behaviours": [
        18.133333333333333,
        1.3333333333333333,
        37.8,
        3.966666666666667
      ]
    }
  ],
  [
    {
      "value": [
        21,
        4,
        30,
        15
      ]
    },
    {
      "x": {
        "agentConfig": [
          1,
          1,
          2,
          1,
          1,
          1,
          0,
          0,
          4,
          1
        ],
        "weights": [
          0.9711831387858314,
          -0.10039230620658968,
          -0.2326753621178157,
          -0.42405814668922037,
          -0.697367742641311,
          0.10851779170427522,
          0.402835422957434,
          -0.10777867990375589,
          -0.1790943204176192,
          -0.20097270317549887,
          -0.318940383120627,
          -0.9645320111737385,
          0.5665276145615623,
          0.07355760112466103,
          -0.6963161643248112,
          0.8224867382137193,
          0.33702966252190625,
          0.8613950651087696,
          -0.1861359905541764,
          0.4258811614731224,
          -0.6828457639801966,
          0.2861387569867557,
          -0.28072258578401565,
          -0.8175225890003284,
          0.4033273662615564,
          0.26051370891353254,
          0.5442155782380833,
          0.29576992610457964,
          -0.9032708681345039,
          -0.6056961600600732,
          -0.6538206406014238,
          -0.5629109327952979,
          0.489681405264766,
          -0.4078249685853952,
          0.7890785575496542,
          -0.3025443991862107,
          0.8329620739885599,
          0.8216735459242055,
          0.7342785549219151,
          -0.39814688399213116,
          0.4470469796353276,
          -0.5522984576671663,
          0.4923773381945229,
          -0.03008477478466487,
          0.3281702812541507,
          -0.7417141364292814,
          -0.6272632851797832,
          0.2917893035737884,
          0.7004848451959671,
          0.8474735375130091,
          0.9744325176953501,
          -0.014794974706721975,
          -0.021504303785066847,
          0.3747014549096228,
          -0.2185714236885119,
          0.4095408736208739,
          -0.870671534947262,
          0.8860039555030759,
          -0.9435790688637147,
          -0.1650522442812099,
          -0.737712486377881,
          0.3609385376454046,
          0.7719377406013974,
          -0.30064543645226505,
          -0.5764527979882856,
          0.44012344885145693,
          -0.6260770455789832,
          0.4334458674795001,
          -0.9632882655799191,
          0.3917990845938659,
          -0.4578293475543136,
          0.893467655906063,
          -0.7946315084513427,
          0.29183847291873555,
          -0.20638117059353123,
          -0.9860169478402929,
          -0.818348536489115,
          -0.37985067438372266,
          0.768651335934178,
          0.6774646998890943,
          0.7052211974248435,
          0.5174248448226615,
          -0.6528026228414356,
          0.9948770494867492,
          -0.3700410349856753,
          0.7997167103717231,
          -0.6394407568108784,
          -0.7988332366261022,
          -0.7189372828793037,
          0.494318725946546,
          0.596538625283048,
          -0.808154460674219,
          -0.6768764043588422,
          -0.8610340553059095,
          0.03957284834209829,
          0.361614980820399,
          -0.42984746908126614,
          -0.6226314911898676,
          0.8442337900835917,
          -0.14675150352343236,
          0.13141640638770657,
          -0.5123831301376622,
          -0.5904187906282312,
          -0.4152881910916515,
          -0.43766564052388257,
          -0.6039910194122835
        ],
        "playerName": "RFFSimulation",
        "converter": {}
      },
      "fitness": 0.7,
      "behaviours": [
        13.666666666666666,
        0.23333333333333334,
        58.8,
        7.2
      ]
    }
  ],
  [
    {
      "value": [
        11,
        1,
        30,
        11
      ]
    },
    {
      "x": {
        "agentConfig": [
          0,
          3,
          0,
          0,
          0,
          1,
          3,
          3,
          1,
          0
        ],
        "weights": [
          0.9803475380857312,
          -0.26958676628276135,
          0.715377376976893,
          -0.6499112847819002,
          -0.0781502330384598,
          -0.04478290754780634,
          -0.47572127176747436,
          0.5612742994837774,
          -0.4669403849503746,
          0.12581368156357553,
          -0.8781437009207997,
          -0.5629955986732831,
          -0.9209937105419181,
          -0.8008148431419542,
          0.24128894731960848,
          -0.44887009380400733,
          0.0432778633115507,
          -0.9435278723370057,
          -0.6931873100652017,
          0.04720303696693562,
          -0.09049679209322226,
          0.027612714365126356,
          0.47152466034470963,
          0.2609986931299204,
          0.05540781831816255,
          0.4246884903327064,
          0.8594660519847537,
          -0.25357389000470465,
          -0.31642372258949725,
          -0.10077587757785245,
          0.6441249286062902,
          -0.6391007218562235,
          -0.7928042307689462,
          0.3234528875971012,
          0.49589113899034554,
          0.6072467755491495,
          -0.6843050833412541,
          -0.40717440000360305,
          0.14388508423272062,
          0.7827604716928132,
          0.06433311120558538,
          -0.7431927364123905,
          -0.6770260186554344,
          0.6519964608810775,
          -0.23656352868044173,
          0.2072689933478189,
          0.2146784514184097,
          -0.6615426342042612,
          0.18711623852297055,
          -0.21144804053452715,
          0.6410644560814327,
          -0.07869842964127183,
          0.6779474043160536,
          0.6405415356841975,
          -0.26639502885975075,
          0.8267393706682082,
          -0.9067754412142337,
          0.3458593592487711,
          0.5743871491908972,
          0.5197930040193794,
          0.2200538181089795,
          -0.47545608638198655,
          -0.6050694331499882,
          0.23061202206828857,
          0.2806792754421594,
          0.404357135805834,
          0.31827408323935336,
          -0.5094486702716305,
          -0.5439159804193243,
          0.09211973565651843,
          0.3428782052636363,
          0.10673579055853444,
          0.9750453549364251,
          0.7812440469602542,
          -0.7077192550208464,
          -0.13015064624479322,
          -0.7525343928522652,
          0.9528979556863812,
          -0.20766510792560644,
          -0.2315964779855162,
          0.7649391916404935,
          -0.7369998933849484,
          0.9882486432204354,
          -0.22624463804981176,
          0.04815909034311194,
          0.2545115403995457,
          0.6765354524027374,
          0.3636598746946573,
          0.7899040739396217,
          0.2942543639632689,
          -0.19762337858980317,
          -0.131840761728669,
          -0.4760087185457831,
          -0.7942451872098362,
          0.8607867844668693,
          -0.549875394280708,
          -0.355283096599744,
          -0.04562801841789943,
          -0.3596364855579999,
          0.07378379407129021,
          -0.5920494560364582,
          -0.5617588337550066,
          -0.038705386521443064,
          -0.8319173896631047,
          0.6641876296431546,
          -0.051676139621008366
        ],
        "playerName": "RFFSimulation",
        "converter": {}
      },
      "fitness": 0.0,
      "behaviours": [
        6.966666666666667,
        0.0,
        59.03333333333333,
        5.4
      ]
    }
  ],
  [
    {
      "value": [
        24,
        10,
        25,
        10
      ]
    },
    {
      "x": {
        "agentConfig": [
          0,
          1,
          1,
          0,
          2,
          2,
          1,
          3,
          0,
          2
        ],
        "weights": [
          0.6799283893360837,
          0.6586952787376357,
          -0.4569108675351987,
          0.8446662808402277,
          -0.49230762139543804,
          -0.37185118238816206,
          -0.18961395116110946,
          -0.4454014547160896,
          0.009959931716622794,
          -0.601880594406023,
          0.03565982027660075,
          0.008354259415895182,
          0.5848072628092591,
          -0.5058593786837493,
          -0.06345878245086167,
          0.8107216251222704,
          -0.8226903609084673,
          -0.9037291648449026,
          -0.7143818463767184,
          -0.6325560008529683,
          -0.038611850341950804,
          0.03612632784419367,
          -0.12177809221788771,
          -0.08973511245492682,
          0.9603106252297349,
          -0.6933199442350111,
          -0.9787045976413447,
          -0.794697934036243,
          -0.26201250762776596,
          0.24089327379829584,
          -0.5383832862912483,
          -0.8552380174483294,
          -0.8064053863832532,
          -0.9437377299613849,
          -0.5217062760218452,
          -0.8807266289105014,
          0.7049449734001692,
          -0.18412099141095184,
          0.9835838224107587,
          0.5778824448782418,
          -0.6085770048703583,
          0.022618463953010925,
          0.9077352321315304,
          -0.49498011091520655,
          0.10518401214769346,
          -0.9584171763160299,
          -0.11231396749160005,
          -0.3214868796672685,
          0.9097142962993727,
          0.3369473658653592,
          0.3360981857352008,
          0.5199854442779932,
          -0.7322643916774512,
          0.11286843976230476,
          -0.6636561508517678,
          0.10874683094682336,
          0.9358302230007467,
          -0.6358699448269916,
          0.49070273360808625,
          0.502548938108097,
          0.6510524345164315,
          -0.42927898407534815,
          0.8431691238022025,
          0.8933408042070652,
          -0.9048168328833426,
          0.3115498222460118,
          0.3049082993774803,
          0.32342854636712426,
          0.3351752944361872,
          -0.07397918190749575,
          -0.37045783818501454,
          -0.30279277973607366,
          -0.0362726440819745,
          0.018210067527274942,
          0.9170855929217521,
          0.6458992439660936,
          0.5018146666926973,
          -0.9231042578283788,
          -0.1305058447966012,
          0.43749862589832134,
          -0.724603483195108,
          -0.22428756090046242,
          -0.4225744433861529,
          -0.4286133220496635,
          0.9414099124949613,
          0.6212157592711016,
          -0.5130420618494362,
          -0.04314959476839486,
          0.11354992422572785,
          -0.46734222690313687,
          0.37664738326619873,
          0.6469991354406031,
          -0.8737718331966515,
          0.6657910762207386,
          0.6694495336462625,
          0.9843431602667052,
          -0.124509687631984,
          0.33403270681211117,
          -0.7893310279765435,
          -0.2884393876754694,
          0.8885663406557143,
          -0.7661625487924519,
          0.7622425499430026,
          -0.8892527342478012,
          -0.7008850011034733,
          0.34714347089562336
        ],
        "playerName": "RFFSimulation",
        "converter": {}
      },
      "fitness": 0.5666666666666667,
      "behaviours": [
        15.533333333333333,
        0.6333333333333333,
        49.2,
        4.866666666666666
      ]
    }
  ],
  [
    {
      "value": [
        13,
        1,
        42,
        7
      ]
    },
    {
      "x": {
        "agentConfig": [
          1,
          1,
          3,
          1,
          1,
          0,
          1,
          0,
          0,
          0
        ],
        "weights": [
          0.6426958442395232,
          0.8918618120846509,
          0.42773731797519243,
          0.09774724875002327,
          0.40093206302884044,
          -0.8766181044845041,
          0.625063319196635,
          -0.5693312102780239,
          0.5322869580139284,
          -0.22843034809546903,
          0.6817536880826911,
          -0.5966886465808381,
          0.281298514592222,
          -0.018858924798547116,
          -0.6864635630308957,
          0.6300134767780217,
          0.45287021973610386,
          -0.764306679796122,
          0.6631418406323291,
          -0.9117963623909628,
          0.7325789800309181,
          -0.14639629337425974,
          0.7461948204885043,
          0.2972644506973017,
          -0.7649644921712693,
          -0.7571198770374372,
          -0.4979784566720664,
          0.5924383608024026,
          0.33724224876244535,
          -0.32447877893562826,
          0.3393229012506045,
          0.22015381572896264,
          0.5980359661341106,
          -0.5232878885681032,
          0.21705986905050567,
          0.7721672163813276,
          -0.3786584370090742,
          0.780432586968083,
          0.7637851153801696,
          0.07943121975866219,
          -0.909894859014446,
          0.2909213490913265,
          0.7140464727858169,
          -0.8973845331123591,
          0.8794141795121853,
          -0.2866435420917057,
          0.028378743765909098,
          -0.41527782361990395,
          0.1514545559880487,
          0.5985747238234793,
          0.46378994130210316,
          0.2722533352125083,
          -0.35840711808069825,
          -0.8269527139357196,
          0.07453977070169748,
          -0.6350965915590894,
          0.9640151242822244,
          0.4317912254504559,
          0.14839831919130453,
          -0.48023438157583587,
          -0.303007868547821,
          0.24581416788141142,
          0.4214632888497105,
          -0.7854430682002247,
          -0.7480166084718889,
          0.39855390096911325,
          0.06500546202407165,
          0.5653811274865794,
          0.08743092633653493,
          -0.7779713240074742,
          -0.09929828567359289,
          0.7980659465864783,
          -0.30276340947200686,
          0.7631787966806192,
          -0.4239934264482703,
          0.4881255305256953,
          0.9855551323616834,
          -0.516853848368882,
          0.019303040081577905,
          0.4129148358471071,
          0.13367802226549408,
          -0.6229959318724974,
          0.394864711815871,
          0.40055906878554914,
          -0.12857833253312023,
          0.09871519212264235,
          -0.00944851759944565,
          -0.08624439129072115,
          0.18457574590240133,
          0.18586083687658328,
          0.9965513975813485,
          -0.7274373813771986,
          -0.0783927416178698,
          0.800950884528921,
          -0.028626670154909384,
          0.39880366909476983,
          -0.49304317733274217,
          0.5408890793691299,
          -0.058316785738528054,
          0.7557334345715325,
          -0.9750960118195391,
          0.8134338822993907,
          -0.4545297548451199,
          -0.23987506580987872,
          -0.6928802167471524,
          0.03926079742888744
        ],
        "playerName": "RFFSimulation",
        "converter": {}
      },
      "fitness": 0.06666666666666667,
      "behaviours": [
        8.5,
        0.03333333333333333,
        83.7,
        3.2666666666666666
      ]
    }
  ],
  [
    {
      "value": [
        22,
        8,
        29,
        9
      ]
    },
    {
      "x": {
        "agentConfig": [
          0,
          5,
          3,
          0,
          0,
          0,
          1,
          3,
          4,
          1
        ],
        "weights": [
          -0.16229038614927616,
          0.8048835977728503,
          0.6932022083004337,
          -0.6925511664341595,
          -0.8858546170894646,
          -0.8778059837107826,
          -0.8581217819467517,
          0.10556565541053153,
          0.3293004755051212,
          -0.03591662253435324,
          0.8299250293921023,
          0.7937590712725504,
          -0.49124557566694227,
          -0.7813031006924278,
          -0.19238399578602539,
          -0.40133556998072173,
          -0.6447432595336877,
          -0.5405778285895051,
          -0.8325427246662902,
          -0.23844699117816703,
          0.385062560669031,
          0.15445232683388666,
          0.4047861500817247,
          -0.5907001703249726,
          -0.06818377170046053,
          0.8917395261114556,
          0.7937760668151626,
          0.4814215657427814,
          -0.4221414581258882,
          -0.31248495248460784,
          0.46860484277282666,
          -0.08094347574281358,
          0.660723517474266,
          -0.3249320539721787,
          0.8936860556811939,
          0.7065236462449469,
          0.9029812202603091,
          -0.48850993079819927,
          -0.28649723376436276,
          0.5533635130671215,
          0.9264746754241964,
          -0.3063902590969507,
          -0.40827586391642146,
          0.014529737299937562,
          -0.5626115526298587,
          0.6403538757419125,
          0.5809249817250555,
          -0.33133505645812966,
          0.206476979170082,
          0.8772925285545026,
          0.8083705779834183,
          -0.3908393787877069,
          0.6191732256820663,
          0.9501354147231285,
          0.8199680355131238,
          -0.05003307009745028,
          0.5331859962365701,
          0.7974669968576622,
          0.7936275836905657,
          0.30788270721221633,
          -0.5434121803263159,
          -0.7709795363871814,
          -0.985083748077608,
          -0.704677255737318,
          -0.35271697110630584,
          -0.11569178847208916,
          0.5020289279845329,
          -0.057676121760880994,
          0.6351395184520159,
          0.587440903048519,
          0.4737401010912967,
          -0.33618100140918084,
          0.4127785501785195,
          0.36748364129988254,
          0.473142770288719,
          -0.10202922369672307,
          0.8118202594946351,
          0.5797122812184952,
          -0.6083810577150599,
          0.8636255327793985,
          0.3103380089605252,
          -0.4583494866891773,
          -0.6183702055749785,
          -0.9802886519112588,
          0.8855323006936808,
          -0.11121860820526264,
          -0.29644939997315567,
          0.7566708374526652,
          0.21619259380974354,
          0.4583447017124729,
          -0.07908005838759702,
          -0.390215487042038,
          0.5327728506011002,
          -0.07435324237839303,
          -0.4598897026175146,
          -0.14349357287982722,
          0.3918630864273076,
          -0.3541766400134252,
          0.18456946010279984,
          0.7446992402016659,
          -0.20235999202007626,
          0.1950147410000016,
          0.7004220146177911,
          0.7959217389889537,
          -0.6624057000396419,
          -0.04157532281975507
        ],
        "playerName": "RFFSimulation",
        "converter": {}
      },
      "fitness": 0.5333333333333333,
      "behaviours": [
        14.333333333333334,
        0.4666666666666667,
        56.03333333333333,
        4.266666666666667
      ]
    }
  ],
  [
    {
      "value": [
        8,
        3,
        12,
        9
      ]
    },
    {
      "x": {
        "agentConfig": [
          0,
          0,
          1,
          0,
          2,
          0,
          3,
          3,
          0,
          0
        ],
        "weights": [
          -0.8447894980000423,
          0.7998777414451164,
          -0.12378309818401556,
          -0.7909407963995327,
          -0.058043584795661074,
          0.4798327909371085,
          0.8838885580981428,
          0.6575414271019246,
          0.8106692710331826,
          -0.7788589439361706,
          -0.7078790203530441,
          -0.297179141019853,
          0.8310124199702589,
          -0.7413592389622559,
          0.7327818024830925,
          0.19584926486871823,
          0.4661511221586594,
          -0.8380760627273092,
          -0.5474737225769506,
          0.48630421691913894,
          0.7170513192340624,
          -0.733224591855822,
          -0.02667913660447785,
          0.5932832484941564,
          -0.10255099979163274,
          0.8436214171666809,
          -0.11791880748570915,
          0.4652104123269323,
          -0.8400874068473754,
          0.9285847493416084,
          -0.5315207250832277,
          0.6109988550655965,
          -0.5811888695089846,
          -0.09123870455153993,
          -0.638384309575271,
          -0.29322196293311764,
          0.15389199776986895,
          0.9318469749296308,
          0.06039370698666535,
          0.9172609642621115,
          0.7285623042842135,
          -0.998740423790784,
          -0.6909285519609503,
          -0.38190870481505446,
          -0.6801408433268354,
          -0.778582725421272,
          0.6386107965960164,
          -0.03472374447970683,
          -0.6675163086744784,
          0.07384880394590132,
          -0.9239191516871876,
          0.33007726587750263,
          0.25716553227251615,
          0.8333283708688035,
          0.01851453496638844,
          0.002495320850439464,
          -0.6659859331510167,
          0.27424181103847456,
          0.5742586992921972,
          -0.2362462100932723,
          0.094404356672255,
          0.6709079914143885,
          -0.7060029259506888,
          0.9379472644344076,
          -0.11966521807979547,
          0.7615933963613326,
          0.14526757756749542,
          -0.6447092754822465,
          0.7780862255204166,
          -0.17552485267508788,
          -0.17156507094190654,
          0.2941683456917821,
          -0.9465990079124453,
          0.30482195551422375,
          0.08872065414507002,
          -0.08355250182360074,
          -0.8617081695026161,
          0.5361783746988653,
          0.5480336042772196,
          -0.029711236851011957,
          -0.5050183033800313,
          0.014354580724631472,
          0.7619836031966001,
          -0.393051079579827,
          -0.7296351963279175,
          -0.5884624166171728,
          0.7016026933682642,
          -0.9571615347542575,
          0.5547712374593798,
          0.05885692075001758,
          0.6659384532925305,
          0.4953620738331854,
          -0.7282927628279241,
          0.9792529826185687,
          0.7508241386906145,
          0.3308353552565777,
          0.25063422901297105,
          -0.2814886960692422,
          0.4307721289679549,
          0.68503655636207,
          0.8727401212389494,
          0.20084289172197778,
          0.555076371408181,
          0.9517185198976874,
          0.8300471490585657,
          0.6264049958674409
        ],
        "playerName": "RFFSimulation",
        "converter": {}
      },
      "fitness": 0.06666666666666667,
      "behaviours": [
        5.166666666666667,
        0.13333333333333333,
        22.633333333333333,
        4.166666666666667
      ]
    }
  ],
  [
    {
      "value": [
        7,
        1,
        11,
        8
      ]
    },
    {
      "x": {
        "agentConfig": [
          0,
          0,
          1,
          0,
          0,
          2,
          2,
          3,
          3,
          1
        ],
        "weights": [
          0.2883543971120257,
          0.5286809276709297,
          -0.18854187953418955,
          0.1520017423858755,
          -0.46445228673399686,
          -0.617775848204617,
          -0.8611986044814632,
          0.012619088675788204,
          -0.46160959024368253,
          0.7743105056588131,
          0.6349402840326197,
          -0.7727514802692015,
          -0.4978247873028001,
          -0.4968512681260977,
          -0.9964051155610187,
          0.5259566643209597,
          0.9517972457580695,
          -0.1777480405498888,
          -0.6065534606057563,
          0.6132669174761682,
          -0.664471676985765,
          -0.6258693069135775,
          -0.4356743585548635,
          0.933071843168173,
          -0.6083662252508932,
          -0.9016095392544832,
          -0.15650652280388178,
          -0.9649433315296561,
          -0.4581921750317499,
          -0.38692405696718923,
          0.2815034516274775,
          0.8197942966055105,
          -0.05545329889542239,
          -0.6721341885118883,
          -0.8074828844192614,
          0.3556882838737472,
          -0.4767837688911809,
          0.11999130746201847,
          0.3518407699499606,
          -0.8105442552240263,
          -0.7222860936943336,
          0.7885150864809216,
          -0.47616006613880124,
          -0.8871426802727347,
          0.49526469350817215,
          0.6998729325189819,
          0.7062785714487534,
          -0.7981020214725028,
          -0.9049695176724846,
          0.047347675241820486,
          0.5025213086292131,
          -0.38926336387786664,
          -0.7271456724566474,
          0.9694083553791872,
          -0.6290727148739919,
          -0.9189401614277177,
          0.8566007738699943,
          -0.5933849453571942,
          -0.8488455068360297,
          0.4186887886658779,
          -0.6608056207904414,
          -0.9759453916544558,
          -0.7700147591254252,
          0.2927058913217664,
          -0.574401347986397,
          -0.21396230906409586,
          0.9846722453774575,
          0.6284016232614744,
          0.11161990930708421,
          0.8420546991304678,
          -0.27030272516360254,
          0.59385919068626,
          -0.1934418698759106,
          0.26775168583479925,
          -0.7067762167733889,
          0.721008841365268,
          -0.1816286227283661,
          0.9019549963105817,
          0.5624156394084241,
          0.05550064178814784,
          -0.3608427252550337,
          0.0305376099579171,
          -0.13781442484071538,
          -0.6042412293464172,
          -0.09960145532932119,
          0.9901862948106206,
          -0.13017379397452,
          0.660097430383489,
          0.6115580736444735,
          0.8998943320171591,
          0.918368480611613,
          0.21179306356008754,
          -0.6477485761376609,
          0.6752705688633021,
          0.004402062230453252,
          0.5755231382490467,
          0.4573638875528212,
          -0.7594802940872658,
          0.591483345792416,
          0.39459875232893826,
          -0.08387944227098898,
          -0.5747833507622571,
          0.388147088829889,
          0.7069318146144814,
          -0.2997417942612912,
          0.4177611476356937
        ],
        "playerName": "RFFSimulation",
        "converter": {}
      },
      "fitness": 0.03333333333333333,
      "behaviours": [
        4.333333333333333,
        0.03333333333333333,
        21.2,
        3.8666666666666667
      ]
    }
  ],
  [
    {
      "value": [
        31,
        28,
        17,
        3
      ]
    },
    {
      "x": {
        "agentConfig": [
          0,
          3,
          0,
          1,
          1,
          0,
          3,
          0,
          3,
          0
        ],
        "weights": [
          -0.8841483965453003,
          -0.5183291735222579,
          -0.9989087209835119,
          -0.9683268247398797,
          0.5148763165458132,
          -0.40531177542973973,
          0.22179839797557088,
          -0.4504086948881787,
          -0.2622515150663616,
          -0.4209330358964234,
          0.8180735328813593,
          0.6349406920154692,
          -0.161997702309012,
          -0.2619839352302271,
          0.16700986285969588,
          -0.4386136826840661,
          -0.5595241338881562,
          0.7396365253090278,
          0.2665150995185206,
          -0.6498264878952222,
          0.5923600490218996,
          0.5368869421066005,
          0.3185423152745055,
          0.9564630920601436,
          0.22199899287989822,
          -0.053780449630467686,
          0.669005410487056,
          -0.9821898425688262,
          0.7096541988052716,
          -0.3916638200383895,
          0.09784680002951673,
          -0.23969370348026087,
          0.6310834610224851,
          -0.4982200454653143,
          0.41561822136821336,
          0.7614203963195385,
          -0.3960716887864737,
          0.439843402518616,
          0.598325014290154,
          0.18459007876631905,
          -0.6514576671751919,
          -0.9464607730049237,
          -0.7198253451016163,
          -0.17086980975954535,
          0.5690351502500555,
          -0.3518532544829085,
          -0.6757387036547324,
          -0.11995920114208825,
          0.06694562922821778,
          0.01811093723287449,
          -0.5958908114317989,
          -0.4041866616260572,
          0.6191005059519714,
          -0.18516149907361146,
          -0.9456124604936844,
          -0.6616521175499268,
          -0.41714639572124246,
          -0.6158010273756402,
          -0.5129997960896118,
          -0.6723880440177219,
          0.9360422615602408,
          0.1253064046347856,
          0.6191452746904862,
          -0.7053151527844206,
          -0.4843622209373517,
          0.36942163395045013,
          -0.7771715493157694,
          0.8103488836860704,
          -0.41179188366761377,
          -0.4624187925813923,
          -0.11929371813466005,
          0.48240342407825154,
          0.5669505309248126,
          -0.09217577043864189,
          -0.478974614093991,
          -0.5566061493114871,
          0.6841935383795303,
          -0.2923452170117582,
          -0.29518597814486314,
          0.5914627788450428,
          0.7349073194725904,
          -0.5553574220265018,
          0.5513739213694151,
          -0.09945334704524234,
          0.6259031684878735,
          -0.6021700054784378,
          0.21350958816873322,
          -0.21784316925226332,
          -0.6029573121125467,
          0.014880193755221649,
          0.15182456778539533,
          0.9594990352808708,
          0.6249176814400521,
          0.5946653962898634,
          -0.8921966472378784,
          0.6057016883795432,
          -0.3238963110868085,
          -0.9177388358518488,
          -0.3617111911691264,
          0.6014383743465519,
          -0.8537710765348847,
          -0.9369228012191326,
          0.34935593088969963,
          0.6832460356251682,
          0.0027425445956377192,
          -0.8848783448065367
        ],
        "playerName": "RFFSimulation",
        "converter": {}
      },
      "fitness": 0.8333333333333334,
      "behaviours": [
        20.533333333333335,
        1.8,
        33.43333333333333,
        1.3333333333333333
      ]
    }
  ],
  [
    {
      "value": [
        23,
        16,
        17,
        12
      ]
    },
    {
      "x": {
        "agentConfig": [
          0,
          4,
          3,
          1,
          2,
          1,
          0,
          2,
          2,
          0
        ],
        "weights": [
          -0.314185477410166,
          0.7595873757560154,
          0.5391660837889825,
          -0.5818882478698655,
          0.2379301163284837,
          -0.9575095101874818,
          0.5766310429293728,
          0.5709491122949759,
          -0.6103751835039712,
          0.4258750772518616,
          0.22061167149744176,
          -0.33118663865500864,
          0.13184468125799098,
          0.8803451795643518,
          -0.7353579535875043,
          0.70278733505164,
          -0.24599956694012426,
          0.49980048665004095,
          -0.8563372440036543,
          -0.8356956827925495,
          0.9755586190617263,
          -0.9331723296994372,
          -0.42300027839719156,
          -0.540906819131308,
          0.9845179596149296,
          -0.5329912560175265,
          0.5751679256521742,
          0.914333338330428,
          -0.618877216591389,
          -0.4396382188347365,
          0.7043601760748657,
          0.5155561293488746,
          0.8943063968094769,
          -0.6221051203828893,
          0.7778705150410123,
          0.42584299247814816,
          0.9199976930085016,
          0.5835201951822921,
          0.7315945177027077,
          -0.9316124422382375,
          -0.5754353983040599,
          -0.9736604237694599,
          0.3411372229342198,
          0.09450470670474131,
          -0.4366903679687919,
          0.9055809219510067,
          -0.34904845867369083,
          -0.08731607760811344,
          -0.5169282824595913,
          0.5802269961387903,
          0.511320391160599,
          -0.37969869044469107,
          -0.7903688506460209,
          -0.6223525326203676,
          0.45688532542140825,
          -0.8418805054603908,
          -0.7352467176788355,
          -0.10969239842018297,
          0.31081675738586223,
          0.2987201092913849,
          -0.28565149668000656,
          -0.8031053118993894,
          -0.638389682879767,
          0.683530317757461,
          -0.2816342250597088,
          -0.7960320208802698,
          0.7348846082311042,
          -0.46088140431869196,
          0.3346785465363402,
          0.8765033289419455,
          0.6704467596021124,
          0.9319525802736757,
          -0.6766385880512751,
          -0.48952947872956387,
          0.8152826375094036,
          0.4618258736255625,
          0.0043974632835790395,
          0.3978453552094474,
          0.3560183696492376,
          0.14767735230769263,
          0.8409964157448326,
          0.2442253192174637,
          0.8397923614964546,
          -0.07445848617375139,
          0.3523440477804567,
          -0.4785169665496163,
          0.8703651044853968,
          0.6568844798980116,
          -0.7962550902264189,
          0.572656687611973,
          0.5166869936829972,
          0.8365951820904807,
          -0.12124028764154327,
          -0.2664563808663025,
          0.23403356644288253,
          -0.7065817743028973,
          0.20708075271555249,
          0.9952269882501015,
          0.37320876503539835,
          -0.9083713122266088,
          0.20352798829556096,
          -0.195966992751343,
          0.9412073630347528,
          -0.4287332221984992,
          0.16769034636137925,
          0.4801803077040945
        ],
        "playerName": "RFFSimulation",
        "converter": {}
      },
      "fitness": 0.2,
      "behaviours": [
        15.033333333333333,
        1.0,
        33.36666666666667,
        5.833333333333333
      ]
    }
  ],
  [
    {
      "value": [
        30,
        23,
        18,
        10
      ]
    },
    {
      "x": {
        "agentConfig": [
          1,
          0,
          3,
          0,
          2,
          2,
          2,
          1,
          0,
          0
        ],
        "weights": [
          0.027355716537126096,
          -0.6322261691257365,
          0.07639410060791985,
          0.021164866356565115,
          -0.5298575965912726,
          -0.05841908458605727,
          -0.1818441894070557,
          -0.24962659510985064,
          0.014401026025533836,
          0.008078691146225836,
          0.3838510890166924,
          0.16623344239662474,
          0.3925886267984795,
          -0.2920960214514703,
          0.2161479028394122,
          -0.06839562476410532,
          0.8780387314303144,
          0.7070980057724154,
          -0.6061170431462182,
          -0.3732939012991525,
          -0.11950227806898828,
          -0.8230411645092726,
          -0.18603217890645252,
          0.4037273339888072,
          -0.6470955555431188,
          0.7366415148567498,
          0.09557943977448202,
          -0.4708609225744338,
          -0.06840676499759746,
          0.968673932153699,
          0.3055726412897364,
          -0.5165483383664453,
          0.6637403893904241,
          0.9398233838632011,
          -0.05805621468069955,
          -0.2333302903941128,
          -0.5799831757215583,
          0.794512293233762,
          -0.7374354981501285,
          -0.1512846992813166,
          0.6470477330386009,
          -0.06475033896968374,
          -0.990704600744736,
          -0.19239541832161233,
          0.9834226432944964,
          -0.43569186574951324,
          0.8529803928610438,
          0.11417958707243914,
          0.4446388916211792,
          0.43314413891062165,
          0.4727126931917429,
          -0.249288333103459,
          -0.6234974736225574,
          -0.4691772908596108,
          -0.9168462374042698,
          0.3917093774602525,
          -0.8168487562979123,
          0.1399751490223271,
          -0.5634213626875015,
          -0.2712210028075779,
          -0.044995666817599034,
          0.1985827605819528,
          0.8517094058601935,
          -0.8125990066419235,
          0.5535855930585383,
          0.22814597506293932,
          0.6592912612953381,
          0.2620025478957746,
          0.4543058759922409,
          0.22356336815720312,
          0.604755073060661,
          -0.5132794920336519,
          -0.2950685784697116,
          0.8473110709454894,
          0.2112014433483138,
          0.6627656873465728,
          -0.2733928409983768,
          0.030278278405506454,
          0.8813315475950589,
          0.37931500044689126,
          -0.6340585140178343,
          -0.34611915638720947,
          0.6048411692069982,
          -0.9066273001006036,
          -0.3991968403815531,
          0.3728397651945592,
          -0.46181577187147904,
          -0.9249409786145313,
          0.609118440172848,
          -0.1647224703828607,
          -0.5634960695304776,
          0.37829877905922205,
          0.5290997766963441,
          0.5665509107491404,
          0.9429183954941198,
          0.66289890836346,
          0.17097590155257736,
          0.6055041952639759,
          0.07824057822436403,
          0.1725194909852763,
          0.18443554826011788,
          0.6165924302684018,
          0.9246007686433662,
          -0.5359422232133375,
          0.7426363010560904,
          -0.35140982093153683
        ],
        "playerName": "RFFSimulation",
        "converter": {}
      },
      "fitness": 0.6,
      "behaviours": [
        19.333333333333332,
        1.5,
        34.56666666666667,
        4.5
      ]
    }
  ],
  [
    {
      "value": [
        6,
        1,
        38,
        14
      ]
    },
    {
      "x": {
        "agentConfig": [
          0,
          1,
          1,
          0,
          2,
          1,
          0,
          2,
          2,
          0
        ],
        "weights": [
          0.36020386700176443,
          -0.7625095144250471,
          0.4994686602379079,
          0.025059964972173,
          0.9871445067233295,
          -0.4959110469269359,
          -0.7820202647151755,
          0.731137960705069,
          0.4461024939623359,
          0.07051927294858928,
          -0.20890190705027956,
          0.9173644348387553,
          0.5835178770598857,
          -0.5563993488111483,
          0.7012081483095838,
          0.3175763640049938,
          0.6169176453517489,
          0.4167162512634235,
          -0.1923295108871923,
          -0.915270358955554,
          0.3365276688197514,
          0.24030543918098135,
          -0.4170155198571661,
          0.03891781481880541,
          -0.04898692024133888,
          -0.6043938159460127,
          0.011542714399628062,
          -0.277103839652439,
          -0.06687823645559998,
          0.10916021917640317,
          0.621008985338168,
          -0.10030770671624878,
          -0.9723550171443458,
          -0.5571410149674973,
          0.32924248479038165,
          -0.5195976636432098,
          0.7032503507413588,
          -0.6959269297073096,
          -0.6849189911587721,
          0.036286347964537446,
          -0.23861666361917333,
          -0.9573247032155052,
          0.9591866583539697,
          0.02779200027690698,
          -0.44042701844602705,
          -0.5634686776480802,
          0.05154849441626719,
          -0.3258482069457014,
          0.3631198470628503,
          -0.1857018714619174,
          -0.07487298275750942,
          -0.009285437858004064,
          0.7082831977395512,
          0.8241372465285512,
          -0.04948428353957146,
          -0.0628128646887498,
          0.3417255856690615,
          -0.07078707446782762,
          -0.08561390410495262,
          0.8484787293369804,
          -0.7048854544881547,
          -0.9043865588414086,
          -0.7951272215965584,
          -0.6391455186267851,
          0.9604201527022318,
          0.3355984499593534,
          0.43994573810650417,
          0.8996229047981477,
          -0.349410950559256,
          0.7788399685855913,
          -0.7997914194029718,
          -0.5394058827013364,
          -0.9380842853593143,
          0.766591784781876,
          -0.13454973159529215,
          -0.10393515210319948,
          -0.7014280291337058,
          0.09848691569501455,
          0.204670428362685,
          0.20709952587762226,
          0.6763975931369615,
          -0.9910716944230866,
          0.3321876607463907,
          -0.5526072287717765,
          0.3921940601303777,
          -0.2901963557490219,
          0.9178318191893626,
          -0.23998453430523892,
          -0.6735954724477342,
          -0.5914788612964625,
          -0.8728895143328572,
          0.7968605606182195,
          0.7412051717866446,
          0.5951280907625187,
          0.6676324291158979,
          -0.6883788526688841,
          0.442670635968621,
          -0.9104592427674814,
          0.530959497355028,
          0.07064966409843465,
          -0.9051793839951996,
          0.8496780227433223,
          -0.4555491312857598,
          0.3920611157856,
          -0.1950081476707486,
          0.8635587411930601
        ],
        "playerName": "RFFSimulation",
        "converter": {}
      },
      "fitness": 0.03333333333333333,
      "behaviours": [
        3.966666666666667,
        0.0,
        75.16666666666667,
        6.533333333333333
      ]
    }
  ],
  [
    {
      "value": [
        31,
        19,
        23,
        2
      ]
    },
    {
      "x": {
        "agentConfig": [
          1,
          4,
          2,
          1,
          1,
          0,
          0,
          2,
          1,
          0
        ],
        "weights": [
          -0.8228819458518473,
          0.005263798049375046,
          -0.19962385950242556,
          -0.5663501980742576,
          0.7199400752857725,
          -0.29469141039918356,
          -0.7878216135658549,
          0.8655679553738005,
          0.6703757917740094,
          -0.42568243717461396,
          -0.8688993396014051,
          -0.03433676441255895,
          -0.3134468630019438,
          -0.9181123133850446,
          -0.6396706026597672,
          0.7511193354007806,
          -0.5959776001926325,
          0.43012815425820716,
          -0.40611950493464377,
          -0.3605829655173127,
          0.9332614417175098,
          0.28078041156496014,
          -0.9330126669644527,
          -0.39248072025490366,
          -0.03668427241555361,
          0.8305536362417609,
          -0.8002612513030956,
          -0.63797830746286,
          0.08808881616432362,
          0.2501168612338516,
          0.3866159210748219,
          -0.6703442018016175,
          0.37218982996555927,
          -0.4567940623305118,
          0.39121717644033227,
          -0.5252024367025774,
          -0.11386392741451945,
          0.7358180707525739,
          -0.5753978636609312,
          0.9603996455576529,
          0.9660977504175741,
          -0.02851733164472825,
          -0.08267562937319561,
          0.4910317832444786,
          0.2912642407285313,
          0.5671131078382532,
          -0.7606345929969309,
          0.8114786633556432,
          0.5223007347071735,
          -0.6250406058553539,
          -0.8211786515990087,
          -0.718389174693441,
          -0.7927448296460391,
          0.8996972071256781,
          0.8593348647321619,
          0.7080095331685228,
          -0.06333395995479885,
          -0.4642952432199714,
          -0.04209365018102362,
          0.6850918597597717,
          -0.682487850311122,
          -0.9819057124446531,
          0.5788573161760346,
          -0.4167509802717362,
          0.23603601861244594,
          -0.2779192280703524,
          0.9463615570099517,
          -0.9812252935544554,
          -0.9076367477200065,
          0.7987859813367906,
          0.1970983520568974,
          0.150127713389534,
          0.21523116184779068,
          -0.6984086385038379,
          0.9862242438313475,
          0.4673376299987362,
          0.5030296255149505,
          0.43566981709593944,
          -0.6360007439814126,
          0.8761281564633026,
          -0.5122507073092393,
          -0.14565930634457924,
          -0.5629550376954209,
          -0.17440119328076364,
          0.4813212097525472,
          0.5294089092426615,
          -0.30264809398343373,
          -0.011929502922522373,
          -0.7607763631371196,
          -0.8613352109272872,
          0.5837948133250606,
          -0.42803332992269993,
          -0.3358774069307624,
          0.14223587067304577,
          0.8350543453165171,
          0.7333676593848946,
          -0.5272979949166436,
          -0.23950145210775609,
          -0.5005149811187222,
          -0.250859438845892,
          0.4617315948705809,
          0.9197730773251382,
          -0.9133903221824979,
          -0.3756869603314805,
          0.034810040820916655,
          -0.10196002788403002
        ],
        "playerName": "RFFSimulation",
        "converter": {}
      },
      "fitness": 0.5333333333333333,
      "behaviours": [
        20.2,
        1.2333333333333334,
        44.9,
        0.7666666666666667
      ]
    }
  ],
  [
    {
      "value": [
        18,
        1,
        36,
        11
      ]
    },
    {
      "x": {
        "agentConfig": [
          0,
          2,
          3,
          0,
          2,
          1,
          3,
          3,
          4,
          0
        ],
        "weights": [
          -0.11988200083948652,
          -0.8302628961064675,
          0.17158364858113817,
          0.7961359224141231,
          0.9226927193974186,
          -0.43381566566863783,
          0.08112244232472765,
          0.5571918934008773,
          0.30714198157574746,
          0.2848571224699381,
          -0.09270450301060706,
          -0.37918741008328416,
          0.5880802003028318,
          -0.5660892455312561,
          0.916160564895439,
          0.5892630935000596,
          -0.8710371752938084,
          0.14709147252104793,
          -0.6180255144560531,
          0.8179657300384655,
          0.2033769505682248,
          0.3992534798987508,
          -0.18434420198070023,
          0.1431085699258383,
          -0.05330088243938724,
          -0.9511547797129543,
          -0.9349931765610553,
          -0.15190603659745539,
          0.816627798815557,
          -0.9680145221532681,
          -0.5967891882906096,
          -0.6157306754769118,
          -0.7847604599809601,
          0.017517495097716385,
          -0.8774881582635996,
          0.40239699593106604,
          0.23185890277095922,
          0.02969313515642824,
          -0.1371257499769487,
          -0.4951627534598628,
          -0.9148285952204083,
          0.5549061862329232,
          0.9308094460619758,
          -0.20556756593248537,
          -0.22534863120141524,
          0.4711581697289655,
          0.20144923614600452,
          0.7745970050028561,
          -0.30448505355349176,
          0.7737073100314888,
          0.8473343724405855,
          0.4461333125092055,
          0.5280514830663297,
          0.5176150678533509,
          -0.8997212437232556,
          0.5498091450947449,
          0.581325252516127,
          0.6576717438739641,
          0.5280589938796083,
          -0.18025223366081278,
          -0.04711926567469016,
          0.5384475822442711,
          0.8955714617836061,
          0.8411976719017129,
          -0.63977420517163,
          -0.3280185053264615,
          0.5804874758393377,
          -0.3527352693119692,
          0.30650729581713154,
          -0.8621144021206144,
          0.726329946441381,
          -0.45729583936670326,
          0.36193401082785104,
          0.45040833261102,
          0.8412836987507062,
          -0.19111282567926757,
          0.7741425784245253,
          -0.9407340250422784,
          -0.6110561389718441,
          -0.07742932169878536,
          0.3648435339520977,
          0.7858169726493054,
          -0.9324044479951765,
          0.7121157220990448,
          -0.2732761777752004,
          0.44341910820503805,
          0.9375109502693644,
          -0.5216851774343003,
          -0.896276134782297,
          0.6505758878830088,
          0.3311379430685524,
          0.5230050816853005,
          0.019447038916260873,
          -0.5822561269253932,
          0.5689477038574746,
          -0.2428417164379959,
          0.7126012061533982,
          -0.5265627034912681,
          -0.09590297815746185,
          0.10115599532758934,
          0.7450110487596371,
          0.49253393486566366,
          0.8319529598540438,
          -0.7565275122627466,
          0.7668820647147188,
          -0.6005502209993199
        ],
        "playerName": "RFFSimulation",
        "converter": {}
      },
      "fitness": 0.5666666666666667,
      "behaviours": [
        11.333333333333334,
        0.03333333333333333,
        70.56666666666666,
        5.066666666666666
      ]
    }
  ],
  [
    {
      "value": [
        34,
        30,
        13,
        8
      ]
    },
    {
      "x": {
        "agentConfig": [
          1,
          1,
          0,
          1,
          2,
          0,
          2,
          0,
          3,
          1
        ],
        "weights": [
          0.22294635999243595,
          -0.3536713521959114,
          0.16890650588460088,
          0.4110064320865978,
          -0.10541334721725826,
          0.055431145938673154,
          0.3298664609411375,
          -0.43779523183618996,
          -0.9869957454544929,
          0.9991985751417698,
          0.4392917110633505,
          -0.6642498350944568,
          0.7225158437589676,
          -0.6704595205892998,
          0.5556249678436489,
          0.22778220241987146,
          -0.7505496971308321,
          0.9258044131156511,
          0.668475339527659,
          -0.8054617411699645,
          0.7271031995698376,
          -0.9269319261524995,
          -0.27845551681206526,
          -0.373181183450243,
          0.02047145451266541,
          -0.2433713506060977,
          0.7973520362055415,
          0.5173942842414128,
          0.7405276682413868,
          0.073295477749453,
          -0.38847484748827776,
          -0.38195456152867346,
          -0.36806832267010114,
          0.36592145836581413,
          0.8648096748784295,
          -0.5760550918339302,
          -0.17528017910218452,
          0.8427450369811464,
          0.7138496050357053,
          -0.32339713032228046,
          0.05965198784244752,
          0.5055425029182903,
          -0.35282623574405814,
          -0.25738415645034163,
          0.9285366565660418,
          -0.009274244838225254,
          0.3907173415713614,
          0.7039726494959093,
          0.41499623340041536,
          -0.4166485925440915,
          0.11759817010878182,
          0.28668812081715367,
          -0.4222262018708822,
          -0.8947450099225407,
          -0.8002427871202926,
          -0.1419505324078818,
          -0.9121751214743008,
          -0.8609601350836547,
          0.014464318300040357,
          -0.3612227241012198,
          0.5120767096896346,
          0.12191886528019302,
          0.9065794417908346,
          0.00491758421080335,
          0.7308795917146804,
          0.7281698446953941,
          0.3078521536917096,
          -0.7047022714731714,
          -0.31718578781744045,
          -0.3437666105809787,
          0.22743070620489214,
          -0.10610595768298725,
          0.7496609297884291,
          -0.5537538344455355,
          0.8531445876330168,
          0.5224752579077445,
          -0.4740239979955556,
          -0.7239310014446068,
          0.8410136617785531,
          -0.34259913278395615,
          0.4618617223523227,
          -0.18136601395736696,
          -0.9791718423355875,
          0.7754696260570995,
          -0.07584265480968422,
          -0.8092983982069448,
          0.7085346151327245,
          0.7372287546981453,
          0.5904184981566531,
          0.7828832534076293,
          -0.40844716086211497,
          0.03217012179137346,
          -0.22830676694952534,
          -0.6669487191475016,
          0.24104068168205517,
          -0.16124482656090922,
          -0.7457560715508444,
          0.990023113095043,
          0.7055126148003428,
          -0.1067734922021617,
          0.5570042628276815,
          0.311672841507425,
          -0.6468900249907705,
          -0.985321258045567,
          -0.8792981606505106,
          0.1513885433275537
        ],
        "playerName": "RFFSimulation",
        "converter": {}
      },
      "fitness": 0.9666666666666667,
      "behaviours": [
        22.533333333333335,
        1.9333333333333333,
        25.433333333333334,
        3.8
      ]
    }
  ],
  [
    {
      "value": [
        11,
        1,
        41,
        7
      ]
    },
    {
      "x": {
        "agentConfig": [
          1,
          1,
          3,
          1,
          1,
          0,
          1,
          0,
          0,
          0
        ],
        "weights": [
          0.6426958442395232,
          0.8918618120846509,
          0.42773731797519243,
          0.09774724875002327,
          0.40093206302884044,
          -0.8766181044845041,
          0.625063319196635,
          -0.5693312102780239,
          0.5322869580139284,
          -0.22843034809546903,
          0.6817536880826911,
          -0.5966886465808381,
          0.281298514592222,
          -0.018858924798547116,
          -0.6864635630308957,
          0.6300134767780217,
          0.45287021973610386,
          -0.764306679796122,
          0.6631418406323291,
          -0.9117963623909628,
          0.7325789800309181,
          -0.14639629337425974,
          0.7461948204885043,
          0.2972644506973017,
          -0.7649644921712693,
          -0.7571198770374372,
          -0.4979784566720664,
          0.5924383608024026,
          0.33724224876244535,
          -0.32447877893562826,
          0.3393229012506045,
          0.22015381572896264,
          0.5980359661341106,
          -0.5232878885681032,
          0.21705986905050567,
          0.7721672163813276,
          -0.3786584370090742,
          -0.5285549646390582,
          0.7637851153801696,
          0.07943121975866219,
          -0.909894859014446,
          0.2909213490913265,
          0.7140464727858169,
          -0.8973845331123591,
          0.8794141795121853,
          -0.2866435420917057,
          0.028378743765909098,
          -0.41527782361990395,
          0.1514545559880487,
          0.5985747238234793,
          0.46378994130210316,
          0.2722533352125083,
          -0.35840711808069825,
          -0.8269527139357196,
          0.07453977070169748,
          -0.6350965915590894,
          0.9640151242822244,
          0.4317912254504559,
          0.14839831919130453,
          -0.48023438157583587,
          -0.303007868547821,
          0.24581416788141142,
          0.4214632888497105,
          -0.7854430682002247,
          -0.7480166084718889,
          0.39855390096911325,
          0.06500546202407165,
          0.5653811274865794,
          0.08743092633653493,
          -0.7779713240074742,
          -0.09929828567359289,
          0.7980659465864783,
          -0.30276340947200686,
          0.7631787966806192,
          -0.4239934264482703,
          0.4881255305256953,
          0.9855551323616834,
          -0.516853848368882,
          0.019303040081577905,
          0.4129148358471071,
          0.13367802226549408,
          -0.6229959318724974,
          0.394864711815871,
          0.40055906878554914,
          -0.12857833253312023,
          0.09871519212264235,
          -0.00944851759944565,
          -0.08624439129072115,
          0.18457574590240133,
          0.18586083687658328,
          0.9965513975813485,
          -0.7274373813771986,
          -0.0783927416178698,
          0.800950884528921,
          -0.028626670154909384,
          0.39880366909476983,
          -0.49304317733274217,
          0.5408890793691299,
          -0.058316785738528054,
          0.7557334345715325,
          -0.9750960118195391,
          0.8134338822993907,
          -0.4545297548451199,
          -0.23987506580987872,
          -0.6928802167471524,
          0.03926079742888744
        ],
        "playerName": "RFFSimulation",
        "converter": {}
      },
      "fitness": 0.13333333333333333,
      "behaviours": [
        7.166666666666667,
        0.0,
        80.7,
        3.066666666666667
      ]
    }
  ],
  [
    {
      "value": [
        5,
        1,
        10,
        5
      ]
    },
    {
      "x": {
        "agentConfig": [
          1,
          0,
          0,
          1,
          0,
          0,
          1,
          1,
          2,
          2
        ],
        "weights": [
          0.5554725889276717,
          0.9823554924360054,
          0.44340585387321263,
          0.5631609033716514,
          -0.009770256734539462,
          0.9948669500056442,
          0.289171101357635,
          0.37580251674588894,
          0.4078123589886853,
          -0.6223811206427228,
          -0.15074676966478195,
          0.45629528827580423,
          0.439775203019549,
          -0.8698865355041474,
          0.6278398580597886,
          0.9001050459762714,
          -0.0904237489717521,
          -0.2986215579940066,
          0.9860264748342153,
          0.927090987904879,
          0.9577124927469896,
          -0.6483395404558461,
          0.9292037262993558,
          -0.8566269507022981,
          0.7931926023563272,
          -0.2976398498670212,
          0.5592642872200402,
          0.5477462430603293,
          0.6624724077910655,
          -0.17636449072355687,
          0.4126376433245258,
          -0.7302367823874079,
          -0.2851312868221352,
          -0.5623845124767684,
          0.8993021304694204,
          -0.5886272951540774,
          0.8438586764707923,
          -0.14381892510105043,
          0.36456334745025054,
          -0.43873359652726274,
          0.2965619838111051,
          -0.8742127589414859,
          0.9145289443444511,
          -0.4391470690563364,
          -0.13090639083160793,
          0.5178144457646805,
          0.07785140492835785,
          0.9230426346135956,
          -0.15663381876423288,
          0.9814541212607149,
          0.6204492429764703,
          0.9397932469047674,
          0.4713105449686612,
          0.46714804463524695,
          0.3865594852337244,
          0.9616317819025855,
          -0.22462473569302954,
          0.13211743061945724,
          0.9086135938180029,
          -0.4078667614303182,
          -0.29044533535593,
          -0.64446724907729,
          -0.2899295478214041,
          -0.3873969411106697,
          -0.6869128551832577,
          0.21939157294653988,
          0.7194799166118986,
          -0.6630245858417505,
          0.3893553555554272,
          -0.3478136034928099,
          0.02069214698534405,
          0.7942050772825613,
          0.45541012666339453,
          -0.21403878227067463,
          0.2832673630239566,
          0.6451967342776852,
          -0.7670677811974089,
          0.2433701624206832,
          0.6487817899798138,
          -0.9364201707433022,
          0.7893342065955098,
          0.049867583277917626,
          -0.40713333899920423,
          0.9444052056627481,
          -0.4119024087293295,
          -0.3428247156874349,
          0.3394570111460051,
          0.7521022762093379,
          -0.8296699765056947,
          -0.8323137198907815,
          -0.2271320754599564,
          -0.9211964203775052,
          0.964917508993429,
          -0.7345171901116079,
          0.4749566597216568,
          -0.4435914874586755,
          -0.18746192820521346,
          0.5881592826708275,
          -0.4912304999897845,
          -0.8494775281605176,
          0.18919411858978208,
          -0.6853415860938754,
          0.8767130901510942,
          -0.9383247579369396,
          0.8278098186200515,
          -0.40215648444863916
        ],
        "playerName": "RFFSimulation",
        "converter": {}
      },
      "fitness": 0.0,
      "behaviours": [
        3.2,
        0.0,
        19.066666666666666,
        2.3333333333333335
      ]
    }
  ],
  [
    {
      "value": [
        6,
        1,
        40,
        7
      ]
    },
    {
      "x": {
        "agentConfig": [
          0,
          2,
          3,
          0,
          0,
          0,
          1,
          2,
          1,
          1
        ],
        "weights": [
          -0.5406677433559213,
          0.5874815835619145,
          0.672771450713382,
          -0.029633173835858395,
          -0.22913009808304619,
          0.3311627072676018,
          -0.855171780964495,
          -0.5135254258101762,
          0.47630368779648746,
          0.876277709139488,
          0.5243112181775251,
          0.12006221836824871,
          0.060617804542877574,
          0.7448579828894699,
          -0.19865438009474534,
          0.24789111429587662,
          -0.9294610759151722,
          -0.7204117972571287,
          0.127715253910476,
          0.7819985324336405,
          0.621305438940531,
          -0.9405342364623717,
          -0.574968445466643,
          -0.185183984180868,
          0.5125621988184494,
          0.6339516642867455,
          -0.22863033651643505,
          -0.12068180183821586,
          0.3999744340344271,
          0.749257201260606,
          -0.6696513315546944,
          0.8230423039696579,
          -0.06795399377327072,
          0.8439271736709215,
          -0.04422608620137214,
          0.054584204393894886,
          0.5370174764410522,
          -0.9931036177756714,
          0.28659927858996204,
          0.49344242878581657,
          0.6326097417723557,
          -0.180289412350622,
          0.1411088711410673,
          0.9388479458209666,
          -0.5682295541106017,
          0.5456198757040915,
          -0.6741428071790321,
          -0.22951832959203666,
          0.23047036352440564,
          0.9817676430381705,
          0.5940482008103769,
          0.9037490965021202,
          0.08898766995391205,
          -0.0432863352695958,
          0.41967404974421396,
          0.7445452276409716,
          -0.8439914306398599,
          -0.06595411697779219,
          0.49787504543661476,
          0.5232103780800965,
          -0.46473602459198227,
          0.47385081997850476,
          -0.5613774830023417,
          -0.16535861531745,
          0.5573118762501321,
          -0.5926716751588503,
          -0.010032424528058081,
          0.4712896212961539,
          0.5944654328175942,
          -0.5041481445695537,
          0.3087390213059056,
          0.7080427113100587,
          -0.8552413522613806,
          0.07429128794577688,
          0.2907143305879103,
          -0.9172488009683442,
          0.8112311156768937,
          -0.2805694835480568,
          -0.22107181553693978,
          -0.5865710718008299,
          -0.9842962742832049,
          -0.6621713994494922,
          0.5879236160198733,
          -0.6970799211552074,
          -0.18839093289269537,
          -0.7665127184604117,
          0.7133919515106562,
          0.7040923942892829,
          0.9983296976997691,
          0.6942052742256675,
          0.8407876788741036,
          -0.7466195012760801,
          0.8898883334854535,
          0.42651346249107713,
          0.3231452127351442,
          -0.9722294815787151,
          0.5537254838850367,
          0.7726023727168632,
          0.16746576452622008,
          -0.8599184247471969,
          -0.8893104721358533,
          0.05866775212037911,
          0.25068151669934857,
          0.15966567963354716,
          -0.22474487218622818,
          -0.3473837608591184
        ],
        "playerName": "RFFSimulation",
        "converter": {}
      },
      "fitness": 0.0,
      "behaviours": [
        3.3333333333333335,
        0.0,
        79.43333333333334,
        3.0
      ]
    }
  ],
  [
    {
      "value": [
        35,
        26,
        18,
        12
      ]
    },
    {
      "x": {
        "agentConfig": [
          1,
          5,
          0,
          0,
          2,
          1,
          3,
          1,
          3,
          1
        ],
        "weights": [
          0.78183182410351,
          -0.7940626318797357,
          0.9475856072502247,
          -0.1134003645403987,
          -0.9973091160126102,
          0.6876834068390747,
          -0.9049287206900027,
          -0.4105759543273668,
          -0.3271123153774351,
          -0.03573036584278011,
          0.05571064682123028,
          0.46556344587580956,
          -0.16756313589106275,
          0.6277313862841536,
          -0.6435126476529631,
          0.1588111872493212,
          -0.7301886113650924,
          0.43879188722649776,
          0.4486244939333137,
          -0.6240583431095719,
          -0.0739835530317039,
          -0.9408925756655953,
          0.016219769531606643,
          -0.7258658640531588,
          0.2553229283437515,
          -0.7194074072177155,
          -0.9973214033363573,
          0.7806885739956375,
          -0.8584019935888254,
          -0.07843602798441807,
          -0.5555568223936826,
          0.7774656235390747,
          0.30706160022642015,
          -0.9620432837089832,
          0.5602418323425515,
          -0.2827477707293047,
          0.8006882556764463,
          -0.6111153012823447,
          0.6996713982970915,
          0.6865168121448078,
          0.11636372099201475,
          0.19932862968224851,
          0.42617044838280016,
          -0.8112141958692798,
          -0.23370272244644297,
          0.17875456252770205,
          0.6884519236155675,
          -0.004862011172436231,
          0.7230805597147623,
          0.4829792658143126,
          -0.6692921631445814,
          0.2930784515418452,
          0.04417476093482109,
          0.8476145958591768,
          -0.40251251724643455,
          -0.9376794639655555,
          0.2054987515661686,
          -0.5250600823056155,
          -0.47712189116971104,
          -0.8842311747241727,
          -0.8038196612402071,
          -0.5779348222507137,
          -0.7390669833798724,
          0.5662623268817832,
          0.26442573424058624,
          -0.783234883554536,
          -0.8415651806541808,
          0.6144029026930824,
          -0.645150262293414,
          -0.7816209019459732,
          0.4277192597427677,
          0.5000587613506395,
          -0.2594971549736471,
          -0.15531305994360256,
          0.6464285259037992,
          0.21989927451678226,
          -0.8717798140297082,
          -0.798312128011778,
          -0.00729773843996373,
          -0.814417230408323,
          0.6038082768904007,
          -0.11827647036583877,
          -0.8815458411752393,
          0.3819841586392376,
          0.47935859475770326,
          -0.26359674900994823,
          -0.12997475445527273,
          0.7821155662687755,
          0.4548126954412697,
          -0.7156956112880475,
          -0.31535765170406993,
          -0.21484162734995094,
          0.8019832633135,
          -0.9205633716018116,
          -0.5772456678892692,
          0.266290662577056,
          0.07574975984190346,
          -0.1550254878245938,
          0.6404558205575466,
          -0.5382404794949531,
          -0.8157424784002303,
          0.46777856904309245,
          -0.13714831473496636,
          -0.6400856645250179,
          -0.9285354865500628,
          0.05274020348254638
        ],
        "playerName": "RFFSimulation",
        "converter": {}
      },
      "fitness": 0.6333333333333333,
      "behaviours": [
        22.666666666666668,
        1.7,
        35.46666666666667,
        5.6
      ]
    }
  ],
  [
    {
      "value": [
        30,
        24,
        21,
        11
      ]
    },
    {
      "x": {
        "agentConfig": [
          1,
          4,
          3,
          1,
          1,
          2,
          0,
          1,
          3,
          0
        ],
        "weights": [
          0.7987687764980991,
          -0.7795365250712674,
          0.33830330053258084,
          0.9063670282002232,
          0.15122434688783382,
          0.9678784331839931,
          -0.5917542515597647,
          0.6409032035601991,
          0.4691224347338119,
          0.5278950541236542,
          -0.017998749962107485,
          -0.9172475008325793,
          0.1911616152622111,
          0.891685035934946,
          0.44133387002881164,
          0.2717795187884371,
          -0.708556241959978,
          -0.5728236292610074,
          0.5944554119407008,
          -0.30422986276289543,
          0.7633665342024853,
          0.3282021981902592,
          -0.46701501463087425,
          0.962874964578559,
          -0.44421891582669626,
          -0.6506960650921696,
          0.7569998484942104,
          -0.06289465582197984,
          0.544727268657804,
          0.3553019857266968,
          -0.34362670937775297,
          0.37869094093517996,
          0.9619503453693279,
          -0.8067360687604705,
          -0.8192641730465371,
          0.26587417756270515,
          0.8517932318746047,
          -0.8144851647803482,
          -0.41296281348728425,
          0.9219815710567534,
          -0.4090505105482356,
          0.1458505333318354,
          -0.4771741384030519,
          -0.1686226244783675,
          -0.7190481730083136,
          -0.7628700523459115,
          0.38500571760984603,
          0.6001725499822179,
          0.9111632116461075,
          -0.7830614130959501,
          -0.11203232342653724,
          -0.09767559924110802,
          0.5904264746582484,
          -0.34096922904212157,
          0.08163641532312749,
          -0.5509688114827538,
          0.8584201135099339,
          -0.4082270013137641,
          -0.32088791460531274,
          -0.9709103210857473,
          0.11315855345118186,
          -0.3391714018288019,
          0.4852280971226519,
          0.4901493842153939,
          -0.47103525933276047,
          0.4018366690105166,
          0.9614860485308752,
          0.16556372044650192,
          -0.5103646193209954,
          0.4998561824279848,
          0.5194702745974367,
          0.6988031063840006,
          0.5244074651245538,
          -0.9841393089525683,
          0.003984144970899051,
          0.47716110740780104,
          -0.9902724989013518,
          0.47658452917357796,
          -0.9912080072943272,
          -0.04124997741798753,
          -0.5122858576841658,
          -0.547461807302591,
          -0.8380096102436985,
          -0.938451533582368,
          -0.6474036468499544,
          -0.20997530761126604,
          0.32467278100988883,
          0.48052830223661847,
          -0.13070150624732024,
          -0.9834948582510361,
          -0.23430629214359433,
          0.30865478173510685,
          0.01373675742646463,
          0.604677839552265,
          0.8069776004779055,
          -0.34018122381117144,
          0.46227933914196084,
          -0.24085025636657198,
          -0.8220413165302556,
          -0.8734739776512026,
          0.20821507346811452,
          0.1805953376066931,
          0.37437934581108356,
          -0.14756688473414048,
          -0.2540344158560772,
          -0.1341859942924437
        ],
        "playerName": "RFFSimulation",
        "converter": {}
      },
      "fitness": 0.4,
      "behaviours": [
        19.466666666666665,
        1.5666666666666667,
        41.13333333333333,
        5.266666666666667
      ]
    }
  ],
  [
    {
      "value": [
        34,
        29,
        19,
        10
      ]
    },
    {
      "x": {
        "agentConfig": [
          1,
          5,
          2,
          0,
          1,
          2,
          3,
          0,
          1,
          1
        ],
        "weights": [
          0.9199557734315607,
          -0.8210590803240383,
          0.10417815015977894,
          0.860182063751376,
          -0.12558889034261833,
          0.928778657743851,
          -0.6047263783390633,
          0.27269275558401485,
          -0.6663352140399839,
          -0.8177270362048821,
          -0.1860266705569258,
          -0.23903687214685232,
          -0.42181227446261294,
          0.8337494003730408,
          0.555365779066419,
          -0.7641834032481647,
          -0.3728251941837426,
          0.06680468140988927,
          0.6553652721893986,
          -0.564086121634912,
          0.5572336606728796,
          0.5346670494597763,
          0.5267513566227309,
          -0.6515785837735344,
          0.4587322183319891,
          -0.0980137772290608,
          0.7040652276940544,
          -0.767527531113493,
          0.8347985852211917,
          -0.9464666073674382,
          -0.09588709978994703,
          -0.26452766980828835,
          0.4296051685777955,
          0.3475579259406627,
          -0.9032831667073233,
          0.3208144582299546,
          -0.03328743642667176,
          -0.8236869107217317,
          -0.8192527106894889,
          -0.23341025045112307,
          0.08488638925484526,
          0.7935286166248983,
          -0.9266440826724618,
          -0.15161208401607906,
          0.8779432069795698,
          -0.12162649828440397,
          0.5457249337984946,
          0.4853037299170819,
          0.8768206863227339,
          -0.37228214095129464,
          -0.023465214428500802,
          0.6067781777231918,
          0.05620891278335538,
          0.3032693758965417,
          -0.6552547434788885,
          -0.2110807195215696,
          -0.4952805497679229,
          0.10742347986956657,
          -0.7538255960778608,
          -0.6875365305852679,
          -0.23328988517748894,
          0.021434412610252362,
          -0.5062490456653828,
          -0.28944641327971543,
          0.5455239720345944,
          0.811777899943813,
          -0.050793592486929384,
          -0.8969747493780726,
          0.45204086443766145,
          0.7953429995094536,
          -0.36563655169373455,
          0.6549095368445688,
          0.7890815266635431,
          -0.8486441672639942,
          -0.11693211288102523,
          0.35037477917711457,
          -0.01865573892886685,
          -0.422296138188226,
          -0.67979752231659,
          -0.06065362721408474,
          -0.8078048467089443,
          0.911594574507089,
          0.7921109575071681,
          0.3925589571636927,
          0.9127729045067767,
          0.9692484400601533,
          -0.9768484520152683,
          0.49181109564934955,
          0.8655107523285308,
          -0.6934088710977371,
          0.735990043711076,
          -0.7142921897560675,
          -0.5666821867717888,
          -0.13732327862986327,
          0.24863241133284064,
          0.05719262370106426,
          0.0073034571567549555,
          -0.48016265362909416,
          -0.8509109760111271,
          -0.8785327040019164,
          0.14006812833532867,
          -0.5006773678063352,
          0.5489508109237651,
          -0.23633869545714425,
          -0.8017740684235728,
          -0.791543975361525
        ],
        "playerName": "RFFSimulation",
        "converter": {}
      },
      "fitness": 0.4,
      "behaviours": [
        22.133333333333333,
        1.8666666666666667,
        37.766666666666666,
        4.666666666666667
      ]
    }
  ],
  [
    {
      "value": [
        29,
        22,
        20,
        9
      ]
    },
    {
      "x": {
        "agentConfig": [
          1,
          5,
          3,
          0,
          1,
          1,
          1,
          2,
          4,
          1
        ],
        "weights": [
          -0.5194535340226827,
          0.043414726081110855,
          -0.36224246394708826,
          -0.48491795538694515,
          -0.07264116585677938,
          0.27192738898212543,
          0.8561025333837415,
          0.08513035017036441,
          -0.9286104111264011,
          -0.23236504264345959,
          0.22570630751121068,
          -0.13788867257937,
          -0.296674469204935,
          0.7026976034954944,
          0.4080025074723963,
          -0.5365917840679442,
          0.9552679599972171,
          -0.10316725736304466,
          -0.5746004865394228,
          0.7182508171803657,
          0.08862287097805854,
          -0.5814249127604629,
          -0.1058028145324974,
          0.26686674196415994,
          -0.892331645119844,
          -0.38193555137210944,
          0.2798677620638621,
          0.7587939611164152,
          -0.862418191474307,
          0.44469473286990513,
          -0.6941350425812416,
          0.20388252213968938,
          -0.28140059704589926,
          0.25647133314498527,
          -0.2337336980157163,
          0.5392784807687603,
          0.6933699990834938,
          -0.5060590457171803,
          0.4241946662198024,
          0.7979493492049536,
          -0.7975417944179963,
          -0.42992620672021653,
          0.4221056376975827,
          0.3990758937319343,
          -0.5466602706845676,
          -0.8815078324249441,
          -0.31333293395496864,
          0.02790040045042197,
          0.39112476747212366,
          0.3459570778761891,
          -0.8199003292475429,
          -0.667612298552605,
          0.1746343032600195,
          -0.3489615931350689,
          0.5314856137238071,
          0.23631963263484157,
          0.4493459630052803,
          0.8994110026182158,
          -0.4243050320810158,
          0.05321181139295206,
          -0.19088434582659697,
          0.7872339613491375,
          0.6342194228566631,
          -0.21729645575681333,
          0.5514726440029594,
          -0.4224136375081329,
          -0.008657142733331069,
          -0.019159078280746478,
          -0.14332389334102547,
          -0.83905191028859,
          -0.04927949732704029,
          -0.5820633836231737,
          -0.14138855344576284,
          -0.13076958399098904,
          -0.8984227174404338,
          0.37245558731054906,
          0.7259960888453265,
          -0.23612407822471448,
          -0.019622052478180496,
          0.8566430059668015,
          0.8352541136676155,
          -0.7779360279566865,
          0.1829611153879256,
          0.32937463409288936,
          0.3918107343132291,
          -0.4389276796051136,
          -0.8362285774867848,
          -0.47602364280404186,
          -0.5555529314425298,
          -0.8306374122234534,
          0.45296255902277416,
          0.9035253574449142,
          0.1377478142834001,
          0.15397112640036426,
          -0.17121322488618862,
          -0.04658938225478226,
          0.26056326556966414,
          0.8673043937041702,
          0.10182525238372242,
          -0.969304200994638,
          0.6737994480274139,
          0.8424520380512979,
          0.5992558052900483,
          0.8120945155112727,
          -0.9612606335195928,
          0.6446469498903804
        ],
        "playerName": "RFFSimulation",
        "converter": {}
      },
      "fitness": 0.8333333333333334,
      "behaviours": [
        19.2,
        1.4,
        38.266666666666666,
        4.466666666666667
      ]
    }
  ],
  [
    {
      "value": [
        27,
        18,
        18,
        9
      ]
    },
    {
      "x": {
        "agentConfig": [
          1,
          0,
          3,
          0,
          2,
          2,
          2,
          1,
          0,
          0
        ],
        "weights": [
          0.027355716537126096,
          -0.6322261691257365,
          0.07639410060791985,
          0.021164866356565115,
          -0.5298575965912726,
          -0.05841908458605727,
          -0.1818441894070557,
          -0.24962659510985064,
          0.014401026025533836,
          0.008078691146225836,
          0.3838510890166924,
          0.16623344239662474,
          0.3925886267984795,
          -0.2920960214514703,
          0.2161479028394122,
          -0.06839562476410532,
          0.8780387314303144,
          0.7070980057724154,
          -0.6061170431462182,
          -0.3732939012991525,
          -0.11950227806898828,
          -0.8230411645092726,
          -0.18603217890645252,
          0.4037273339888072,
          -0.6470955555431188,
          0.7366415148567498,
          0.09557943977448202,
          -0.4708609225744338,
          -0.06840676499759746,
          0.968673932153699,
          0.3055726412897364,
          -0.5165483383664453,
          0.6637403893904241,
          0.9398233838632011,
          -0.05805621468069955,
          -0.2333302903941128,
          -0.5799831757215583,
          0.794512293233762,
          -0.7374354981501285,
          -0.1512846992813166,
          0.6470477330386009,
          -0.06475033896968374,
          -0.990704600744736,
          -0.19239541832161233,
          0.9834226432944964,
          -0.43569186574951324,
          0.8529803928610438,
          0.11417958707243914,
          0.4446388916211792,
          0.43314413891062165,
          0.4727126931917429,
          -0.249288333103459,
          -0.6234974736225574,
          -0.4691772908596108,
          -0.9168462374042698,
          0.3917093774602525,
          -0.8168487562979123,
          0.1399751490223271,
          -0.5634213626875015,
          -0.2712210028075779,
          -0.044995666817599034,
          0.1985827605819528,
          0.8517094058601935,
          -0.8125990066419235,
          0.5535855930585383,
          0.22814597506293932,
          0.6592912612953381,
          0.2620025478957746,
          0.4543058759922409,
          0.22356336815720312,
          0.604755073060661,
          -0.5132794920336519,
          -0.2950685784697116,
          0.8473110709454894,
          0.2112014433483138,
          0.6627656873465728,
          -0.2733928409983768,
          0.030278278405506454,
          0.8813315475950589,
          0.37931500044689126,
          -0.6340585140178343,
          -0.34611915638720947,
          0.6048411692069982,
          -0.9066273001006036,
          -0.3991968403815531,
          0.3728397651945592,
          -0.46181577187147904,
          -0.9249409786145313,
          0.06183681478875602,
          -0.1647224703828607,
          -0.5634960695304776,
          0.37829877905922205,
          0.5290997766963441,
          0.5665509107491404,
          0.9429183954941198,
          0.66289890836346,
          0.17097590155257736,
          0.6055041952639759,
          0.07824057822436403,
          0.1725194909852763,
          0.18443554826011788,
          0.6165924302684018,
          0.9246007686433662,
          -0.5359422232133375,
          0.7426363010560904,
          -0.35140982093153683
        ],
        "playerName": "RFFSimulation",
        "converter": {}
      },
      "fitness": 0.6,
      "behaviours": [
        17.933333333333334,
        1.1666666666666667,
        34.733333333333334,
        4.4
      ]
    }
  ],
  [
    {
      "value": [
        27,
        16,
        22,
        13
      ]
    },
    {
      "x": {
        "agentConfig": [
          1,
          3,
          3,
          0,
          1,
          2,
          3,
          1,
          4,
          2
        ],
        "weights": [
          0.4507394547033561,
          0.22382759502101734,
          0.2033859442660768,
          0.40221005214054073,
          0.01700721429796248,
          0.2886129014293046,
          0.6346296385840537,
          0.41201859741969393,
          -0.4749419666451036,
          0.7958326907805022,
          -0.8895479929008117,
          0.7260134934361593,
          0.9538268459775143,
          -0.844216051392277,
          -0.6260617467357525,
          -0.4743026120584142,
          -0.08285468607294044,
          -0.13155482280860853,
          0.6030061281564516,
          -0.6515294889440344,
          -0.13331498583317236,
          -0.7580389430355641,
          -0.9528693312400127,
          0.8341427827376509,
          -0.5779383833292104,
          -0.004738469872862527,
          0.8819586564585413,
          0.14772507058948792,
          0.984655184070111,
          0.9643584900514772,
          0.36512600082900537,
