[
  [
    {
      "value": [
        32,
        29,
        15,
        10
      ]
    },
    {
      "x": {
        "agentConfig": [
          0,
          4,
          1,
          0,
          2,
          1,
          2,
          1,
          2,
          1
        ],
        "weights": [
          -0.5174290763034479,
          -0.8370513584957007,
          0.2688115292259958,
          0.8627855185497206,
          -0.6905752102592757,
          0.9544671543632242,
          -0.8764867421623415,
          0.21143927609757074,
          0.9277010494571847,
          -0.696301283475526,
          -0.19852801162203404,
          0.014132425684573402,
          -0.8351622751485399,
          0.25095343128904224,
          -0.20939140959902258,
          -0.7852900740536788,
          -0.3072191567053577,
          -0.1475685755110807,
          0.17173915608751034,
          0.6624208780175163,
          0.2689970810638602,
          -0.6454752200715508,
          0.008197835012762722,
          -0.6678229916983855,
          0.6004670085834283,
          0.6101332222166715,
          -0.29741325610626523,
          -0.062143365876673684,
          0.6737365576988934,
          -0.45850149357911874,
          0.32486415995493134,
          0.1621036862988996,
          -0.9555031230347113,
          -0.2549232015912348,
          -0.5273772478153205,
          0.17333746080009083,
          0.5430518006395866,
          -0.5625147744347627,
          -0.9064488801049502,
          -0.6395465970043577,
          -0.8725763385022094,
          0.8575737744221132,
          0.8817115614252002,
          -0.7120378226761137,
          0.20373866967991194,
          -0.03181104460871609,
          0.35340794658713093,
          -0.24092119588746264,
          -0.3660767550453443,
          -0.15778733483652863,
          -0.48494152656014045,
          0.5715399855465693,
          -0.13636592218923016,
          -0.5290265523651443,
          0.15462835714642242,
          -0.9393072943561747,
          -0.8712654659923109,
          0.8991446197776749,
          -0.780181771296165,
          0.8466637249606022,
          -0.46347844389251613,
          -0.43124188801864727,
          0.49034473740203466,
          0.337184063732513,
          -0.031703658657282086,
          -0.454020411535792,
          0.8082904933592203,
          0.4849091495846549,
          0.21276477821741469,
          0.9078050218463158,
          0.49964072757239064,
          0.05784083877327584,
          -0.4848574268803685,
          0.9818552413812003,
          0.30176510850842586,
          -0.7462777584326663,
          -0.18526917441692303,
          0.36096034465642446,
          -0.8942558577268478,
          0.8740429942608992,
          -0.6558804668048706,
          0.6552413902790362,
          0.1290786798917447,
          0.47055795476380635,
          -0.023934004734307734,
          -0.202087585443411,
          -0.2465364051706851,
          0.8869872094226501,
          -0.27051390666185116,
          0.3870421047122248,
          -0.8060539097376707,
          0.440832179665255,
          0.1838869596846857,
          -0.9759714462898912,
          0.4099300575465443,
          -0.3749932005278178,
          -0.7980392356260104,
          -0.09944174142945017,
          0.22512864667609866,
          0.656249831197605,
          0.32294890294632195,
          -0.010666081899987523,
          0.4927073686633856,
          -0.5429513837615423,
          -0.5352225841350846,
          0.10987304150485855
        ],
        "playerName": "RFFSimulation",
        "converter": {}
      },
      "fitness": 0.7666666666666667,
      "behaviours": [
        21.3,
        1.8666666666666667,
        29.933333333333334,
        4.833333333333333
      ]
    }
  ],
  [
    {
      "value": [
        32,
        28,
        13,
        10
      ]
    },
    {
      "x": {
        "agentConfig": [
          1,
          0,
          2,
          0,
          1,
          0,
          3,
          3,
          0,
          2
        ],
        "weights": [
          0.16398462325185736,
          0.9245849505751129,
          -0.12742935327387994,
          -0.061518792818295864,
          0.10184840759981806,
          0.3061362222911328,
          0.09728582214297488,
          0.7621648222455923,
          -0.04573123403351742,
          0.6719971191081306,
          -0.800122367247255,
          0.6185002022822155,
          0.13464960324317365,
          -0.21165235379678604,
          -0.5582209324272112,
          0.5190185031378678,
          0.8099560683128042,
          -0.37289094505426923,
          0.6930929261384706,
          -0.01695957428156203,
          0.6521903599202061,
          0.923503484030856,
          -0.7955722818298727,
          -0.14538287257019844,
          0.861376383511244,
          0.3055531529992912,
          0.5974162607419573,
          -0.08968650490093322,
          0.7826245683832096,
          -0.3532966355146463,
          -0.5205033009946087,
          0.12483772273398253,
          -0.31601203096537955,
          -0.07248160530390435,
          -0.26107589055189373,
          0.7525373096589221,
          0.8184620354921412,
          0.339666135218486,
          -0.46112669815672014,
          -0.5137027315105913,
          0.7626202836029465,
          -0.37482742339395325,
          -0.6951168476652154,
          -0.1286083131129656,
          -0.793980640966919,
          0.7161916701710642,
          -0.41221670781317266,
          -0.11964431365977246,
          -0.14035226914471077,
          -0.3746956116364517,
          0.5846351849964051,
          -0.9040402247724786,
          -0.04166797489144969,
          -0.7663765510850249,
          0.3131098508915018,
          -0.6971143580243788,
          -0.04884359163178975,
          0.13374766398101112,
          -0.039884591652769474,
          0.4547164214229362,
          0.4055911912036465,
          0.006875159682451448,
          0.763377533816106,
          -0.03862888441380963,
          -0.10483362482428316,
          0.14815010829868336,
          0.9350676580032635,
          0.03312798657813398,
          -0.3028323579941059,
          0.7015827374828958,
          -0.40053644036291125,
          -0.5791020427596878,
          0.4959724650357169,
          0.9256496720334482,
          -0.5079823049982721,
          0.3084239699504756,
          0.9692845482399437,
          -0.6170549855048137,
          -0.7449005115384817,
          0.34059825022537527,
          0.1286653986386872,
          -0.6679797039739952,
          -0.43393157111861647,
          -0.18689511015906835,
          0.5924027821937154,
          0.7968155415251974,
          -0.9537749201753125,
          0.9021113857329814,
          0.5878961773000655,
          0.7988501534455872,
          -0.07542158159989798,
          -0.5212527574721018,
          0.41238007747041583,
          -0.9403922704636538,
          -0.23174256258891868,
          0.5316243722875966,
          0.32494630109361844,
          0.11531439367370488,
          0.24178702917462314,
          -0.4883306223293189,
          -0.6005322580604586,
          0.23357597435102484,
          0.8203374824044187,
          0.01705334452458107,
          0.7371659744034305,
          0.7811052335039945
        ],
        "playerName": "RFFSimulation",
        "converter": {}
      },
      "fitness": 0.9666666666666667,
      "behaviours": [
        21.066666666666666,
        1.8333333333333333,
        25.566666666666666,
        4.566666666666666
      ]
    }
  ],
  [
    {
      "value": [
        34,
        28,
        15,
        9
      ]
    },
    {
      "x": {
        "agentConfig": [
          0,
          4,
          1,
          1,
          0,
          0,
          3,
          2,
          1,
          0
        ],
        "weights": [
          0.6196800502862565,
          0.3627551766248769,
          -0.4949682821113228,
          -0.7005285397518419,
          0.32160713736307867,
          -0.4257728384586741,
          -0.9521267336926065,
          -0.6816137014047206,
          0.44731205873933844,
          -0.7153562024637135,
          -0.07305372634898832,
          0.283144967566054,
          -0.3955830301200638,
          0.8456368951028457,
          0.017266394394569007,
          0.8038415209344194,
          0.1711179117443038,
          0.4662040075878642,
          -0.8052890181818726,
          -0.4984766310125006,
          -0.22536563078838223,
          -0.8452646003593274,
          -0.2872575270305646,
          0.8515517806495687,
          0.722533335792928,
          -0.9267180740571361,
          -0.7986508175206366,
          -0.7642568899810351,
          -0.16647695101830084,
          0.4777088866303416,
          -0.947819529785815,
          -0.7978696419810565,
          -0.42279901461861047,
          -0.9791033928071053,
          0.32299348884014045,
          0.6909512259706068,
          0.20763147157166362,
          -0.38783620703759425,
          -0.02382968459591117,
          0.5577347316351313,
          -0.3364809655708796,
          0.2546060918921387,
          0.2602041861625197,
          0.1091227561669641,
          -0.5918652888704217,
          -0.6769436928829937,
          -0.6503055912758473,
          0.5643301322247409,
          0.0950418185597699,
          0.5988907104652728,
          -0.02146975277483487,
          0.3649111087379626,
          0.9710600617399641,
          0.04391936639928096,
          0.732584128288988,
          0.0777666307452658,
          -0.7342041558007244,
          0.7741149419933602,
          -0.08762353906571829,
          0.2710923664327509,
          0.4674587567608173,
          -0.015049542976911745,
          0.43281301678109907,
          -0.8097679635731616,
          -0.6524266743939633,
          -0.31636889621417197,
          0.09623850923762389,
          0.32016769039564363,
          0.8725870072493609,
          -4.7820205592263854E-4,
          0.756689291247671,
          0.993643454121254,
          -0.2717343729849717,
          -0.42741288798404864,
          0.38736875881625044,
          0.08868452922462966,
          -0.9168424517092459,
          0.0606761657237771,
          -0.12998931532559332,
          -0.44346017867057563,
          -0.5697006776461846,
          -0.8399992004335839,
          -0.5560648161485964,
          -0.9691590160331813,
          0.8717256909128721,
          0.6991704032617321,
          0.1842431452894091,
          -0.9089621876663572,
          -0.9517626459795654,
          -0.6543366259109096,
          -0.3772640073739071,
          0.8879339618654754,
          0.06727126211648682,
          -0.7453704730493538,
          -0.31821307624370365,
          -0.21358631687443896,
          -0.7553924587548955,
          0.5934346663383501,
          -0.5394675512354283,
          0.44021539500721185,
          0.2510394323261609,
          -0.7086265994142362,
          -0.9056083810869682,
          0.28587378728296997,
          -0.6569786483405935,
          -0.40750803797945956
        ],
        "playerName": "RFFSimulation",
        "converter": {}
      },
      "fitness": 0.6666666666666666,
      "behaviours": [
        22.533333333333335,
        1.8333333333333333,
        29.166666666666668,
        4.066666666666666
      ]
    }
  ],
  [
    {
      "value": [
        31,
        29,
        18,
        7
      ]
    },
    {
      "x": {
        "agentConfig": [
          1,
          5,
          1,
          0,
          1,
          0,
          2,
          3,
          3,
          2
        ],
        "weights": [
          0.5793210385666128,
          -0.33746726470770283,
          -0.823922144403683,
          -0.8488069255894037,
          -0.8598967125107948,
          0.3840213853642236,
          0.12571727408719013,
          -0.6766189949046555,
          -0.6648834718489403,
          -0.30693294492126566,
          0.877413915510014,
          0.09546702894106707,
          -0.877592225095118,
          0.5214213862269172,
          0.5382686650268793,
          0.9380519596817041,
          -0.7503768726293967,
          0.17184468010747578,
          0.38732977860489326,
          0.08885931146559956,
          0.21772344283489664,
          0.49584980419510494,
          0.437641165847664,
          0.2863387764730021,
          -0.7912247489879451,
          0.33155667346010387,
          -0.8062804989884553,
          0.3211500418656714,
          -0.33437798845963695,
          -0.7975488521015321,
          -0.2809769246718463,
          0.7158910739489401,
          0.6428814701180205,
          -0.3998924832997721,
          -0.03413364909424854,
          0.8219503491125038,
          0.7928552425218409,
          -0.6913014448064065,
          0.47062382385528023,
          0.4133777817770825,
          0.9065782476095523,
          -0.8236153678980034,
          -0.020041044013488163,
          -0.5388149955343677,
          -0.7006247892520379,
          -0.5015630745728108,
          -0.6507974594256598,
          -0.8124984018064574,
          0.01193265480625505,
          -0.2507836998440691,
          0.14189761730398076,
          -0.272471130844383,
          0.7920353219297842,
          -0.21510384242615954,
          0.7599173151721705,
          0.7682486381202236,
          0.12875689864845952,
          -0.16391961786979792,
          -0.3535473325697307,
          -0.6136395526398348,
          0.2300343123243198,
          -0.38076353928311324,
          0.12955897316263743,
          -0.026064118900234412,
          -0.23380235411174022,
          -0.2818732284444554,
          0.811838606160606,
          0.6187940843965143,
          0.44616598264075313,
          -0.9788117527666147,
          -0.9377694614124874,
          0.5976190951845843,
          -0.9503379945214556,
          0.4480757012898626,
          -0.8712348384191062,
          0.7433539668289013,
          -0.592062574926564,
          -0.5416504860751057,
          0.6665358900775258,
          0.36442353293677154,
          -0.992856978683631,
          -0.092445393486698,
          0.06302854775317535,
          -0.8781478352314633,
          0.38261719863414534,
          -0.29929724048095685,
          -0.15666057506340092,
          -0.18864017764450192,
          0.2790069389011529,
          0.39043592362959134,
          0.6507056314769633,
          0.3510333217219517,
          -0.3297225811982427,
          0.3769142692778178,
          -0.1768403737535511,
          0.4411880790455913,
          -0.8346949466394369,
          0.6887381528953878,
          0.42501247633744166,
          0.34154839617790356,
          -0.9311089174486349,
          -0.5410220507520178,
          0.7422590480091302,
          0.0018921707056078763,
          -0.5753275528919466,
          0.15765332471265547
        ],
        "playerName": "RFFSimulation",
        "converter": {}
      },
      "fitness": 0.6,
      "behaviours": [
        20.466666666666665,
        1.8666666666666667,
        34.5,
        3.1666666666666665
      ]
    }
  ],
  [
    {
      "value": [
        16,
        1,
        32,
        7
      ]
    },
    {
      "x": {
        "agentConfig": [
          0,
          3,
          1,
          1,
          0,
          1,
          0,
          2,
          2,
          0
        ],
        "weights": [
          0.4041122187642532,
          0.9895815838550859,
          0.2993460139108912,
          0.2011786746098705,
          -0.18613882635613832,
          0.989185057213807,
          -0.8968714844213408,
          -0.014328481944862137,
          0.40644596295383906,
          -0.7176170334844356,
          0.701300794893122,
          -0.1669034615741365,
          -0.6412156534078175,
          0.09910374429145086,
          -0.3376141048352761,
          -0.9630062719195505,
          0.49656045439680585,
          0.9715563646371914,
          0.8164962846343018,
          0.8037656306849787,
          -0.9543585058089763,
          -0.8657852612646242,
          0.0881757987269638,
          -0.34793619504740225,
          -0.1286273370397064,
          -0.8791976936019545,
          -0.6644161913622479,
          -0.28657048071876745,
          -0.43847452041099144,
          -0.30421058626631226,
          -0.3339467542152186,
          0.568771992367723,
          -0.48468698783355224,
          -0.04481872516072172,
          0.9109440989715272,
          -0.3912183473931441,
          -0.6799724122166113,
          -0.058860006467493564,
          0.4681063139183659,
          -0.9276074712111804,
          -0.8715032038628725,
          0.4372493456997113,
          0.5581554477479691,
          -0.10407654018804746,
          0.49469434413085933,
          -0.2540020901937492,
          -0.9088451020537558,
          -0.70345782718231,
          -0.8185177541109587,
          0.19731973531249958,
          -0.1968101127413926,
          0.6172142255052293,
          0.8236027128294567,
          -0.10320058266595167,
          0.09770897399041045,
          0.37631175632580627,
          -0.9893221710852411,
          -0.20558707088769324,
          0.11439870106262728,
          0.693574919568569,
          -0.650884511828101,
          0.539440815430466,
          -0.05125196591957226,
          -0.6948669906532114,
          0.3684618800751085,
          -0.2155422292712028,
          -0.341649008234163,
          0.2338085576389941,
          0.7568801591350991,
          0.6110657780409414,
          0.7173838412356239,
          -0.15305679379298986,
          0.3420762983722163,
          -0.4276940413025281,
          -0.08141295807796678,
          -0.4875002055285702,
          -0.5218665673647642,
          0.4814479287116511,
          -0.6275299368757545,
          -0.6447896909692863,
          0.055357184111279656,
          -0.4758773265096383,
          -0.7836505661655317,
          -0.2819438679792816,
          -0.7806262427600388,
          0.5305298371408498,
          0.9212204723026995,
          -0.14961927403752817,
          0.06736517920045659,
          0.3167153795662494,
          0.6723537987997761,
          -0.927546957875053,
          0.08346467341706143,
          0.8886826017015381,
          0.19989821315129586,
          0.20731267316776458,
          -0.11802261328084152,
          3.6392747428837247E-4,
          0.6486625937057313,
          0.42424602637846465,
          -0.0537687125923374,
          0.06624697112507971,
          -0.39836067147309584,
          0.8042570642394085,
          -0.5174960545714831,
          -0.24828595458582559
        ],
        "playerName": "RFFSimulation",
        "converter": {}
      },
      "fitness": 0.2,
      "behaviours": [
        10.433333333333334,
        0.03333333333333333,
        63.93333333333333,
        3.033333333333333
      ]
    }
  ],
  [
    {
      "value": [
        30,
        24,
        19,
        9
      ]
    },
    {
      "x": {
        "agentConfig": [
          0,
          4,
          0,
          0,
          1,
          2,
          0,
          3,
          4,
          0
        ],
        "weights": [
          0.15030492753539182,
          -0.670538471329563,
          -0.34371930837027986,
          -0.030952127811960217,
          0.4730355586074324,
          0.9505612191591257,
          -0.2593550564961984,
          0.3573420011804316,
          -0.5202447889423796,
          -0.14068347961136074,
          -0.8385632436563841,
          -0.22632893819822653,
          0.6496230950895583,
          0.5051447828121591,
          -0.23486455863715316,
          0.9485927999343431,
          0.23784678775464174,
          0.7211776423664074,
          0.5553382906921092,
          -0.015714926274619234,
          -0.635916709414919,
          -0.8117041660876416,
          0.22064999726279777,
          -0.9448036387636032,
          0.11978609542550744,
          -0.6105615913598958,
          0.24392646923764416,
          0.41748193760538,
          -0.4087130294106598,
          0.9983395247033848,
          0.7601699657272363,
          -0.4253000818243615,
          -0.685456415048862,
          0.6566104589203257,
          0.3557638024229737,
          0.11325555250903685,
          0.6091232902528465,
          0.915351760846969,
          0.3396251257158722,
          0.1995980497797034,
          0.4831344183427173,
          0.7522449658650203,
          -0.33275486941034127,
          -0.9778094925653056,
          0.3574572937227434,
          -0.4776613331895465,
          0.6614762003665666,
          0.5647877286178324,
          0.726767812653766,
          0.46051117639585226,
          -0.05068275116208665,
          0.013574154495412216,
          -0.9435135488779001,
          -0.0741453890899122,
          -0.37816263153570695,
          0.8292278911588444,
          -0.2910730382344582,
          0.4629945527152848,
          0.5247701992860108,
          0.05599399996468901,
          -0.5014406990051394,
          -0.5473787406071489,
          0.8002013906880341,
          -0.2066349068413582,
          0.5954418629361802,
          0.6332773437603167,
          0.3251617548196115,
          -0.0780173353624436,
          -0.07248141156318999,
          -0.9012898934121722,
          -0.4691701380721045,
          -0.8461112132443054,
          0.9766181573149555,
          -0.49013634958100294,
          -0.7635612581631626,
          0.268273447271294,
          -0.08036891203277774,
          0.20785096541106762,
          0.5948707507874418,
          0.9973777070432781,
          -0.5645161506239167,
          0.6740119493560994,
          -0.9776830802054537,
          0.44322890647182867,
          0.18016699309986817,
          0.35542893976076884,
          -0.9277337408958244,
          0.13440074088413145,
          -0.07378300042772024,
          -0.7409628761270786,
          0.6144821560908016,
          0.8730042579936865,
          -0.3303087744191693,
          0.9147322885809026,
          0.3925130284927123,
          -0.6243657425253664,
          0.6268160912497251,
          0.31764489214178515,
          -0.9413246557541135,
          0.3780090608020068,
          -0.02587088588187947,
          -0.7179861031547838,
          0.123337443621512,
          0.3515583942556546,
          0.43007668766529283,
          -0.7261391250447009
        ],
        "playerName": "RFFSimulation",
        "converter": {}
      },
      "fitness": 0.3333333333333333,
      "behaviours": [
        19.766666666666666,
        1.5666666666666667,
        37.4,
        4.233333333333333
      ]
    }
  ],
  [
    {
      "value": [
        15,
        1,
        35,
        9
      ]
    },
    {
      "x": {
        "agentConfig": [
          0,
          3,
          3,
          1,
          0,
          1,
          0,
          0,
          2,
          1
        ],
        "weights": [
          -0.6764982553447558,
          0.7300713127054608,
          -0.8391455287428864,
          -0.13080586872816102,
          0.8893327239243158,
          -0.33113036675425467,
          0.45781217424596354,
          -0.9817774399591002,
          -0.8799154487956022,
          0.545879885108665,
          -0.17515406298353464,
          -0.8817352415914352,
          -0.26764920903375544,
          0.9285159267713352,
          0.8588441559945752,
          -0.4220856241190478,
          -0.5409063501350262,
          0.5964128352973448,
          -0.2711261959687843,
          -0.9007304221069716,
          -0.906096725780023,
          0.36764632482335236,
          -0.1889874193460559,
          -0.6366432828657331,
          0.02008423757151845,
          -0.0109818766133285,
          -0.768884110170535,
          0.38817092626597294,
          0.2639367191530535,
          0.005263122640928097,
          0.16553254775966098,
          0.4087600029820042,
          -0.2067596156381002,
          0.09430004364713285,
          -0.8408446075731819,
          -0.6427065372125467,
          -0.22390915450852145,
          -0.25958716298631423,
          0.028732275809292496,
          0.06207414767458763,
          0.8218770069320191,
          0.3145154744234113,
          0.6437350006688678,
          -0.8620346105310532,
          0.8453303621595272,
          0.6404188764821557,
          -0.0975261361929427,
          0.20672344827993272,
          0.12621678072041487,
          0.9482837303170264,
          0.5590364924869222,
          -0.4357620189544045,
          -0.6186179381631782,
          0.7512091146172406,
          -0.7929794923663145,
          0.7027020899467933,
          0.22250352392634754,
          0.6281723817073821,
          0.6889194714034541,
          -0.8007529415754326,
          0.24204028198231553,
          0.1563006755740204,
          0.4754126937096226,
          -0.6014077629855421,
          -0.8484847665567434,
          0.3077215929503745,
          -0.8532996183881596,
          -0.9542212051014349,
          -0.10959691843265595,
          0.5110043379727285,
          0.008415214416896521,
          -0.4339323903774088,
          -0.5694611723481837,
          0.2744695082419786,
          0.08753359021636276,
          0.042601685619967355,
          0.12010146040815806,
          0.7784113580405105,
          0.2790984069163198,
          0.10844488668147756,
          -0.1571304474629347,
          -0.8344591956477092,
          0.25245812080836005,
          0.9481278891884983,
          0.012584253462159856,
          -0.6062752544622323,
          -0.12388455507581586,
          0.3948454325251156,
          0.4788972103819651,
          0.4623614905604143,
          -0.6168287243784627,
          -0.28703397483235404,
          -0.20947874950432177,
          -0.41650183406827623,
          -0.7252614662578465,
          0.0715300606364433,
          -0.057158413643422445,
          0.4410622985130779,
          0.046592834750451395,
          -0.057071676541656347,
          0.7313869797724057,
          -0.9336559297926559,
          -0.7752837297618078,
          0.7019687506218635,
          0.13920014122604396,
          0.055132654552610294
        ],
        "playerName": "RFFSimulation",
        "converter": {}
      },
      "fitness": 0.23333333333333334,
      "behaviours": [
        9.333333333333334,
        0.03333333333333333,
        68.93333333333334,
        4.233333333333333
      ]
    }
  ],
  [
    {
      "value": [
        14,
        2,
        31,
        10
      ]
    },
    {
      "x": {
        "agentConfig": [
          0,
          3,
          1,
          1,
          0,
          1,
          0,
          0,
          2,
          1
        ],
        "weights": [
          -0.6764982553447558,
          0.7300713127054608,
          -0.8391455287428864,
          -0.13080586872816102,
          0.8893327239243158,
          -0.33113036675425467,
          0.45781217424596354,
          -0.9817774399591002,
          -0.8799154487956022,
          0.545879885108665,
          -0.17515406298353464,
          -0.8817352415914352,
          -0.26764920903375544,
          0.9285159267713352,
          0.8588441559945752,
          -0.4220856241190478,
          -0.5409063501350262,
          0.5964128352973448,
          -0.2711261959687843,
          -0.9007304221069716,
          -0.906096725780023,
          0.36764632482335236,
          -0.1889874193460559,
          -0.6366432828657331,
          0.02008423757151845,
          -0.0109818766133285,
          -0.768884110170535,
          0.38817092626597294,
          0.2639367191530535,
          0.005263122640928097,
          0.16553254775966098,
          0.4087600029820042,
          -0.2067596156381002,
          0.09430004364713285,
          -0.8408446075731819,
          -0.6427065372125467,
          -0.22390915450852145,
          -0.25958716298631423,
          0.028732275809292496,
          0.06207414767458763,
          0.8218770069320191,
          0.3145154744234113,
          0.6437350006688678,
          -0.8620346105310532,
          0.8453303621595272,
          0.6404188764821557,
          -0.0975261361929427,
          0.20672344827993272,
          0.12621678072041487,
          0.9482837303170264,
          0.5590364924869222,
          -0.4357620189544045,
          -0.6186179381631782,
          0.7512091146172406,
          -0.7929794923663145,
          0.7027020899467933,
          0.22250352392634754,
          0.6281723817073821,
          0.6889194714034541,
          -0.8007529415754326,
          0.24204028198231553,
          0.1563006755740204,
          0.4754126937096226,
          -0.6014077629855421,
          -0.8484847665567434,
          0.3077215929503745,
          -0.8532996183881596,
          -0.9542212051014349,
          -0.10959691843265595,
          0.5110043379727285,
          0.008415214416896521,
          -0.4339323903774088,
          -0.5694611723481837,
          0.2744695082419786,
          0.08753359021636276,
          0.042601685619967355,
          0.12010146040815806,
          0.7784113580405105,
          0.2790984069163198,
          0.10844488668147756,
          -0.1571304474629347,
          -0.8344591956477092,
          0.25245812080836005,
          0.9481278891884983,
          0.012584253462159856,
          -0.6062752544622323,
          -0.12388455507581586,
          0.3948454325251156,
          0.4788972103819651,
          0.4623614905604143,
          -0.6168287243784627,
          -0.28703397483235404,
          -0.20947874950432177,
          -0.41650183406827623,
          -0.7252614662578465,
          0.0715300606364433,
          -0.057158413643422445,
          0.4410622985130779,
          0.046592834750451395,
          -0.057071676541656347,
          0.7313869797724057,
          -0.9336559297926559,
          -0.7752837297618078,
          0.7019687506218635,
          0.13920014122604396,
          0.055132654552610294
        ],
        "playerName": "RFFSimulation",
        "converter": {}
      },
      "fitness": 0.2,
      "behaviours": [
        9.266666666666667,
        0.06666666666666667,
        61.53333333333333,
        4.833333333333333
      ]
    }
  ],
  [
    {
      "value": [
        19,
        1,
        30,
        15
      ]
    },
    {
      "x": {
        "agentConfig": [
          1,
          3,
          3,
          1,
          2,
          0,
          0,
          1,
          0,
          1
        ],
        "weights": [
          -0.07717516695431392,
          0.7604238593965824,
          0.7277997188996479,
          -0.7919477994121018,
          0.5292870131292231,
          -0.41815929558444487,
          -0.7487449000625332,
          -0.7548798151896656,
          -0.7274340025355643,
          -0.559604119510454,
          0.0499041956830073,
          0.35974126767472026,
          0.025715458605874097,
          -0.7962669153923054,
          0.9361440660899476,
          -0.32591015739133655,
          -0.12351183939758759,
          -0.3101809029349307,
          0.954326556478589,
          -0.3154130297835813,
          0.8385960040752007,
          0.05021661368017716,
          0.678159088488719,
          0.7099592186284569,
          0.8036872163695021,
          0.663986896342516,
          -0.6638669425475576,
          0.03318544154818848,
          -0.2959279593553683,
          0.6768046852503329,
          -0.5726053571499874,
          -0.9278912817982206,
          0.06911942736275889,
          0.6733829574057717,
          -0.3903869241222131,
          -0.5767422715816841,
          0.6836380841419694,
          0.1373224112907383,
          0.07204201898385354,
          -0.05431422087189208,
          -0.10555539674116043,
          -0.6689859831147338,
          -0.6488890650677446,
          0.18640306237527549,
          -0.7382859416052803,
          0.01924019290314649,
          -0.3974774054586998,
          0.39624153575348453,
          0.7145968737281057,
          -0.9363649501689986,
          0.7129757955418345,
          -0.8552405946378816,
          -0.8540217361668647,
          -0.6688197854568041,
          0.3162700291231746,
          0.11505581034044488,
          -0.5308542987268687,
          -0.4115722648528337,
          0.7726923817461777,
          0.04413373517562902,
          0.559521740149648,
          -0.9058417750921037,
          -0.5227749569800821,
          -0.0282866816559999,
          0.2175091609961628,
          -0.5433037287419917,
          -0.5187452229312592,
          -0.02983545610168803,
          -0.6861135886276073,
          -0.011876667223661208,
          -0.6558960510922958,
          -0.6495068826078088,
          -0.3829175841796699,
          -0.7338585141186493,
          0.37484574544202265,
          -0.025920880731181484,
          0.4520492601495023,
          0.9053580767074976,
          -0.01849550353768281,
          -0.25286582831466076,
          0.30334357808193047,
          -0.3567224709031629,
          -0.2861154556717356,
          0.634607739372163,
          0.7504157987703868,
          0.7623010945542152,
          -0.23208910142949968,
          0.6025392553275966,
          -0.28900003947560826,
          -0.4024483683506981,
          0.2135050428359564,
          -0.21738185962311474,
          0.8688843237614516,
          0.42135562027272244,
          -0.9853388628357116,
          -0.1500199485962317,
          0.3752363562682679,
          -0.6512687674244952,
          0.029527335989923298,
          0.11503180655522027,
          0.43804423648363655,
          0.07424537402755993,
          0.609938164038291,
          0.15236544679758968,
          0.2521288425261963,
          0.22911989686778433
        ],
        "playerName": "RFFSimulation",
        "converter": {}
      },
      "fitness": 0.6,
      "behaviours": [
        12.366666666666667,
        0.03333333333333333,
        59.96666666666667,
        7.2
      ]
    }
  ],
  [
    {
      "value": [
        14,
        1,
        38,
        1
      ]
    },
    {
      "x": {
        "agentConfig": [
          1,
          0,
          1,
          0,
          0,
          1,
          0,
          2,
          0,
          2
        ],
        "weights": [
          0.8403022636486228,
          0.7502609201833732,
          -0.9104015945290429,
          -0.430337934405036,
          -0.20368565484772727,
          0.7697949122583632,
          -0.4791106290956799,
          0.7837282789450386,
          0.7182022384381446,
          0.372225809923443,
          0.38044614832582946,
          0.7871183928475693,
          0.16997130949145833,
          0.13745697828634618,
          -0.0993465796329005,
          0.01344913739264686,
          -0.05004546418850464,
          -0.15636961612257627,
          -0.32142807297349996,
          -0.08892379437498987,
          0.13205656312685732,
          -0.7430097222618337,
          0.5369202434925686,
          0.33322037950424677,
          0.6266755619372202,
          -0.13607505570034517,
          -0.7086389999827891,
          0.23175302143930088,
          0.9940304090561807,
          -0.7372218564690214,
          -0.19767212218984032,
          0.6505515427437998,
          0.6117605282874896,
          -0.3072146943979097,
          -0.7382116207164371,
          0.4303514630391294,
          0.9803073074941657,
          -0.2502437591937807,
          0.37906604888085615,
          -0.7344634765960829,
          0.9437249260706615,
          -0.2771082484152596,
          0.8398070852791013,
          -0.20567533666165416,
          -0.08978861727507725,
          0.18438700206431236,
          -0.4940747559317835,
          0.25732271596120215,
          -0.22421089573504283,
          0.4732397539474924,
          -0.3763238884043405,
          -0.0745607812949387,
          -0.8137939864699439,
          0.5369478675914567,
          0.02576156570240329,
          0.9766587846093322,
          0.016268911443012346,
          0.2295457671069825,
          -0.7266732542250731,
          0.7921988733872274,
          -0.49753932027613224,
          0.6116949511950818,
          -0.7275619057592564,
          -0.2539156869243189,
          0.3338342067370832,
          0.058309931676645776,
          0.9717937863611221,
          -0.52180936481499,
          -0.8121831857339283,
          0.051465606459119906,
          -0.6636927454284567,
          -0.630676397198781,
          -0.30830208298738926,
          -0.5789011026745148,
          -0.30840451652828516,
          0.47791666905860297,
          0.5972159675937758,
          -0.5067180543306478,
          0.7472950501751299,
          0.5514457778047213,
          0.07479853338468145,
          0.11561058247252709,
          -0.8674822595228127,
          0.8916736240783132,
          0.46565219755593246,
          -0.14848253958336555,
          0.11465074931801778,
          -0.16864562471814137,
          0.5740382324067763,
          0.7700836195965066,
          -0.6769054730348727,
          0.3710426360974306,
          0.6387113210397626,
          -0.7948099075707185,
          0.7624238863719688,
          -0.8718318220711532,
          0.4916389637233789,
          0.6176143019955507,
          -0.8251526467176415,
          0.16655206388607335,
          0.09375973043389241,
          -0.7340564092819679,
          -0.10026865713002642,
          0.5030564223377423,
          -0.3683205207226252,
          -0.22305700898514225
        ],
        "playerName": "RFFSimulation",
        "converter": {}
      },
      "fitness": 0.03333333333333333,
      "behaviours": [
        8.866666666666667,
        0.03333333333333333,
        75.1,
        0.2
      ]
    }
  ],
  [
    {
      "value": [
        24,
        14,
        25,
        6
      ]
    },
    {
      "x": {
        "agentConfig": [
          0,
          3,
          2,
          0,
          1,
          1,
          1,
          0,
          4,
          0
        ],
        "weights": [
          0.2133498026691576,
          0.19758445569223326,
          -0.014985781575033164,
          0.031282346381536374,
          0.9568561967962166,
          0.5831125702385425,
          0.3965145910158421,
          -0.875238335823056,
          0.3699979342198252,
          -0.21562341299364518,
          -0.117077309033629,
          -0.2768257519403907,
          0.16575391207147283,
          -0.482920359588062,
          -0.7020138369272342,
          0.2511082586437541,
          0.23361037416497132,
          0.47853397739308723,
          -0.5829789886249124,
          -0.8593530625596568,
          0.30886575872293576,
          0.9208740879359154,
          -0.5743811945947319,
          -0.8897779207013417,
          -0.008490596266204298,
          0.8366761744181967,
          0.46974899763402633,
          0.0628614339494391,
          -0.5490848739826404,
          -0.15628612371144346,
          -0.5947423920312942,
          -0.6248682424542271,
          0.3342348585556183,
          -0.0721525413026951,
          -0.5273466771177024,
          0.07659464266321159,
          0.8905147114108725,
          -0.9121912162975616,
          0.5234621474366885,
          -0.03939325270422134,
          -0.8708011703959937,
          0.6229091285349238,
          -0.36267616316712936,
          0.020813762492441823,
          0.9508259285349159,
          -0.6855356928445957,
          -0.5056076462173327,
          0.773700864431702,
          0.61936449009185,
          0.07399547949384977,
          0.7054944796126172,
          0.006079715371148264,
          0.6897729759356077,
          0.7660303981942087,
          -0.5471095264068213,
          -0.7225935156976504,
          -0.43898801756987704,
          0.8605958737718826,
          -0.7426280971859451,
          -0.889657753490376,
          -0.806123886270043,
          -0.6697429880392223,
          -0.5371780493958742,
          0.21898109735372007,
          -0.7853461104188695,
          0.7788249440855406,
          -0.8827457654547313,
          0.35268893598915496,
          0.6197647390840713,
          0.1736200675668138,
          -0.6702625446443904,
          -0.6254905496222598,
          0.6031622265411771,
          -0.24955594290535799,
          -0.1044978057035042,
          -0.953388885515519,
          -0.3525658330731427,
          0.6701788624133347,
          -0.9930810112351809,
          0.6612637036455455,
          0.9511701170333926,
          0.8281963343871621,
          0.20592539674120358,
          -0.8656513001260047,
          0.5093078839960892,
          0.8525290303391921,
          0.3838718593788206,
          0.46942371381756454,
          -0.2801894469183561,
          0.774017119261857,
          0.597646035388981,
          0.6038766345993549,
          -0.7408320541660345,
          0.11141189248006422,
          -0.2536741087595695,
          -0.43527972477102184,
          -0.8491459236570786,
          0.18668354333373194,
          -0.25949705087914765,
          -0.40990459752949904,
          -0.5549838658047836,
          -0.6294558135861577,
          -0.3031925017837638,
          -0.5864364662490571,
          0.7343086878399661,
          -0.344535142317574
        ],
        "playerName": "RFFSimulation",
        "converter": {}
      },
      "fitness": 0.8666666666666667,
      "behaviours": [
        15.7,
        0.8666666666666667,
        49.1,
        2.6
      ]
    }
  ],
  [
    {
      "value": [
        23,
        8,
        24,
        13
      ]
    },
    {
      "x": {
        "agentConfig": [
          1,
          4,
          2,
          0,
          2,
          1,
          2,
          2,
          1,
          1
        ],
        "weights": [
          -0.5200002030368043,
          -0.8342088684033941,
          -0.018981852667251164,
          -0.22090440048249538,
          0.5680321816596818,
          0.02827617988006259,
          -0.45630887060725067,
          -0.7460917108894598,
          -0.745353018967982,
          -0.6025659034603585,
          -0.2244367753444081,
          0.7875975561260813,
          -0.49618454339638207,
          0.35635201488401114,
          -0.7625709655871133,
          -0.8793840706445828,
          -0.3250108638250204,
          0.6574025787686342,
          -0.8051862881994656,
          0.2521586272883902,
          -0.32675471788667876,
          -0.26412229266326537,
          -0.1736186910200399,
          0.7242259515684335,
          -0.14993181203125605,
          -0.8337110353616928,
          -0.8600815748605704,
          0.5926455371431065,
          -0.34688285593819823,
          0.16955053692258382,
          0.48975237634882873,
          -0.7784091348923745,
          0.8924745603162818,
          0.03902536230032383,
          0.8648545233247646,
          0.9541464278119642,
          0.672507179421554,
          -0.5743187190066725,
          0.7047701832688769,
          0.4399873848264588,
          0.532614472784291,
          0.3073692290997785,
          0.9009061210843816,
          0.9422554592907568,
          -0.8532215561440184,
          0.16450115363544238,
          -0.14640101323236188,
          -0.700770306087322,
          0.050970641893259616,
          -0.6058284290306286,
          0.9807766532996591,
          0.3824055970539024,
          -0.7008886602792985,
          0.3170314981006406,
          0.9119169317285138,
          -0.12888788763170522,
          0.6924183034686515,
          -0.7340106102827977,
          0.7513973255708046,
          0.9548115780555344,
          0.2836210491805067,
          0.1930799089764592,
          -0.7417788831806154,
          0.17774310593432818,
          -0.7733404167017879,
          0.9906057304847549,
          -0.43550528982078873,
          0.056585768516405066,
          0.7241244669704565,
          0.2949247095873009,
          0.1429230325934323,
          -0.6696664388088702,
          0.8188386249421931,
          0.9260192287884268,
          0.1339792723075619,
          -0.257410574279789,
          0.08261895596622804,
          0.313250373217983,
          0.8562962497551097,
          -0.8899983360307435,
          -0.12560046663398539,
          0.2674660772875004,
          -0.6507820400665572,
          0.09658164507495126,
          0.7715354647956891,
          0.28189639479547046,
          0.1343391669067644,
          0.5921567256564393,
          0.022250452212996485,
          0.17903653520932972,
          0.03325289557688804,
          0.8842289367965983,
          -0.576171237209506,
          -0.6320177834779876,
          -0.15838460387656927,
          0.9160247266692831,
          0.9002953714506812,
          -0.7635511739311704,
          -0.064971039409089,
          -0.16046271866297834,
          0.23496680996902275,
          0.2739706395895507,
          0.47013416353762616,
          -0.19912197401662346,
          -0.09260309129742517,
          0.40754259131652826
        ],
        "playerName": "RFFSimulation",
        "converter": {}
      },
      "fitness": 0.7666666666666667,
      "behaviours": [
        15.266666666666667,
        0.4666666666666667,
        46.93333333333333,
        6.333333333333333
      ]
    }
  ],
  [
    {
      "value": [
        24,
        10,
        25,
        12
      ]
    },
    {
      "x": {
        "agentConfig": [
          0,
          2,
          3,
          1,
          2,
          2,
          1,
          0,
          2,
          0
        ],
        "weights": [
          0.20972358181010264,
          0.9164113617336906,
          -0.747387707528052,
          0.6989196481949775,
          0.5304719882664937,
          0.484949318401964,
          -0.6946087603375612,
          -0.20670341467248488,
          0.6416360430829482,
          0.8305787481351874,
          0.8964302667291562,
          -0.8644536008073131,
          0.8705951937072551,
          0.18537325118263515,
          -0.43292510522117444,
          -0.5437643290940006,
          0.5687067932709624,
          -0.7907819313389084,
          -0.6521571647474071,
          0.0948854778342243,
          -0.7400219423694334,
          0.07676110949303983,
          0.35804431509195567,
          -0.13729270697285445,
          0.70635911157203,
          0.3573424502952587,
          -0.30746366214333576,
          0.11790264471274159,
          -0.5426565215010162,
          -0.4236093087270505,
          0.4181819591690874,
          0.2047119321369042,
          0.7894562239449228,
          -0.17470922542163292,
          -0.25327390474605593,
          0.04216124628234241,
          0.5915976213179048,
          0.07774347752992328,
          -0.9925606074656566,
          -0.904277291613587,
          -0.28489709612170944,
          0.9741516623485671,
          0.9120238868391586,
          -0.775130397026216,
          -0.41723140814258564,
          0.7515852682689022,
          -0.2140875069009307,
          0.9717722665131487,
          0.4389864055102073,
          -0.2746086483369796,
          -0.06576301390215833,
          0.7411478442740003,
          0.5235161486996307,
          0.26953213255859554,
          0.11737911596043116,
          0.018540507221380897,
          -0.33567930674622426,
          -0.40375138930199816,
          0.23015953080931983,
          -0.715922829483016,
          0.3102752587017743,
          -0.19833553937024662,
          -0.2896392862810693,
          0.6010059697208232,
          0.8624551381165708,
          -0.37754165524030436,
          -0.053579798487251695,
          -0.006906127066938161,
          0.31309595128789125,
          -0.8602488913117132,
          -0.9892288555492026,
          -0.32777718673439016,
          -0.33578893627586615,
          0.26986705410451184,
          0.41444777516739784,
          0.9372903615471999,
          0.37324199403738745,
          0.2976466478557507,
          0.2602145956196129,
          -0.8622131270952473,
          -0.8389919874101228,
          0.9365021742300885,
          -0.8343827689251031,
          0.4801861136186605,
          -0.08238914011553211,
          -0.5595763665856544,
          0.6339957815573196,
          0.6525521263385916,
          -0.8451568694572258,
          -0.8533416489723213,
          0.17063942140725818,
          -0.7474691630838679,
          -0.5209626555161373,
          0.49380303987940066,
          -0.6270956124975473,
          -0.17383920622734483,
          -0.10381510089474366,
          0.038562488741985534,
          0.4672558360189838,
          0.9597021793753657,
          0.4115437361906096,
          0.28544500159391517,
          -0.6771637229241843,
          -0.6860502363308834,
          -0.6511551031452378,
          -0.7528195109812972
        ],
        "playerName": "RFFSimulation",
        "converter": {}
      },
      "fitness": 0.36666666666666664,
      "behaviours": [
        15.333333333333334,
        0.6,
        48.93333333333333,
        5.9
      ]
    }
  ],
  [
    {
      "value": [
        12,
        1,
        37,
        4
      ]
    },
    {
      "x": {
        "agentConfig": [
          0,
          2,
          3,
          0,
          0,
          2,
          1,
          0,
          0,
          1
        ],
        "weights": [
          0.7446926529021518,
          0.43627001024479806,
          0.937315569480226,
          -0.27176789804879653,
          0.4933332585781762,
          -0.08946848574787336,
          -0.4141679962744671,
          -0.7029452693488905,
          0.42102460655934193,
          0.4959130486564578,
          -0.7040516177623359,
          0.04067253740175247,
          0.11422698355071526,
          -0.3323320574699411,
          -0.20169636476582897,
          -0.11776012886349396,
          0.6200687649443273,
          -0.5162492083990022,
          0.6150416658530142,
          -0.8000128785628666,
          0.44678156269807845,
          -0.3804450425493593,
          0.36357021641046017,
          0.46589804253973655,
          -0.4859801937581931,
          0.8446149400767566,
          -0.9562459067788038,
          -0.5108973361516589,
          -0.3304191650427377,
          -0.043283976468599494,
          0.31475612102659767,
          -0.9266276476274911,
          0.7894323345631675,
          0.22986824288013175,
          0.22081724092411648,
          -0.9046292103930242,
          0.1908442574174971,
          -0.7138819236192109,
          0.44440495181582707,
          0.020078329081947954,
          0.11381356943102561,
          0.967186617534648,
          -0.9031992667649544,
          -0.30792540650796485,
          -0.6361400010073788,
          -0.7395616293983827,
          0.30033886890885,
          -0.12387148336498299,
          0.8596624956768919,
          0.6247012237708292,
          -0.6268523905097374,
          -0.5321885088395342,
          0.7918956728529443,
          0.16497260620629461,
          -0.7036140375004682,
          -0.4453857875405931,
          -0.6249823614077565,
          -0.9789363798213291,
          0.3256093191616869,
          -0.4196857184411742,
          -0.23835100460852954,
          -0.9362523830974314,
          0.1020378699704525,
          -0.2498934836248503,
          0.5895762922749674,
          0.5329961884307783,
          0.4261422207607859,
          0.5112734861052783,
          0.8443009649731525,
          0.6064002719313166,
          0.975101365077869,
          -0.5460596740844121,
          -0.754552499878085,
          0.05189040435500236,
          -0.3226709821246061,
          -0.7012773631874394,
          0.2032343101780416,
          -0.9026143785046512,
          0.20140479322328964,
          -0.2271578507290637,
          0.5416011832758512,
          0.44101545317902047,
          -0.9266133342569716,
          -0.8764497208642741,
          -0.35252092936989055,
          0.9290766974199935,
          0.3056232741263252,
          -0.22253389859003536,
          0.4810762673205069,
          -0.15510024667546074,
          0.10182377933098108,
          -0.7733001896276643,
          -0.03005132892978568,
          0.980318268927526,
          0.19728427608291388,
          -0.3926010304858032,
          0.7100098007006648,
          -0.29755233744385645,
          -0.3001896868768499,
          -0.3663793339208383,
          -0.3904718121477855,
          -0.9180025728977896,
          -0.08398375367279276,
          0.5591976254953892,
          -0.8624495931006968,
          0.8153544524031091
        ],
        "playerName": "RFFSimulation",
        "converter": {}
      },
      "fitness": 0.0,
      "behaviours": [
        7.333333333333333,
        0.0,
        73.9,
        1.5333333333333334
      ]
    }
  ],
  [
    {
      "value": [
        34,
        31,
        14,
        9
      ]
    },
    {
      "x": {
        "agentConfig": [
          1,
          2,
          1,
          0,
          0,
          0,
          3,
          0,
          2,
          0
        ],
        "weights": [
          0.06589812683358831,
          -0.4334429427806752,
          -0.3630735989938625,
          -0.7104042485452349,
          -0.2718053136719236,
          -0.8628852070927127,
          -0.35131136851214584,
          0.9841238478670078,
          0.797036221419106,
          -0.5714796631416452,
          -0.834607101800581,
          0.42210481035231306,
          -0.3839016295045501,
          -0.22420104174980326,
          -0.15349871690200323,
          -0.9300243327242625,
          0.9146008283450155,
          -0.42127093955042483,
          -0.14769468920812479,
          0.13177011645257486,
          -0.011699127002569032,
          0.524194970412216,
          -0.7108548155490491,
          -0.06634564281143662,
          -0.6381045212322987,
          -0.23628084037929198,
          -0.792764362714035,
          -0.9949947124316714,
          0.7378258194930798,
          -0.6483458465218792,
          -0.7421508125410745,
          0.34608294202213585,
          -0.7818836025130844,
          -0.6782182771249745,
          -0.29550299651364487,
          -0.8991362783905856,
          0.2800231765853016,
          -0.335169443361957,
          0.38314016637370085,
          -0.6053829440430498,
          0.7929055576145283,
          0.1666912055504326,
          0.4193530589439236,
          0.44932375383383794,
          -0.5171233538753415,
          0.5768707997964313,
          0.035751971967417084,
          -0.7439504616588357,
          -0.3165717560321937,
          0.898997501415649,
          -0.37910727887524676,
          -0.9380967448697277,
          -0.04563321150640953,
          0.7299486793020513,
          -0.6187688218570215,
          -0.2797747869211187,
          0.2080371652302817,
          -0.47855632526599234,
          -0.6393678994064276,
          -0.4438346620853324,
          0.35095215705798455,
          0.39770684299430714,
          0.38730113016327494,
          0.8158286846014693,
          -0.8694137945448599,
          0.7350723809711843,
          -0.4040933599554324,
          -0.004321248977107173,
          0.8712312996677283,
          -0.9058315527417982,
          -0.4269523709193406,
          0.38990745402927174,
          -0.9105437725167791,
          0.292583087901761,
          -0.11288432700195017,
          -0.9530057423469067,
          0.5988476560734393,
          0.4156807625565171,
          -0.2110117467058037,
          -0.007307154604427879,
          -0.3546449795272437,
          -0.6144969790171906,
          -0.7921176693122232,
          0.05520080125710369,
          0.85870031144914,
          0.342453774241978,
          -0.18291204853844945,
          0.9192811796506215,
          0.36195435545590815,
          0.5417337510343001,
          0.9071905112190901,
          -0.8603774104781736,
          0.25052300741709876,
          -0.2737442995854984,
          0.07978360804760354,
          0.75973805884662,
          0.8334261964157454,
          -0.9899634581903796,
          0.36256230145866675,
          0.9112207672294641,
          -0.47610653820622817,
          0.19082866734138704,
          -0.7529203952109431,
          -0.690812114702926,
          -0.9270587754861834,
          0.10801859901342481
        ],
        "playerName": "RFFSimulation",
        "converter": {}
      },
      "fitness": 0.9333333333333333,
      "behaviours": [
        22.2,
        2.0,
        26.333333333333332,
        4.0
      ]
    }
  ],
  [
    {
      "value": [
        13,
        1,
        34,
        9
      ]
    },
    {
      "x": {
        "agentConfig": [
          0,
          3,
          3,
          1,
          0,
          1,
          0,
          0,
          2,
          1
        ],
        "weights": [
          -0.6764982553447558,
          0.7300713127054608,
          -0.8391455287428864,
          -0.13080586872816102,
          0.8893327239243158,
          -0.33113036675425467,
          0.45781217424596354,
          -0.9817774399591002,
          -0.8799154487956022,
          0.545879885108665,
          0.8133644021359769,
          -0.8817352415914352,
          -0.26764920903375544,
          0.9285159267713352,
          0.8588441559945752,
          -0.4220856241190478,
          -0.5409063501350262,
          0.5964128352973448,
          -0.2711261959687843,
          -0.9007304221069716,
          -0.906096725780023,
          0.36764632482335236,
          -0.1889874193460559,
          -0.6366432828657331,
          0.02008423757151845,
          -0.0109818766133285,
          -0.768884110170535,
          0.38817092626597294,
          0.2639367191530535,
          0.005263122640928097,
          0.16553254775966098,
          0.4087600029820042,
          -0.2067596156381002,
          0.09430004364713285,
          -0.8408446075731819,
          -0.6427065372125467,
          -0.22390915450852145,
          -0.25958716298631423,
          0.028732275809292496,
          0.06207414767458763,
          0.8218770069320191,
          0.3145154744234113,
          0.6437350006688678,
          -0.8620346105310532,
          0.8453303621595272,
          0.6404188764821557,
          -0.0975261361929427,
          0.20672344827993272,
          0.12621678072041487,
          0.9482837303170264,
          0.5590364924869222,
          -0.4357620189544045,
          -0.6186179381631782,
          0.7512091146172406,
          -0.7929794923663145,
          0.7027020899467933,
          0.22250352392634754,
          0.6281723817073821,
          0.6889194714034541,
          -0.8007529415754326,
          0.24204028198231553,
          0.1563006755740204,
          0.4754126937096226,
          -0.6014077629855421,
          -0.8484847665567434,
          0.3077215929503745,
          -0.8532996183881596,
          -0.9542212051014349,
          -0.10959691843265595,
          0.5110043379727285,
          0.008415214416896521,
          -0.4339323903774088,
          -0.5694611723481837,
          0.2744695082419786,
          0.08753359021636276,
          0.042601685619967355,
          0.12010146040815806,
          0.7784113580405105,
          0.2790984069163198,
          0.10844488668147756,
          -0.1571304474629347,
          -0.8344591956477092,
          0.25245812080836005,
          0.9481278891884983,
          0.012584253462159856,
          -0.6062752544622323,
          -0.12388455507581586,
          0.3948454325251156,
          0.4788972103819651,
          0.4623614905604143,
          -0.6168287243784627,
          -0.28703397483235404,
          -0.20947874950432177,
          -0.41650183406827623,
          -0.7252614662578465,
          0.0715300606364433,
          -0.057158413643422445,
          0.4410622985130779,
          0.046592834750451395,
          -0.057071676541656347,
          0.7313869797724057,
          -0.9336559297926559,
          -0.7752837297618078,
          0.7019687506218635,
          0.13920014122604396,
          0.055132654552610294
        ],
        "playerName": "RFFSimulation",
        "converter": {}
      },
      "fitness": 0.13333333333333333,
      "behaviours": [
        8.533333333333333,
        0.0,
        67.0,
        4.333333333333333
      ]
    }
  ],
  [
    {
      "value": [
        33,
        25,
        13,
        10
      ]
    },
    {
      "x": {
        "agentConfig": [
          1,
          2,
          1,
          0,
          0,
          1,
          1,
          2,
          4,
          0
        ],
        "weights": [
          0.6061422390359277,
          -0.4414709067926257,
          0.6858454863146484,
          -0.48712936901308,
          -0.5817621435144107,
          -0.485599573884516,
          0.8807426972831487,
          -0.6967533179399048,
          -0.24282362283494763,
          -0.3607665424121107,
          -0.2755751373970685,
          -0.9283409795896358,
          0.03299960025908999,
          0.8367523404270782,
          -0.7128585488528549,
          0.9859214102952694,
          -0.7776480735220017,
          -0.9032759893068225,
          0.3767207764785687,
          0.3886238222989864,
          -0.5486782667709353,
          0.6418028721185622,
          -0.24534446800231802,
          0.540608039990156,
          0.2332755967158937,
          -0.3691270538762068,
          0.41822296792771185,
          0.34589827288264097,
          0.2838657973143375,
          -0.9709436498182913,
          -0.9524226256377839,
          0.7278254293035304,
          0.7670318350252585,
          0.48731730709028187,
          -0.9453569621405562,
          -0.19540083378264073,
          -0.9300425350745454,
          -0.574608087075924,
          0.32102807179240145,
          0.3035983479633295,
          0.7615851740614852,
          0.45291837115064437,
          -0.32493256701715967,
          0.7571648935825133,
          -0.7415690745758203,
          0.5356495383981577,
          -0.5665027785445242,
          0.9387024346766815,
          -0.09691765157698407,
          -0.8794061952815191,
          0.921150184923714,
          -0.2736025224269649,
          -0.3450957174786895,
          0.3309361150468335,
          -0.21754553314114888,
          0.12289400394676298,
          -0.6008836464302725,
          0.5327381340123116,
          0.11140850346919384,
          -0.48722855533886644,
          0.9995476636544647,
          -0.19878612333843293,
          0.9520943224029179,
          -0.5943117349480413,
          -0.3479854605773449,
          -0.4528587401827546,
          -0.44031677140705416,
          -0.10842838740784422,
          -0.16059267063885163,
          0.6987332351771589,
          0.9622779272678832,
          -0.17475247336222588,
          0.24621406018797876,
          0.781559209624878,
          0.8268265705969351,
          0.36142247247626,
          -0.6406522629915083,
          -0.001126934443600014,
          0.4077329994052652,
          0.8769424281363369,
          -0.8362135403219861,
          -0.013031288634367089,
          0.4446805586328466,
          0.5457717336788719,
          -0.6643255554363845,
          0.30495072960817304,
          -0.7234244969705841,
          -0.12685152818148948,
          0.6421743113407845,
          0.9155731291274456,
          -0.8485926396596344,
          0.34889054745881287,
          -0.12349990811192346,
          -0.07643583716455171,
          -0.26278520788198745,
          -0.9541596844518283,
          -0.4117977861884423,
          0.6601216416476967,
          -0.822765122035727,
          0.4679526347303655,
          0.11291588330435687,
          0.8370286836857508,
          0.6827054005901836,
          0.243546472572705,
          0.9624246290642438,
          0.9411044160832294
        ],
        "playerName": "RFFSimulation",
        "converter": {}
      },
      "fitness": 0.9333333333333333,
      "behaviours": [
        21.966666666666665,
        1.6,
        25.333333333333332,
        4.633333333333334
      ]
    }
  ],
  [
    {
      "value": [
        14,
        5,
        30,
        7
      ]
    },
    {
      "x": {
        "agentConfig": [
          0,
          0,
          0,
          0,
          2,
          2,
          1,
          2,
          3,
          2
        ],
        "weights": [
          -0.9349596267836484,
          0.03004943707137886,
          0.8890392009775194,
          0.8504924220810179,
          0.32393976989521933,
          -0.25710715036038945,
          0.8860428905625233,
          0.7778266319724534,
          0.8293091893064293,
          -0.39052656888248416,
          -0.264975678230422,
          0.023771000854161617,
          -0.22354628192816106,
          -0.2298882882262614,
          -0.4387596465311878,
          -0.48319098667313054,
          -0.24188922583919226,
          -0.5754699455130234,
          0.5413345102004166,
          -0.5291543440900008,
          0.6992266387426618,
          0.8865023615383505,
          -0.5790720998163352,
          0.6397449940937101,
          0.07413708634673832,
          0.24502039991641533,
          0.3970418278453156,
          -0.15105385912833125,
          -0.46170714782315936,
          0.7880424211987334,
          0.28362657889473875,
          0.004170129558825453,
          -0.9929378182799806,
          0.8859073286894836,
          0.6851101238323896,
          0.4744954412973872,
          0.4270324268746708,
          0.38501221945548636,
          0.022023107330127134,
          -0.7431542948243612,
          -0.9893764052654499,
          0.7283670831546534,
          -0.3156056698676686,
          -0.3488015375437339,
          -0.45728212317783856,
          -0.001843925641132671,
          -0.6672450755518899,
          -0.6894098822690589,
          -0.4816006445211327,
          0.8664508056933762,
          0.42322666883155136,
          0.47725675568871284,
          -0.6662120738613013,
          -0.9562648784411425,
          0.40231331848683194,
          0.9760175847346848,
          0.5273444166053589,
          0.23091936298127758,
          0.6986523553241581,
          0.10827183469056822,
          0.15691143355537185,
          0.8090342857962307,
          -0.3668730491862582,
          -0.025253352308744148,
          0.7981479173849662,
          -0.4581866976874176,
          0.6753768821693302,
          0.952399253080529,
          -0.637095930027364,
          0.4198858519788802,
          -0.9061109438604731,
          0.06064061453473979,
          -0.03852540288292583,
          0.44132045966195776,
          -0.02151171288661402,
          0.7743163373167217,
          0.37055969414547163,
          0.6017722188475301,
          -0.14181015122516616,
          0.4756428986239789,
          0.3191519788424946,
          -0.3414956573450061,
          0.6940157002615646,
          -0.8154341791722237,
          0.7674597499016127,
          0.3360700382553419,
          0.8955172813840586,
          0.46676977210896875,
          0.6293670677229168,
          0.5574550481622895,
          -0.8086121727814404,
          0.4908379903022053,
          0.9768219593887495,
          0.012998785001540503,
          -0.32131143491698944,
          0.09082246288426621,
          0.6649336932964127,
          0.9204256439732652,
          0.18185297610720563,
          -0.6122463652950791,
          -0.47054751487753177,
          -0.8171645016924236,
          -0.8282254010430716,
          -0.9666181569021439,
          -0.16630607295201472,
          0.317516385212282
        ],
        "playerName": "RFFSimulation",
        "converter": {}
      },
      "fitness": 0.16666666666666666,
      "behaviours": [
        9.066666666666666,
        0.26666666666666666,
        59.733333333333334,
        3.1333333333333333
      ]
    }
  ],
  [
    {
      "value": [
        24,
        16,
        22,
        12
      ]
    },
    {
      "x": {
        "agentConfig": [
          0,
          3,
          2,
          0,
          2,
          2,
          1,
          3,
          4,
          2
        ],
        "weights": [
          0.5320121259110859,
          -0.5688725924523614,
          0.6945845393158783,
          0.7804218220414079,
          -0.8008143446319922,
          -0.39192844428186224,
          0.4715946540501641,
          0.5382642939821478,
          0.005366704154005308,
          0.9917614462530893,
          -0.2355727065455635,
          -0.5600712833071251,
          0.8578831621244989,
          0.552520995101583,
          0.0084250683279532,
          -0.29338321578471427,
          0.42027131309226506,
          0.7080445402413442,
          -0.12256996275919163,
          -0.2497319605236652,
          0.6060389867531,
          -0.9224939525358882,
          0.859811780634383,
          0.16362814411885895,
          0.9855698686741827,
          0.7571014654981412,
          0.4531116989330708,
          -0.6777653723143198,
          0.9531545437543751,
          -0.6683160396824628,
          -0.9520788243296361,
          0.794426074593608,
          0.2765224398191217,
          -0.7468304357909741,
          -0.7467484666414428,
          -0.6722536173457174,
          -0.2608581292565908,
          -0.5550958512764426,
          0.40979526408753597,
          0.5648812168861312,
          0.9859443292401862,
          0.03219985707840456,
          0.3441177987874513,
          -0.16047031693770086,
          0.39602090274289203,
          0.9527633265587085,
          -0.9640402588607309,
          -0.5876208438559023,
          -0.16877182514085365,
          0.8667560495298849,
          0.8024710044638592,
          -0.6703817214955128,
          -0.552467270171147,
          -0.7352609209640686,
          0.8473377021345758,
          0.721186818617062,
          0.40631310674960774,
          -0.0372258622733912,
          0.5794040072560025,
          -0.19677167358361292,
          0.2857296283372124,
          0.27746551001873865,
          -0.025468166676328563,
          0.10897649557016509,
          -0.7323380378418567,
          -0.9102555364664853,
          0.4360815115586578,
          -0.45542847234841166,
          0.763605732929109,
          0.7347129957891463,
          0.10353706982947508,
          -0.24893081529218564,
          0.043310340219662624,
          0.19587944590087392,
          -0.634558495770775,
          -0.04883036524445017,
          0.6428296314614861,
          0.43563420359039773,
          -0.5480537736706006,
          -0.031039562528854203,
          0.8540491396666701,
          0.8598290613084552,
          -0.5860788958152581,
          -0.5667678160794438,
          -0.5643573543472353,
          0.8928396732043411,
          0.5397116202818415,
          0.3096911033609391,
          0.8358034521778517,
          0.43050654079044204,
          0.31726937334239347,
          -0.1453395882570998,
          -0.3200159056087437,
          -0.4581355506677598,
          0.4185247612680514,
          0.8426245950278586,
          0.05227048284576341,
          -0.7934127646510307,
          0.8645092854087646,
          -0.5077605389133879,
          -0.8130930102482503,
          -0.8964105942344156,
          -0.47612333569220655,
          0.9001946597059447,
          -0.41312177698034747,
          -0.4927575532758548
        ],
        "playerName": "RFFSimulation",
        "converter": {}
      },
      "fitness": 0.2,
      "behaviours": [
        15.933333333333334,
        1.0333333333333334,
        43.46666666666667,
        5.933333333333334
      ]
    }
  ],
  [
    {
      "value": [
        24,
        9,
        24,
        12
      ]
    },
    {
      "x": {
        "agentConfig": [
          1,
          1,
          3,
          0,
          1,
          2,
          2,
          3,
          1,
          1
        ],
        "weights": [
          -0.635635739150521,
          0.9530825607860656,
          -0.5874698819411686,
          -0.3343697526257381,
          -0.877932747750845,
          0.9734868537963395,
          -0.7117101156320944,
          0.6157660693350295,
          0.7228611641641365,
          0.12572037732798025,
          -0.44915285609462474,
          -0.36764214298820064,
          -0.48482166007104044,
          0.8394775275081776,
          0.03986665032753689,
          -0.47286493955209874,
          -0.4930816752715719,
          -0.011052837829188977,
          0.4812775382647507,
          -0.590864086713546,
          0.27997862164808307,
          -0.006933502571799144,
          -0.4611361316881242,
          -0.9522393925219104,
          -0.5981189727207765,
          -0.3257621275977991,
          0.16949883325772364,
          0.4475648851709324,
          0.12581363572274218,
          0.745442367907702,
          0.6563521667385699,
          -0.7794515119992691,
          -0.5854497229731874,
          -0.5695494665453855,
          -0.6552106606230415,
          -0.3672912069419043,
          -0.11965067080170222,
          0.16909474223254795,
          0.06857267566964032,
          -0.6948553894467944,
          -0.8979255807047579,
          -0.38066533546737236,
          0.5293650309411344,
          0.4660121267071462,
          0.9624208663658569,
          0.24011228777393212,
          -0.5195733319761096,
          0.3781493100807054,
          0.14227098592736565,
          -0.37624111442289765,
          0.4657877031365263,
          0.10820176719619057,
          0.7158435790661146,
          0.44398129280453036,
          0.07906789659231594,
          0.1565977125788538,
          0.9094420788216655,
          0.3952214007695263,
          -0.7684928533683677,
          -0.3662633886306985,
          0.5182479721636315,
          -0.17855212273318055,
          0.7566600785441506,
          0.6462696460071748,
          -0.7802549413022868,
          0.8672045576352954,
          -0.170400711461703,
          -0.6516318290390908,
          -0.9209978644632093,
          -0.0689937774317948,
          -0.8586384306707378,
          -0.2836093551531691,
          0.9101816855445555,
          0.9609371916503802,
          0.5447632990246412,
          -0.4786266899339571,
          -0.15971704557400934,
          0.7045751035212127,
          0.9756004078214355,
          0.20228786810313482,
          0.4152678513779249,
          0.410126268334537,
          0.8536401040915771,
          -0.615977264134042,
          -0.10464006857868302,
          -0.32707421214204224,
          -0.11929832969987575,
          0.6375615095507783,
          0.005446202394368216,
          -0.8687788993981667,
          0.17851427563809397,
          -0.25415283376310627,
          0.3381527288101809,
          -0.4625772629290328,
          0.046930121400114544,
          0.21733639919079306,
          0.8513050279445766,
          -0.6342280039216466,
          -0.7265371728881438,
          -0.9197357919937916,
          0.45812619986269,
          -0.43535894682192366,
          0.8880100847255208,
          -0.9058455805793306,
          -0.4223354339754042,
          0.3214463588381129
        ],
        "playerName": "RFFSimulation",
        "converter": {}
      },
      "fitness": 0.5666666666666667,
      "behaviours": [
        15.733333333333333,
        0.5666666666666667,
        47.166666666666664,
        5.533333333333333
      ]
    }
  ],
  [
    {
      "value": [
        33,
        33,
        14,
        10
      ]
    },
    {
      "x": {
        "agentConfig": [
          1,
          2,
          1,
          0,
          0,
          1,
          1,
          2,
          3,
          0
        ],
        "weights": [
          0.6061422390359277,
          -0.4414709067926257,
          0.6858454863146484,
          -0.48712936901308,
          -0.5817621435144107,
          -0.485599573884516,
          0.8807426972831487,
          -0.6967533179399048,
          -0.24282362283494763,
          -0.3607665424121107,
          -0.2755751373970685,
          -0.9283409795896358,
          0.03299960025908999,
          0.8367523404270782,
          -0.7128585488528549,
          0.9859214102952694,
          -0.7776480735220017,
          -0.9032759893068225,
          0.3767207764785687,
          0.3886238222989864,
          -0.5486782667709353,
          0.6418028721185622,
          -0.24534446800231802,
          0.540608039990156,
          0.2332755967158937,
          -0.3691270538762068,
          0.41822296792771185,
          0.34589827288264097,
          0.2838657973143375,
          -0.9709436498182913,
          -0.9524226256377839,
          0.7278254293035304,
          0.7670318350252585,
          0.48731730709028187,
          -0.9453569621405562,
          -0.19540083378264073,
          -0.9300425350745454,
          -0.574608087075924,
          0.32102807179240145,
          0.3035983479633295,
          0.7615851740614852,
          0.45291837115064437,
          -0.32493256701715967,
          0.7571648935825133,
          -0.7415690745758203,
          0.5356495383981577,
          -0.5665027785445242,
          0.9387024346766815,
          -0.09691765157698407,
          -0.8794061952815191,
          0.921150184923714,
          -0.2736025224269649,
          -0.3450957174786895,
          0.3309361150468335,
          -0.21754553314114888,
          0.12289400394676298,
          -0.6008836464302725,
          0.5327381340123116,
          0.11140850346919384,
          -0.48722855533886644,
          0.9995476636544647,
          -0.19878612333843293,
          0.9520943224029179,
          -0.5943117349480413,
          -0.3479854605773449,
          -0.4528587401827546,
          -0.44031677140705416,
          -0.10842838740784422,
          -0.16059267063885163,
          0.6987332351771589,
          0.9622779272678832,
          -0.17475247336222588,
          0.24621406018797876,
          0.781559209624878,
          0.8268265705969351,
          0.36142247247626,
          -0.6406522629915083,
          -0.001126934443600014,
          0.4077329994052652,
          0.8769424281363369,
          -0.8362135403219861,
          -0.013031288634367089,
          0.4446805586328466,
          0.5457717336788719,
          -0.6643255554363845,
          0.30495072960817304,
          -0.7234244969705841,
          -0.12685152818148948,
          0.6421743113407845,
          0.9155731291274456,
          -0.8485926396596344,
          0.34889054745881287,
          -0.12349990811192346,
          -0.07643583716455171,
          -0.26278520788198745,
          -0.9541596844518283,
          -0.4117977861884423,
          0.6601216416476967,
          -0.822765122035727,
          0.4679526347303655,
          0.11291588330435687,
          0.8370286836857508,
          0.6827054005901836,
          0.243546472572705,
          0.9624246290642438,
          0.9411044160832294
        ],
        "playerName": "RFFSimulation",
        "converter": {}
      },
      "fitness": 1.0,
      "behaviours": [
        21.7,
        2.1333333333333333,
        26.6,
        4.866666666666666
      ]
    }
  ],
  [
    {
      "value": [
        10,
        2,
        13,
        7
      ]
    },
    {
      "x": {
        "agentConfig": [
          1,
          1,
          1,
          0,
          2,
          1,
          3,
          0,
          2,
          0
        ],
        "weights": [
          -0.6458218211393465,
          0.487182854527457,
          -0.6303941171342649,
          -0.22691599150725628,
          0.8724102534773863,
          -0.015967654256594077,
          0.9657634656297249,
          0.6072536028895756,
          0.027867624009629166,
          -0.3427974831876357,
          -0.060428602218656424,
          0.9876994737773279,
          -0.01331591920354902,
          -0.8875613462296705,
          0.5111145201238125,
          0.0790372293816215,
          0.18461892759549747,
          -0.9650295224923091,
          -0.9022311520765445,
          0.7917470335826831,
          -0.9048705185795631,
          -0.022471674516164164,
          -0.7477840501462958,
          -0.5346409708020945,
          0.7934583375247433,
          -0.4722366258853672,
          -0.28770165157300753,
          0.6084414399298987,
          -0.09995180515896851,
          0.3841858485709069,
          -0.3490877717931973,
          -0.2627993393594741,
          -0.675511662344046,
          -0.15175003293102862,
          -0.04172667833024457,
          0.4892676848386215,
          -0.6184133790179653,
          0.03123170865656233,
          -0.5544666804559362,
          -0.8634884079184566,
          -0.6859479799857129,
          -0.3219407324769987,
          0.2278644829490204,
          0.3804855163538543,
          -0.968337054966331,
          0.926272461874176,
          -0.7732292805904251,
          0.8863776521207423,
          -0.03531211307985038,
          -0.4531964894143141,
          0.26226605658244817,
          -0.6038968606307282,
          -0.6702851073412348,
          -0.7457137457139462,
          0.21826561370997166,
          0.4584410134415733,
          -0.18106315818426855,
          -0.4718829703438623,
          0.41245291532765993,
          0.8238836472387145,
          0.7493316364167815,
          0.05150627802613772,
          0.17597151728172022,
          -0.6258666280571019,
          -0.9539356132788361,
          -0.6457252526571959,
          0.46437491928656005,
          -0.9090541101258724,
          -0.9151678401930246,
          0.5361647508942513,
          -0.17964621048280183,
          -0.9837146581277383,
          -0.6192396039484465,
          -0.9490479908442906,
          -0.09332297673096179,
          -0.5844771972190379,
          -0.6131481436591737,
          0.447659268523823,
          0.7154884023687653,
          0.4276740818580538,
          -0.7471211262209461,
          -0.30631140370437815,
          -0.4090178610574937,
          -0.6285607545439893,
          -0.7039990037516253,
          0.24570499502101106,
          0.009122760733106805,
          0.5730720086535168,
          0.14728019778167734,
          0.38761937388439827,
          -0.8227861744695897,
          0.09187203087199158,
          -0.9363433554865206,
          0.5210344964936848,
          -0.05223885574986542,
          0.041359164832919015,
          0.7328385712873895,
          0.0720338596174046,
          0.2852176682220602,
          -0.6610449561599625,
          0.04895090288344006,
          0.46920780419967345,
          0.5808364827339672,
          -0.3357387521133326,
          -0.2003232170761553,
          -0.7486721900677962
        ],
        "playerName": "RFFSimulation",
        "converter": {}
      },
      "fitness": 0.03333333333333333,
      "behaviours": [
        6.533333333333333,
        0.1,
        25.866666666666667,
        3.1333333333333333
      ]
    }
  ],
  [
    {
      "value": [
        14,
        2,
        42,
        5
      ]
    },
    {
      "x": {
        "agentConfig": [
          1,
          0,
          1,
          0,
          0,
          1,
          0,
          2,
          0,
          2
        ],
        "weights": [
          0.8403022636486228,
          0.7502609201833732,
          -0.9104015945290429,
          -0.430337934405036,
          -0.20368565484772727,
          0.7697949122583632,
          -0.4791106290956799,
          0.7837282789450386,
          0.7182022384381446,
          0.372225809923443,
          0.38044614832582946,
          0.7871183928475693,
          0.16997130949145833,
          0.13745697828634618,
          -0.0993465796329005,
          0.01344913739264686,
          -0.05004546418850464,
          -0.15636961612257627,
          -0.32142807297349996,
          -0.08892379437498987,
          -0.5350363721132094,
          -0.7430097222618337,
          0.5369202434925686,
          0.33322037950424677,
          0.6266755619372202,
          -0.13607505570034517,
          -0.7086389999827891,
          0.23175302143930088,
          0.9940304090561807,
          -0.7372218564690214,
          -0.19767212218984032,
          0.6505515427437998,
          0.6117605282874896,
          -0.3072146943979097,
          -0.7382116207164371,
          0.4303514630391294,
          0.9803073074941657,
          -0.2502437591937807,
          0.37906604888085615,
          -0.7344634765960829,
          0.9437249260706615,
          -0.2771082484152596,
          0.8398070852791013,
          -0.20567533666165416,
          -0.08978861727507725,
          0.18438700206431236,
          -0.4940747559317835,
          0.25732271596120215,
          -0.22421089573504283,
          0.4732397539474924,
          -0.3763238884043405,
          -0.0745607812949387,
          -0.8137939864699439,
          0.5369478675914567,
          0.02576156570240329,
          0.9766587846093322,
          0.016268911443012346,
          0.2295457671069825,
          -0.7266732542250731,
          0.7921988733872274,
          -0.49753932027613224,
          0.6116949511950818,
          -0.7275619057592564,
          -0.2539156869243189,
          0.3338342067370832,
          0.058309931676645776,
          0.9717937863611221,
          -0.52180936481499,
          -0.8121831857339283,
          0.051465606459119906,
          -0.6636927454284567,
          -0.630676397198781,
          -0.30830208298738926,
          -0.5789011026745148,
          -0.30840451652828516,
          0.47791666905860297,
          0.5972159675937758,
          -0.5067180543306478,
          0.7472950501751299,
          0.5514457778047213,
          0.07479853338468145,
          0.11561058247252709,
          -0.8674822595228127,
          0.8916736240783132,
          0.46565219755593246,
          -0.14848253958336555,
          0.11465074931801778,
          -0.16864562471814137,
          0.5740382324067763,
          0.7700836195965066,
          -0.6769054730348727,
          0.3710426360974306,
          0.6387113210397626,
          -0.7948099075707185,
          0.7624238863719688,
          -0.8718318220711532,
          0.4916389637233789,
          0.6176143019955507,
          -0.8251526467176415,
          0.16655206388607335,
          0.09375973043389241,
          -0.7340564092819679,
          -0.10026865713002642,
          0.5030564223377423,
          -0.3683205207226252,
          -0.22305700898514225
        ],
        "playerName": "RFFSimulation",
        "converter": {}
      },
      "fitness": 0.06666666666666667,
      "behaviours": [
        8.733333333333333,
        0.1,
        83.2,
        2.2
      ]
    }
  ],
  [
    {
      "value": [
        34,
        30,
        13,
        8
      ]
    },
    {
      "x": {
        "agentConfig": [
          0,
          1,
          1,
          1,
          1,
          0,
          1,
          2,
          0,
          0
        ],
        "weights": [
          0.40016598035940354,
          -0.8209970424359478,
          -0.7242596005558628,
          0.6574513276387977,
          -0.45669737761279494,
          -0.5689627570066378,
          0.42290787269836017,
          0.16768863227956743,
          0.7503753204617691,
          -0.7650301779065145,
          0.6343600054501379,
          -0.6123950626336139,
          -0.35994280828298186,
          0.36609584022938146,
          -0.023183805245236222,
          0.35292399156273935,
          0.0850106796401271,
          -0.11613430116133205,
          -0.9632247602095336,
          0.15109834917657872,
          -0.001429851822024597,
          -0.4844472496080614,
          -0.7298855818473209,
          0.4781308816427843,
          -0.8605761242366268,
          -0.9910141353010558,
          0.9091475058986993,
          -0.1766948373365287,
          0.29299927961414074,
          0.39947590700831914,
          -0.803021685638825,
          -0.10410067544303425,
          -0.6613539449745947,
          0.9270816162011375,
          -0.22437381562012004,
          0.8552234631090572,
          0.17460116034868656,
          -0.05612504993323397,
          -0.5764580027610879,
          0.6650869163040443,
          -0.7518881647095774,
          -0.43311742172249357,
          -0.9802280610027694,
          0.46606670237786774,
          -0.4740172563504714,
          0.06089548458392602,
          -0.39383090934349463,
          0.24371463768102464,
          -0.8587963169333188,
          0.9763538694354497,
          -0.27430855313794256,
          -0.7318945769487135,
          -0.3357946876064737,
          -0.07896953225122494,
          0.8339671179979644,
          -0.21010501573649676,
          0.97268105823363,
          0.510251686074431,
          -0.48705286485989663,
          0.3003222430302408,
          0.03180356744243573,
          -0.4810899142480669,
          0.4596076266961424,
          0.29735480668129544,
          -0.45294476778541015,
          0.5495389092029017,
          0.7793032788639891,
          -0.052556759458706415,
          -0.5852177467358084,
          -0.3657662461636475,
          -0.01748555080158165,
          -0.7078846209991152,
          -0.8290268336695152,
          -0.8957765530554973,
          -0.7346280323408094,
          0.720907247804013,
          -0.7733473318209685,
          -0.2105941758042904,
          0.14848259861638025,
          -0.6831078093255043,
          0.5786725332185274,
          0.1511823316966392,
          0.3552206983045487,
          0.3783368638468938,
          0.8975720101070062,
          0.30543826272745367,
          -0.07020966543381513,
          -0.0702230052315036,
          -0.5804293130939229,
          -0.9414666236401226,
          -0.9729955398151762,
          0.3580721433867404,
          -0.0923524971349674,
          -0.9423180462273533,
          0.5498669421568447,
          -0.5562355559818384,
          0.09704982833634634,
          0.948117095576869,
          -0.13231519928680746,
          -0.994669093630757,
          -0.4965318802204166,
          0.03295017697161429,
          0.21657850631337894,
          -0.8663137502471479,
          -0.7524991707905313,
          0.34765178418402076
        ],
        "playerName": "RFFSimulation",
        "converter": {}
      },
      "fitness": 0.9333333333333333,
      "behaviours": [
        22.133333333333333,
        1.9666666666666666,
        24.833333333333332,
        3.8
      ]
    }
  ],
  [
    {
      "value": [
        29,
        29,
        18,
        15
      ]
    },
    {
      "x": {
        "agentConfig": [
          0,
          5,
          2,
          1,
          1,
          2,
          1,
          3,
          3,
          0
        ],
        "weights": [
          -0.09693773384581261,
          -0.17228238138001606,
          -0.24329712922637348,
          0.030478875682279805,
          0.3487837271168155,
          -0.7169241254497181,
          0.05764508228677223,
          -0.7019039344032725,
          0.9457962322655677,
          0.16661124639730307,
          -0.7360922934216785,
          -0.8503601119273432,
          0.1935679529271368,
          -0.7850359636137367,
          0.8980859910488839,
          0.953435927345317,
          -0.1494994865785706,
          0.6876576657794364,
          -0.2257344278759177,
          0.8023877100830614,
          -0.5785340695045382,
          -0.4725205748649288,
          -0.711243685236628,
          -0.8058847711980455,
          0.6016669540032655,
          0.12331890942171797,
          -0.7411452421603715,
          -0.7917657793101753,
          0.6009541647366172,
          -0.5092903740146919,
          0.9417768951635506,
          -0.16315695235516436,
          0.7668743446868387,
          -0.429913138132028,
          0.7662924420574548,
          0.6653004078563103,
          -0.26863615672745134,
          -0.9599611171210471,
          -0.47751639776469146,
          0.4538908497534182,
          0.42514268857367465,
          0.5525953176183889,
          -0.7195592878656205,
          -0.6630071388570458,
          -0.2644948820149451,
          0.6198619830290739,
          0.1465987681402252,
          0.33487871927021384,
          0.3273429187688386,
          0.5160762088599267,
          -0.8831910485440271,
          0.6642904538897061,
          0.20387837305772627,
          -0.49357613290226343,
          -0.25186993893919496,
          0.9374535363296475,
          0.9527251840569606,
          0.47372326572883816,
          0.1467150849907013,
          0.7552039283601528,
          0.30453476541930535,
          0.5863479336057789,
          -0.14294046622246337,
          0.42842059767334706,
          0.6256276346861473,
          0.035525455553516716,
          -0.36173220391999306,
          0.6029709556755793,
          0.27264880778843437,
          0.06741508972471077,
          -0.17411485779677505,
          0.4168923881936557,
          -0.6435719052451521,
          -0.45486735561660274,
          -0.9967669435036479,
          0.4845488325852876,
          -0.6061347942737934,
          -0.9018433190648203,
          -0.9559228144377594,
          -0.5189837480555377,
          -0.4291980609806938,
          -0.4486841578467349,
          -0.7611537073060979,
          0.3909677892327792,
          0.8954828530069323,
          0.7728227109523322,
          -0.8204874256122601,
          0.5898435828763822,
          -0.608652378156495,
          0.34058481751541825,
          -0.6463660375824483,
          0.841106906051349,
          0.6595379731961226,
          0.49828954238495227,
          -0.014051083911497564,
          -0.9161228631404241,
          0.6356432506150469,
          0.757525428787873,
          0.5663060583100648,
          0.9304554202336004,
          -0.8281505839457732,
          0.19946734213929918,
          0.7156010113340605,
          -0.11795829960487447,
          0.19479608348254995,
          0.03941905471970797
        ],
        "playerName": "RFFSimulation",
        "converter": {}
      },
      "fitness": 0.23333333333333334,
      "behaviours": [
        19.266666666666666,
        1.8666666666666667,
        34.63333333333333,
        7.066666666666666
      ]
    }
  ],
  [
    {
      "value": [
        29,
        21,
        18,
        12
      ]
    },
    {
      "x": {
        "agentConfig": [
          0,
          5,
          3,
          0,
          1,
          1,
          2,
          2,
          2,
          0
        ],
        "weights": [
          -0.7904621627639976,
          -0.43516074832999085,
          0.17685634496753333,
          -0.35054241594026236,
          0.060140289262973656,
          0.6887865121361134,
          0.007087457220765536,
          -0.3079549320781054,
          -0.7031257850743289,
          -0.029154312293835805,
          0.2079766505396774,
          -0.9653318032127607,
          0.45230528430612216,
          0.14972208630602557,
          -0.523070956749659,
          -0.5389819432948013,
          0.6558331934084316,
          -0.5084297014318409,
          -0.527620992683308,
          0.30009611872201747,
          -0.4649455092450625,
          -0.203364414338294,
          -0.6123875149207982,
          -0.46230434540259435,
          0.1889271116732354,
          -0.2414040227249299,
          -0.5267470387301458,
          -0.883325421825679,
          -0.7103165928477901,
          0.43716515449299576,
          0.3983649937653304,
          0.152398829683684,
          -0.8854226328293981,
          -0.26071994565440315,
          0.49051897312282233,
          -0.41924850441061534,
          -0.6348070379616779,
          0.7514637897413121,
          0.3580524558053719,
          0.35961831443564996,
          -0.9988179968215272,
          0.5257197878065134,
          0.17315357187899205,
          0.7607756257927931,
          -0.0030608762805399703,
          -0.5064209919029226,
          0.982282134968181,
          0.5176231284829089,
          -0.07613677276213737,
          -0.9323129592083985,
          -0.18916406127318175,
          0.6352182243858768,
          0.5674946094478859,
          0.1875839495892968,
          -0.9581413689467815,
          -0.4774141453619176,
          -0.5920415011490914,
          0.5760957523273786,
          -0.4260217797261556,
          0.7732921917212072,
          -0.27621512438163287,
          -0.7049788273945767,
          0.6016541167499638,
          -0.6012133746693302,
          -0.6766827772409079,
          -0.17643648042631188,
          0.5112020563246946,
          -0.3899679439520143,
          -0.5354390643366884,
          -0.6697768256537997,
          -0.6510430789380257,
          0.3464592443694825,
          0.39346544919785353,
          0.06863112063288068,
          -0.40667606592185046,
          0.6672964065306832,
          0.11227185780294957,
          0.9000709959617494,
          0.5503593165589853,
          -0.15115909054931942,
          0.4837014966138855,
          0.8302009832712698,
          0.592911898662045,
          0.5722557950040208,
          -0.4166011812191408,
          0.14475382878650334,
          0.676248504414876,
          -0.06001111417465932,
          -0.6678155934969927,
          0.2387584733700776,
          0.08847585935208935,
          0.22492868574312475,
          0.8713138190609202,
          0.556092128308662,
          -0.7680376153482074,
          -0.7650738819157687,
          0.8880783991746419,
          0.19093767900180048,
          0.3823546025386231,
          0.966327384327178,
          0.15572545715663066,
          0.6499868095650678,
          -0.16532728025973698,
          0.8236784003168214,
          0.9208153146066096,
          -0.9660054940332281
        ],
        "playerName": "RFFSimulation",
        "converter": {}
      },
      "fitness": 0.3,
      "behaviours": [
        19.233333333333334,
        1.3666666666666667,
        35.833333333333336,
        5.966666666666667
      ]
    }
  ],
  [
    {
      "value": [
        31,
        28,
        18,
        9
      ]
    },
    {
      "x": {
        "agentConfig": [
          0,
          5,
          2,
          1,
          1,
          2,
          3,
          3,
          0,
          1
        ],
        "weights": [
          0.4790537196504303,
          0.3392939981113485,
          0.953503811223785,
          0.8033980361731217,
          0.11588736014231293,
          0.553980237454279,
          -0.21094308456407096,
          -0.5886483907780604,
          -0.5761956747388595,
          -0.11769995434949188,
          0.27536546185769595,
          0.7601865790224613,
          -0.7813606788101819,
          0.3359490214355403,
          -0.4313336449604024,
          0.0629715990149462,
          0.39190735607310256,
          0.642230849618463,
          -0.20860117127635514,
          -0.0732164181975894,
          -0.3246714028738571,
          0.5775367967048219,
          -0.3693885047512282,
