[
  [
    {
      "value": [
        30,
        25,
        13,
        10
      ]
    },
    {
      "x": {
        "agentConfig": [
          0,
          1,
          0,
          1,
          2,
          0,
          0,
          1,
          1,
          2
        ],
        "weights": [
          0.8210667112037167,
          -0.3060520104719837,
          0.6073427843622636,
          -0.28392489304855495,
          0.10702707473038098,
          0.3512001650685477,
          0.2718794578788184,
          0.9428888067735919,
          -0.4998598011835236,
          0.9928492148561117,
          -0.261358117841922,
          -0.792984054217444,
          0.6822458511912959,
          -0.4007023465081374,
          -0.1635307875826868,
          -0.3146458626740003,
          0.69434401290005,
          0.7930364018436955,
          -0.9910338698425549,
          0.07301768176066803,
          0.2614237454601205,
          -0.11664063603688901,
          -0.1463267904578609,
          -0.15274697427074857,
          -0.4974668588511395,
          0.5771562706319331,
          -0.23938037578557148,
          0.3854518239468483,
          -0.18966970209944956,
          0.35731047325790066,
          -0.28327435878390594,
          -0.9274237964364567,
          -0.4855657284109356,
          -0.3115702876632107,
          0.9538499764942954,
          0.7227643085879121,
          -0.16452649495820904,
          -0.06965714916385979,
          -0.20789388778560447,
          -0.608162375673494,
          0.5918060632718278,
          0.1229970616791427,
          0.7663985830735096,
          0.971884055246919,
          0.13846561828012538,
          0.6520946061323167,
          0.9229595569790505,
          -0.16395562992822166,
          -0.9020360784695254,
          0.2130100566536004,
          0.03399329447206778,
          -0.7589176807069802,
          0.5851596634421214,
          -0.5387670915483622,
          0.4023646984035567,
          -0.8027271729563825,
          0.8334812726754208,
          0.27078353157311796,
          -0.08540407456100296,
          -0.9204060407499728,
          -0.6026311562785489,
          -0.38224733240156095,
          -0.9507363176908585,
          -0.6188361232412141,
          -0.5641198846882203,
          -0.23568075837398172,
          0.6592170775647348,
          -0.30068542382570196,
          -0.025018676222564373,
          -0.36069665701171383,
          0.5198653202080672,
          0.29664964782127035,
          -0.49887633728258063,
          0.09451413512561424,
          0.8721110239655936,
          0.39388486707871495,
          -0.24371653352187006,
          0.06185708031778203,
          0.487334678423335,
          -0.2717760658288577,
          0.1847226464723004,
          -0.45563418568426073,
          -0.8568371535080244,
          0.8504754790211029,
          -0.8756968590924528,
          0.8450295047703558,
          -0.17741910518264792,
          0.1360693167914373,
          -0.4597309654499717,
          -0.5295126033957387,
          0.43528029158347104,
          -0.45041556396923177,
          0.8669861284163494,
          0.742366921175005,
          0.408956423134893,
          0.8293531392778413,
          0.35320848074271116,
          -0.692755348801666,
          0.10960356340262645,
          0.9481597251369169,
          -0.8009817562865917,
          0.4569113842067194,
          0.723679899137303,
          0.4580048825567451,
          0.7276647966940599,
          0.45382757830997833
        ],
        "playerName": "RFFSimulation",
        "converter": {}
      },
      "fitness": 0.9,
      "behaviours": [
        19.7,
        1.6,
        25.733333333333334,
        4.966666666666667
      ]
    }
  ],
  [
    {
      "value": [
        23,
        10,
        37,
        2
      ]
    },
    {
      "x": {
        "agentConfig": [
          1,
          0,
          3,
          1,
          1,
          0,
          3,
          0,
          4,
          0
        ],
        "weights": [
          -0.08982770676966578,
          0.6311375760034479,
          -0.6021958788575956,
          0.9522148587605201,
          0.9385850216521494,
          -0.6641969400524899,
          0.841291369746975,
          0.3362627711404429,
          0.9041469286360468,
          0.30217048277399283,
          -0.8561752043085982,
          0.14684103237740165,
          -0.8120586276261508,
          -0.9874849005032214,
          0.03140043469449538,
          0.8807395326022478,
          -0.77926458740906,
          -0.10123744013809621,
          0.8169081828387248,
          -0.053709838893939654,
          -0.10797512882151672,
          -0.17684266300524598,
          -0.6355243484111652,
          -0.00793349371510188,
          0.9095973241963289,
          -0.3115194081654846,
          -0.9130589447876079,
          -0.42975879589317656,
          0.021783212188292822,
          0.11195975246440737,
          0.09402381390048986,
          -0.6255920703604003,
          0.1883932607564176,
          0.3489665157448567,
          -0.33823540138014785,
          0.07487866331758974,
          0.022669389028387332,
          0.46705265327499723,
          -0.5875771684956654,
          -0.8798307015709759,
          -0.8745962533725506,
          -0.8521746448428329,
          0.6880860689419936,
          -0.21840993566042544,
          -0.7062916028320989,
          -0.5663812954599377,
          0.8045765585564757,
          0.1885606973630034,
          -0.9892527967904754,
          0.23786922339975747,
          -0.42268331463368436,
          -0.8645270067180901,
          0.10906901160458449,
          0.5025574047623453,
          0.27839464744625886,
          -0.9633739028284005,
          0.04900871977262011,
          -0.48696938066638773,
          0.01414901398129964,
          0.5639645943411726,
          0.8649529048502931,
          -0.9300250493827282,
          -0.5948308732454777,
          0.2230505580414366,
          0.5060923855378838,
          0.970257143689778,
          0.40568617933260676,
          -0.5940948411573672,
          0.03461376505561242,
          0.5628117865660918,
          0.11690903464731472,
          -0.6949413721037287,
          0.9431102191067624,
          0.022699801281488963,
          -0.4710649894262713,
          0.4813490234436826,
          0.7143184557136655,
          -0.5740797383503331,
          -0.7315541709893985,
          0.8487159499534915,
          -0.32988084074198665,
          -0.29049189507115547,
          -0.3655236312174468,
          -0.6275648616168645,
          0.14306345792662722,
          -0.8340948787123139,
          -0.5278786505922513,
          0.8729466974852673,
          0.05251961514115466,
          0.24754413150082444,
          -0.2358755210455954,
          -0.014370623912559832,
          -0.9211415868424264,
          0.14703906271919576,
          -0.7871284560963654,
          -0.45242083685957124,
          0.8029274124154326,
          0.8703277475346582,
          0.5403879022954137,
          0.46565170097672604,
          0.4143896647244827,
          0.334566007403422,
          -0.2484817426221828,
          0.4657324336801809,
          0.8913320522175774,
          -0.6004739361918305
        ],
        "playerName": "RFFSimulation",
        "converter": {}
      },
      "fitness": 0.5333333333333333,
      "behaviours": [
        15.2,
        0.6333333333333333,
        72.06666666666666,
        0.7
      ]
    }
  ],
  [
    {
      "value": [
        26,
        14,
        36,
        2
      ]
    },
    {
      "x": {
        "agentConfig": [
          1,
          0,
          3,
          1,
          1,
          0,
          3,
          0,
          4,
          0
        ],
        "weights": [
          -0.08982770676966578,
          0.6311375760034479,
          -0.6021958788575956,
          0.9522148587605201,
          0.9385850216521494,
          -0.6641969400524899,
          0.841291369746975,
          0.3362627711404429,
          0.9041469286360468,
          0.30217048277399283,
          -0.8561752043085982,
          0.14684103237740165,
          -0.8120586276261508,
          -0.9874849005032214,
          -0.529350888126596,
          0.8807395326022478,
          -0.77926458740906,
          -0.10123744013809621,
          0.8169081828387248,
          -0.053709838893939654,
          -0.10797512882151672,
          -0.17684266300524598,
          -0.6355243484111652,
          -0.00793349371510188,
          0.9095973241963289,
          -0.3115194081654846,
          -0.9130589447876079,
          -0.42975879589317656,
          0.021783212188292822,
          0.11195975246440737,
          0.09402381390048986,
          -0.6255920703604003,
          0.1883932607564176,
          0.3489665157448567,
          -0.33823540138014785,
          0.07487866331758974,
          0.022669389028387332,
          0.46705265327499723,
          -0.5875771684956654,
          -0.8798307015709759,
          -0.8745962533725506,
          -0.8521746448428329,
          0.6880860689419936,
          -0.21840993566042544,
          -0.7062916028320989,
          -0.5663812954599377,
          0.8045765585564757,
          0.1885606973630034,
          -0.9892527967904754,
          0.23786922339975747,
          -0.42268331463368436,
          -0.8645270067180901,
          0.10906901160458449,
          0.5025574047623453,
          0.27839464744625886,
          -0.9633739028284005,
          0.04900871977262011,
          -0.48696938066638773,
          0.01414901398129964,
          0.5639645943411726,
          0.8649529048502931,
          -0.9300250493827282,
          -0.5948308732454777,
          0.2230505580414366,
          0.5060923855378838,
          0.970257143689778,
          0.40568617933260676,
          -0.5940948411573672,
          0.03461376505561242,
          0.5628117865660918,
          0.11690903464731472,
          -0.6949413721037287,
          0.9431102191067624,
          0.022699801281488963,
          -0.4710649894262713,
          0.4813490234436826,
          0.7143184557136655,
          -0.5740797383503331,
          -0.7315541709893985,
          0.8487159499534915,
          -0.32988084074198665,
          -0.29049189507115547,
          -0.3655236312174468,
          -0.6275648616168645,
          0.14306345792662722,
          -0.8340948787123139,
          -0.5278786505922513,
          0.8729466974852673,
          0.05251961514115466,
          0.24754413150082444,
          -0.2358755210455954,
          -0.014370623912559832,
          -0.9211415868424264,
          0.14703906271919576,
          -0.7871284560963654,
          -0.45242083685957124,
          0.8029274124154326,
          0.8703277475346582,
          0.5403879022954137,
          0.46565170097672604,
          0.4143896647244827,
          0.334566007403422,
          -0.2484817426221828,
          0.4657324336801809,
          0.8913320522175774,
          -0.6004739361918305
        ],
        "playerName": "RFFSimulation",
        "converter": {}
      },
      "fitness": 0.43333333333333335,
      "behaviours": [
        16.733333333333334,
        0.9,
        70.83333333333333,
        0.5
      ]
    }
  ],
  [
    {
      "value": [
        20,
        6,
        30,
        8
      ]
    },
    {
      "x": {
        "agentConfig": [
          0,
          3,
          3,
          1,
          0,
          2,
          1,
          0,
          0,
          1
        ],
        "weights": [
          0.024146779539026664,
          0.9569570422196283,
          -0.1103005679727076,
          -0.20691051788333992,
          -0.22544086798763585,
          0.4547991596898573,
          -0.6873430563791476,
          0.7464511511938794,
          -0.8836876292486222,
          -0.6826009806847031,
          -0.21352161204926468,
          0.32112551066310346,
          -0.15265589198045548,
          0.1738366890093117,
          0.9106880258512204,
          -0.7132921256981737,
          0.8113579013028163,
          -0.4626531090745878,
          -0.05688629730094785,
          0.39729112063107297,
          -0.8873588118429085,
          -0.32955053295879444,
          -0.2511023081551671,
          0.8805372577594575,
          0.8664232273216474,
          0.6631870196604097,
          0.677411825571431,
          0.7912527997986221,
          0.8520206964810579,
          0.4418139592503505,
          -0.905323250992593,
          0.28372802633804706,
          0.6723484917165312,
          0.23973790486526636,
          0.816463561645816,
          -0.7971961021314204,
          0.32219994690122533,
          0.43946478180291715,
          -0.7326656263656723,
          -0.6981669220781133,
          0.42902974589955445,
          0.6337538057418215,
          -0.16654389821175486,
          0.866404269733307,
          -0.14619987629272857,
          0.2561405308399285,
          -0.4178998531896796,
          -0.44409671765490843,
          -0.1742199685110415,
          0.19544069516535267,
          -0.7116815251940876,
          -0.12931397605610373,
          -0.6659858312485722,
          -0.5642015977163726,
          0.5393655033705498,
          0.8108431048700149,
          -0.8904926177137162,
          -0.04670197547116972,
          0.5800120552647177,
          -0.9867625048763731,
          -0.7940017133029111,
          -0.14788964392146653,
          -0.48302303867390783,
          0.9367011453478638,
          -0.07647699758738247,
          -0.962402656391576,
          0.5182794368726928,
          0.5109782221671788,
          -0.38220025320193507,
          -0.3992467416059613,
          -0.27660658279965356,
          0.07320743985514166,
          -0.2002084869676215,
          0.527812045545228,
          0.7226636178744534,
          0.38643694665729056,
          -0.1463669289227043,
          -0.6491944082224086,
          0.6695204856269399,
          0.06787054134070325,
          0.6874365086481633,
          -0.08069109159225785,
          -0.6433897131825748,
          -0.14975439294454373,
          0.6803175704917765,
          -0.3994373249530072,
          0.9170337365220125,
          0.7579465688037563,
          0.40031315148231417,
          0.9046156289242766,
          0.20446549786169887,
          -0.4998382843726188,
          0.7416884828652954,
          -0.21691616772295563,
          0.361004121105829,
          -0.8334072203984022,
          0.3664607618066724,
          -0.33542460762115334,
          0.5991815388954256,
          0.6569313933052103,
          0.6337940036234722,
          0.666783258953979,
          -0.19536269402385065,
          0.18351837594806253,
          -0.4377521967115683,
          -0.6352979068855664
        ],
        "playerName": "RFFSimulation",
        "converter": {}
      },
      "fitness": 0.4666666666666667,
      "behaviours": [
        13.066666666666666,
        0.3333333333333333,
        59.56666666666667,
        3.5
      ]
    }
  ],
  [
    {
      "value": [
        33,
        30,
        14,
        6
      ]
    },
    {
      "x": {
        "agentConfig": [
          0,
          0,
          2,
          1,
          2,
          1,
          0,
          2,
          4,
          2
        ],
        "weights": [
          -0.2441242916547317,
          -0.5495659651498077,
          0.2513876222391649,
          0.6597556357352428,
          -0.9703851781874309,
          -0.29893898672937014,
          0.6295859409417379,
          -0.5035450810775342,
          -0.7246776095176974,
          -0.9961995422347625,
          0.015227697468700008,
          0.48239292127419775,
          -0.9961039059659123,
          0.993113481092474,
          -0.13828423286191094,
          -0.09072109905680659,
          0.7254458444493179,
          -0.4404980489550272,
          -0.7044810622768376,
          -0.16761809999170452,
          0.3482443794970642,
          -0.5720452964502156,
          0.04968462925234185,
          0.2570018612478864,
          -0.49966694875207707,
          -0.38775044978443596,
          -0.44534364101274226,
          0.5421371892755971,
          -0.3228359684592208,
          -0.7435961108049429,
          -0.2217459578675003,
          0.32267743281012184,
          -0.7387616212038097,
          -0.6547325636381649,
          -0.6694972418256868,
          -0.7465936797096266,
          0.6647777047506556,
          0.2994551063835629,
          -0.6646753903910774,
          -0.5574486318910639,
          -0.8859549014563879,
          0.5655216219385353,
          -0.3800643750394068,
          0.5695695672339278,
          0.9240090753676895,
          0.9704805835563439,
          0.8841181724278959,
          -0.6286867435546641,
          -0.4953773526050951,
          -0.16952362329621096,
          0.6853676535247768,
          0.4326712914434463,
          -0.20493248973401723,
          0.5866185456914588,
          0.31223968204983565,
          0.0322356182863619,
          0.3398917229488434,
          -0.9133081985350049,
          -0.08294676536593526,
          -0.8295047955765951,
          0.8010468805379674,
          -0.4603412251783847,
          0.6404316166125623,
          -0.15248672417515463,
          -0.6575900964446741,
          0.6405746236735075,
          0.8839937332014687,
          0.1589960800639345,
          -0.9715488595899835,
          0.3967367355834386,
          -0.6261668332357986,
          0.8441156083703496,
          -0.8537096568671549,
          -0.21840522680781982,
          0.206253827447626,
          0.5454004837034421,
          0.19045906124312606,
          -0.4988493095071105,
          0.678556784148727,
          -0.7695361681997817,
          0.14226591932518207,
          0.8782804232197159,
          -0.6184983895164373,
          0.9772887354955062,
          0.630741054265745,
          -0.8563872497797889,
          -0.23360512840833025,
          0.6392459553897061,
          0.5797113998406598,
          -0.7326963476354513,
          -0.8014155228719915,
          -0.21702889214897958,
          0.02563986084583325,
          0.8742474639950539,
          -0.6295315223878939,
          -0.2683178934069266,
          -0.0665638901390968,
          -0.2440302444210889,
          0.8709541375256165,
          -0.4515297192994965,
          -0.957471762335681,
          -0.9743504340325906,
          0.6946312064421278,
          0.3585523555539869,
          0.04305962065895552,
          -0.9415781913971557
        ],
        "playerName": "RFFSimulation",
        "converter": {}
      },
      "fitness": 0.9666666666666667,
      "behaviours": [
        21.666666666666668,
        1.9666666666666666,
        26.333333333333332,
        2.8
      ]
    }
  ],
  [
    {
      "value": [
        27,
        23,
        18,
        12
      ]
    },
    {
      "x": {
        "agentConfig": [
          0,
          4,
          2,
          1,
          0,
          2,
          2,
          0,
          1,
          1
        ],
        "weights": [
          -0.42939794684256727,
          -0.474732199558455,
          -0.08496440592091092,
          -0.8289267395897213,
          -0.3195680239219014,
          -0.9299012964979227,
          -0.747609008978176,
          0.7927181115928412,
          0.28653127595943007,
          -0.6323134213308541,
          0.005402726063416852,
          0.5967049083994738,
          -0.975327780616986,
          -0.4301677055968969,
          0.6270821341966706,
          0.18283374280157716,
          0.38077701253206664,
          0.08341228453065885,
          0.9211481796986125,
          -0.9202736699366756,
          -0.08756456851598982,
          -0.7101574514111808,
          0.7882805128714183,
          -0.11573377543125729,
          0.23182262666993259,
          0.3961361489834676,
          -0.33040556950266975,
          -0.5029812254307804,
          0.7744924340223591,
          -0.3563102655715418,
          0.33778890087032853,
          0.9073047119592537,
          0.3960988742209246,
          0.9466375382214802,
          -0.5147518377606257,
          0.8585555990414377,
          0.9191779089988008,
          0.43981391073558673,
          -0.5802957547189491,
          -0.8359690570622522,
          0.8946983005288272,
          -0.612930284986587,
          0.10189672517337045,
          -0.5550686083085037,
          0.04816968266433719,
          -0.56611029997807,
          0.7459935304909922,
          0.6273940539159559,
          0.14767296269640817,
          0.28396194692372245,
          -0.7476340866663449,
          -0.33818949286080824,
          -0.6387423917286945,
          0.5375534409953995,
          -0.1463633187582678,
          0.617360412375257,
          0.5637273188060483,
          -0.34975078411134364,
          0.5287514935679027,
          -0.44339342426674655,
          -0.49208594254018645,
          0.7538143808314399,
          -0.023850656646344115,
          0.40945138810430026,
          0.29311941518536266,
          0.4266435030818132,
          -0.7640634015039376,
          0.44270643367742113,
          -0.85652136644836,
          0.4094632441274406,
          -0.5877015223694788,
          0.8609812767864151,
          -0.848417443418463,
          -0.2673422007664461,
          0.37120796733908956,
          0.5765501102766757,
          0.34776978707894024,
          -0.24520957978538593,
          -0.22517772060721186,
          -0.7496922836685946,
          -0.7769202590343463,
          -0.7924037370043073,
          -0.6372167786561529,
          -0.667119874605661,
          -0.33606448531381616,
          -0.49907392244303095,
          0.001967761480779595,
          0.024407629250315477,
          -0.8507962260123734,
          0.2618226162889632,
          0.7000617554113124,
          0.8234718377428989,
          0.015355955843113778,
          -0.6348850911522264,
          -0.48534163745731207,
          0.6500904801247982,
          -0.3869645508888544,
          0.5586193200561755,
          0.08841189459045995,
          0.4046580225934695,
          -0.7415897973823915,
          -0.8057621099610563,
          0.4021035028381832,
          0.2641621049870917,
          0.025272186908611882,
          0.5469500514922401
        ],
        "playerName": "RFFSimulation",
        "converter": {}
      },
      "fitness": 0.3333333333333333,
      "behaviours": [
        17.8,
        1.4666666666666666,
        35.6,
        5.566666666666666
      ]
    }
  ],
  [
    {
      "value": [
        33,
        31,
        16,
        4
      ]
    },
    {
      "x": {
        "agentConfig": [
          1,
          3,
          1,
          0,
          2,
          1,
          1,
          3,
          1,
          0
        ],
        "weights": [
          -0.7410946662691551,
          0.5165034990367314,
          0.26701287193819256,
          0.04716191082466148,
          0.15193192568848635,
          -0.7453887128523433,
          0.6640523496894737,
          0.9013008197109165,
          -0.7412874871230968,
          -0.09093630084315518,
          0.5250683691061149,
          0.15038050579170115,
          0.7278380557301158,
          -0.2590370402579334,
          0.5541203626948785,
          0.5410474839209565,
          -0.7395416555962502,
          -0.0016655820857385262,
          -0.5079506977774151,
          -0.052185471731403865,
          -0.6046868108914818,
          0.8997496268118537,
          0.8470052864633137,
          0.6050138012604735,
          0.03902030158948655,
          -0.7736808292873201,
          0.930565563756004,
          -0.26476378237998777,
          0.6323055777420963,
          -0.29966071503020064,
          0.3254790199011175,
          -0.5355447723066753,
          0.32918986237060466,
          -0.1066716254772051,
          -0.8213456111596116,
          -0.9902649756305917,
          -0.38502508646379674,
          0.5331443430517591,
          -0.9569152778782508,
          -0.216371972370895,
          0.9001983082643223,
          0.7693247008207553,
          0.38498112942088025,
          0.280068240792527,
          0.8015565563039708,
          -0.7922532881764766,
          -0.6725348219531022,
          0.3897709480933398,
          0.05712246894768658,
          0.3401559359393338,
          -0.2802516204703618,
          0.13885213484810977,
          -0.6779880977787538,
          0.37106664487217134,
          -0.799194560999559,
          -0.24741596790651643,
          0.4519828413636795,
          0.38398833742691774,
          0.5691251001140265,
          0.41690649594720264,
          -0.6937226298853483,
          0.29088848691508895,
          0.47520197158776134,
          0.14351702147138923,
          -0.41265345052253144,
          0.07325229036710867,
          0.22100921723127298,
          0.7400651210828051,
          -0.21607553946996316,
          -0.5499451459173328,
          0.28077150927780625,
          0.04518004540206011,
          0.895247737465813,
          -0.7025864050192534,
          -0.9500646430673263,
          0.30876436005968366,
          -0.711956501009213,
          -0.10335746348169694,
          -0.7156888007695372,
          0.881188225265479,
          0.7742376985499946,
          0.4018821447596632,
          0.7089410565410652,
          -0.7792772301132544,
          0.796163533294417,
          0.7954325270202289,
          0.3563232536878038,
          0.636754307661644,
          -0.5326222654133634,
          0.038370834715660385,
          -0.6637971078727756,
          0.15702389276366668,
          -0.858979048446564,
          0.12598587164454655,
          -0.05578351176669005,
          -0.5596600420821953,
          0.16398640787684737,
          -0.6779826916397922,
          0.284256055604011,
          -0.24808507539789626,
          -0.47601114130477007,
          0.9726391616043026,
          0.9094966896389278,
          0.6766797513522207,
          -0.7920454173605949,
          0.990580742248423
        ],
        "playerName": "RFFSimulation",
        "converter": {}
      },
      "fitness": 0.9666666666666667,
      "behaviours": [
        21.9,
        2.0,
        31.1,
        1.6333333333333333
      ]
    }
  ],
  [
    {
      "value": [
        31,
        24,
        16,
        8
      ]
    },
    {
      "x": {
        "agentConfig": [
          1,
          4,
          3,
          0,
          2,
          1,
          0,
          1,
          4,
          1
        ],
        "weights": [
          -0.6203906870177665,
          -0.5333663389577847,
          0.263980567888497,
          -0.6482688909357557,
          0.08675916417954865,
          -0.2985107155950202,
          0.7954401709281609,
          0.7610265002202452,
          0.2205678788292531,
          0.28757635379437474,
          -0.5853609193017919,
          -0.9786269126070652,
          0.3222954538382441,
          0.7281708617549136,
          0.04475542909641117,
          0.5788106624572735,
          -0.4789230419618271,
          0.06911887916795578,
          -0.617375205150466,
          -0.7809238933480109,
          -0.7498736059098838,
          0.956828196434307,
          0.8212587344895783,
          -0.04482215736653572,
          -0.9916018229757613,
          0.841403479088046,
          0.1798149674316114,
          -0.22745293981937054,
          -0.43672466646907804,
          -0.48409637623607815,
          -0.7999358197927287,
          0.08778332970268199,
          0.8824315511481764,
          -0.09659579338113233,
          0.4422265018693279,
          0.5289656848751951,
          0.03809194560246931,
          -0.7132504209555817,
          -0.05061912708741945,
          -0.040046183032513394,
          0.34449549360514764,
          -0.9784169170249775,
          -0.1515252628721846,
          0.5480564270274757,
          -0.9305586979528657,
          0.18144743749534342,
          -0.08270542882489962,
          0.11389782947795712,
          -0.7966227705430082,
          0.5544491890685026,
          -0.9294189259234682,
          -0.9957341036377181,
          0.9745692194887818,
          0.9441855408835711,
          0.7048044284940493,
          0.2931787563992676,
          -0.9335335372268592,
          -0.1766658560147767,
          -0.11005822524908826,
          0.24335966800444853,
          -0.17654313505877273,
          -0.9534902075455696,
          -0.49207328147124474,
          -0.3502364783533949,
          -0.8762158311804444,
          -0.45030441750858685,
          0.6112701882931824,
          -0.06124923095542334,
          0.053477315472731046,
          0.7467583018806985,
          -0.48832126118344754,
          0.7109585626297719,
          0.032719791394747455,
          0.6792615624229676,
          0.40732529065328626,
          -0.2071286406416324,
          -0.3738339107478075,
          -0.11600655305846908,
          -0.2812448271632888,
          0.8015461653072189,
          -0.08871132745125632,
          0.4133280952033964,
          0.7272386875233809,
          0.7289017761916827,
          -0.016081075649183596,
          0.47674353400108505,
          0.5957090785203216,
          -0.8835665338582148,
          0.947722532848073,
          0.767522834651595,
          0.4012531016973082,
          -0.9818321885837455,
          -0.43557190763197773,
          0.6968660977955614,
          0.41945033440771917,
          0.13912658801260513,
          -0.3657942616065457,
          -0.5216532254016357,
          -0.42531620602607645,
          0.288519720415922,
          0.13067128321459065,
          0.2888463488017643,
          -0.2931258563129542,
          0.6013426528091297,
          0.1325689955615339,
          -0.42219302442825435
        ],
        "playerName": "RFFSimulation",
        "converter": {}
      },
      "fitness": 0.6333333333333333,
      "behaviours": [
        20.033333333333335,
        1.5666666666666667,
        31.166666666666668,
        3.9
      ]
    }
  ],
  [
    {
      "value": [
        21,
        4,
        31,
        7
      ]
    },
    {
      "x": {
        "agentConfig": [
          1,
          3,
          3,
          1,
          0,
          2,
          1,
          0,
          2,
          1
        ],
        "weights": [
          0.024146779539026664,
          0.9569570422196283,
          -0.1103005679727076,
          -0.20691051788333992,
          -0.22544086798763585,
          0.4547991596898573,
          -0.6873430563791476,
          0.7464511511938794,
          -0.8836876292486222,
          -0.6826009806847031,
          -0.21352161204926468,
          0.32112551066310346,
          -0.15265589198045548,
          0.1738366890093117,
          0.9106880258512204,
          -0.7132921256981737,
          0.8113579013028163,
          -0.4626531090745878,
          -0.05688629730094785,
          0.39729112063107297,
          -0.8873588118429085,
          -0.32955053295879444,
          -0.2511023081551671,
          0.8805372577594575,
          0.8664232273216474,
          0.6631870196604097,
          0.677411825571431,
          0.7912527997986221,
          0.8520206964810579,
          0.4418139592503505,
          -0.905323250992593,
          0.28372802633804706,
          0.6723484917165312,
          0.23973790486526636,
          0.816463561645816,
          -0.7971961021314204,
          0.32219994690122533,
          0.43946478180291715,
          -0.7326656263656723,
          -0.6981669220781133,
          0.42902974589955445,
          0.6337538057418215,
          -0.16654389821175486,
          0.866404269733307,
          -0.14619987629272857,
          0.2561405308399285,
          -0.4178998531896796,
          -0.44409671765490843,
          -0.1742199685110415,
          0.19544069516535267,
          -0.7116815251940876,
          -0.12931397605610373,
          -0.6659858312485722,
          -0.5642015977163726,
          0.5393655033705498,
          0.8108431048700149,
          -0.8904926177137162,
          -0.04670197547116972,
          0.5800120552647177,
          -0.9867625048763731,
          -0.7940017133029111,
          -0.14788964392146653,
          -0.48302303867390783,
          0.9367011453478638,
          -0.07647699758738247,
          -0.962402656391576,
          0.5182794368726928,
          0.5109782221671788,
          -0.38220025320193507,
          -0.3992467416059613,
          -0.27660658279965356,
          0.07320743985514166,
          -0.2002084869676215,
          0.527812045545228,
          0.7226636178744534,
          0.38643694665729056,
          -0.1463669289227043,
          -0.6491944082224086,
          0.6695204856269399,
          0.06787054134070325,
          0.6874365086481633,
          -0.08069109159225785,
          -0.6433897131825748,
          -0.14975439294454373,
          0.6803175704917765,
          -0.3994373249530072,
          0.9170337365220125,
          0.7579465688037563,
          0.40031315148231417,
          0.9046156289242766,
          0.20446549786169887,
          -0.4998382843726188,
          0.7416884828652954,
          -0.21691616772295563,
          0.361004121105829,
          -0.8334072203984022,
          0.3664607618066724,
          -0.33542460762115334,
          0.5991815388954256,
          0.6569313933052103,
          0.6337940036234722,
          0.666783258953979,
          -0.19536269402385065,
          0.18351837594806253,
          -0.4377521967115683,
          -0.6352979068855664
        ],
        "playerName": "RFFSimulation",
        "converter": {}
      },
      "fitness": 0.5666666666666667,
      "behaviours": [
        13.5,
        0.23333333333333334,
        60.56666666666667,
        3.1
      ]
    }
  ],
  [
    {
      "value": [
        29,
        20,
        22,
        10
      ]
    },
    {
      "x": {
        "agentConfig": [
          0,
          3,
          0,
          0,
          1,
          2,
          1,
          2,
          0,
          2
        ],
        "weights": [
          0.5227523482460177,
          0.5364227414231684,
          0.7121558775330299,
          0.017313990916682176,
          -0.28055977891893225,
          0.9732998044229069,
          -0.9672169831804946,
          -0.014125786016614406,
          0.16037053851729044,
          -0.10778829546936608,
          0.7727978736554064,
          -0.48824931589463194,
          0.24750735685058345,
          0.4925215053934775,
          -0.480632020920988,
          -0.28881342000105126,
          0.7622953544074484,
          0.08264395482980547,
          0.7440178770439037,
          -0.007404037336006475,
          -0.42895752370237994,
          0.29915927218103167,
          -0.8838634766994531,
          0.9280911092111654,
          -0.3799469249098899,
          0.5124830848446795,
          -0.012142445462185236,
          -0.1649661973300247,
          -0.8555981406060682,
          0.5837035896051508,
          -0.25919608427679974,
          -0.7746140940433504,
          0.5630649091067912,
          0.764151813343666,
          -0.48473451776574095,
          -0.5611606691523021,
          -0.8555461656150105,
          -0.2812777163319584,
          0.7349564874137788,
          0.49640632151850994,
          0.2002261992677905,
          0.40591557263011624,
          0.7955779609445797,
          0.4943564198375068,
          0.30157430912650596,
          -0.13797279850584476,
          -0.6970116567243934,
          0.7040873870399995,
          -0.18897853040169754,
          0.8138600663438122,
          -0.6731361992958715,
          0.9517227239433641,
          0.8840846317788225,
          0.483791055261128,
          0.2783076603620309,
          0.8219294380189712,
          -0.9810117315340752,
          0.9529755665763939,
          -0.7750538877093569,
          0.7636543076265994,
          -0.7810553059828726,
          0.012926800318959542,
          -0.2753731758308178,
          0.2711796377188176,
          -0.11965773716316885,
          -0.4373404059339674,
          -0.41108677271499583,
          -0.02789803314087247,
          0.6315127668545968,
          0.2980422231681492,
          -0.6198525596176969,
          0.6745416374450139,
          0.5205755990236247,
          0.6919516890474844,
          -0.09906876671339004,
          -0.7909074272047001,
          0.18718598061422886,
          -0.9217174583726186,
          -0.5475463786159978,
          0.24672639394733165,
          -0.04815813595934482,
          0.029811484389155485,
          0.21817118459031293,
          -0.8179328644555932,
          -0.8822675525918615,
          0.15937275408832607,
          -0.22807411860022597,
          -0.35784410984148196,
          0.20393920099381369,
          -0.024246107098556013,
          0.41466265537329194,
          0.21402869398558177,
          -0.6848711666480398,
          -0.5098270276781813,
          -0.1885121972072359,
          0.5801330328492516,
          0.40170504673104124,
          -0.10384739445317437,
          -0.7691132297953926,
          -0.5911878086568805,
          0.7757150792277001,
          -0.16494121234263082,
          0.5804983885284003,
          -0.9322103328747371,
          -0.0783660293252395,
          0.5115254889185332
        ],
        "playerName": "RFFSimulation",
        "converter": {}
      },
      "fitness": 0.36666666666666664,
      "behaviours": [
        18.866666666666667,
        1.2666666666666666,
        43.4,
        4.833333333333333
      ]
    }
  ],
  [
    {
      "value": [
        24,
        10,
        25,
        11
      ]
    },
    {
      "x": {
        "agentConfig": [
          0,
          1,
          0,
          1,
          2,
          2,
          0,
          1,
          1,
          2
        ],
        "weights": [
          0.8210667112037167,
          -0.3060520104719837,
          0.6073427843622636,
          -0.28392489304855495,
          0.10702707473038098,
          0.3512001650685477,
          0.2718794578788184,
          0.9428888067735919,
          -0.4998598011835236,
          0.9928492148561117,
          -0.261358117841922,
          -0.792984054217444,
          0.6822458511912959,
          -0.4007023465081374,
          -0.1635307875826868,
          -0.3146458626740003,
          0.69434401290005,
          0.7930364018436955,
          -0.9910338698425549,
          0.07301768176066803,
          0.2614237454601205,
          -0.11664063603688901,
          -0.1463267904578609,
          -0.15274697427074857,
          -0.4974668588511395,
          0.5771562706319331,
          -0.23938037578557148,
          0.3854518239468483,
          -0.18966970209944956,
          0.35731047325790066,
          -0.28327435878390594,
          -0.9274237964364567,
          -0.4855657284109356,
          -0.3115702876632107,
          0.9538499764942954,
          0.7227643085879121,
          -0.16452649495820904,
          -0.06965714916385979,
          -0.20789388778560447,
          -0.608162375673494,
          0.5918060632718278,
          0.1229970616791427,
          0.7663985830735096,
          0.971884055246919,
          0.13846561828012538,
          0.6520946061323167,
          0.9229595569790505,
          -0.16395562992822166,
          -0.9020360784695254,
          0.2130100566536004,
          0.03399329447206778,
          -0.7589176807069802,
          0.5851596634421214,
          -0.5387670915483622,
          0.4023646984035567,
          -0.8027271729563825,
          0.8334812726754208,
          0.27078353157311796,
          -0.08540407456100296,
          -0.9204060407499728,
          -0.6026311562785489,
          -0.38224733240156095,
          -0.9507363176908585,
          -0.6188361232412141,
          -0.5641198846882203,
          -0.23568075837398172,
          0.6592170775647348,
          -0.30068542382570196,
          -0.025018676222564373,
          -0.36069665701171383,
          0.5198653202080672,
          0.29664964782127035,
          -0.49887633728258063,
          0.09451413512561424,
          0.8721110239655936,
          0.39388486707871495,
          -0.24371653352187006,
          0.06185708031778203,
          0.487334678423335,
          -0.2717760658288577,
          0.1847226464723004,
          -0.45563418568426073,
          -0.8568371535080244,
          0.8504754790211029,
          -0.8756968590924528,
          0.8450295047703558,
          -0.17741910518264792,
          0.1360693167914373,
          -0.4597309654499717,
          -0.5295126033957387,
          0.43528029158347104,
          -0.45041556396923177,
          0.8669861284163494,
          0.0238147935660038,
          0.408956423134893,
          0.8293531392778413,
          0.35320848074271116,
          -0.692755348801666,
          0.10960356340262645,
          0.9481597251369169,
          -0.8009817562865917,
          0.4569113842067194,
          0.723679899137303,
          0.4580048825567451,
          0.7276647966940599,
          0.45382757830997833
        ],
        "playerName": "RFFSimulation",
        "converter": {}
      },
      "fitness": 0.5666666666666667,
      "behaviours": [
        15.933333333333334,
        0.6333333333333333,
        49.13333333333333,
        5.333333333333333
      ]
    }
  ],
  [
    {
      "value": [
        23,
        8,
        24,
        11
      ]
    },
    {
      "x": {
        "agentConfig": [
          1,
          2,
          1,
          0,
          1,
          2,
          0,
          1,
          0,
          1
        ],
        "weights": [
          0.5277916042229327,
          0.28532041420941057,
          0.8638087604893763,
          0.9209459688757748,
          -0.740259360894004,
          0.6738427616482365,
          -0.7792383189120002,
          0.49684769971394593,
          -0.6728284759538934,
          -0.387473943115747,
          -0.7051238808364497,
          -0.011521281575570086,
          0.43071034335114855,
          0.752646574878528,
          -0.632132076360292,
          0.7820416032549542,
          0.1708747447050054,
          -0.18801096818587792,
          0.7903572607850979,
          0.4368986905056673,
          -0.36960292567665176,
          -0.15900163896089148,
          -0.34814555550880355,
          -0.42718899991635695,
          -0.7587367968065626,
          -0.7438543516788851,
          -0.9244199367999959,
          -0.06005106651635361,
          0.7382857056705365,
          0.4877365775252651,
          -0.9965859774507626,
          -0.3160572239548358,
          -0.10639122291355929,
          -0.18990489208162376,
          -0.9899018679861165,
          -0.4298058104149527,
          -0.3183805352050171,
          0.20525731838146788,
          -0.5778568848525447,
          -0.753877227809828,
          0.5413187154906116,
          0.9570135411239498,
          0.8157199729751261,
          -0.5030246274480561,
          -0.5167161225081314,
          0.0803410084315952,
          -0.1708560380099502,
          0.8902789846413286,
          0.930931341958585,
          0.6619709722911404,
          0.1493867342280517,
          -0.7940300004963188,
          -0.6091322533951817,
          -0.27896169261832404,
          -0.48161868213022063,
          -0.3863121751547005,
          -0.6853050630622892,
          0.2944645754421711,
          0.6537115098251485,
          0.6856718002961579,
          0.8447128093950074,
          0.10992836708980502,
          0.08960691358269468,
          0.02315516220664615,
          -0.47145808988915894,
          -0.5700199879805934,
          0.1179916834196062,
          -0.4738982185568308,
          -0.45723427747334355,
          0.43406146016020974,
          -0.7543365295871665,
          0.15058533886439807,
          -0.5167286956902761,
          0.8508935429886719,
          -0.11749202592052765,
          -0.6249368516756619,
          -0.6399559359309721,
          -0.5381012494729027,
          0.33698129310356273,
          -0.46374974886326537,
          -0.9232483629492099,
          0.5670274959704831,
          -0.3810783517565186,
          -0.3027473243313168,
          0.3805290924469036,
          0.5375617159235788,
          0.036079579613162105,
          -0.22492877454143234,
          0.03495654022854189,
          0.1761715861186237,
          0.11958327663782287,
          -0.7184588464442347,
          -0.20070234790576946,
          -0.23729649883701986,
          -0.9751145423298242,
          0.221225857843258,
          0.6896462619987744,
          -0.6151173136769561,
          -0.7714353657156512,
          0.44173512639442736,
          0.9527061594580133,
          -0.563685183564036,
          -0.9223175457075492,
          0.04639303643157522,
          -0.7994929109445135,
          -0.9901248568748391
        ],
        "playerName": "RFFSimulation",
        "converter": {}
      },
      "fitness": 0.3333333333333333,
      "behaviours": [
        15.266666666666667,
        0.5,
        47.4,
        5.066666666666666
      ]
    }
  ],
  [
    {
      "value": [
        22,
        7,
        25,
        12
      ]
    },
    {
      "x": {
        "agentConfig": [
          0,
          5,
          3,
          0,
          0,
          1,
          1,
          3,
          4,
          2
        ],
        "weights": [
          0.9713443133764688,
          0.6413597246202514,
          -0.14689480060023552,
          -0.0976432219020491,
          0.818794979167089,
          -0.7317123893029016,
          -0.8158713872219945,
          -0.3854309474139932,
          -0.7809325528910867,
          0.19826359881550326,
          -0.7514768561332308,
          0.39010848653694463,
          0.8344780754767414,
          -0.9325242798227646,
          0.5258229677548107,
          0.6628232194715273,
          -0.3197722918522772,
          -0.13315540409405724,
          -0.7552478159179972,
          -0.9374417127949828,
          -0.3224931527773869,
          -0.6570483205467343,
          -0.7684422300754661,
          0.5987155658064609,
          -0.7842263388086521,
          -0.1564814928519267,
          0.48800536124875604,
          -0.607112009598249,
          0.9977027439867334,
          0.4810342445099467,
          -0.36711366835418646,
          -0.3289219760834361,
          -0.32336850384469407,
          -0.697420386980057,
          -0.14153432601526927,
          0.07171397775083266,
          0.09515920740763617,
          -0.46914932667214604,
          0.6333761434572533,
          0.23388080698097324,
          0.2948811713753081,
          0.8808372240974665,
          0.026043602104586006,
          -0.8991153445817748,
          -0.10893079968788677,
          0.45856526103499196,
          -0.7721937596968105,
          -0.5925259183819771,
          -0.10756225049953838,
          0.8127644715999411,
          -0.3775323488538189,
          0.41474409542248925,
          0.5949629089697548,
          -0.662723206817529,
          -0.42089606295127435,
          -0.8850485712089098,
          -0.20995043481475317,
          -0.588527321073435,
          -0.96247970378067,
          0.8491738049631403,
          0.20117010742604613,
          -0.5821022395469659,
          0.910833419896268,
          -0.4360519649365504,
          0.799426927499786,
          -0.9091769265667335,
          -0.6527677523517221,
          -0.2212746241937893,
          -0.5526821641792092,
          -0.4736730065310992,
          -0.026951580454514623,
          0.744185967635242,
          0.18131262363807266,
          -0.376010964338791,
          0.38184668682981426,
          0.24215647519354966,
          -0.6323229081139101,
          -0.2677706790330636,
          0.3393215570170527,
          -0.9889209569421367,
          0.9523077033262592,
          0.8337807495744041,
          0.4413671547374478,
          0.8766825279836759,
          0.07417072235024391,
          0.7347335970832272,
          -0.7072366520586779,
          0.32570959835539925,
          0.4232644810629287,
          -0.5899546234880086,
          0.6665004285691816,
          0.48125710283368006,
          -0.10214523197082626,
          -0.08963722447912437,
          -0.44115751234319456,
          0.2214900767797574,
          -0.6479407329820333,
          -0.9505455773024774,
          -0.42719239296668765,
          -0.4708075270385179,
          0.5236858814654035,
          -0.5314926981627079,
          -0.35717910534206965,
          -0.932178665402225,
          -0.406442029283981,
          -0.3870080256462247
        ],
        "playerName": "RFFSimulation",
        "converter": {}
      },
      "fitness": 0.6333333333333333,
      "behaviours": [
        14.5,
        0.4,
        49.1,
        5.9
      ]
    }
  ],
  [
    {
      "value": [
        1,
        1,
        53,
        7
      ]
    },
    {
      "x": {
        "agentConfig": [
          0,
          0,
          1,
          0,
          0,
          0,
          3,
          2,
          4,
          0
        ],
        "weights": [
          -0.4648409125435029,
          -0.7904023809563852,
          0.9041841942693758,
          -0.32686057730314677,
          -0.7504673171413518,
          -0.5702811632377731,
          -0.6676462199428999,
          -0.3351212270289987,
          0.9506076773900103,
          -0.68732885741558,
          0.5116799635720612,
          0.7408917658038165,
          0.31980757086796907,
          -0.9032888552685978,
          0.006688076112400854,
          -0.07616807637814116,
          -0.23264400294788623,
          -0.49723561591614707,
          -0.1060784202700753,
          -0.3170413157241141,
          -0.7053384929964346,
          0.3650659400673584,
          0.7940515180555876,
          -0.11952461455967911,
          0.8607174083242393,
          -0.5383069055100527,
          0.6162833055758736,
          -0.009455710705914333,
          -0.5687114478335691,
          0.9722969351801052,
          -0.21144053639213767,
          -0.03542644163128705,
          0.34473506409387955,
          -0.22645619415605656,
          -0.016615175975253083,
          0.9308269569163683,
          -0.854098481396391,
          -0.8715208016951985,
          -0.3520704741367571,
          -0.7066425931558922,
          0.6195775000695771,
          -0.7657689848046945,
          -0.9916079463162759,
          -0.2652792258081349,
          0.3976145274511802,
          0.5631719031133355,
          -0.3575663071287858,
          0.1288782652663143,
          -0.7811387193637043,
          0.9658632967641798,
          -0.8001764703181569,
          0.43514933925245725,
          0.6886585125151423,
          -0.9001932253202622,
          0.4002614399060318,
          0.2710300698516115,
          0.2147124030524481,
          0.9062323200109716,
          -0.9513261601842915,
          0.05114509769186726,
          -0.31125765310777753,
          0.5778549465856884,
          0.4821067736576836,
          0.33155378405300695,
          -0.5616198315039633,
          0.7437357188864175,
          -0.40133310494108176,
          -0.6869138169021647,
          -0.008628200353912652,
          0.44308462357742884,
          0.41779105234417613,
          -0.6656651880538591,
          -0.7257853270817838,
          -0.13195243359558217,
          0.9824517911309891,
          -0.3756164284814494,
          0.009939043844478856,
          -0.17377804836404454,
          0.3377348637068571,
          0.5873077181045734,
          -0.7151786569103233,
          -0.5931519594390662,
          0.30655342922570594,
          0.45493077104864454,
          -0.47860464469358455,
          -0.5696720481922006,
          -0.16790950803594384,
          0.27127945069493364,
          -0.5747952712194055,
          -0.08107469441568416,
          -0.23210948151578048,
          -0.13837121818989218,
          0.8653191422197004,
          -0.9527965124753994,
          -0.8296514611931827,
          -0.3090158802830356,
          -0.8962860219182456,
          0.8139620737088815,
          0.38467350084184915,
          -0.6687010203528869,
          -0.6938080699232883,
          -0.9768646845261308,
          -0.48576957677290045,
          0.6336816745083533,
          -0.15239736105873636,
          0.06931902209091634
        ],
        "playerName": "RFFSimulation",
        "converter": {}
      },
      "fitness": 0.0,
      "behaviours": [
        0.0,
        0.0,
        104.33333333333333,
        3.0
      ]
    }
  ],
  [
    {
      "value": [
        15,
        1,
        36,
        8
      ]
    },
    {
      "x": {
        "agentConfig": [
          0,
          2,
          1,
          1,
          2,
          1,
          3,
          0,
          4,
          2
        ],
        "weights": [
          0.8034084029515476,
          -0.36484820089320635,
          0.5198699001631304,
          -0.9961296956511232,
          -0.083565980690669,
          -0.9756896470360708,
          0.5082339512399383,
          0.6005230765889435,
          -0.4695197896465446,
          -0.9682113617460639,
          -0.7335956408302458,
          -0.47421762069773443,
          0.6464002467350622,
          -0.8591891384262902,
          -0.49371591419618976,
          -0.03379977135737988,
          0.7095564566761661,
          -0.44316315360460057,
          -0.22815235917674426,
          -0.6277584912713479,
          0.755433001860703,
          0.6406108686365859,
          0.8891526910731395,
          0.1134334260251808,
          -0.24316543034947435,
          0.5672863129238745,
          0.9092270636071522,
          0.6481951557389873,
          -0.4044168052981516,
          -0.7263001486857585,
          -0.032278448718054076,
          0.872960491830812,
          -0.15079583107033723,
          -0.6484303543612917,
          0.03404493612650872,
          -0.057841898824258164,
          -0.5868298691019149,
          -0.2974021890259053,
          -0.8659730724397736,
          0.04006729590968572,
          -0.12815017510583493,
          -0.5078413367007881,
          -0.6960173197147301,
          0.3375209733942637,
          -0.5136129594451351,
          0.22145796368602277,
          0.270380283218407,
          -0.31912055564636566,
          0.6853125481015816,
          0.583751901414304,
          0.6481411392355221,
          0.43765309128180774,
          0.023771038074765105,
          0.17841682649426804,
          -0.6880687957207952,
          -0.6373958819280137,
          -0.2801785210117589,
          0.12736508609553776,
          -0.48137084003248876,
          0.3501112866312788,
          0.08134983567759946,
          -0.828496327081979,
          -0.6545147503990631,
          0.503034341247512,
          0.4047085363818137,
          0.9206377601463562,
          0.05731379955735583,
          -0.9247319516326205,
          0.256277659968716,
          -0.4115779461595013,
          -0.872610944845607,
          0.534628921587323,
          -0.5592811197594039,
          -0.23533208809350303,
          0.8105436637959889,
          0.24467090806194736,
          -0.5852269928206701,
          0.5605159681876286,
          0.40329559071008236,
          0.07847949379248953,
          -0.5769710810021755,
          -0.1923122834814135,
          0.6246589507336919,
          -0.3455540825021519,
          -0.7878295668815132,
          -0.09876696317055456,
          -0.08737853863570622,
          0.8234783700972164,
          0.822785327874604,
          -0.654107595951384,
          0.8550994247416897,
          0.5390573910379584,
          0.6628995051988282,
          -0.9006025719819175,
          0.4605093756782015,
          0.3059986144001765,
          -0.16502335537301094,
          0.40173508100527755,
          0.5219241469449081,
          -0.9692632513425659,
          -0.4817974685695383,
          0.9376046046734072,
          -0.05989210362413222,
          0.28539958190285186,
          -0.8995493144266182,
          0.8999996836026245
        ],
        "playerName": "RFFSimulation",
        "converter": {}
      },
      "fitness": 0.06666666666666667,
      "behaviours": [
        9.6,
        0.0,
        70.63333333333334,
        3.8
      ]
    }
  ],
  [
    {
      "value": [
        7,
        1,
        11,
        9
      ]
    },
    {
      "x": {
        "agentConfig": [
          1,
          1,
          2,
          1,
          2,
          1,
          1,
          0,
          1,
          1
        ],
        "weights": [
          -0.9458875388420631,
          -0.5908650045895096,
          -0.3137020012433087,
          0.8329824363960436,
          0.9330174113383449,
          -0.07722542839528845,
          -0.12042407357361729,
          -0.5663853312877036,
          -0.6933904244290963,
          0.30110551182248924,
          0.8975292118498892,
          -0.2279008023990523,
          0.4486774471334518,
          0.45434887323144313,
          -0.8593166346392946,
          -0.8561416299483766,
          0.5614019730015865,
          -0.6855109384083342,
          0.8331275054744027,
          -0.8158221597228457,
          0.5945421884693551,
          0.33914238137823327,
          -0.7925615353383935,
          0.06616036224477573,
          -0.8327929535125762,
          0.409104537327764,
          -0.15675232042448228,
          0.1563537015777341,
          0.19090809927363162,
          -0.3613195281843098,
          0.5716210303239353,
          -0.43780468898571634,
          0.1851647983577842,
          -0.16139577449334963,
          0.531250394427085,
          -0.7426293667065809,
          0.732012372820251,
          0.15455862594207193,
          0.1987835641042095,
          0.285633854699187,
          0.03334060020047924,
          -0.2499913471429136,
          0.5144466981116922,
          -0.07940634514846745,
          0.1150696745380948,
          -0.689735365632264,
          0.5854433237224739,
          -0.4015803408997527,
          0.8647481721727053,
          -0.3846050846333897,
          -0.12655977066448987,
          0.9423781076759381,
          0.7942348678388931,
          0.46281099720837293,
          0.25877896666926903,
          -0.7374410973290739,
          -0.8132941617619345,
          0.8160508098120174,
          -0.0771184527193125,
          0.5411080573592448,
          -0.8826944865715731,
          -0.7855108854390838,
          0.6016444598076955,
          0.10273519555040567,
          -0.2706617727077636,
          0.19940736339142595,
          0.4364453819630898,
          0.9222156246654818,
          -0.8970239375308966,
          -0.20494199942515334,
          0.3857134808529319,
          0.8350621983274304,
          0.07103577640435543,
          0.9290619472529684,
          0.9588442584204531,
          0.7944946623667288,
          0.41645611844743935,
          0.08468020237754748,
          -0.10443460050506159,
          0.7572860648627329,
          0.028685144909846638,
          -0.551795028171556,
          0.3376908826229983,
          -0.2169791685390532,
          0.8012654480737784,
          0.347917284737403,
          -0.9734732055963924,
          0.49575100323895116,
          0.3204821356225438,
          -0.1232376353318616,
          -0.8919785837717704,
          -0.8160095940102712,
          -0.27498142199622366,
          -0.750902810805737,
          0.23907996641112272,
          -0.4955599655376901,
          -0.49085933596449904,
          -0.33743390147175734,
          -0.13770745038739718,
          0.006790768974047623,
          0.49701077854047093,
          -0.7806335307091026,
          -0.24734838565076056,
          -0.48859708321836837,
          0.7333091780632521,
          0.8068659389825585
        ],
        "playerName": "RFFSimulation",
        "converter": {}
      },
      "fitness": 0.0,
      "behaviours": [
        4.2,
        0.03333333333333333,
        20.9,
        4.133333333333334
      ]
    }
  ],
  [
    {
      "value": [
        28,
        20,
        18,
        12
      ]
    },
    {
      "x": {
        "agentConfig": [
          0,
          5,
          2,
          0,
          1,
          1,
          3,
          2,
          0,
          0
        ],
        "weights": [
          -0.41552784589293323,
          -0.5070561034652816,
          -0.12426212412472859,
          0.3373789188021701,
          0.13479395484800172,
          0.7360464310116832,
          0.6886868692570498,
          -0.16214712068920667,
          -0.5978926699876232,
          -0.05945596899083716,
          -0.0039636129316864555,
          -0.7748936129066615,
          -0.7598341964783084,
          0.7875024645000521,
          -0.2740154209788985,
          0.831142831880239,
          0.19164960680471999,
          0.05330655435607601,
          0.9065725272678322,
          -0.13775566520514015,
          -0.9868727993141637,
          0.007141027925085863,
          0.32634304967786343,
          -0.5700709221633669,
          -0.4475183474317317,
          -0.8731679573163573,
          -0.37218296373421556,
          -0.9595620933823041,
          0.6048390840832567,
          0.5232482501495477,
          -0.2891983394525808,
          -0.21451432129471848,
          0.6406149192801216,
          0.559161365113007,
          -0.6286280758773142,
          -0.3960316484065449,
          -0.37062754133565723,
          -0.19332876421885503,
          0.21369714635054438,
          -0.32623190127406065,
          0.5757649659628614,
          0.7080011967922883,
          0.04570984041663917,
          0.24475317029042243,
          -0.16108836842983187,
          -0.9123245810246314,
          0.20594429685149396,
          -0.9614786165165277,
          -0.17586419648026075,
          0.009790348172206365,
          0.5676993903113756,
          -0.2826097930708229,
          0.2160717072073004,
          0.38229790904473027,
          -0.6719911924896231,
          -0.1354117465989506,
          0.5647240156047442,
          -0.8190808962110563,
          -0.8872709166414185,
          -0.5804420514387008,
          -0.2588569474560414,
          -0.8014888144863119,
          0.415385522128638,
          -0.4232701302770232,
          0.5469562485510115,
          -0.17858524527290642,
          -0.06375751080893277,
          0.7830851055879453,
          0.5920748243589891,
          0.49250855727921605,
          0.9993937065963445,
          0.6592721870764704,
          -0.5525277298775462,
          -0.7585945862998102,
          -0.10050320571627003,
          0.42100136325275983,
          -0.9649896569208827,
          -0.054576059524200415,
          -0.2338977181995856,
          -0.3081106759638699,
          -0.7661344937191432,
          -0.16932579086310273,
          0.3323580938980899,
          0.4758822442754578,
          -0.23681325233734785,
          -0.8692006484407431,
          -0.1438026448429417,
          -0.5031620464348192,
          0.5431949395645415,
          -0.20838257757467704,
          0.3659444659979385,
          0.1148003447895718,
          -0.05798880537553752,
          -0.356888626192859,
          -0.6113950062712656,
          0.5929536232165993,
          -0.4169207797116117,
          0.5559179643489478,
          0.36793074239716383,
          0.6161954814193464,
          -0.2818732341827037,
          -0.24233011055800713,
          0.09068084823198941,
          0.6517229026600693,
          0.5631867698531945,
          0.7052475313492186
        ],
        "playerName": "RFFSimulation",
        "converter": {}
      },
      "fitness": 0.16666666666666666,
      "behaviours": [
        18.166666666666668,
        1.3,
        35.833333333333336,
        5.833333333333333
      ]
    }
  ],
  [
    {
      "value": [
        28,
        21,
        20,
        10
      ]
    },
    {
      "x": {
        "agentConfig": [
          1,
          4,
          3,
          0,
          2,
          0,
          3,
          0,
          4,
          0
        ],
        "weights": [
          -0.4554454100412808,
          0.7498927665062536,
          -0.2905954635281809,
          -0.1939493730709818,
          -0.3120191049791936,
          -0.08933001847259092,
          0.8098896910944897,
          0.7619650234214879,
          -0.3114462740126076,
          -0.028184331471119206,
          0.6145469953236777,
          -0.7178911299888047,
          0.055459854797074604,
          -0.6264787887093626,
          0.19755636894620987,
          0.7379718802966924,
          -0.6427458383702838,
          -0.6850121124513249,
          0.4061988096563849,
          0.04596592228804597,
          -0.42124958536556534,
          0.2432435454471238,
          -0.06737753854438933,
          -0.7012938820133343,
          0.8610468802693836,
          0.3963134674079001,
          0.23825617146691513,
          -0.29737016351417744,
          0.6306069395534915,
          -0.8213627767763878,
          0.4158931688531551,
          -0.5944900288324182,
          -0.7028559620753634,
          0.3985792474953389,
          0.5295443073174801,
          -0.6891437758360117,
          0.9363864955691761,
          0.21233130107978582,
          -0.5102604832526634,
          -0.519965744208789,
          0.6726278353707618,
          -0.0045402732534336465,
          -0.897966402781492,
          0.07767072017713961,
          0.8372953732785577,
          -0.697196981328003,
          -0.43094890897596927,
          -0.606456125133962,
          -0.5964022945841287,
          0.5793784057221774,
          -0.5685176687491862,
          0.6237029098200209,
          0.6836406858607629,
          -0.6505906665388757,
          0.7010220179382856,
          0.7961891779857255,
          -0.1767709846647001,
          -0.7624616765871164,
          -0.23168132750441495,
          0.8314732547325181,
          -0.7591010511813949,
          0.3657441341003047,
          0.5615821507448508,
          -0.39344452784132544,
          0.8315552998276334,
          0.42143361880130525,
          0.3865744618960316,
          -0.09488377439313211,
          0.49141495695124915,
          0.006632891851846123,
          0.8962865939549118,
          0.9818035551871485,
          -0.6802136546708133,
          -0.24484455522302273,
          0.7186833889158422,
          -0.12304993201965009,
          0.7145427317770598,
          0.14407750020984977,
          0.41347539245487774,
          -0.4112864159491274,
          0.5019754374509722,
          -0.07219583125747642,
          0.6339555824730101,
          0.7428392694928649,
          0.22804145256460884,
          -0.3125360886559636,
          0.63751653147585,
          0.49594441938667533,
          -0.21315287620050083,
          -0.8846796618586688,
          0.6185419059733892,
          0.0664293402648164,
          0.6735389041502087,
          0.34334503641923786,
          -0.27005564222831646,
          0.5078218761061746,
          -0.6774007639208799,
          0.8770474032271254,
          0.11469969799816093,
          -0.8774339860407612,
          -0.7711253754569465,
          0.5101109670630908,
          -0.21369413236030965,
          0.25996717187688567,
          0.8474905088361022,
          0.9723381537651326
        ],
        "playerName": "RFFSimulation",
        "converter": {}
      },
      "fitness": 0.4,
      "behaviours": [
        18.566666666666666,
        1.3666666666666667,
        38.13333333333333,
        4.666666666666667
      ]
    }
  ],
  [
    {
      "value": [
        5,
        1,
        9,
        8
      ]
    },
    {
      "x": {
        "agentConfig": [
          1,
          0,
          2,
          1,
          0,
          0,
          0,
          3,
          1,
          2
        ],
        "weights": [
          -0.22282727907107058,
          0.15021164019380273,
          -0.3698644909862532,
          -0.9971401059927778,
          -0.3834724467128132,
          -0.10292086238079334,
          0.9790270768061426,
          -0.9574822125205735,
          -0.09550182334828494,
          -0.2148288112089718,
          0.38619627718471805,
          0.8037814672500794,
          -0.4833845233046521,
          -0.3468179669123781,
          -0.4254397239897252,
          -0.396484298953403,
          -0.19694726794030126,
          0.24293996598007572,
          -0.931422693501432,
          -0.46663475639020247,
          -0.9604994378710019,
          0.8240813853997757,
          0.2961076447528914,
          -0.7055210934508245,
          -0.6583496014051735,
          0.3219864018116083,
          0.059432521704906316,
          -0.16225303560694582,
          -0.7271579404341386,
          -0.23366672294266655,
          -0.9877895413623341,
          -0.1723206420959511,
          0.4545046108794759,
          0.7977815171607703,
          -0.359520647996598,
          -0.6124948250621438,
          -0.36839845727706777,
          0.8010598226785539,
          0.169639680853936,
          0.5850276580456248,
          0.8503670953585578,
          -0.7221117939376396,
          0.8056838776172843,
          0.6832202880062759,
          -0.32680036600573126,
          0.9128904011736916,
          -0.23223688949363552,
          -0.6934942854989563,
          0.6856560081137042,
          0.08842246329388548,
          0.6805131029292093,
          -0.6368911736975018,
          0.943068639541732,
          0.49437342587046373,
          0.06838616158341138,
          -0.1841689325430662,
          -0.5406141417358941,
          -0.737800828590069,
          -0.06943265615672023,
          0.20804564644677437,
          0.35841300373091745,
          -0.6018476214271082,
          -0.3261212873892809,
          0.2286647277981162,
          0.8877115918075293,
          -0.8011248715134995,
          0.04240489002255177,
          0.5392860899191001,
          -0.862009874596136,
          0.803224225585256,
          -0.8935991976883468,
          -0.4113241398346432,
          0.01589957583348811,
          0.06740126022650328,
          0.8593713485205248,
          -0.795799002586338,
          -0.21427555644141116,
          0.5461640246221637,
          0.5210391493851074,
          -0.6232248663885862,
          -0.6744623357529929,
          -0.47890248275108993,
          -0.7447530827592783,
          -0.15466330396935168,
          0.1359669027933621,
          -0.2623723672716991,
          0.6856674952402284,
          0.8388298215827397,
          -0.9052028405592418,
          0.7956616710558573,
          0.32852290695808595,
          -0.35188697014308823,
          -0.03178754723397614,
          0.984445177840066,
          0.8603430607225566,
          -0.4228274814904345,
          -0.23044107444018835,
          -0.23957438619165172,
          -0.9998789863439601,
          -0.7375287993646202,
          0.199087855939035,
          -0.96238185711419,
          -0.29094834626475885,
          -0.6487834601694307,
          0.6032164826979463,
          -0.00682889443826995
        ],
        "playerName": "RFFSimulation",
        "converter": {}
      },
      "fitness": 0.0,
      "behaviours": [
        2.8,
        0.0,
        16.566666666666666,
        3.533333333333333
      ]
    }
  ],
  [
    {
      "value": [
        10,
        1,
        35,
        10
      ]
    },
    {
      "x": {
        "agentConfig": [
          0,
          3,
          3,
          1,
          0,
          1,
          2,
          0,
          1,
          0
        ],
        "weights": [
          0.34772667824555215,
          0.6296958252776828,
          0.7060729291581254,
          0.4035582198419563,
          -0.16627382436501525,
          0.12550009531284845,
          0.7892137433345987,
          -0.7508623292142642,
          0.5004759127806337,
          0.5135574706686039,
          -0.9971724740039829,
          -0.7841673868670076,
          -0.2312486989313387,
          0.9031917225447594,
          0.6003523584175299,
          0.2454237976528526,
          -0.9633039627568671,
          0.7575318646195406,
          -0.13691613124507196,
          -0.12396828003058613,
          -0.7285712351215439,
          -0.09842385669292497,
          0.9653431150533214,
          -0.7110235408066041,
          -0.7333164879198091,
          -0.4923558483646193,
          -0.42031776867386395,
          -0.4433100957997509,
          -0.2967382241877987,
          -0.4236550326004571,
          -0.9682407807174511,
          0.7592209417145475,
          0.010405793007345343,
          0.8706415499989337,
          -0.042908494348634196,
          -0.39242152032904754,
          -0.04997199329887825,
          -0.7374547497220381,
          -0.3830240442874988,
          0.7453600378764655,
          -0.16793871636589675,
          0.01642734601296514,
          0.29844078859200995,
          0.9958170227503698,
          0.3180220182281488,
          0.6598871912374036,
          -0.4468263797924277,
          0.4797101343441239,
          0.8812068467855585,
          -0.2174295899057499,
          0.4229470726663944,
          -0.24998717920801816,
          -0.8342290889963109,
          -0.6447167790350885,
          -0.7458573893046683,
          -0.12727785798747315,
          -0.27673497228119426,
          -0.023797886821752323,
          0.2215505028124909,
          0.7287411787662739,
          -0.09596387716788257,
          -0.1720687005812731,
          -0.7382976345116115,
          -0.28000079499410213,
          -0.9577762242677379,
          -0.9313862785635387,
          -0.24142942386730248,
          0.5336789859261148,
          0.4969141762935496,
          -0.11774582044194704,
          0.029547425495829227,
          -0.3483755565957962,
          0.5983407726631653,
          0.47786616266625126,
          0.42719482128389985,
          0.8877042796431585,
          0.09684817593707562,
          0.9540079794210428,
          -0.29766746675823685,
          -0.6058896768290973,
          0.3236657061143231,
          0.13472528705865083,
          0.16661349838220407,
          0.29827377614347284,
          -0.053636767260960116,
          -0.7651278093959402,
          -0.852190476475887,
          -0.5847171960728483,
          0.9381917763415184,
          0.5272345902097495,
          0.24861204980064922,
          0.32639180563498793,
          0.1793378386399651,
          -0.9391665625402312,
          -1.7150022353096261E-4,
          -0.47758756080835507,
          -0.030549942235295724,
          0.9192384167730756,
          -0.358566036439218,
          -0.7185181682065764,
          0.6546239366800344,
          0.5096758154216843,
          -0.029984172551268173,
          0.4839052370046155,
          -0.4416414446226373,
          -0.061832551294235705
        ],
        "playerName": "RFFSimulation",
        "converter": {}
      },
      "fitness": 0.03333333333333333,
      "behaviours": [
        6.333333333333333,
        0.0,
        68.0,
        4.566666666666666
      ]
    }
  ],
  [
    {
      "value": [
        16,
        1,
        33,
        9
      ]
    },
    {
      "x": {
        "agentConfig": [
          0,
          2,
          0,
          0,
          0,
          0,
          2,
          3,
          4,
          1
        ],
        "weights": [
          -0.8427867399532698,
          0.1982133970874289,
          0.7636989019831224,
          0.5111059468525057,
          0.03857846894289674,
          -0.5965236168415984,
          0.8988249145375793,
          0.04463933542625664,
          0.6996484565042984,
          -0.11593772161052485,
          0.9354182099170456,
          -0.0373878586762435,
          0.03624347738808842,
          -0.15479535134965938,
          -0.6095616258728798,
          -0.7813882341043235,
          -0.7999113850465533,
          -0.6038126202746752,
          0.46206967748152916,
          0.8354158590461453,
          0.30894719588058517,
          -0.5685786535543482,
          -0.5266848930117618,
          -0.541895235680137,
          0.8666105390818946,
          -0.7221505465600555,
          0.5818733933332405,
          0.5514631664529526,
          0.21311719429742104,
          0.9041518804058493,
          -0.3129756829796617,
          -0.37594403532040377,
          -0.9380966132286506,
          -0.19832441506153753,
          -0.5181749387761556,
          0.7070666867059294,
          0.9794142571632634,
          0.5239657414498169,
          -0.32100024843676556,
          0.7241902482538047,
          -0.4759653626890399,
          0.31122914336900753,
          -0.41851933206879677,
          0.35957429974234345,
          0.6850240324797967,
          -0.7719860243176084,
          0.3736396660241579,
          0.5640072288051041,
          -0.751528734263653,
          -0.19315772419298805,
          0.776824625954029,
          0.9352536909470928,
          -0.23388971627629496,
          -0.6825148656776137,
          0.0428958518545659,
          -0.13335884480623572,
          -0.0858321769924506,
          -0.5289761707720462,
          0.6520330244907455,
          0.5787054334338371,
          0.2032415219576893,
          -0.3802070936332962,
          -0.4638356364994005,
          -0.06809510805077967,
          -0.7634652028801345,
          0.32875463833178276,
          -0.8330551186285589,
          0.264116640718582,
          0.012603875333141668,
          0.570807509889526,
          0.42729076621555695,
          0.40483161273209944,
          0.13009911777369676,
          -0.2620165639649661,
          -0.17194567413530404,
          0.4886679194731396,
          -0.8241874459257974,
          -0.8375561209995439,
          0.3365018698059772,
          0.2240253158729122,
          0.0636698071683417,
          0.9056350713741343,
          -0.14916463176821404,
          -0.13159355109654758,
          -0.35886539569095444,
          0.20091849884318003,
          0.18507684470550467,
          -0.6798657709459417,
          -0.5091793753553109,
          0.1244440979208099,
          0.321212230653529,
          -0.5431029031236632,
          0.5289348170997961,
          0.8209876127341429,
          0.6405700281748405,
          -0.865242070800768,
          0.7385029908638219,
          0.9259261774123186,
          -0.13601213602224704,
          -0.8930357049684992,
          0.17415848441473414,
          -0.29852022859011096,
          -0.48960181708850214,
          0.5301022595380358,
          -0.7633989756546831,
          0.844799303714973
        ],
        "playerName": "RFFSimulation",
        "converter": {}
      },
      "fitness": 0.13333333333333333,
      "behaviours": [
        10.1,
        0.03333333333333333,
        65.73333333333333,
        4.3
      ]
    }
  ],
  [
    {
      "value": [
        4,
        1,
        37,
        5
      ]
    },
    {
      "x": {
        "agentConfig": [
          1,
          1,
          2,
          0,
          0,
          2,
          0,
          0,
          0,
          2
        ],
        "weights": [
          0.8664137772061578,
          0.7775754676003757,
          -0.4209511376173325,
          -0.19684149929125194,
          -0.7441577080999675,
          0.7280734776645681,
          -0.9784571354559755,
          -0.9101392179681924,
          0.8315506963661248,
          0.5677179832185304,
          0.8922153017415717,
          0.6819715866734957,
          0.3282043743285725,
          0.6254178281709886,
          -0.5333617500774892,
          -0.5383380792034547,
          -0.6384635899481848,
          0.44341811699252554,
          -0.8012060711201208,
          0.6298845136729383,
          0.9252204561483728,
          -0.6812568740203317,
          -0.9597856361937751,
          0.5882487544864132,
          0.9617356034095716,
          -0.9672799642375043,
          -0.0030384127101279468,
          0.6662337530486222,
          0.7611901023466769,
          -0.9085998967016986,
          0.22626731869784944,
          0.040970088363255774,
          -0.44660033435330804,
          0.989144209965968,
          0.8672290680167387,
          0.917520649110418,
          -0.6676562942276114,
          -0.24040554385186352,
          0.7550379314802933,
          0.32079717771395155,
          -0.31154868136752056,
          0.39270588653616256,
          -0.8142088577643294,
          0.6959503798147513,
          -0.7770034073031784,
          -0.4265338696027723,
          0.9790206943651394,
          -0.07772518314620358,
          -0.01978848754145801,
          -0.3626168655982205,
          -0.7723523444453455,
          0.3163740093721188,
          0.25655192176187835,
          -0.3602250356659531,
          0.33014958614294265,
          -0.26646745292676477,
          -0.8671185584883321,
          3.481738896968789E-4,
          -0.8326928985031152,
          -0.028053242647908982,
          -0.8758352283417186,
          0.3115052256164341,
          -0.3840270355215427,
          0.34266784522273697,
          -0.5474082924018335,
          0.5882732947944684,
          0.984886095822896,
          -0.5111858142068915,
          -0.37612035848687086,
          0.4897015580791275,
          0.4126303536885756,
          0.3208137879299502,
          -0.7771684418211888,
          0.8560251191195305,
          0.7854166012800141,
          -0.7198605562135612,
          -0.8569455999206634,
          -0.7171508108407663,
          -0.6875563779342004,
          0.052203813103155694,
          -0.17292960983395478,
          0.3930583791435569,
          -0.46082619710141337,
          -0.6802163266270533,
          -0.48311731581119166,
          -0.030890055152598572,
          -0.7160655159834814,
          0.1815460886163116,
          0.0013841642205245641,
          0.17282295191570718,
          0.7508370347655555,
          -0.5440475072953712,
          0.8958272312189446,
          0.7067279809065075,
          0.9020817598500639,
          0.249019826707646,
          0.09989911371375348,
          -0.039504157626146785,
          0.06529598784257562,
          0.885120466594475,
          -0.2452226767739385,
          0.9379162855272938,
          0.706630075168079,
          -0.41679354368155264,
          -0.24413432358404918,
          -0.9256491421882749
        ],
        "playerName": "RFFSimulation",
        "converter": {}
      },
      "fitness": 0.0,
      "behaviours": [
        2.566666666666667,
        0.0,
        73.46666666666667,
        2.3333333333333335
      ]
    }
  ],
  [
    {
      "value": [
        1,
        1,
        54,
        7
      ]
    },
    {
      "x": {
        "agentConfig": [
          1,
          0,
          2,
          0,
          1,
          0,
          2,
          3,
          4,
          1
        ],
        "weights": [
          0.15239283422055094,
          -0.12391704690845429,
          -0.2358597042661883,
          -0.30393935368591496,
          -0.9561203011200516,
          0.8657154252824366,
          0.350028624551733,
          0.14590143796694743,
          0.20780483750675094,
          0.2715578461413144,
          -0.5955976693754819,
          -0.8607307634702956,
          -0.15150891828566104,
          -0.3955393810352288,
          -0.7057586133556581,
          0.9242383891414951,
          -0.10022843021748473,
          0.6259154190531957,
          0.4196981969396507,
          -0.05350171419457084,
          -0.7985899033084891,
          0.8830785072430853,
          -0.573882288185358,
          0.25759998243071025,
          -0.14877162368162833,
          0.5025848988548256,
          0.09399186345420052,
          -0.38096402947863695,
          -0.04727263282888594,
          0.9771012737488824,
          0.8776131899705419,
          0.3886400555142784,
          -0.7544307630891149,
          0.7742687191210991,
          0.11201919855730313,
          0.4027469813188276,
          -0.563636824523905,
          -0.7441112123017071,
          0.01914850173065652,
          -0.2429945698813507,
          0.4397770888629702,
          -0.3840896856956171,
          -0.18204314332890226,
          -0.3593101827106928,
          -0.8049243772678978,
          -0.6710224208309328,
          0.4795698508381039,
          -0.8061890124394973,
          -0.7592375594413874,
          0.9470023196130826,
          0.9673772595688934,
          -0.26672219193517566,
          0.810082883954488,
          0.9894269749937974,
          0.16330166586185402,
          0.6338150978056785,
          0.8527224604957284,
          0.14354841276547603,
          0.10530238831022598,
          -0.34870297995708577,
          0.09311220890792105,
          0.024474666746092666,
          0.647504335331996,
          0.5406075636242333,
          0.0033332407309405454,
          0.33999099831502044,
          -0.7968315764924288,
          0.4470926607091812,
          0.39868811809794225,
          -0.5361858016367351,
          -0.15795060972200226,
          0.7401229939309202,
          0.2565870470709737,
          -0.8585831467130471,
          -0.3124856182240263,
          -0.29076272859893737,
          0.31447266793689366,
          0.33580743464379514,
          -0.7048758318405703,
          -0.14220827681173054,
          0.020088283144568342,
          0.066354052409483,
          -0.5067936162510003,
          0.4059924863885527,
          -0.5125305255156649,
          0.5019437680062424,
          0.027279310931381362,
          -0.9453589431488811,
          -0.7453806004556753,
          -0.45952811065195354,
          -0.7259887769470788,
          0.0628777529236384,
          0.8439050105543087,
          0.6398590204397296,
          -0.7232690922833809,
          0.2576588554216406,
          -0.6062099271589687,
          0.7614967396968841,
          0.4033302606749247,
          0.7196576262214331,
          -0.03940123871856471,
          0.9452262003640248,
          -0.9612698569115972,
          -0.4202671519586769,
          -0.5184181755669599,
          0.2556561930840282
        ],
        "playerName": "RFFSimulation",
        "converter": {}
      },
      "fitness": 0.0,
      "behaviours": [
        0.0,
        0.0,
        107.66666666666667,
        3.0
      ]
    }
  ],
  [
    {
      "value": [
        24,
        9,
        24,
        10
      ]
    },
    {
      "x": {
        "agentConfig": [
          1,
          2,
          3,
          1,
          1,
          2,
          3,
          2,
          2,
          0
        ],
        "weights": [
          0.31791509149756236,
          -0.8934533854829496,
          0.6767420079314583,
          0.9315376088430272,
          0.44626288134720893,
          -0.9777324700319918,
          0.8211743029190042,
          0.19607839604596133,
          0.03706849203197238,
          -0.822306642078316,
          0.04389205069629876,
          0.40989160462952157,
          -0.5335476417668406,
          0.5336823518971769,
          -0.032873438408032474,
          0.42536828372410196,
          -0.09324214967956035,
          0.5908607499266021,
          0.2687628936186426,
          0.7049208412347869,
          0.9987983801845524,
          0.3028577852217631,
          -0.17072661220594298,
          0.27406741657225386,
          0.1971256947694615,
          -0.4086502547384421,
          -0.30156837940771486,
          -0.6108513855459365,
          -0.39033055068866385,
          -0.6390776543402599,
          0.07913337560195877,
          -0.20477478747072841,
          0.6706768348338163,
          -0.7425342276179878,
          -0.17552049589384122,
          0.8266601614120592,
          -0.4340423570642735,
          0.32201776973038543,
          0.3056032727007856,
          -0.4576606402769161,
          0.9720203179776679,
          0.1626758142794491,
          -0.06844625642843516,
          0.5894409681273658,
          0.37576058342856355,
          -0.6996003267490116,
          -0.9111263487986938,
          0.5541141996837553,
          0.008944241603945802,
          0.9402313178933299,
          -0.18266007374748994,
          0.18438333768720394,
          0.2618023731409369,
          0.5776606519420338,
          0.14966145309678613,
          0.060044272452395075,
          -0.6673637842366644,
          0.5705693488877224,
          -0.2832417307565547,
          -0.9637248945774395,
          0.8254066664967299,
          0.09038793170481485,
          0.9565731132789583,
          0.10213555769559934,
          0.024861803067635302,
          0.7118046544248187,
          -0.9368038876571598,
          -0.8279183766916081,
          0.6588335984485238,
          0.30856768358600206,
          -0.3255905925164968,
          0.7680770725949897,
          -0.9000865813055758,
          0.8936249463902501,
          0.21958881129605912,
          0.5518346764615338,
          0.16379375626367332,
          -0.42495041379192044,
          0.8362256237764281,
          0.23117477947624643,
          -0.07085775957478213,
          -0.10509785779178427,
          -0.18783812621500084,
          -0.5085598456844316,
          0.3339512863720182,
          -0.523617158290655,
          0.6219587860970073,
          0.2923612537087441,
          -0.304114254285492,
          -0.8746681988044684,
          0.7996468899693085,
          -0.8772827994278625,
          0.7592286228874734,
          0.3153369448503198,
          -0.8735647844557082,
          0.6195924538925788,
          -0.6113970064018162,
          0.3314133296798405,
          0.9107832505904614,
          -0.664018813951412,
          0.6097260173197274,
          -0.7445800836524525,
          -0.5004301550015344,
          -0.6200549104324231,
          0.34003076017705736,
          0.4470838931856653
        ],
        "playerName": "RFFSimulation",
        "converter": {}
      },
      "fitness": 0.4,
      "behaviours": [
        15.433333333333334,
        0.5666666666666667,
        47.5,
        4.866666666666666
      ]
    }
  ],
  [
    {
      "value": [
        29,
        22,
        20,
        11
      ]
    },
    {
      "x": {
        "agentConfig": [
          1,
          4,
          3,
          0,
          2,
          0,
          3,
          0,
          4,
          0
        ],
        "weights": [
          -0.4554454100412808,
          0.7498927665062536,
          -0.2905954635281809,
          -0.1939493730709818,
          -0.3120191049791936,
          -0.08933001847259092,
          0.8098896910944897,
          0.7619650234214879,
          -0.3114462740126076,
          -0.028184331471119206,
          0.6145469953236777,
          -0.7178911299888047,
          0.055459854797074604,
          -0.6264787887093626,
          0.19755636894620987,
          0.7379718802966924,
          -0.6427458383702838,
          -0.6850121124513249,
          0.4061988096563849,
          0.04596592228804597,
          -0.42124958536556534,
          0.2432435454471238,
          -0.06737753854438933,
          -0.7012938820133343,
          0.8610468802693836,
          0.3963134674079001,
          0.23825617146691513,
          -0.29737016351417744,
          0.6306069395534915,
          -0.8213627767763878,
          0.4158931688531551,
          -0.5944900288324182,
          -0.7028559620753634,
          0.3985792474953389,
          0.5295443073174801,
          -0.6891437758360117,
          0.9363864955691761,
          0.21233130107978582,
          -0.5102604832526634,
          -0.519965744208789,
          0.6726278353707618,
          -0.0045402732534336465,
          -0.897966402781492,
          0.07767072017713961,
          0.8372953732785577,
          -0.697196981328003,
          -0.43094890897596927,
          -0.606456125133962,
          -0.5964022945841287,
          0.5793784057221774,
          -0.5685176687491862,
          0.6237029098200209,
          0.6836406858607629,
          -0.6505906665388757,
          0.7010220179382856,
          0.7961891779857255,
          -0.1767709846647001,
          -0.7624616765871164,
          -0.23168132750441495,
          0.8314732547325181,
          -0.7591010511813949,
          0.3657441341003047,
          0.5615821507448508,
          -0.39344452784132544,
          0.8315552998276334,
          0.42143361880130525,
          0.3865744618960316,
          -0.09488377439313211,
          0.49141495695124915,
          0.006632891851846123,
          0.8962865939549118,
          0.9818035551871485,
          -0.6802136546708133,
          -0.24484455522302273,
          0.7186833889158422,
          -0.12304993201965009,
          0.7145427317770598,
          0.14407750020984977,
          -0.6513354424840541,
          -0.4112864159491274,
          0.5019754374509722,
          -0.07219583125747642,
          0.6339555824730101,
          0.7428392694928649,
          0.22804145256460884,
          -0.3125360886559636,
          0.63751653147585,
          0.49594441938667533,
          -0.21315287620050083,
          -0.8846796618586688,
          0.6185419059733892,
          0.0664293402648164,
          0.6735389041502087,
          0.34334503641923786,
          -0.27005564222831646,
          0.5078218761061746,
          -0.6774007639208799,
          0.8770474032271254,
          0.11469969799816093,
          -0.8774339860407612,
          -0.7711253754569465,
          0.5101109670630908,
          -0.21369413236030965,
          0.25996717187688567,
          0.8474905088361022,
          0.9723381537651326
        ],
        "playerName": "RFFSimulation",
        "converter": {}
      },
      "fitness": 0.4,
      "behaviours": [
        18.933333333333334,
        1.4333333333333333,
        39.2,
        5.0
      ]
    }
  ],
  [
    {
      "value": [
        24,
        9,
        34,
        2
      ]
    },
    {
      "x": {
        "agentConfig": [
          1,
          0,
          3,
          1,
          1,
          0,
          3,
          0,
          4,
          0
        ],
        "weights": [
          -0.08982770676966578,
          0.6311375760034479,
          -0.6021958788575956,
          0.9522148587605201,
          0.9385850216521494,
          -0.6641969400524899,
          0.841291369746975,
          0.3362627711404429,
          0.9041469286360468,
          0.30217048277399283,
          -0.8561752043085982,
          0.14684103237740165,
          -0.8120586276261508,
          -0.9874849005032214,
          -0.529350888126596,
          0.8807395326022478,
          -0.77926458740906,
          -0.10123744013809621,
          0.8169081828387248,
          -0.053709838893939654,
          -0.10797512882151672,
          -0.17684266300524598,
          -0.6355243484111652,
          -0.00793349371510188,
          0.9095973241963289,
          -0.3115194081654846,
          -0.9130589447876079,
          -0.42975879589317656,
          0.021783212188292822,
          0.11195975246440737,
          0.09402381390048986,
          -0.6255920703604003,
          0.1883932607564176,
          0.3489665157448567,
          -0.33823540138014785,
          0.07487866331758974,
          0.022669389028387332,
          0.46705265327499723,
          -0.5875771684956654,
          -0.8798307015709759,
          -0.8745962533725506,
          -0.8521746448428329,
          0.6880860689419936,
          -0.21840993566042544,
          -0.7062916028320989,
          -0.5663812954599377,
          0.8045765585564757,
          0.1885606973630034,
          -0.9892527967904754,
          0.23786922339975747,
          -0.42268331463368436,
          -0.8645270067180901,
          0.10906901160458449,
          0.5025574047623453,
          0.27839464744625886,
          -0.9633739028284005,
          0.04900871977262011,
          -0.48696938066638773,
          0.01414901398129964,
          0.5639645943411726,
          0.8649529048502931,
          -0.9300250493827282,
          -0.5948308732454777,
          0.2230505580414366,
          0.5060923855378838,
          0.970257143689778,
          0.40568617933260676,
          -0.5940948411573672,
          0.03461376505561242,
          0.5628117865660918,
          0.11690903464731472,
          -0.6949413721037287,
          0.9431102191067624,
          0.022699801281488963,
          -0.4710649894262713,
          0.4813490234436826,
          0.7143184557136655,
          -0.5740797383503331,
          -0.7315541709893985,
          0.8487159499534915,
          -0.32988084074198665,
          -0.29049189507115547,
          -0.3655236312174468,
          -0.6275648616168645,
          0.14306345792662722,
          -0.8340948787123139,
          -0.5278786505922513,
          0.8729466974852673,
          0.05251961514115466,
          0.24754413150082444,
          -0.2358755210455954,
          -0.014370623912559832,
          -0.9211415868424264,
          0.14703906271919576,
          -0.7871284560963654,
          -0.45242083685957124,
          0.8029274124154326,
          0.8703277475346582,
          0.5403879022954137,
          0.46565170097672604,
          0.4143896647244827,
          0.334566007403422,
          -0.2484817426221828,
          0.4657324336801809,
          0.8913320522175774,
          -0.6004739361918305
        ],
        "playerName": "RFFSimulation",
        "converter": {}
      },
      "fitness": 0.5666666666666667,
      "behaviours": [
        15.566666666666666,
        0.5333333333333333,
        67.3,
        0.7333333333333333
      ]
    }
  ],
  [
    {
      "value": [
        31,
        25,
        20,
        10
      ]
    },
    {
      "x": {
        "agentConfig": [
          0,
          4,
          0,
          1,
          1,
          2,
          2,
          3,
          1,
          1
        ],
        "weights": [
          -0.5671982835991518,
          0.5549010740020985,
          -0.8549083475902193,
          -0.4569524810398311,
          -0.2882780073161859,
          0.4216817973035971,
          0.7281487442051353,
          0.7508225429109503,
          -0.2175487849035067,
          -0.20614209740521727,
          -0.1659922740761135,
          -0.2066789281908188,
          -0.7709912867672601,
          -0.8932290764184647,
          -0.9152541941259891,
          0.8172429823615059,
          -0.41000951183322476,
          -0.5894750668869457,
          0.5813453975875598,
          0.6070033816757452,
          0.23904048362164465,
          0.20097217209625517,
          0.8553332455956026,
          -0.9217063486120531,
          -0.8992117456576549,
          -0.23138567290974765,
          0.06582877064994186,
          -0.21334027722883286,
          -0.6140921442464846,
          0.5054221558371128,
          0.04850761254288627,
          0.7905126836411063,
