[
  {
    "playerId": 0,
    "name": "SafeRandomPlayer_0"
  },
  {
    "id": 0,
    "name": "OneStepLookAhead_1",
    "h": {}
  },
  {
    "solutionFitness": 0.0,
    "useShiftBuffer": true,
    "sequenceLength": 2,
    "evals": 200,
    "flipAtLeastOneValue": true,
    "mutationStyle": 1,
    "opponentType": 0,
    "opponentBudget": 0.02,
    "espMutationProb": 0.8,
    "gMean": 0.1,
    "gStdDev": 0.5,
    "rnd": {
      "seed": 15931348192380,
      "nextNextGaussian": 0.0,
      "haveNextNextGaussian": false
    },
    "id": 0,
    "name": "RHEA0_2",
    "h": {}
  },
  {
    "exploration": 0.0,
    "maxDepth": 1,
    "opponentModel": 0,
    "opponentBudgetRatio": 0.05,
    "expansionProbability": 0.4,
    "progressionSize": 1,
    "epsilon": 1.0E-6,
    "recommendationType": 2,
    "rollWithOpponents": false,
    "id": 0,
    "name": "MCTS0_3",
    "h": {}
  },
  {
    "random": {
      "seed": 105121327646438,
      "nextNextGaussian": 0.0,
      "haveNextNextGaussian": false
    },
    "flipAtLeastOneValue": false,
    "mutationRate": 0.9,
    "sequenceLength": 2,
    "nEvals": 200,
    "useShiftBuffer": true,
    "opponentModelType": 0,
    "opponentBudgetShare": 0.05,
    "id": 0,
    "name": "SeededRHEA0_4",
    "h": {}
  },
  {
    "solutionFitness": 0.0,
    "useShiftBuffer": false,
    "sequenceLength": 3,
    "evals": 200,
    "flipAtLeastOneValue": true,
    "mutationStyle": 1,
    "opponentType": 1,
    "opponentBudget": 0.02,
    "espMutationProb": 0.5,
    "gMean": 0.1,
    "gStdDev": 2.0,
    "rnd": {
      "seed": 115551625278369,
      "nextNextGaussian": 0.0,
      "haveNextNextGaussian": false
    },
    "id": 0,
    "name": "RHEA1_5",
    "h": {}
  },
  {
    "solutionFitness": 0.0,
    "useShiftBuffer": false,
    "sequenceLength": 2,
    "evals": 200,
    "flipAtLeastOneValue": false,
    "mutationStyle": 1,
    "opponentType": 0,
    "opponentBudget": 0.01,
    "espMutationProb": 0.8,
    "gMean": 0.75,
    "gStdDev": 2.0,
    "rnd": {
      "seed": 82213627675902,
      "nextNextGaussian": 0.0,
      "haveNextNextGaussian": false
    },
    "id": 0,
    "name": "EBH-simple-RHEA-linear_6",
    "h": {
      "h": {
        "weights": [
          0.20000000000000018,
          0.20000000000000018,
          -0.3999999999999999,
          -0.6,
          0.8
        ],
        "featuresSize": 5
      },
      "name": "LogTester",
      "loggerName": "LogTester1a3869f4",
      "evl": {
        "player": "",
        "counters": {},
        "maxEventId": 5,
        "converter": {}
      }
    }
  },
  {
    "solutionFitness": 0.0,
    "useShiftBuffer": false,
    "sequenceLength": 3,
    "evals": 200,
    "flipAtLeastOneValue": false,
    "mutationStyle": 1,
    "opponentType": 1,
    "opponentBudget": 0.005,
    "espMutationProb": 0.8,
    "gMean": 0.0,
    "gStdDev": 1.0,
    "rnd": {
      "seed": 35129831207372,
      "nextNextGaussian": 0.0,
      "haveNextNextGaussian": false
    },
    "id": 0,
    "name": "EBH-simple-RHEA-poly,2_7",
    "h": {
      "h": {
        "weights": [
          0.0,
          -0.19999999999999996,
          -0.8,
          -0.19999999999999996,
          0.40000000000000013,
          -0.3999999999999999,
          -0.6,
          -0.8,
          0.6000000000000001,
          -0.3999999999999999,
          0.8,
          -0.6,
          -1.0,
          -0.6,
          0.8
        ],
        "featuresSize": 5,
        "order": 2
      },
      "name": "LogTester",
      "loggerName": "LogTester8646db9",
      "evl": {
        "player": "",
        "counters": {},
        "maxEventId": 5,
        "converter": {}
      }
    }
  },
  {
    "solutionFitness": 0.0,
    "useShiftBuffer": false,
    "sequenceLength": 3,
    "evals": 200,
    "flipAtLeastOneValue": true,
    "mutationStyle": 2,
    "opponentType": 1,
    "opponentBudget": 0.02,
    "espMutationProb": 0.5,
    "gMean": 0.3,
    "gStdDev": 2.0,
    "rnd": {
      "seed": 242793149623891,
      "nextNextGaussian": 0.0,
      "haveNextNextGaussian": false
    },
    "id": 0,
    "name": "EBH-simple-RHEA-poly,3_8",
    "h": {
      "h": {
        "weights": [
          0.0,
          0.20000000000000018,
          0.40000000000000013,
          0.20000000000000018,
          0.40000000000000013,
          0.40000000000000013,
          -0.8,
          -0.3999999999999999,
          -0.6,
          -0.6,
          0.6000000000000001,
          -0.6,
          -0.3999999999999999,
          0.8,
          0.6000000000000001,
          -0.8,
          -0.3999999999999999,
          0.40000000000000013,
          0.8,
          -0.3999999999999999,
          -0.19999999999999996,
          1.0,
          -0.19999999999999996,
          0.6000000000000001,
          -0.3999999999999999,
          -0.19999999999999996,
          -0.8,
          -0.19999999999999996,
          0.0,
          0.0,
          -0.19999999999999996,
          0.40000000000000013,
          0.20000000000000018,
          0.0,
          0.8
        ],
        "featuresSize": 5,
        "order": 3
      },
      "name": "LogTester",
      "loggerName": "LogTester37374a5e",
      "evl": {
        "player": "",
        "counters": {},
        "maxEventId": 5,
        "converter": {}
      }
    }
  },
  {
    "solutionFitness": 0.0,
    "useShiftBuffer": true,
    "sequenceLength": 2,
    "evals": 200,
    "flipAtLeastOneValue": true,
    "mutationStyle": 0,
    "opponentType": 0,
    "opponentBudget": 0.01,
    "espMutationProb": 0.9,
    "gMean": 0.0,
    "gStdDev": 1.0,
    "rnd": {
      "seed": 154996533882285,
      "nextNextGaussian": 0.0,
      "haveNextNextGaussian": false
    },
    "id": 0,
    "name": "EBH-id-RHEA-linear_9",
    "h": {
      "h": {
        "weights": [
          -0.8,
          0.20000000000000018,
          -0.3999999999999999,
          -1.0,
          0.8,
          0.20000000000000018,
          -0.19999999999999996,
          -0.19999999999999996,
          0.8,
          -0.19999999999999996,
          -1.0,
          -0.8,
          -0.8,
          0.20000000000000018,
          1.0,
          0.8,
          1.0,
          0.40000000000000013
        ],
        "featuresSize": 18
      },
      "name": "LogTester",
      "loggerName": "LogTesterb7dd107",
      "evl": {
        "player": "",
        "counters": {},
        "maxEventId": 18,
        "converter": {
          "count": 18,
          "names": [
            "nobleTaken",
            "increaseTokens",
            "decreaseTokens",
            "increaseGold",
            "decreaseGold",
            "drawCard",
            "fillCard",
            "fillNoble",
            "increasePlayerTokens",
            "decreasePlayerTokens",
            "increasePlayerGold",
            "decreasePlayerGold",
            "reserveHiddenCard",
            "reserveBoardCard",
            "receiveNoble",
            "receiveCardBonus",
            "receiveCardPoints",
            "receiveNoblePoints"
          ]
        }
      }
    }
  },
  {
    "solutionFitness": 0.0,
    "useShiftBuffer": true,
    "sequenceLength": 2,
    "evals": 200,
    "flipAtLeastOneValue": false,
    "mutationStyle": 2,
    "opponentType": 0,
    "opponentBudget": 0.05,
    "espMutationProb": 0.8,
    "gMean": 0.5,
    "gStdDev": 1.0,
    "rnd": {
      "seed": 228479368153254,
      "nextNextGaussian": 0.0,
      "haveNextNextGaussian": false
    },
    "id": 1,
    "name": "EBH-id-RHEA-poly,2_10",
    "h": {
      "h": {
        "weights": [
          0.0,
          -1.0,
          0.6000000000000001,
          -1.0,
          -0.19999999999999996,
          0.6000000000000001,
          -0.8,
          0.6000000000000001,
          -1.0,
          0.6000000000000001,
          0.0,
          -0.19999999999999996,
          -0.8,
          -0.6,
          -0.19999999999999996,
          -0.8,
          -1.0,
          -1.0,
          -0.6,
          0.6000000000000001,
          -1.0,
          -0.19999999999999996,
          -0.3999999999999999,
          0.8,
          0.8,
          -0.3999999999999999,
          0.8,
          0.20000000000000018,
          0.6000000000000001,
          0.20000000000000018,
          0.6000000000000001,
          -0.19999999999999996,
          0.6000000000000001,
          0.8,
          0.0,
          -0.3999999999999999,
          -1.0,
          0.0,
          -1.0,
          0.0,
          0.40000000000000013,
          0.0,
          -0.8,
          -0.8,
          0.0,
          -1.0,
          -0.19999999999999996,
          0.8,
          0.6000000000000001,
          0.6000000000000001,
          -0.8,
          0.40000000000000013,
          0.6000000000000001,
          0.0,
          0.20000000000000018,
          0.0,
          -0.6,
          -0.6,
          -1.0,
          -1.0,
          -1.0,
          -0.8,
          0.20000000000000018,
          0.6000000000000001,
          0.6000000000000001,
          -0.8,
          -1.0,
          -0.6,
          -0.19999999999999996,
          -0.6,
          0.6000000000000001,
          -0.19999999999999996,
          -0.8,
          -0.3999999999999999,
          1.0,
          -0.3999999999999999,
          0.0,
          -0.19999999999999996,
          0.0,
          -0.3999999999999999,
          -0.8,
          -0.19999999999999996,
          0.20000000000000018,
          0.0,
          0.0,
          -0.3999999999999999,
          0.0,
          -0.3999999999999999,
          -0.8,
          0.6000000000000001,
          0.40000000000000013,
          1.0,
          -0.6,
          -1.0,
          -0.6,
          -0.8,
          1.0,
          -0.3999999999999999,
          1.0,
          -0.8,
          0.20000000000000018,
          0.20000000000000018,
          -0.19999999999999996,
          0.0,
          -0.8,
          -1.0,
          0.6000000000000001,
          -1.0,
          -1.0,
          0.20000000000000018,
          -0.8,
          -0.6,
          1.0,
          0.0,
          -0.6,
          -0.19999999999999996,
          0.6000000000000001,
          0.40000000000000013,
          0.40000000000000013,
          0.8,
          0.8,
          0.40000000000000013,
          1.0,
          1.0,
          -0.19999999999999996,
          0.6000000000000001,
          -0.8,
          0.40000000000000013,
          -1.0,
          -1.0,
          0.0,
          -0.3999999999999999,
          1.0,
          1.0,
          -1.0,
          -1.0,
          0.6000000000000001,
          0.8,
          -0.6,
          -0.3999999999999999,
          0.6000000000000001,
          -0.8,
          0.8,
          0.40000000000000013,
          0.0,
          0.8,
          -1.0,
          0.6000000000000001,
          -0.8,
          -0.6,
          -0.6,
          0.8,
          0.40000000000000013,
          0.0,
          0.40000000000000013,
          -0.3999999999999999,
          -0.6,
          0.0,
          -0.6,
          0.0,
          1.0,
          -0.6,
          0.8,
          -0.19999999999999996,
          0.20000000000000018,
          1.0,
          1.0,
          -0.6,
          0.40000000000000013,
          -0.6,
          -0.19999999999999996
        ],
        "featuresSize": 18,
        "order": 2
      },
      "name": "LogTester",
      "loggerName": "LogTester42eca56e",
      "evl": {
        "player": "",
        "counters": {},
        "maxEventId": 18,
        "converter": {
          "count": 18,
          "names": [
            "nobleTaken",
            "increaseTokens",
            "decreaseTokens",
            "increaseGold",
            "decreaseGold",
            "drawCard",
            "fillCard",
            "fillNoble",
            "increasePlayerTokens",
            "decreasePlayerTokens",
            "increasePlayerGold",
            "decreasePlayerGold",
            "reserveHiddenCard",
            "reserveBoardCard",
            "receiveNoble",
            "receiveCardBonus",
            "receiveCardPoints",
            "receiveNoblePoints"
          ]
        }
      }
    }
  },
  {
    "solutionFitness": 0.0,
    "useShiftBuffer": true,
    "sequenceLength": 1,
    "evals": 200,
    "flipAtLeastOneValue": true,
    "mutationStyle": 2,
    "opponentType": 1,
    "opponentBudget": 0.005,
    "espMutationProb": 0.9,
    "gMean": 0.5,
    "gStdDev": 2.0,
    "rnd": {
      "seed": 97808843785884,
      "nextNextGaussian": 0.0,
      "haveNextNextGaussian": false
    },
    "id": 1,
    "name": "EBH-id-RHEA-poly,3_11",
    "h": {
      "h": {
        "weights": [
          0.6000000000000001,
          0.40000000000000013,
          0.6000000000000001,
          -1.0,
          -0.19999999999999996,
          0.40000000000000013,
          -0.6,
          0.8,
          0.20000000000000018,
          -1.0,
          0.6000000000000001,
          0.40000000000000013,
          -1.0,
          -1.0,
          0.40000000000000013,
          -0.8,
          -0.19999999999999996,
          0.0,
          -0.6,
          0.40000000000000013,
          -0.19999999999999996,
          0.6000000000000001,
          -0.6,
          0.6000000000000001,
          -0.6,
          -0.3999999999999999,
          -0.19999999999999996,
          -0.3999999999999999,
          -0.6,
          -0.8,
          0.0,
          0.6000000000000001,
          1.0,
          0.0,
          0.0,
          0.40000000000000013,
          0.8,
          0.6000000000000001,
          -0.19999999999999996,
          -1.0,
          0.6000000000000001,
          0.6000000000000001,
          0.40000000000000013,
          -0.19999999999999996,
          0.6000000000000001,
          0.8,
          -1.0,
          0.20000000000000018,
          -0.3999999999999999,
          -0.19999999999999996,
          0.40000000000000013,
          0.6000000000000001,
          0.20000000000000018,
          0.6000000000000001,
          -0.6,
          0.0,
          0.8,
          -0.6,
          1.0,
          0.6000000000000001,
          1.0,
          -0.8,
          -0.8,
          -0.6,
          0.20000000000000018,
          1.0,
          -1.0,
          -0.8,
          -1.0,
          -0.6,
          -0.19999999999999996,
          0.6000000000000001,
          0.8,
          -1.0,
          -0.19999999999999996,
          0.0,
          0.8,
          0.8,
          -0.8,
          -0.6,
          0.20000000000000018,
          0.6000000000000001,
          0.20000000000000018,
          -0.6,
          0.20000000000000018,
          -0.6,
          1.0,
          -0.6,
          1.0,
          -1.0,
          0.0,
          -0.6,
          0.6000000000000001,
          0.0,
          -0.19999999999999996,
          -1.0,
          0.20000000000000018,
          -0.3999999999999999,
          0.8,
          -0.3999999999999999,
          0.0,
          0.0,
          -0.19999999999999996,
          -0.8,
          1.0,
          1.0,
          -1.0,
          -1.0,
          -0.3999999999999999,
          -0.6,
          0.20000000000000018,
          -1.0,
          -1.0,
          0.20000000000000018,
          -0.19999999999999996,
          0.40000000000000013,
          0.8,
          0.0,
          0.0,
          0.40000000000000013,
          -0.8,
          0.40000000000000013,
          0.20000000000000018,
          -0.8,
          0.40000000000000013,
          -0.19999999999999996,
          -0.8,
          0.20000000000000018,
          -0.19999999999999996,
          0.20000000000000018,
          0.6000000000000001,
          0.20000000000000018,
          -0.19999999999999996,
          0.20000000000000018,
          -1.0,
          0.6000000000000001,
          -0.3999999999999999,
          0.0,
          0.8,
          -1.0,
          0.20000000000000018,
          0.0,
          0.40000000000000013,
          -0.19999999999999996,
          0.40000000000000013,
          -0.3999999999999999,
          0.6000000000000001,
          0.20000000000000018,
          -0.8,
          0.6000000000000001,
          0.0,
          0.0,
          0.8,
          0.0,
          -1.0,
          0.8,
          -0.8,
          -0.6,
          -1.0,
          -1.0,
          0.6000000000000001,
          0.0,
          0.20000000000000018,
          -1.0,
          -0.6,
          1.0,
          -0.8,
          0.6000000000000001,
          1.0,
          0.6000000000000001,
          0.8,
          1.0,
          -0.8,
          1.0,
          0.0,
          -0.6,
          1.0,
          -0.19999999999999996,
          -0.8,
          0.20000000000000018,
          0.0,
          -0.19999999999999996,
          0.40000000000000013,
          0.40000000000000013,
          -0.3999999999999999,
          -0.8,
          0.8,
          0.20000000000000018,
          1.0,
          0.8,
          -1.0,
          1.0,
          0.0,
          0.6000000000000001,
          -0.8,
          -1.0,
          -1.0,
          -0.6,
          0.40000000000000013,
          0.20000000000000018,
          -0.19999999999999996,
          0.6000000000000001,
          0.8,
          0.20000000000000018,
          -0.6,
          0.6000000000000001,
          -0.8,
          1.0,
          -1.0,
          -0.3999999999999999,
          -1.0,
          0.8,
          -0.19999999999999996,
          -0.8,
          0.8,
          -0.6,
          0.40000000000000013,
          -0.8,
          -0.6,
          0.40000000000000013,
          -0.3999999999999999,
          -0.19999999999999996,
          0.8,
          0.20000000000000018,
          0.6000000000000001,
          1.0,
          0.20000000000000018,
          1.0,
          -0.19999999999999996,
          -0.19999999999999996,
          -0.3999999999999999,
          -0.8,
          0.6000000000000001,
          1.0,
          0.0,
          -0.3999999999999999,
          0.8,
          -0.3999999999999999,
          0.6000000000000001,
          -0.3999999999999999,
          -0.8,
          -0.6,
          -0.6,
          0.8,
          -0.6,
          0.40000000000000013,
          -0.8,
          0.40000000000000013,
          0.8,
          -0.19999999999999996,
          -1.0,
          -0.8,
          0.20000000000000018,
          0.0,
          0.8,
          0.40000000000000013,
          0.40000000000000013,
          -0.3999999999999999,
          0.0,
          0.6000000000000001,
          -0.6,
          0.8,
          1.0,
          0.8,
          0.40000000000000013,
          0.0,
          -0.3999999999999999,
          0.6000000000000001,
          1.0,
          0.8,
          -1.0,
          0.8,
          0.40000000000000013,
          0.6000000000000001,
          -0.19999999999999996,
          0.20000000000000018,
          0.40000000000000013,
          0.20000000000000018,
          0.6000000000000001,
          0.0,
          0.6000000000000001,
          1.0,
          -1.0,
          -0.3999999999999999,
          -0.19999999999999996,
          0.8,
          0.6000000000000001,
          0.20000000000000018,
          0.6000000000000001,
          -0.3999999999999999,
          -0.19999999999999996,
          -1.0,
          0.8,
          -1.0,
          -1.0,
          -0.19999999999999996,
          1.0,
          0.20000000000000018,
          0.0,
          0.20000000000000018,
          0.0,
          0.40000000000000013,
          0.0,
          -0.19999999999999996,
          -0.8,
          0.0,
          0.6000000000000001,
          0.8,
          0.0,
          -0.19999999999999996,
          -0.8,
          -0.8,
          1.0,
          -0.3999999999999999,
          -0.19999999999999996,
          0.0,
          0.6000000000000001,
          -0.8,
          -0.19999999999999996,
          0.20000000000000018,
          -1.0,
          0.6000000000000001,
          -0.6,
          -1.0,
          1.0,
          -0.6,
          1.0,
          -0.19999999999999996,
          -0.3999999999999999,
          0.0,
          -0.3999999999999999,
          0.8,
          1.0,
          1.0,
          -0.8,
          -0.3999999999999999,
          -1.0,
          -0.3999999999999999,
          -0.19999999999999996,
          0.6000000000000001,
          0.0,
          0.0,
          -0.19999999999999996,
          0.40000000000000013,
          -0.3999999999999999,
          0.20000000000000018,
          -0.6,
          0.6000000000000001,
          0.0,
          -0.3999999999999999,
          0.0,
          0.20000000000000018,
          1.0,
          -0.3999999999999999,
          0.8,
          -0.19999999999999996,
          -0.3999999999999999,
          -0.8,
          -0.6,
          0.6000000000000001,
          0.0,
          0.20000000000000018,
          0.6000000000000001,
          -0.19999999999999996,
          0.20000000000000018,
          -0.8,
          -0.19999999999999996,
          0.6000000000000001,
          0.20000000000000018,
          0.8,
          -0.6,
          -0.6,
          -0.8,
          1.0,
          -0.6,
          -0.6,
          -1.0,
          0.8,
          -0.19999999999999996,
          -0.6,
          -0.3999999999999999,
          0.40000000000000013,
          -1.0,
          0.8,
          -0.19999999999999996,
          0.40000000000000013,
          0.20000000000000018,
          -0.6,
          0.20000000000000018,
          -0.8,
          0.8,
          -0.3999999999999999,
          -0.6,
          -0.6,
          0.0,
          1.0,
          0.20000000000000018,
          -1.0,
          -1.0,
          0.40000000000000013,
          -1.0,
          -0.19999999999999996,
          -0.3999999999999999,
          0.8,
          0.40000000000000013,
          -0.19999999999999996,
          -0.6,
          0.8,
          0.6000000000000001,
          -0.6,
          -0.3999999999999999,
          0.8,
          -0.6,
          -0.3999999999999999,
          0.6000000000000001,
          -1.0,
          0.6000000000000001,
          -0.8,
          -0.19999999999999996,
          0.40000000000000013,
          1.0,
          0.40000000000000013,
          1.0,
          0.20000000000000018,
          0.6000000000000001,
          0.0,
          0.0,
          -0.3999999999999999,
          -1.0,
          -0.8,
          -0.6,
          0.40000000000000013,
          0.40000000000000013,
          -0.19999999999999996,
          -1.0,
          0.0,
          0.0,
          0.40000000000000013,
          -0.19999999999999996,
          0.0,
          -0.19999999999999996,
          0.8,
          -0.6,
          0.0,
          0.6000000000000001,
          0.0,
          -0.8,
          -0.8,
          -0.6,
          -1.0,
          0.20000000000000018,
          0.40000000000000013,
          -1.0,
          -0.3999999999999999,
          -1.0,
          -0.19999999999999996,
          -0.19999999999999996,
          0.20000000000000018,
          0.40000000000000013,
          -0.6,
          0.6000000000000001,
          -0.8,
          0.20000000000000018,
          0.0,
          0.0,
          1.0,
          0.6000000000000001,
          -0.8,
          0.20000000000000018,
          -0.6,
          0.20000000000000018,
          -1.0,
          0.40000000000000013,
          0.6000000000000001,
          -0.19999999999999996,
          0.40000000000000013,
          -1.0,
          0.20000000000000018,
          0.0,
          -1.0,
          -1.0,
          0.20000000000000018,
          0.40000000000000013,
          1.0,
          0.20000000000000018,
          0.40000000000000013,
          0.20000000000000018,
          -0.3999999999999999,
          -1.0,
          0.40000000000000013,
          0.40000000000000013,
          0.0,
          0.8,
          -0.6,
          -1.0,
          -1.0,
          -0.19999999999999996,
          -0.6,
          -0.6,
          0.0,
          -1.0,
          -0.6,
          -1.0,
          -0.3999999999999999,
          -0.6,
          0.0,
          -0.19999999999999996,
          -0.3999999999999999,
          0.6000000000000001,
          0.8,
          -0.6,
          1.0,
          -1.0,
          -0.8,
          0.20000000000000018,
          0.6000000000000001,
          0.6000000000000001,
          -0.8,
          1.0,
          0.6000000000000001,
          -1.0,
          0.40000000000000013,
          -0.3999999999999999,
          -0.3999999999999999,
          1.0,
          0.8,
          -1.0,
          0.40000000000000013,
          0.0,
          0.6000000000000001,
          -0.3999999999999999,
          0.8,
          0.0,
          1.0,
          0.6000000000000001,
          0.0,
          -1.0,
          1.0,
          -0.6,
          1.0,
          0.8,
          -0.6,
          -1.0,
          0.6000000000000001,
          -0.19999999999999996,
          -1.0,
          -0.19999999999999996,
          -0.8,
          -0.6,
          0.0,
          0.6000000000000001,
          0.6000000000000001,
          -1.0,
          -1.0,
          0.0,
          1.0,
          -0.19999999999999996,
          -0.8,
          -0.19999999999999996,
          -1.0,
          0.8,
          -0.3999999999999999,
          -0.3999999999999999,
          -0.3999999999999999,
          1.0,
          0.6000000000000001,
          0.6000000000000001,
          -0.19999999999999996,
          -1.0,
          1.0,
          0.6000000000000001,
          0.8,
          -0.8,
          0.40000000000000013,
          -0.8,
          -1.0,
          -0.19999999999999996,
          -0.8,
          -0.19999999999999996,
          -0.3999999999999999,
          0.40000000000000013,
          1.0,
          -0.6,
          0.8,
          0.40000000000000013,
          0.20000000000000018,
          0.8,
          0.20000000000000018,
          0.8,
          0.8,
          0.8,
          -0.3999999999999999,
          -1.0,
          -0.3999999999999999,
          0.20000000000000018,
          1.0,
          0.8,
          -1.0,
          0.8,
          -1.0,
          -0.19999999999999996,
          0.20000000000000018,
          -0.6,
          0.8,
          0.8,
          0.8,
          0.40000000000000013,
          0.6000000000000001,
          0.6000000000000001,
          -1.0,
          -0.19999999999999996,
          0.20000000000000018,
          -0.19999999999999996,
          -0.3999999999999999,
          0.6000000000000001,
          0.8,
          0.20000000000000018,
          0.0,
          0.6000000000000001,
          -1.0,
          0.8,
          -1.0,
          0.40000000000000013,
          -0.19999999999999996,
          0.0,
          0.0,
          -0.8,
          0.6000000000000001,
          0.0,
          -0.19999999999999996,
          0.20000000000000018,
          -0.6,
          0.20000000000000018,
          -1.0,
          0.6000000000000001,
          -0.3999999999999999,
          0.40000000000000013,
          0.20000000000000018,
          0.6000000000000001,
          0.6000000000000001,
          0.8,
          0.0,
          0.40000000000000013,
          0.40000000000000013,
          -1.0,
          -0.8,
          -0.3999999999999999,
          1.0,
          0.0,
          0.20000000000000018,
          0.8,
          0.8,
          -0.19999999999999996,
          0.0,
          0.0,
          -0.6,
          -0.19999999999999996,
          0.40000000000000013,
          1.0,
          0.40000000000000013,
          -0.8,
          0.8,
          0.6000000000000001,
          -0.3999999999999999,
          0.8,
          -0.3999999999999999,
          0.20000000000000018,
          -0.8,
          -1.0,
          0.6000000000000001,
          0.0,
          0.0,
          -0.3999999999999999,
          1.0,
          0.0,
          0.40000000000000013,
          -0.19999999999999996,
          -0.8,
          0.8,
          0.8,
          0.20000000000000018,
          -0.6,
          -0.6,
          -0.8,
          0.8,
          0.40000000000000013,
          -0.8,
          -0.6,
          0.0,
          0.40000000000000013,
          0.20000000000000018,
          0.20000000000000018,
          0.6000000000000001,
          -0.19999999999999996,
          0.8,
          0.40000000000000013,
          0.8,
          -0.19999999999999996,
          0.0,
          0.20000000000000018,
          -0.3999999999999999,
          0.8,
          0.6000000000000001,
          -0.6,
          -0.8,
          0.40000000000000013,
          -0.8,
          0.40000000000000013,
          -0.19999999999999996,
          -0.3999999999999999,
          -1.0,
          0.20000000000000018,
          -0.8,
          -1.0,
          1.0,
          -0.19999999999999996,
          -0.19999999999999996,
          0.8,
          1.0,
          0.20000000000000018,
          0.0,
          0.20000000000000018,
          -0.8,
          -0.6,
          0.20000000000000018,
          -0.3999999999999999,
          -0.3999999999999999,
          0.6000000000000001,
          0.6000000000000001,
          -0.3999999999999999,
          -0.3999999999999999,
          1.0,
          0.6000000000000001,
          -1.0,
          0.20000000000000018,
          0.20000000000000018,
          -0.8,
          -0.6,
          0.20000000000000018,
          -0.19999999999999996,
          -0.6,
          -0.6,
          -0.19999999999999996,
          0.6000000000000001,
          0.40000000000000013,
          0.20000000000000018,
          0.0,
          -0.8,
          0.20000000000000018,
          0.6000000000000001,
          0.40000000000000013,
          -1.0,
          -1.0,
          -0.8,
          0.40000000000000013,
          0.0,
          0.20000000000000018,
          -0.8,
          0.6000000000000001,
          0.0,
          -0.3999999999999999,
          0.6000000000000001,
          0.0,
          0.20000000000000018,
          -1.0,
          -0.8,
          1.0,
          0.0,
          -0.8,
          0.6000000000000001,
          0.6000000000000001,
          -0.6,
          0.40000000000000013,
          -0.19999999999999996,
          0.20000000000000018,
          0.8,
          -0.19999999999999996,
          -0.6,
          -0.19999999999999996,
          -0.6,
          -1.0,
          -0.6,
          -1.0,
          0.8,
          -0.8,
          0.8,
          0.40000000000000013,
          -1.0,
          0.0,
          1.0,
          1.0,
          -0.8,
          -0.3999999999999999,
          0.8,
          -1.0,
          0.20000000000000018,
          0.8,
          -0.6,
          -1.0,
          1.0,
          0.0,
          -0.19999999999999996,
          0.8,
          -1.0,
          -0.19999999999999996,
          0.40000000000000013,
          0.0,
          -0.19999999999999996,
          -0.8,
          0.20000000000000018,
          1.0,
          -0.6,
          0.40000000000000013,
          -0.19999999999999996,
          0.40000000000000013,
          0.20000000000000018,
          -1.0,
          0.20000000000000018,
          0.20000000000000018,
          -0.3999999999999999,
          1.0,
          -0.6,
          0.0,
          -0.6,
          0.0,
          -0.3999999999999999,
          0.40000000000000013,
          0.20000000000000018,
          0.8,
          -0.19999999999999996,
          -0.3999999999999999,
          -0.6,
          0.0,
          -0.19999999999999996,
          0.20000000000000018,
          1.0,
          -1.0,
          -0.3999999999999999,
          -0.6,
          1.0,
          1.0,
          -0.6,
          -0.6,
          -0.3999999999999999,
          -0.6,
          0.6000000000000001,
          -0.19999999999999996,
          0.20000000000000018,
          -0.19999999999999996,
          -1.0,
          -0.6,
          0.8,
          -0.6,
          -0.19999999999999996,
          0.0,
          0.20000000000000018,
          1.0,
          1.0,
          -0.6,
          0.6000000000000001,
          -0.19999999999999996,
          -0.19999999999999996,
          0.8,
          0.6000000000000001,
          0.0,
          0.0,
          0.20000000000000018,
          0.40000000000000013,
          -1.0,
          -0.19999999999999996,
          -0.8,
          0.20000000000000018,
          0.40000000000000013,
          -0.6,
          0.6000000000000001,
          0.40000000000000013,
          -0.19999999999999996,
          -0.6,
          -0.6,
          1.0,
          -0.8,
          -0.3999999999999999,
          -0.3999999999999999,
          -0.3999999999999999,
          -1.0,
          -1.0,
          -0.6,
          -0.6,
          0.6000000000000001,
          -0.3999999999999999,
          -0.8,
          0.0,
          0.40000000000000013,
          -0.3999999999999999,
          -0.8,
          -0.19999999999999996,
          1.0,
          0.6000000000000001,
          0.8,
          -0.6,
          -0.8,
          -0.8,
          0.0,
          0.20000000000000018,
          -0.3999999999999999,
          0.20000000000000018,
          -0.6,
          0.20000000000000018,
          0.20000000000000018,
          0.0,
          1.0,
          -0.8,
          1.0,
          -0.8,
          -1.0,
          1.0,
          0.40000000000000013,
          -0.8,
          -0.8,
          0.20000000000000018,
          -0.19999999999999996,
          -0.19999999999999996,
          0.8,
          0.6000000000000001,
          0.20000000000000018,
          0.8,
          0.8,
          0.0,
          -0.6,
          -0.6,
          -1.0,
          1.0,
          -1.0,
          0.8,
          -0.3999999999999999,
          0.40000000000000013,
          0.8,
          0.8,
          0.6000000000000001,
          0.20000000000000018,
          0.6000000000000001,
          -0.6,
          0.8,
          0.8,
          -0.3999999999999999,
          0.20000000000000018,
          0.20000000000000018,
          -0.6,
          0.40000000000000013,
          -0.3999999999999999,
          -0.6,
          -0.6,
          -0.3999999999999999,
          0.8,
          -0.6,
          -1.0,
          0.8,
          0.6000000000000001,
          -0.19999999999999996,
          -0.6,
          -0.3999999999999999,
          0.40000000000000013,
          -0.3999999999999999,
          -0.8,
          1.0,
          0.6000000000000001,
          0.0,
          -0.19999999999999996,
          -0.3999999999999999,
          -1.0,
          0.20000000000000018,
          0.6000000000000001,
          -0.6,
          0.8,
          -0.6,
          0.40000000000000013,
          1.0,
          0.6000000000000001,
          1.0,
          -1.0,
          0.8,
          0.40000000000000013,
          0.6000000000000001,
          1.0,
          -0.19999999999999996,
          0.6000000000000001,
          -1.0,
          -0.8,
          1.0,
          1.0,
          -1.0,
          0.0,
          0.8,
          -0.3999999999999999,
          -0.3999999999999999,
          0.40000000000000013,
          0.40000000000000013,
          -1.0,
          -0.6,
          0.0,
          0.0,
          0.8,
          -1.0,
          0.8,
          -0.19999999999999996,
          0.6000000000000001,
          1.0,
          -0.3999999999999999,
          -0.6,
          -1.0,
          0.40000000000000013,
          -0.19999999999999996,
          -0.3999999999999999,
          -0.6,
          -0.3999999999999999,
          0.8,
          0.6000000000000001,
          0.40000000000000013,
          -0.8,
          1.0,
          -0.6,
          0.20000000000000018,
          0.6000000000000001,
          -0.3999999999999999,
          0.6000000000000001,
          0.6000000000000001,
          0.0,
          -0.6,
          0.0,
          -0.19999999999999996,
          -0.3999999999999999,
          -0.19999999999999996,
          -0.3999999999999999,
          0.0,
          0.6000000000000001,
          -0.6,
          -0.8,
          0.40000000000000013,
          -0.6,
          0.20000000000000018,
          -0.6,
          -0.6,
          -0.19999999999999996,
          0.8,
          -0.6,
          -0.19999999999999996,
          1.0,
          0.6000000000000001,
          -0.6,
          -0.19999999999999996,
          0.8,
          -1.0,
          -0.6,
          -0.8,
          -0.6,
          0.8,
          -0.19999999999999996,
          0.8,
          -0.8,
          1.0,
          1.0,
          -1.0,
          0.20000000000000018,
          -1.0,
          0.20000000000000018,
          1.0,
          -0.8,
          -0.8,
          0.20000000000000018,
          -0.19999999999999996,
          1.0,
          0.8,
          -0.19999999999999996,
          -0.3999999999999999,
          0.6000000000000001,
          -0.6,
          -0.19999999999999996,
          -0.6,
          0.40000000000000013,
          1.0,
          0.40000000000000013,
          1.0,
          -1.0,
          0.40000000000000013,
          0.20000000000000018,
          0.6000000000000001,
          -0.19999999999999996,
          -1.0,
          1.0,
          -0.8,
          0.8,
          -0.6,
          0.6000000000000001,
          0.40000000000000013,
          -0.3999999999999999,
          1.0,
          -0.8,
          -0.8,
          1.0,
          1.0,
          0.6000000000000001,
          0.40000000000000013,
          -0.3999999999999999,
          -0.3999999999999999,
          0.40000000000000013,
          -0.19999999999999996,
          -0.8,
          -0.6,
          0.20000000000000018,
          0.40000000000000013,
          -1.0,
          -0.19999999999999996,
          0.6000000000000001,
          -0.3999999999999999,
          0.8,
          0.40000000000000013,
          0.40000000000000013,
          0.40000000000000013,
          0.0,
          -0.3999999999999999,
          -1.0,
          -0.6,
          0.6000000000000001,
          -0.8,
          -1.0,
          -0.3999999999999999,
          0.0,
          -0.8,
          -0.3999999999999999,
          -0.19999999999999996,
          -0.3999999999999999,
          1.0,
          1.0,
          1.0,
          0.0,
          0.6000000000000001,
          1.0,
          0.40000000000000013,
          0.8,
          -0.8
        ],
        "featuresSize": 18,
        "order": 3
      },
      "name": "LogTester",
      "loggerName": "LogTester3ecd23d9",
      "evl": {
        "player": "",
        "counters": {},
        "maxEventId": 18,
        "converter": {
          "count": 18,
          "names": [
            "nobleTaken",
            "increaseTokens",
            "decreaseTokens",
            "increaseGold",
            "decreaseGold",
            "drawCard",
            "fillCard",
            "fillNoble",
            "increasePlayerTokens",
            "decreasePlayerTokens",
            "increasePlayerGold",
            "decreasePlayerGold",
            "reserveHiddenCard",
            "reserveBoardCard",
            "receiveNoble",
            "receiveCardBonus",
            "receiveCardPoints",
            "receiveNoblePoints"
          ]
        }
      }
    }
  }
]