[
  [
    {
      "value": [
        32,
        29,
        15,
        9
      ]
    },
    {
      "x": {
        "agentConfig": [
          0,
          3,
          0,
          0,
          1,
          1,
          1,
          2,
          2,
          0
        ],
        "weights": [
          -0.03511969144415805,
          0.4052430053557776,
          0.09245365550350337,
          0.12301420278891628,
          -0.051190885939393915,
          0.5199040603624139,
          -0.12587174895697428,
          -0.9719870463817755,
          -0.9942781691205396,
          0.47346285433013624,
          -0.3851619604760872,
          -0.05232870374857446,
          -0.8278972977511931,
          -0.07990489730122952,
          0.8693042002086897,
          -0.05212162417547561,
          0.8264345616331601,
          0.030013247251094555,
          0.8641197313831348,
          0.16086422061696615,
          0.5169588302184669,
          0.34497532499616645,
          -0.6967632152035592,
          0.28299384646410575,
          0.4576121590356441,
          -0.6754315639075781,
          -0.9113910569908505,
          0.9617307819338281,
          0.6611951536929093,
          -0.8846893937306826,
          0.8518019064416509,
          0.4133844015210002,
          0.11046827684758642,
          0.3968801233713377,
          -0.9697235962874797,
          -0.40823028198539846,
          0.11201222973007918,
          0.29454736094505973,
          -0.6275627816371305,
          -0.9810746709085736,
          -0.9656708826036262,
          -0.7058516403624691,
          0.21843334858240282,
          -0.007450237923881664,
          -0.9991972683838515,
          -0.14429222857930402,
          0.6790846661433214,
          -0.6991671937855874,
          -0.21022459026082685,
          -0.00591895048763158,
          -0.07679828485801177,
          -0.19612695293921534,
          -0.8118585045821538,
          -0.5202457331138532,
          -0.8160457879101146,
          -0.7181097473637732,
          0.35149592751319503,
          0.5102041482308739,
          -0.1921628584879398,
          0.8039546811347871,
          -0.6569812749160675,
          0.7119862877620924,
          0.695171101724946,
          -0.4630275556543557,
          -0.04508407982985618,
          0.1559860387987877,
          0.8189665025145627,
          -0.6068181477723209,
          0.16037869043681274,
          -0.2969679750709959,
          -0.8406300973155734,
          0.20542973519088736,
          -0.8993379195945963,
          -0.555663005474446,
          -0.6461965736689537,
          0.22301433681231586,
          -0.6189731441076827,
          -0.7390027060692606,
          -0.36170317478879754,
          -0.36310454240460577,
          0.630927048949921,
          0.5990477683885094,
          0.2434036622583411,
          0.5715890406327477,
          0.7779675209289034,
          -0.5586661690037518,
          0.3084836886276572,
          -0.4779214622411365,
          -0.7082040114938322,
          -0.8452711154586252,
          0.5910229226124579,
          -0.4324086742524551,
          -0.22676534317543617,
          0.40099031845247635,
          0.7730555049125762,
          -0.13989606557526635,
          -0.304402710777012,
          -0.3781865335717327,
          -0.9953600515084227,
          0.8639552598578484,
          0.8492782442001194,
          -0.25659221437791846,
          0.4747345222255006,
          -0.3860366014634553,
          -0.9026596303756127,
          0.6931860261825213
        ],
        "playerName": "RFFSimulation",
        "converter": {}
      },
      "fitness": 0.8,
      "behaviours": [
        21.2,
        1.9,
        29.2,
        4.4
      ]
    }
  ],
  [
    {
      "value": [
        31,
        31,
        14,
        7
      ]
    },
    {
      "x": {
        "agentConfig": [
          1,
          3,
          1,
          0,
          2,
          0,
          0,
          0,
          4,
          2
        ],
        "weights": [
          -0.028888696288454696,
          -0.5778403074180614,
          -0.5373882206551714,
          -0.8975171017314949,
          0.2883384511671838,
          0.3348046816660255,
          0.7243128524146085,
          -0.6582331432197939,
          0.020869534048228333,
          -0.5107814982918544,
          -0.6164359535145212,
          -0.4409829788800226,
          0.9849412151270416,
          -0.2991492714455708,
          0.5048499605652279,
          -0.6014279709255439,
          0.27948815189996745,
          -0.8599151288611371,
          -0.6398360570128618,
          0.9179784703006559,
          -0.5514928250038746,
          0.9081085761938383,
          -0.0015487500040296531,
          0.028711096383950307,
          0.8758684693643779,
          -0.9168388325788623,
          -0.6303273654499051,
          -0.9988271403357938,
          0.4851437823558107,
          -0.36165815213165287,
          0.15906767043453063,
          -0.3490212497355969,
          0.061164060364424344,
          -0.7330711666190508,
          -0.8624135860244027,
          -0.8854561886442309,
          0.06665749436931212,
          -0.401575379149262,
          -0.2026504908529918,
          -0.7744896862665995,
          0.696461483141217,
          0.5483081501611173,
          0.31638757142729035,
          0.41956642201182115,
          -0.9065584429061071,
          0.616740703832293,
          0.4848001943745932,
          -0.17627791934153136,
          0.14439101810130017,
          -0.16376227810548705,
          0.12486699542215396,
          0.7271256929195433,
          -0.9191740126090091,
          0.7655838875117738,
          0.7505328066804435,
          0.9840186677719633,
          0.22873123802496464,
          0.43703609651598785,
          -0.26292003096334926,
          -0.9345571091552836,
          -0.31704809476396467,
          -0.5138783250207504,
          0.10969133266188003,
          0.45482912785187657,
          0.4260687316976228,
          -0.17189163910047078,
          -0.7900014295846696,
          -0.12638748433546754,
          0.46823252469191745,
          -0.8075149940189814,
          -0.0374002837874281,
          0.4265349509650689,
          -0.04642360436057169,
          -0.4134402487049691,
          -0.7610771277754933,
          -0.8276884250843617,
          -0.1395360760766331,
          -0.6684533245836004,
          0.9037007268886779,
          -0.14614804436823214,
          0.9169719279195632,
          0.6992789235360912,
          0.5297134997720621,
          -0.4367551304260786,
          0.6596475895918119,
          -0.625049770004255,
          0.47934759625548473,
          0.9702287944764836,
          -0.8172799569614979,
          -0.018946256442909926,
          0.07690754872089633,
          -0.5911124111549926,
          0.05658730466501094,
          -0.28004728603730045,
          -0.06648954333032853,
          0.5958248957880481,
          0.13853978854493576,
          -0.17271848746593688,
          0.13678145029720512,
          0.044088575555264686,
          0.5553228667193533,
          -0.024356400846978543,
          0.9804606078795461,
          -0.6593705818354763,
          -0.993719562332819,
          0.027836561693428186
        ],
        "playerName": "RFFSimulation",
        "converter": {}
      },
      "fitness": 0.8,
      "behaviours": [
        20.3,
        2.0,
        26.8,
        3.1
      ]
    }
  ],
  [
    {
      "value": [
        13,
        1,
        41,
        6
      ]
    },
    {
      "x": {
        "agentConfig": [
          0,
          1,
          2,
          0,
          2,
          1,
          3,
          2,
          4,
          0
        ],
        "weights": [
          -0.32196720984037563,
          0.4650990048371091,
          -0.15625995646751356,
          -0.20638810019922738,
          -0.7295418458680651,
          0.2636251640312697,
          0.02450693324959441,
          -0.8812159603843674,
          0.45840818137237616,
          0.6373315315989905,
          0.6741877846209567,
          0.2972871020018919,
          -0.4667269642961567,
          -0.9451806043175908,
          -0.7337331119211352,
          0.7330387027921235,
          0.2879834460001234,
          0.8679593777996151,
          -0.6915445818382002,
          0.7593000648938564,
          -0.7254261127510413,
          0.5921143336830228,
          -0.9887760469510571,
          -0.846759797313668,
          0.9931360815239534,
          0.3427437016507999,
          -0.28668187237192,
          -0.9903287320350214,
          0.27125781278478445,
          0.9145342615456906,
          0.6407338123175874,
          0.28529499689147486,
          -0.4440686449969762,
          0.5927184552891893,
          -0.055229850313070594,
          0.08456650509581709,
          -0.38469240678718997,
          -0.7977436948076728,
          0.6464179649603499,
          0.3305466679439175,
          -0.7644388052762325,
          0.12907227687207623,
          0.10848348501199512,
          0.8488805580296479,
          0.8985243571283466,
          -0.911444310137034,
          0.9634859499217914,
          0.09030486561599416,
          -0.8613642097750502,
          -0.7299530922473279,
          0.04450982352438193,
          -0.2731475635220981,
          0.3031436112240091,
          0.15204839544222426,
          -0.20216754917672541,
          -0.8208117825176386,
          0.777390084165321,
          -0.2385848650285285,
          -0.09971192199226309,
          -0.23272384446467553,
          -0.6126021096375223,
          -0.5592056666253364,
          -0.6390288879458663,
          -0.3761572020258539,
          0.6548678833929822,
          0.2920998958440917,
          -0.7439797446807606,
          -0.23013207091132704,
          0.8550880431472188,
          -0.6201766288718593,
          -0.5731321413020685,
          0.8235993331088163,
          0.41614599620062687,
          -0.49350229120499445,
          0.23683773930586538,
          0.699353675387905,
          0.0982256531075767,
          0.9136467164287589,
          0.12473592424963464,
          0.34963125265067263,
          0.6046609592130052,
          0.6150685291535491,
          0.3833007183274588,
          -0.8861615265771066,
          -0.19819030088831524,
          -0.7646838190583942,
          -0.11814436800484618,
          -0.44082366524378114,
          0.5627007161872899,
          0.204755208962776,
          -0.878146010340864,
          -0.16597919170782482,
          -0.6002009538472279,
          -0.04640644750117251,
          0.9304807316777342,
          -0.4986158408325647,
          -0.48487623253079604,
          0.3507936313374249,
          -0.9633002722747372,
          0.5798140935729581,
          -0.3286560553718785,
          0.04979338531076949,
          -0.7071054987645888,
          -0.9086478710916273,
          0.37536870372855535,
          -0.36852200517740674
        ],
        "playerName": "RFFSimulation",
        "converter": {}
      },
      "fitness": 0.0,
      "behaviours": [
        8.4,
        0.0,
        80.8,
        2.5
      ]
    }
  ],
  [
    {
      "value": [
        19,
        4,
        29,
        9
      ]
    },
    {
      "x": {
        "agentConfig": [
          1,
          4,
          2,
          0,
          1,
          0,
          0,
          0,
          1,
          0
        ],
        "weights": [
          0.8077092293137116,
          0.38023443601679574,
          0.8464437335229855,
          -0.04989080855475647,
          -0.0876007537458503,
          -0.4972819966672517,
          -0.03017420622473077,
          0.027019481229081155,
          0.9609923678936694,
          -0.5146477700939938,
          0.27242208577605975,
          -0.2682474651129483,
          -0.7024634563658596,
          0.7996445569514352,
          0.31455798738783214,
          -0.21183896981462125,
          0.6523999117295394,
          -0.3244880432668764,
          -0.6233460246576721,
          0.626259847766421,
          0.17429091636071647,
          0.30934967586901263,
          0.8372283671252838,
          0.6337946383863915,
          -0.26438180356392293,
          -0.47619994723236747,
          -0.66803926358156,
          0.9358352595274557,
          0.4236057866634031,
          -0.5360005135056418,
          -0.8732608797675194,
          -0.559508375026804,
          -0.7512822005212849,
          -0.5751531941603902,
          0.6630040048925752,
          0.05486665728097129,
          0.5335890063722384,
          -0.7738976238108293,
          0.07159162017195886,
          0.9538748499510108,
          -0.8102021726313458,
          -0.3131077981852961,
          0.6016726670499417,
          0.5755718707818531,
          -0.8535418055431978,
          0.6984580424452023,
          -0.6257305038395287,
          -0.3798439489450536,
          -0.4362514842261831,
          0.153758754703762,
          -0.3547716777613603,
          -0.2541824799131238,
          0.14613583684234377,
          -0.4352048847785779,
          -0.14958775189626938,
          0.8831272474883101,
          0.8641941341599482,
          0.583294650331933,
          0.1062718788215904,
          -0.8693265446508944,
          0.7005562034472312,
          0.8376598814285274,
          0.5518409272944307,
          0.04816845826145899,
          0.6546795053289223,
          -0.4911516346268803,
          -0.05640549376273496,
          -0.17073516841408987,
          0.17274662167368904,
          0.8901180817546721,
          -0.7475007713691431,
          -0.685164966608933,
          -0.5868382410604871,
          -0.1896613867847443,
          -0.33702582331307274,
          -0.9015151776174835,
          0.31474562323204336,
          0.2478329793720826,
          -0.6636280531451735,
          0.07958608572858017,
          -0.6961293259188317,
          -0.27851884900869317,
          0.5769816004164081,
          0.7351298812576845,
          -0.34157915374285386,
          -0.881917956752539,
          0.6264432932000847,
          0.11021739618353044,
          0.04059921508488595,
          0.4997356286892203,
          -0.7871428989654854,
          0.06802050994994913,
          -0.48275172917595444,
          0.13227417899714,
          0.19375823194395592,
          -0.30643928775584484,
          0.5054877497521801,
          0.48553426799546373,
          -0.8424786145300984,
          0.911669844682361,
          -0.4868836000215291,
          -0.7214692112169492,
          -0.31435166512442714,
          -0.641987887793581,
          -0.7126365799242116,
          -0.2226443737088235
        ],
        "playerName": "RFFSimulation",
        "converter": {}
      },
      "fitness": 0.2,
      "behaviours": [
        12.3,
        0.2,
        56.3,
        4.4
      ]
    }
  ],
  [
    {
      "value": [
        2,
        1,
        33,
        5
      ]
    },
    {
      "x": {
        "agentConfig": [
          0,
          0,
          0,
          1,
          2,
          0,
          2,
          1,
          1,
          1
        ],
        "weights": [
          -0.47428170542357706,
          0.2888277353811721,
          -0.8447410010954768,
          -0.5762272175137919,
          0.37315441932632987,
          -0.7878572142382276,
          -0.3623073219611779,
          0.7723586644337983,
          0.9047813513075549,
          -0.34614372584335484,
          -0.9498563357457537,
          -0.045186919508456436,
          -0.07965682676855868,
          0.7051577824505444,
          -0.7013539123057082,
          -0.2703226650395807,
          -0.7306602700976601,
          0.833883460714774,
          -0.32691333794064037,
          0.037662283177559486,
          0.8415989761153486,
          -0.3653747071479536,
          -0.2359943541731513,
          -0.8492276882589198,
          -0.1423516751056475,
          0.5430836733262001,
          0.08681977132763685,
          -0.8982573248570838,
          -0.8054586582144916,
          -0.9601297596878133,
          0.09150713763330387,
          -0.63080666567353,
          -0.8043119669735035,
          -0.2775156592407906,
          -0.14506596019579332,
          0.8036675322044824,
          -0.5613743998070866,
          -0.7097981016820156,
          -0.3153553170465979,
          -0.3980107413630585,
          -0.7274404892253876,
          0.9651310377370226,
          -0.8929252025532148,
          0.7721391318721633,
          0.5878928541390038,
          -0.8362955002243717,
          -0.730207956602986,
          -0.02188554429438816,
          -0.7571450391452645,
          -0.6636056093079268,
          0.6565047914299786,
          -0.08599620178454681,
          0.8477289514601498,
          0.809450775792913,
          -0.8047764847372014,
          0.42877337240247937,
          0.19506978845403378,
          0.19098085528076036,
          0.33409820915333044,
          0.5080266851977757,
          -0.4753055636356882,
          -0.555299004205696,
          0.4660965227972047,
          0.9162660513478722,
          -0.9748834583798343,
          0.08821032864241096,
          0.20282776713191342,
          0.8129487119820247,
          -0.501511565478286,
          -0.8613506568105895,
          0.4294587192466792,
          -0.02210270453516272,
          -0.0459955780382717,
          -0.5928774464421971,
          -0.18319262107559986,
          0.4163885778007834,
          0.04510898692710619,
          0.5342812266032364,
          -0.4766579768236676,
          -0.9384882471618556,
          0.7287458413213734,
          -0.23702452879391633,
          -0.8110468984819403,
          -0.9488486092738715,
          0.30027178875764693,
          0.85990325658086,
          0.004006054781222401,
          0.6292172348004814,
          -0.9544467341292167,
          -0.17330262463269253,
          -0.3686753799941316,
          0.10550756808939288,
          0.15215054859855748,
          -0.9180916894168176,
          0.06539341456467218,
          0.5058594220820283,
          -0.7656113869493726,
          -0.3511441093410299,
          -0.8677897469027542,
          0.5540037664032118,
          -0.14749888202432193,
          -0.44966119800561954,
          -0.7351405073728081,
          -0.5511901899920095,
          -0.2560724959684695,
          0.08970594057815662
        ],
        "playerName": "RFFSimulation",
        "converter": {}
      },
      "fitness": 0.0,
      "behaviours": [
        1.2,
        0.0,
        65.6,
        2.4
      ]
    }
  ],
  [
    {
      "value": [
        32,
        17,
        15,
        14
      ]
    },
    {
      "x": {
        "agentConfig": [
          1,
          1,
          3,
          1,
          2,
          0,
          1,
          2,
          3,
          0
        ],
        "weights": [
          0.9599669614944404,
          -0.10442939172680332,
          -0.3742214223867055,
          0.10676238890616774,
          0.06925165935243216,
          -0.11483909830537176,
          -0.17718806466317516,
          -0.40403089439608175,
          -0.4912643198223039,
          0.49160243077243604,
          0.2524697220194445,
          0.7367515289435447,
          0.8455547954701981,
          -0.43657507942529405,
          0.24337804262248075,
          -0.8153098868050972,
          0.9309576368076409,
          -0.5503715558596116,
          0.5613971058911975,
          -0.3981812719135165,
          0.4356882951057963,
          -0.33077048625723626,
          0.6245742141437653,
          -0.6192515678910335,
          -0.48515095038643397,
          -0.35402853758901287,
          -0.618335260718871,
          -0.2211649398679849,
          -0.7607322306029634,
          -0.8230381614727651,
          -0.8944961357288124,
          -0.8717771711210918,
          -0.7629661275681259,
          -0.9987358668340478,
          -0.4345993801297048,
          0.14111248220236683,
          -0.891991559995551,
          0.3442379555432804,
          0.5681173886112736,
          -0.5043824268119468,
          -0.3942459458014125,
          0.6356860279296668,
          -0.30511087495948486,
          0.8660882788329913,
          -0.6745289255556042,
          0.734632975227784,
          -0.7876747353120126,
          0.3527977415325583,
          -0.306833197373813,
          0.9408268558989896,
          -0.4020692129419039,
          -0.13059843171965801,
          -0.5795738802146304,
          0.8328179318952886,
          0.8963702225840906,
          -0.5374029384390828,
          -0.7292090110346088,
          -0.4552619456760625,
          -0.7895077244143258,
          -0.23307642511499127,
          0.9778982945426631,
          0.478666566228086,
          0.03152065783330826,
          0.838661643779306,
          0.46216558326112844,
          -0.3532643280431569,
          0.8257089423522614,
          -0.533695250316758,
          -0.8880455575010104,
          -0.15310530207522,
          0.3201477047233332,
          -0.27890898238897477,
          -0.1732172512583665,
          -0.3014839014686572,
          -0.7316979183540779,
          0.9896009050384718,
          0.7642970721990159,
          -0.8012063442129964,
          -0.8737511275425676,
          0.021439684388227187,
          -0.7106426626394946,
          -0.0918516833519738,
          -0.9665258295700014,
          0.6285408345382402,
          -0.5072738376720349,
          0.13262153475337102,
          -0.2325199188105984,
          0.5886417218512758,
          0.8284964433107818,
          -0.45649545804751335,
          -0.070656160584043,
          0.03399813527112139,
          0.9135312543909007,
          -0.4407862379384886,
          0.5177592238970492,
          -0.8525794946554843,
          0.33883011578093836,
          -0.488308279011459,
          -0.7380163846236418,
          -0.6587703111721159,
          -0.5381227973356066,
          0.12937613109965596,
          -0.39049638735040126,
          -0.7392536365941396,
          0.580667230498572,
          -0.8089536066377034
        ],
        "playerName": "RFFSimulation",
        "converter": {}
      },
      "fitness": 1.0,
      "behaviours": [
        21.3,
        1.1,
        28.4,
        6.9
      ]
    }
  ],
  [
    {
      "value": [
        32,
        25,
        23,
        10
      ]
    },
    {
      "x": {
        "agentConfig": [
          1,
          3,
          3,
          0,
          2,
          2,
          2,
          2,
          2,
          0
        ],
        "weights": [
          0.1844218759502667,
          -0.6289036205138447,
          0.7174636677051132,
          0.6111014374501669,
          0.14349445218328816,
          0.30428488903186857,
          -0.12877205042663076,
          0.8686575632367566,
          0.6438688505102068,
          0.6895705214685739,
          -0.8575164655322121,
          0.44205228454348977,
          0.6987602576379941,
          -0.6258230298983471,
          0.09190429434850333,
          -0.7523828801033854,
          -0.31960844514718256,
          0.11314078593458632,
          -0.40195937904497425,
          0.9325912095318374,
          0.763249992390912,
          -0.27664626256534053,
          -0.7455768904823641,
          0.031235756054250663,
          0.843961508658539,
          0.4240766816211472,
          -0.285616263498889,
          0.7885297918889855,
          0.5660183018408935,
          -0.39016379770228227,
          0.33546265899991057,
          -0.6211962180950126,
          -0.14701628141719447,
          -0.2823699479640158,
          0.15690826036858385,
          0.8189321571300718,
          0.441692168102477,
          -0.9211167332344912,
          -0.7620798575319923,
          -0.7395278447757105,
          -0.6926504861506091,
          -0.3123872779395127,
          -0.3090759448809164,
          -0.4575980092405276,
          -0.4146676748971745,
          -0.3302270852394964,
          -0.6366910034500106,
          0.8958761549470793,
          0.6198730701942672,
          0.9047720877939811,
          0.05269776903376844,
          0.5146830371357982,
          0.10771049032457714,
          -0.2713371526160744,
          0.3849615818191907,
          -0.660146695962345,
          0.9551742861891646,
          0.9395272661711214,
          -0.9591681939550438,
          0.854135507933296,
          -0.5699363793647159,
          0.42909246753903085,
          0.8861004020264347,
          -0.05818104646857236,
          -0.5349296145986191,
          -0.3193723465256524,
          0.7420431729631995,
          0.9416511303527457,
          0.5573882548386959,
          0.101689258786827,
          -0.9731603018227457,
          -0.09463869204745734,
          -0.39046119588910333,
          0.701297448046287,
          0.30540372250222014,
          -0.22843117237253363,
          0.26933771501048764,
          0.9746413293250675,
          -0.09581957020205323,
          0.6746186930409928,
          0.8523138423494709,
          0.024427315771789138,
          -0.8208948640036304,
          0.9301543729251298,
          -0.23221591813572284,
          0.9264994789550334,
          0.7690608585221717,
          -0.6259982152335573,
          -0.4798202875114146,
          0.1383771261635165,
          -0.7761890459254197,
          0.678205577057323,
          0.8201075522977641,
          -0.6471294251719051,
          -0.23547477519871807,
          0.02782275119618438,
          -0.8849776411672192,
          -0.38504913688503595,
          0.6166574345635505,
          0.11434615738245868,
          0.9372763311612049,
          0.7485653703191513,
          0.34907301599215645,
          -0.2136057204858175,
          0.8677023397185422,
          -0.8188925555602644
        ],
        "playerName": "RFFSimulation",
        "converter": {}
      },
      "fitness": 0.3,
      "behaviours": [
        21.3,
        1.6,
        44.0,
        4.8
      ]
    }
  ],
  [
    {
      "value": [
        30,
        17,
        21,
        1
      ]
    },
    {
      "x": {
        "agentConfig": [
          1,
          3,
          0,
          0,
          0,
          0,
          3,
          1,
          3,
          0
        ],
        "weights": [
          -0.04556347416574291,
          -0.16665755785376812,
          -0.8771322329247468,
          -0.07490588384464414,
          -0.6842984017779603,
          0.3084425862798217,
          -0.06135749881225916,
          -0.8531776876597565,
          0.7276463022183985,
          0.6979619245374185,
          0.3958984443135014,
          -0.3368059847392113,
          -0.4592066759386362,
          -0.12282150329674146,
          -0.3102949905193615,
          -0.6856023852335775,
          0.48099279031947995,
          0.9337424549835585,
          0.29514333919706215,
          0.574563894797556,
          0.9768560753954874,
          0.6539771532101177,
          -0.16488000224022836,
          0.14949945165828438,
          -0.005949572885206145,
          0.7930339045538395,
          0.9178398990751873,
          -0.282198852251637,
          -0.01972473241588335,
          -0.6886653671088594,
          -0.8692318910355714,
          -0.2863940922067789,
          0.7688810347664079,
          -0.6054988467977953,
          0.028299115396684504,
          -0.6597536185046122,
          0.8457335404739568,
          -0.47876204401991607,
          0.9132436188894504,
          0.10759758266946551,
          -0.7469343018833212,
          -0.896602099126157,
          0.4876332821577698,
          -0.8980841812311195,
          0.5857002578354897,
          -0.7052715890448698,
          -0.9637652274912314,
          -0.0745125928617032,
          0.029167615869187147,
          -0.5504398164481465,
          -0.2934453894324771,
          -0.21558119122708974,
          -0.8041171177712638,
          0.40996586490666065,
          -0.3379930330238028,
          0.55641687382265,
          0.6346877457060274,
          0.30968242498001164,
          0.4103080717652863,
          -0.16357676361664675,
          -0.6792972354700346,
          0.9053565658070657,
          -0.5529496610785487,
          0.9364812345239315,
          -0.8234235580502018,
          0.5804374615389962,
          0.5048002375495277,
          0.6072315651591471,
          -0.2671418071748799,
          0.114307129582782,
          -0.8390444139135593,
          -0.14805350650967264,
          0.4043630401316822,
          -0.930995272982327,
          0.3329868800049014,
          0.6200292142771346,
          -0.45896381808052444,
          0.21816645866500806,
          0.27757935740239215,
          -0.604579592978304,
          0.40596621454492876,
          0.8275674536115083,
          0.11058215796946902,
          -0.26363108589763984,
          0.5398368465471008,
          0.7939194323086971,
          0.5775623411982773,
          -0.32345966681450644,
          0.590247286662547,
          0.6583422861281654,
          0.8301512720603075,
          0.5634522189634956,
          -0.38402826477848695,
          -0.6668067042075834,
          -0.6987375563764595,
          -0.611260349619497,
          0.12036971282987596,
          0.015703998575184563,
          0.42264960991455935,
          0.9557720453626766,
          -0.3752006431365189,
          -0.7908595751240994,
          0.8911654270163829,
          -0.666343740924928,
          0.4620260499423261,
          0.03196672825535796
        ],
        "playerName": "RFFSimulation",
        "converter": {}
      },
      "fitness": 0.8,
      "behaviours": [
        19.6,
        1.1,
        41.0,
        0.2
      ]
    }
  ],
  [
    {
      "value": [
        34,
        35,
        14,
        11
      ]
    },
    {
      "x": {
        "agentConfig": [
          0,
          3,
          3,
          1,
          1,
          1,
          0,
          3,
          0,
          1
        ],
        "weights": [
          -0.6223217464076682,
          0.6555212714273517,
          -0.7991377518994729,
          0.43530576545304855,
          -0.6586735131996584,
          0.8040306594289646,
          0.4343224929838281,
          0.7568762059202745,
          0.2998054814772393,
          -0.8875190822558703,
          0.35231268720121656,
          -0.19715903509153954,
          0.4905533040875145,
          0.032975767519504595,
          -0.14681654029892188,
          -0.7386172969332987,
          -0.08647942769225869,
          -0.10930567734828744,
          -0.7976662197270239,
          0.21961195744066075,
          -0.7302746838165346,
          0.008130940763816152,
          -0.9938743859211923,
          0.5205613379469958,
          -0.7735372717499194,
          -0.2343851412605389,
          0.47476338818957986,
          -0.7874945489301568,
          0.7292006163148104,
          0.6672022241102251,
          0.38655354990270463,
          0.1753833242251781,
          0.29308371428636226,
          0.09650982333025415,
          0.28509892931809766,
          0.5188678685159105,
          -0.2676406609749895,
          0.08915162207956917,
          0.8726239745358597,
          0.6688905626378987,
          -0.37607160972706977,
          0.5818606015193815,
          -0.6932331011538619,
          0.19419642766825307,
          -0.04838455759403648,
          0.8654683873521944,
          -0.8351835649478603,
          0.3717699316170451,
          -0.15935675269765892,
          -0.1656046511249687,
          0.20851014968198944,
          -0.7502630178272456,
          -0.9328129510065604,
          0.823612748517992,
          -0.2358468043009505,
          -0.46138431086371234,
          -0.8842254195072823,
          -0.5452297750632216,
          -0.4730439409698053,
          0.04655189245620939,
          0.95768862030316,
          0.954195453480436,
          0.905131156099336,
          -0.42855674017296685,
          0.43641957690656574,
          0.25898925801303574,
          0.6384279373353021,
          0.17261995326138124,
          0.1716061314700068,
          -0.10654503726460574,
          0.35742814080703944,
          0.5670160199297904,
          -0.7692079449690423,
          -0.92338355528617,
          0.9940617755162098,
          0.3899330899733613,
          0.46871925112405877,
          0.8125948196494834,
          -0.48955374408785146,
          0.6245484584345531,
          0.39676608981769124,
          -0.18087064755587967,
          -0.7177084634499731,
          0.8553386268432304,
          -0.2794680239119931,
          -0.9344557908495243,
          0.6547543303851813,
          0.8903476995052251,
          0.2714593938257732,
          0.4199770611815212,
          0.6827649532174251,
          0.4101302600459906,
          -0.041225510766736084,
          -0.5532964087954009,
          0.8744925997918434,
          0.8159558853731894,
          -0.41908053505258125,
          -0.2520957845707277,
          0.8757523377138254,
          0.05088261862971688,
          -0.13896101351965684,
          0.4102384055920747,
          0.46480169477257216,
          0.6063561945565881,
          -0.0910253158156975,
          -0.9048952173724616
        ],
        "playerName": "RFFSimulation",
        "converter": {}
      },
      "fitness": 1.0,
      "behaviours": [
        22.3,
        2.3,
        26.0,
        5.0
      ]
    }
  ],
  [
    {
      "value": [
        33,
        29,
        13,
        5
      ]
    },
    {
      "x": {
        "agentConfig": [
          1,
          1,
          1,
          0,
          0,
          2,
          3,
          2,
          4,
          0
        ],
        "weights": [
          0.5680547027373133,
          0.7364791772925368,
          -0.09078602393501378,
          0.02398919039243852,
          -0.07144304965731818,
          0.8947560534591092,
          -0.4700251903539767,
          -0.18398165008674505,
          0.6415112860667067,
          -0.09922673610333854,
          0.8135642226867388,
          0.14190016328449695,
          0.029126706115007783,
          -0.8299940235235395,
          0.17024258388592473,
          0.2594743233111916,
          0.88536450963922,
          0.1776003272044071,
          0.21690437102369797,
          0.3837176896028107,
          -0.10390580455118692,
          0.04864233174817634,
          0.7187230303396877,
          -0.9544194500813468,
          -0.18797962535300594,
          0.2841479225411523,
          0.22781183312440811,
          -0.0021710795715030873,
          0.3942181551029307,
          0.486849055465979,
          0.1779944791963184,
          0.6540389580593802,
          -0.7912472582195322,
          -0.10188404776453508,
          -0.34232917290393616,
          -0.34959660827050043,
          0.7160018606392513,
          0.3171215244515817,
          -0.14184726463821318,
          -0.46397335809015616,
          0.7819390362830039,
          0.5456197602484667,
          0.2827364822594165,
          -0.1740998383729213,
          -0.2672234372721609,
          0.8864749271801551,
          0.20216846358566376,
          -0.30823404620323247,
          0.38100777208948267,
          0.4213445245282872,
          0.5550512205458564,
          0.4195911598173627,
          0.07002871902583441,
          -0.19731506840434365,
          -0.4828716048826014,
          -0.5716076921632904,
          -0.28383959552149207,
          0.11751273846954113,
          -0.698723597733879,
          0.12366413681480148,
          0.07103234269217484,
          0.015122951462726464,
          0.4004229603167846,
          -0.8503176289459058,
          -0.016069763265303294,
          0.7382278916105314,
          0.44850145697026456,
          0.7084667007862897,
          -0.6871501177866792,
          -0.043251143107753354,
          0.14994245245425053,
          0.5292048785298145,
          0.3146407859425726,
          0.375756632686435,
          0.31609284677840965,
          -0.1995451256537235,
          -0.1612363758457267,
          -0.02617688213912306,
          -0.05265533014776391,
          -0.08154258073095866,
          0.4558257522632505,
          -0.5746880857764405,
          -0.48735406773189305,
          0.25840791240137895,
          -0.2287997860537958,
          0.7699014200767604,
          0.10345636512070655,
          -0.6584498372583303,
          -0.39432618362070926,
          -0.2851005833059057,
          -0.022898314033535927,
          0.7494725302927459,
          0.4692109270749172,
          0.09067384631984621,
          -0.8451291623095472,
          0.9280007817548628,
          -0.18944002267475724,
          0.9267902133524388,
          0.20309074238759117,
          0.6265985962490781,
          0.8945700920663637,
          0.37621140928927566,
          -0.8991956290737331,
          -0.8647982348714569,
          0.8407266404880926,
          0.2871817800574348
        ],
        "playerName": "RFFSimulation",
        "converter": {}
      },
      "fitness": 0.9,
      "behaviours": [
        21.8,
        1.9,
        25.8,
        2.4
      ]
    }
  ],
  [
    {
      "value": [
        28,
        20,
        18,
        11
      ]
    },
    {
      "x": {
        "agentConfig": [
          1,
          5,
          1,
          0,
          2,
          1,
          0,
          2,
          2,
          1
        ],
        "weights": [
          -0.7372930990915156,
          -0.13704432360192786,
          0.41896922802085124,
          -0.919077769156948,
          -0.5008973153974305,
          -0.5943606434205686,
          -0.10069717089783392,
          -0.031000233350527706,
          -0.047809979281592696,
          -0.9057459825542267,
          -0.6817155143756826,
          -0.9588627419067466,
          0.5571859318122665,
          -0.8975363450300198,
          -0.7021703970369326,
          0.676244776009012,
          0.11796270355609728,
          -0.15253880934467356,
          -0.41426440502143236,
          0.44382872449080923,
          -0.5635782855501901,
          -0.3537253611570499,
          -0.01359354935385304,
          -0.6403701101455166,
          -0.5373865287278843,
          0.6607790695452094,
          0.6926028136397555,
          -0.12505603136408183,
          -0.2909267474332742,
          0.9769342578946032,
          0.3290702641882657,
          0.020340168570049277,
          0.13573183544834921,
          -0.23271590813904264,
          0.8880374744680806,
          0.38425861444281617,
          -0.012847654951973153,
          0.40176832990444344,
          0.918218989489406,
          0.67923331620607,
          -0.34826616587185466,
          -0.899585489162215,
          -0.17690512087668786,
          0.5332529094798799,
          0.5129134980743091,
          0.26249166949626845,
          0.9308834239382968,
          0.8410367353748822,
          0.9752903118468956,
          -0.03977546943248811,
          -0.8822394473278832,
          -0.4802297800624564,
          0.3739819696427322,
          0.2511816448940032,
          0.19752322101404918,
          0.8361081122328371,
          0.31342030524374365,
          0.941967342229795,
          0.03503189562496156,
          0.6060204608058957,
          -0.8678221422657306,
          0.22686170632045344,
          -0.6025899044188117,
          0.5163221052395046,
          -0.3466883046305862,
          -0.7714299311251183,
          -0.07388170955008944,
          -0.4235094381590123,
          -0.8449007983697812,
          -0.11574219195548441,
          -0.7053396928259581,
          -0.7183546089900301,
          -0.4150678106745871,
          0.848562412000468,
          -0.38917834582240185,
          -0.547675266999446,
          -0.5604737015288341,
          0.12629035550974166,
          0.42897889344722984,
          -0.08603713553145798,
          0.4474926582391492,
          0.0010222013249725492,
          0.3571602706272854,
          -0.8112630571474349,
          0.2157098916370097,
          -0.5081360710024505,
          -0.8248212705339857,
          -0.8052831259092217,
          0.3388255216811953,
          0.04909992412187503,
          -0.3757017634050144,
          0.5820181799222173,
          0.12160526912846681,
          -0.509482957271054,
          0.5855360058447459,
          0.7829230792036823,
          -0.9732591835231574,
          -0.7163150562208906,
          -0.7671570169954631,
          0.11270092538193888,
          0.2361158076971719,
          -0.8045046319502158,
          0.9290456931454829,
          0.3301242885903384,
          -0.6985778219178194,
          -0.9412243819413921
        ],
        "playerName": "RFFSimulation",
        "converter": {}
      },
      "fitness": 0.3,
      "behaviours": [
        18.6,
        1.3,
        35.4,
        5.0
      ]
    }
  ],
  [
    {
      "value": [
        7,
        1,
        11,
        8
      ]
    },
    {
      "x": {
        "agentConfig": [
          1,
          0,
          1,
          0,
          2,
          1,
          3,
          2,
          4,
          2
        ],
        "weights": [
          0.6823857152570858,
          0.3082490918111016,
          -0.1469720718244536,
          -0.8698192318863427,
          -0.9214365149226422,
          -0.7048721855363043,
          -0.6315162200160358,
          -0.9999546085176498,
          0.2895144261936595,
          -0.5499738540685057,
          0.18842526466712894,
          -0.1395706558731178,
          0.42479994430767554,
          -0.5585921129333173,
          -0.3688091249201295,
          -0.19992320868425195,
          -0.07385903498150914,
          0.17058154164883677,
          -0.582847500674619,
          0.7915415106246848,
          0.39621311182618046,
          -0.6152179964639168,
          0.4065878010068176,
          0.9961907154532523,
          0.3091491438764331,
          0.04245899294353883,
          0.9686810019496561,
          0.026158156931296528,
          0.9907508219943646,
          -0.5479260186283224,
          0.749535154613046,
          0.5722434036320068,
          -0.1556997738670498,
          -0.06577858883196441,
          0.10122016568501202,
          0.6915185038532863,
          -0.3017477228279837,
          0.2979081138618742,
          -0.7594793484414093,
          -0.2543289790733647,
          -0.6350183810799883,
          0.7753377523454292,
          0.32518912094381003,
          -0.5091237227155889,
          -0.9748539641674026,
          0.22556513748840668,
          0.06715042678407879,
          0.14225786595452194,
          0.8901203145665693,
          -0.6041009580647614,
          0.2462435347638301,
          -0.6292388020689232,
          0.7453448797212396,
          -0.179051135190736,
          0.5447276409123731,
          0.13753088495524968,
          -0.5596759533086897,
          0.5427258694977384,
          0.4919210890920158,
          -0.9693530361345499,
          -0.8336009307554457,
          0.25122518293018103,
          0.9899800526465108,
          0.34134262585084474,
          -0.5486874320581485,
          0.6734301597784311,
          0.8859673911895629,
          0.5015896220751728,
          0.19997078523189504,
          0.0796971218811886,
          0.36199989360802687,
          0.7022050718672721,
          -0.17629886401043926,
          -0.37000668107096213,
          0.534405060281278,
          0.5203976100248475,
          -0.4743072287254495,
          -0.05152306695066966,
          -0.415542100605788,
          0.20793698056214693,
          0.14819946413035634,
          0.7934235772877083,
          -0.01259143679121233,
          -0.07410294952614094,
          -0.36252705339761504,
          0.9805192247107561,
          0.9631543713623922,
          0.6591872721472358,
          -0.8547120898237115,
          0.8210551191731605,
          -0.8589530081324401,
          -0.19614619591687843,
          0.06130786959394796,
          -0.7474234730530298,
          0.6129697040650681,
          0.49239669061936153,
          0.8584338470638662,
          0.5680510313539058,
          -0.9570422424813314,
          -0.39288450947371745,
          -0.4663324777658471,
          -0.809359605784711,
          -0.6917233283012838,
          -0.8712391968710733,
          0.6399105402068965,
          -0.7053271158353172
        ],
        "playerName": "RFFSimulation",
        "converter": {}
      },
      "fitness": 0.0,
      "behaviours": [
        4.1,
        0.0,
        20.4,
        3.5
      ]
    }
  ],
  [
    {
      "value": [
        12,
        1,
        37,
        7
      ]
    },
    {
      "x": {
        "agentConfig": [
          0,
          2,
          2,
          1,
          2,
          0,
          2,
          0,
          1,
          1
        ],
        "weights": [
          -0.6202300728233126,
          -0.9939186050860955,
          0.884947148959834,
          -0.6736899543815851,
          -0.8334666912342203,
          -0.22895479027732524,
          -0.24153637341213297,
          -0.8777341377499583,
          0.11556312628326815,
          -0.8014190739043632,
          0.5107542711944304,
          0.31546263762956817,
          -0.1977129969995013,
          0.7934330157638239,
          -0.06477482850382943,
          -0.3035342153670044,
          0.9027276937085471,
          0.36131945528891163,
          0.4782118807237601,
          0.7650083776760321,
          -0.47908192980920905,
          0.4444021461545604,
          -0.35739861376976556,
          0.25754564815208525,
          -0.0038012159620854913,
          -0.35453082928105495,
          -0.1912545312472107,
          0.7570328923419274,
          0.8371894609734454,
          0.5349819601617336,
          0.3389884600836317,
          -0.017598955871871214,
          0.04836188816906084,
          0.8449055549785605,
          -0.7346774161488152,
          0.021217667857953648,
          -0.9532121643165661,
          -0.5244938694537615,
          -0.22972863398105825,
          -0.7524619644442978,
          0.6107713749019852,
          -0.5239340840694269,
          -0.8238983770527,
          -0.04203308374966852,
          -0.14128145372081558,
          0.6077297652963338,
          0.552092067066096,
          -0.13753434942696763,
          0.12573716430262438,
          0.35646569985392973,
          0.17958882848041036,
          -0.5175430881479062,
          -0.2129004711495417,
          0.33638496235684645,
          -0.7248386162569749,
          0.2372929508409074,
          -0.42815781989451995,
          0.9084340690144415,
          -0.3196329650911005,
          -0.4588291531578659,
          0.7164176219668528,
          0.536737296539352,
          -0.6114543185581214,
          -0.41390779269713485,
          0.4274526100224436,
          -0.08536815738305537,
          -0.6955421921259592,
          -0.3475185725370189,
          0.5543091050408344,
          0.21470595386526337,
          0.47046973177495244,
          -0.232408339599546,
          0.11628441098473608,
          -0.048085867314084485,
          -0.8566199427189229,
          0.32284391685600244,
          0.38592715239945496,
          -0.10389038980443188,
          -0.4311280142774263,
          -0.13524052827836308,
          0.5990873580282652,
          0.23010046090698721,
          -0.9240323830365655,
          -0.30983796011990106,
          -0.9560415110230203,
          0.7216008439049493,
          -0.7982503770932516,
          -0.8951580283729015,
          0.27551029736673605,
          -0.9377858335642464,
          -0.042992275197642815,
          -0.7541108570717923,
          0.5083524946655407,
          0.7238517307969945,
          0.056356506681047414,
          0.22141856979174857,
          -0.13979093372441365,
          -0.30724549834608195,
          -0.03823640367762282,
          -0.012572841781873567,
          0.049824104462889096,
          -0.736447289336345,
          0.9263158410732804,
          -0.13996435655535988,
          -0.6027394235816832,
          -0.2894370572428908
        ],
        "playerName": "RFFSimulation",
        "converter": {}
      },
      "fitness": 0.0,
      "behaviours": [
        7.5,
        0.0,
        73.5,
        3.1
      ]
    }
  ],
  [
    {
      "value": [
        32,
        25,
        16,
        7
      ]
    },
    {
      "x": {
        "agentConfig": [
          0,
          3,
          0,
          1,
          0,
          1,
          0,
          3,
          1,
          0
        ],
        "weights": [
          -0.12455675084767526,
          0.8523863169149442,
          -0.468805905818928,
          -0.8992126114131807,
          0.925710584765626,
          -0.8710180658426343,
          0.07694456794176374,
          0.7728472462648706,
          -0.3833231674008628,
          -0.2137329868278257,
          0.7806285011864516,
          0.07834597133276877,
          -0.4807861497175563,
          -0.1032315912859163,
          -0.9810435137315943,
          -0.13307502794775616,
          0.7840657969159055,
          0.29512782143132177,
          0.45084009938264447,
          0.8935396890129992,
          0.40732185183211644,
          0.9378743251516934,
          -0.31388675776801,
          -0.16375087517505849,
          0.5148652475405839,
          0.8348006369333079,
          0.2783142590520862,
          -0.0649215595738224,
          -0.19424817631175673,
          0.5283226234160867,
          -0.907385422672329,
          -0.6027212775777047,
          0.4448630126018993,
          0.8882167480663861,
          -0.8433784107728481,
          0.6615747424116156,
          0.1580674576553709,
          0.5926468138566643,
          -0.5290771472946061,
          -0.6262434892636983,
          -0.9414827392927978,
          0.08240530224229148,
          -0.062119666043527255,
          -0.5017640018883904,
          0.8205946242312931,
          0.0038120806736976487,
          0.5613233727301055,
          0.37495649952050014,
          0.21841567576815613,
          -0.8032725178130584,
          0.37643016017815945,
          0.7283075833277468,
          -0.2413107445411511,
          -0.8623470923488274,
          -0.8117722809891841,
          -0.35553647602415417,
          -0.836882018824477,
          0.4139082566687802,
          0.12878103872246838,
          -0.6441701165443863,
          0.7934206458175697,
          0.2833897495746005,
          -0.712716795900104,
          -0.6939522998975953,
          -0.23755477758970556,
          0.6654287990336623,
          0.22389827501033555,
          -0.5837293374040851,
          -0.5622679955553747,
          -0.9882125708045362,
          0.04734974357289956,
          0.7331960532098416,
          -0.6807224144987372,
          0.42284133326124973,
          -0.08211241531458979,
          -0.28840355133059115,
          0.8611411127040625,
          0.10251758942668321,
          0.3314082242657712,
          0.2688638746511427,
          -0.2930764505313239,
          0.7865696946269047,
          0.34714173268201076,
          -0.553655341139631,
          0.022043710155331464,
          0.1322876869156835,
          0.04046141405998904,
          0.02200825008531604,
          0.13112276111167875,
          0.22375761800379435,
          0.894011751798123,
          0.7412592104428266,
          0.5066816433762296,
          -0.6747007707915311,
          -0.415509119955104,
          -0.03253343234674588,
          -0.6942546442266255,
          0.8067273405346171,
          0.6790649596304401,
          -0.4989478987264766,
          -0.8861612565820385,
          -0.23240266068006332,
          -0.8754681603837233,
          0.07574177882024324,
          -0.668750021669235,
          0.30361105324830495
        ],
        "playerName": "RFFSimulation",
        "converter": {}
      },
      "fitness": 0.9,
      "behaviours": [
        21.3,
        1.6,
        30.2,
        3.2
      ]
    }
  ],
  [
    {
      "value": [
        35,
        31,
        19,
        9
      ]
    },
    {
      "x": {
        "agentConfig": [
          1,
          5,
          1,
          1,
          2,
          2,
          2,
          2,
          3,
          1
        ],
        "weights": [
          -0.9723726627956208,
          0.16090728523811437,
          0.6948766128908952,
          0.5840119619133255,
          0.8318936062303937,
          -0.1576352279981088,
          0.9554638848147776,
          -0.7066707008907547,
          -0.4039755299887684,
          0.5680668393413617,
          -0.9750465383149509,
          -0.36259953171193127,
          -0.03402207769270471,
          0.9919118105862739,
          0.6741986894414578,
          0.9576811092821704,
          -0.5583783642761475,
          -0.9108373156842269,
          0.6068608439460472,
          -0.3814310318611196,
          0.09673052498282675,
          -0.17467167850521137,
          0.9029068611829958,
          0.8044558491081168,
          0.5981120489198635,
          4.201324678865248E-5,
          0.829991399258978,
          -0.27320683563440795,
          -0.09009345185335249,
          0.08216041266898522,
          0.2574020303563995,
          -0.3361611202832835,
          0.09450017922722931,
          0.5183220738215024,
          0.8388895122662603,
          0.07802052566504125,
          -0.040620209024351484,
          0.47571911237376785,
          0.3748439947022184,
          -0.30938687436048884,
          -0.0503516292230648,
          0.27085297097352456,
          0.3209194403997746,
          0.840698526135379,
          -0.35118882256847894,
          0.8395592326938652,
          0.2793486703371748,
          0.7151359186281963,
          0.5258329148548424,
          0.5196030171899622,
          0.4908328690796291,
          0.10854102264700671,
          0.15435728478503985,
          -0.8543379492259364,
          -0.1609711680096555,
          -0.7429643250644455,
          0.03037067515998415,
          -0.002470618877290498,
          0.6862987539864871,
          0.9867958056070378,
          -0.6725184655842702,
          -0.504115378224673,
          0.9785280886225942,
          -0.07180903142589457,
          -0.5456199750661594,
          0.705996673387528,
          0.48845685715116915,
          0.8685753827181197,
          -0.88307012927421,
          -0.3117617828560362,
          -0.1888893328111514,
          -0.5484461447376596,
          0.7377378361177835,
          -0.474694003324317,
          -0.2184408373281952,
          0.37781416546896573,
          0.5489349072249385,
          -0.5404414617468141,
          -0.6456311007000675,
          0.022380978149053155,
          0.44929543043704334,
          -0.010103303269735076,
          -0.3342403599709063,
          -0.044586403583209755,
          -0.1952906923573967,
          -0.9938702629217764,
          0.9936119521190392,
          -0.7615659730964315,
          -0.22858460351883814,
          -0.9202164947752587,
          -0.36288311646334503,
          0.5651387595280244,
          -0.5657081106141959,
          -0.11617488251823693,
          -0.6430028828957175,
          0.3257125597217374,
          0.07789291283617983,
          0.3797914750086324,
          0.9488704982283784,
          -0.5041719138566851,
          -0.7541908307487295,
          0.889327249125442,
          -0.2335325189455537,
          0.8862815495970486,
          -0.10567736802766192,
          -0.5418484969340096
        ],
        "playerName": "RFFSimulation",
        "converter": {}
      },
      "fitness": 0.3,
      "behaviours": [
        22.9,
        2.0,
        37.6,
        4.3
      ]
    }
  ],
  [
    {
      "value": [
        23,
        2,
        30,
        8
      ]
    },
    {
      "x": {
        "agentConfig": [
          1,
          5,
          0,
          0,
          0,
          0,
          0,
          2,
          4,
          2
        ],
        "weights": [
          -0.7864301309957435,
          0.04425926822260129,
          -0.7027782510847169,
          -0.4683470342790881,
          -0.7281067965022319,
          -0.5977537775527937,
          0.9938747078498813,
          -0.9951772777822854,
          -0.7234088266125163,
          0.7189867480239358,
          0.5154829515590751,
          -0.8973830127828142,
          -0.1640387607315963,
          0.470462861969567,
          -0.8264294219130413,
          0.2419441178949706,
          -0.7814607860863803,
          -0.6797972219886099,
          -0.4141696178252121,
          0.8687435638363803,
          -0.5054857148862013,
          0.8650965700361379,
          0.15090209121414722,
          0.6176175103301365,
          -0.17118960093370927,
          -0.42718857596182347,
          -0.8658013024498203,
          0.91370219034854,
          -0.6568679178321795,
          0.00827839886831061,
          0.13071062266339095,
          -0.7793025742532751,
          0.9896618359794394,
          0.11274032122264144,
          -0.3976415306330847,
          -0.038761645862601446,
          -0.7830116919869894,
          0.7773649351800684,
          -0.5683939050076676,
          -0.2294406570469334,
          -0.14076548695516133,
          0.24444267490614946,
          0.9896858371361406,
          -0.8083347335232922,
          0.6422454526496861,
          0.9727062488317872,
          0.08692858302856221,
          -0.820009212605187,
          0.9760859850788801,
          0.5193213892466084,
          0.35433189128052445,
          0.8577947867616731,
          0.2909901406773949,
          0.7196174776198991,
          0.09964062354706282,
          0.8433018535448071,
          -0.9257066077650027,
          0.9866389979618175,
          0.48785366249306383,
          0.176868608369112,
          -0.02122955014388439,
          -0.09388266098830123,
          -0.9847871158031887,
          0.3762184334010892,
          -0.10180883202728963,
          0.46847538045502257,
          -0.32263035596519996,
          -0.5249464163111599,
          -0.2562011301722611,
          0.2579956153876164,
          -0.023434831610332107,
          0.034119677977359375,
          0.8058045205893931,
          0.7102956414358388,
          0.9693023042470292,
          0.06106248051731944,
          -0.9531176829452315,
          -0.8472276179404072,
          -0.07487415699881139,
          0.5351831036671151,
          -0.5499582825776026,
          -0.24130892395791914,
          -0.15122997579816233,
          -0.19453644438224438,
          -0.36885770158618425,
          0.774111009726721,
          0.11207191891623003,
          -0.48500090611679436,
          -0.6732920301388194,
          -0.582144624941757,
          -0.25130930575087707,
          0.9022409975968957,
          0.08058793590184665,
          0.7082482917820783,
          -0.4161879482948825,
          0.33921774591802123,
          -0.5215972587169921,
          0.1363585303001693,
          -0.697340074075423,
          0.7891687457342056,
          0.6166034994801233,
          0.5840030873819757,
          0.8057754524224685,
          -0.49920942661471646,
          0.143363708185553,
          -0.8242184366628618
        ],
        "playerName": "RFFSimulation",
        "converter": {}
      },
      "fitness": 0.5,
      "behaviours": [
        14.7,
        0.1,
        59.5,
        3.8
      ]
    }
  ],
  [
    {
      "value": [
        1,
        1,
        46,
        7
      ]
    },
    {
      "x": {
        "agentConfig": [
          1,
          0,
          0,
          1,
          0,
          1,
          1,
          3,
          4,
          1
        ],
        "weights": [
          -0.5659830802662587,
          -0.4646315296438943,
          0.13523154858463227,
          -0.01118988597828885,
          -0.3307609129723441,
          -0.5843703845534007,
          0.46600127786911383,
          0.4568792660016787,
          0.47602904772897814,
          0.30407493750507664,
          -0.8685184764432514,
          0.1803569118769517,
          -0.36468746563853616,
          0.5061722266490636,
          -0.5614210938836408,
          -0.047721758938894965,
          0.3660977007914108,
          0.7821237557074445,
          0.8702725601922305,
          0.2007649050677276,
          -0.36126629447686165,
          -0.9443134538450515,
          0.9663514309442964,
          -0.9702638850886127,
          -0.4546771233309215,
          0.43760766521391337,
          0.6537922963902723,
          -0.44904971855030484,
          0.06548234628067817,
          -0.14451593877579438,
          -0.30201844272741063,
          -0.7349937078004662,
          0.30979163858290115,
          -0.2833787846115168,
          -0.9036250414388161,
          -0.9600503916147489,
          -0.6200966012488243,
          -0.022268529571311646,
          -0.3009193207656957,
          0.8396435407112561,
          -0.6465656378645519,
          0.7550774460411975,
          -0.8837594665113158,
          -0.22991738362517222,
          -0.41660417189149723,
          0.18093228200966394,
          0.05997601617992432,
          -0.7596610507595063,
          -0.5039384636556923,
          0.5969943868567587,
          0.6690555316889659,
          0.07585022837277244,
          0.3778132776881906,
          0.3726588103028048,
          -0.9226696975423305,
          -0.7247284013344502,
          -0.73935607747237,
          0.6458139970386818,
          0.5123771643801149,
          -0.2318693773170981,
          -0.05236102748782234,
          0.10609823915690941,
          -0.4513236961561713,
          -0.990960470764032,
          -0.5361019820473507,
          0.5753153402742113,
          0.790043955718942,
          -0.46476473948794617,
          0.774997835148483,
          -0.41302562763706985,
          0.21892918600545008,
          0.7177319686760755,
          0.48424026872469406,
          -0.5733145036918119,
          0.7255754915873165,
          -0.1476116633710216,
          -0.5984321087982287,
          -0.8325924073698523,
          0.9179387545493614,
          0.46570592564997026,
          0.37117139768220153,
          -0.8816900404723946,
          0.2136426725561662,
          0.25119109246857607,
          -0.44854650378380767,
          -0.19672351803110222,
          -0.5718557506868467,
          0.4056292175020051,
          0.4601540980601473,
          0.09484514667652699,
          0.5986725879195527,
          0.3006341372044379,
          0.529083072234072,
          -0.548357730988982,
          0.6213941445857731,
          0.4033528431024469,
          -0.34295357273711025,
          -0.6578640885074742,
          0.4296491251072383,
          0.1512202443098154,
          -0.6938062781209389,
          0.8847994518192943,
          0.9039935336052367,
          0.08917460579959657,
          -0.9438465786480608,
          -0.5054598629586535
        ],
        "playerName": "RFFSimulation",
        "converter": {}
      },
      "fitness": 0.0,
      "behaviours": [
        0.1,
        0.0,
        91.6,
        3.1
      ]
    }
  ],
  [
    {
      "value": [
        14,
        7,
        34,
        8
      ]
    },
    {
      "x": {
        "agentConfig": [
          0,
          0,
          3,
          1,
          1,
          2,
          0,
          3,
          0,
          1
        ],
        "weights": [
          0.4801726416066163,
          0.9937599197637912,
          -0.7880345470891956,
          0.8975152965366768,
          -0.490958346670769,
          0.9370571804301067,
          -0.9440407801138369,
          0.26122290120959724,
          0.8228407524755748,
          0.2844021051146468,
          0.6403668893814187,
          -0.6159805108348615,
          0.6751216062854755,
          0.4733624250806534,
          -0.36339767397192624,
          -0.10201671549002111,
          -0.7529868417541914,
          -0.9125367496696457,
          -0.3112242165138752,
          -0.7386919435647381,
          -0.7495942853338788,
          -0.7833347045345234,
          0.9631568130943466,
          0.9511754662926659,
          0.8090223725830636,
          -0.6123839979389001,
          -0.8580636914535462,
          0.7153229969691988,
          0.7612376246999073,
          -0.5497913291253764,
          -0.021218597890360735,
          -0.9997127469768481,
          0.8038936470328486,
          -0.27699846799469174,
          0.7153156872591511,
          -0.2534300345400966,
          -0.515744732981398,
          -0.5714369394949843,
          -0.8482007337546544,
          -0.3742616745298917,
          -0.05236412228770271,
          -0.009173323501729724,
          -0.02807710439158262,
          -0.5082622094484022,
          0.5611157165456431,
          -0.8799476945859153,
          0.04077124666157328,
          -0.671539202879397,
          -0.9408334322407017,
          0.7770090924509783,
          -0.173348316349772,
          -0.7021194252798828,
          0.6948854764782202,
          0.08650851475119281,
          0.8416242478492153,
          0.627824296160423,
          -0.9690672354899754,
          -0.938567222049999,
          -0.9477895699510501,
          -0.9742735600398438,
          0.4671580792568999,
          0.6019190353378032,
          -0.4191017430503807,
          0.06446826764497438,
          0.3772910899194646,
          0.6503764622914343,
          0.7007017123249291,
          0.5586743977349677,
          -0.18503805205125023,
          -0.3884732289981814,
          -0.8808261405431406,
          0.334604497960048,
          -0.8502910528911409,
          0.18767722866091519,
          -0.14508673967291807,
          0.9940422596061169,
          0.7065204556415463,
          -0.3670522316758562,
          0.6287428762162461,
          0.2823509041690322,
          0.5078492615954264,
          0.0961922169594418,
          0.6233839646507024,
          0.4931280951789685,
          -0.44507256080058943,
          -0.7991325402913025,
          0.7095845752693637,
          0.9766612443747518,
          -0.26439795291766366,
          0.30112045706260715,
          0.7933062349854922,
          0.26664766204319057,
          0.4088000304716437,
          -0.04312101130439183,
          -0.19228963341866234,
          0.5994109721286522,
          0.9911243049981255,
          -0.9132524242951432,
          -0.9446716943917799,
          0.6721101504311746,
          0.4589712715435694,
          -0.013975036274662678,
          0.09993888185765365,
          -0.6287965113158498,
          0.5799513837507433,
          -0.061823931973689294
        ],
        "playerName": "RFFSimulation",
        "converter": {}
      },
      "fitness": 0.3,
      "behaviours": [
        9.3,
        0.4,
        66.1,
        3.8
      ]
    }
  ],
  [
    {
      "value": [
        32,
        32,
        13,
        13
      ]
    },
    {
      "x": {
        "agentConfig": [
          0,
          3,
          3,
          1,
          1,
          1,
          0,
          3,
          0,
          1
        ],
        "weights": [
          -0.6223217464076682,
          0.6555212714273517,
          -0.7991377518994729,
          0.43530576545304855,
          -0.6586735131996584,
          0.8040306594289646,
          0.4343224929838281,
          0.7568762059202745,
          0.2998054814772393,
          -0.8875190822558703,
          0.35231268720121656,
          -0.19715903509153954,
          0.4905533040875145,
          0.032975767519504595,
          -0.14681654029892188,
          -0.7386172969332987,
          -0.08647942769225869,
          -0.10930567734828744,
          -0.7976662197270239,
          0.21961195744066075,
          -0.7302746838165346,
          0.008130940763816152,
          -0.9938743859211923,
          0.5205613379469958,
          -0.7735372717499194,
          -0.2343851412605389,
          0.47476338818957986,
          -0.7874945489301568,
          0.7292006163148104,
          0.6672022241102251,
          0.38655354990270463,
          0.1753833242251781,
          0.29308371428636226,
          0.09650982333025415,
          0.28509892931809766,
          0.5188678685159105,
          -0.2676406609749895,
          0.08915162207956917,
          0.8726239745358597,
          0.6688905626378987,
          -0.37607160972706977,
          0.5818606015193815,
          -0.6932331011538619,
          0.19419642766825307,
          -0.04838455759403648,
          0.8654683873521944,
          -0.8351835649478603,
          0.3717699316170451,
          -0.15935675269765892,
          -0.1656046511249687,
          0.20851014968198944,
          -0.7502630178272456,
          -0.9328129510065604,
          0.823612748517992,
          -0.2358468043009505,
          -0.46138431086371234,
          -0.8842254195072823,
          -0.5452297750632216,
          -0.4730439409698053,
          0.04655189245620939,
          0.95768862030316,
          0.954195453480436,
          0.905131156099336,
          -0.42855674017296685,
          0.43641957690656574,
          0.25898925801303574,
          0.6384279373353021,
          0.17261995326138124,
          0.1716061314700068,
          0.3730782053360069,
          0.35742814080703944,
          0.5670160199297904,
          -0.7692079449690423,
          -0.92338355528617,
          0.9940617755162098,
          0.029531156274558823,
          0.46871925112405877,
          0.8125948196494834,
          -0.48955374408785146,
          0.6245484584345531,
          0.39676608981769124,
          -0.18087064755587967,
          -0.7177084634499731,
          0.8553386268432304,
          -0.2794680239119931,
          -0.9344557908495243,
          0.6547543303851813,
          0.8903476995052251,
          0.2714593938257732,
          0.4199770611815212,
          0.6827649532174251,
          0.4101302600459906,
          -0.041225510766736084,
          -0.5532964087954009,
          0.8744925997918434,
          0.8159558853731894,
          -0.41908053505258125,
          -0.2520957845707277,
          0.8757523377138254,
          0.05088261862971688,
          -0.13896101351965684,
          0.4102384055920747,
          0.46480169477257216,
          0.6063561945565881,
          -0.0910253158156975,
          -0.9048952173724616
        ],
        "playerName": "RFFSimulation",
        "converter": {}
      },
      "fitness": 1.0,
      "behaviours": [
        20.9,
        2.1,
        25.2,
        6.3
      ]
    }
  ],
  [
    {
      "value": [
        31,
        26,
        14,
        15
      ]
    },
    {
      "x": {
        "agentConfig": [
          1,
          0,
          2,
          1,
          2,
          1,
          1,
          0,
          0,
          1
        ],
        "weights": [
          0.4016092353328835,
          -0.030710754469917,
          0.38194427400580855,
          0.5733908624835584,
          -0.3022187380066532,
          0.003076459526142772,
          0.3102145083232344,
          -0.8784069965559318,
          -0.1716317064807189,
          0.1997178412286873,
          -0.8597425324036938,
          -0.750366024186633,
          -0.37528794963504564,
          0.3309545053177845,
          0.07673389446024426,
          -0.4088802809475618,
          0.6750422487959529,
          -0.8229354625624707,
          -0.17872495384164777,
          -0.45404085685094264,
          -0.5517669472992164,
          0.21348624282967577,
          0.29882903534863225,
          -0.13170943976142846,
          0.9934209192592169,
          0.9669458866723786,
          -0.38739150048910975,
          -0.5227120130401488,
          0.6132493829006123,
          0.08778122920089015,
          0.6615389906015057,
          0.8314837772576871,
          -0.6911023728871188,
          0.22616861026493962,
          -0.839253158680132,
          0.4045106314969116,
          0.5079402546634186,
          -0.3465228875160993,
          -0.5752326430888657,
          0.8099319517371748,
          -0.38852371167001887,
          -0.7640122260553692,
          0.20479402484659537,
          0.9450937019469949,
          0.23485593749816247,
          -0.15326704623845244,
          0.11542997942546984,
          0.15869824358998974,
          -0.3332755616069747,
          0.5922256209823547,
          0.7430436082839276,
          -0.10593502827868528,
          -0.9660073979801733,
          0.3343640559498384,
          -0.6030282523587194,
          -0.48019072069835467,
          0.9357351040111022,
          -0.09618658134232216,
          0.6464525681623126,
          0.131935778707291,
          0.8969069250730786,
          0.1296810462034761,
          0.2803133945445808,
          0.9961083691435062,
          0.8931601699418732,
          -0.648681855180387,
          -0.8669230285789871,
          -0.0038750386341777077,
          -0.5890664752306218,
          -0.5684045105455617,
          -0.6597081820183306,
          -0.035609665672456936,
          -0.9676227581540326,
          -0.5429823929012008,
          0.01753249241130672,
          -0.9075540727599161,
          -0.6274327103050137,
          -0.7114455031215614,
          -0.8983441288284164,
          -0.24561832364126768,
          0.34685302683083585,
          0.9180855682215325,
          -0.8504587811717195,
          0.023219904403903646,
          0.209073180637384,
          0.18886718796488022,
          -0.741319559011298,
          -0.07987252609160556,
          0.5767654263266764,
          0.8544495908149343,
          0.9556284331925904,
          0.008577539758686248,
          0.7473862098374828,
          -0.821015051555507,
          0.8924610440483669,
          -0.6696516628667009,
          0.009946811608519512,
          0.32288468017099015,
          -0.5019689626037758,
          0.877511611584878,
          -0.630636136809245,
          -0.3887014635346444,
          0.34995186353239105,
          -0.1956706140908817,
          -0.8737886826429782,
          0.44890452938790926
        ],
        "playerName": "RFFSimulation",
        "converter": {}
      },
      "fitness": 1.0,
      "behaviours": [
        20.6,
        1.7,
        27.2,
        7.3
      ]
    }
  ],
  [
    {
      "value": [
        33,
        28,
        12,
        8
      ]
    },
    {
      "x": {
        "agentConfig": [
          1,
          1,
          1,
          1,
          0,
          2,
          0,
          3,
          1,
          1
        ],
        "weights": [
          -0.7370173298718612,
          0.0043628129211832345,
          0.2470536699178083,
          -0.6029214234735576,
          0.5664581530443189,
          0.7108654148931495,
          -0.9575477873731635,
          -0.351694653769149,
          -0.6157903825158095,
          -0.42995086113802095,
          0.9329058678941644,
          0.7557686563971939,
          0.22030278737913012,
          -0.25297444243114153,
          -0.22647361527333465,
          0.23283760916819252,
          0.1438506198219427,
          -0.6523061467664217,
          -0.9478073262603512,
          0.4445612618803345,
          0.3218362872862326,
          0.2667879873507435,
          0.8100126144004167,
          -0.48622766288280306,
          -0.3389693860665397,
          -0.226914583644801,
          -0.9024539378586396,
          0.02993516578405675,
          0.7624344717399627,
          0.9731959015821299,
          0.8469764387743992,
          -0.7382738794696415,
          -0.6766833206920415,
          -0.8823856421289478,
          0.3783099104843348,
          0.052851288471370106,
          0.3660588038514614,
          -0.6525120313629282,
          -0.5919286510556994,
          -0.1283790367630322,
          0.22965949793530993,
          -0.07218798417255123,
          0.39185676131665703,
          0.588317342787279,
          0.1288899248841131,
          -0.7274636344876255,
          -0.6925071273063623,
          -0.5295943758059571,
          -0.7322652713421087,
          -0.8606718088291154,
          0.5734448279986093,
          0.6141565528434334,
          0.987891808983149,
          0.2565042344437616,
          -0.3024960497799076,
          -0.42773784397259185,
          0.23974566556157728,
          0.3419092929802061,
          0.4636775387613006,
          0.29054293280682963,
          0.782369312544666,
          -0.016714431903952054,
          0.990594199843702,
          0.6328606666765948,
          -0.04924908826925445,
          -0.8280594460478716,
          0.8326279218508099,
          0.7518657086966822,
          -0.4274189050628112,
          0.416289795269702,
          -0.5546647093087493,
          -0.6457759435920556,
          -0.3264214578337752,
          -0.6908865108781415,
          0.799690797535543,
          0.5124851458186308,
          0.9794709676230928,
          0.1821335849353456,
          -0.2950046081401423,
          0.09176574160842899,
          0.9043900252550541,
          -0.9462173607259023,
          0.48822488593773894,
          0.08794294598568864,
          -0.29042048571743795,
          0.46080221504437624,
          0.07797451272276446,
          -0.784937182020848,
          0.8229555703060809,
          0.9615726081133957,
          -0.7459526952714908,
          0.9331886575912276,
          -0.07080046927428008,
          0.10884348586325832,
          -0.15087592359066027,
          -0.22607305561586344,
          -0.6282954867330264,
          -0.4882010868915063,
          0.02684353422281882,
          -0.7006142455782678,
          -0.34816363276361395,
          0.24215621135528598,
          0.4110124070118555,
          0.3213356532931082,
          0.36761206540996816,
          0.2862648958760041
        ],
        "playerName": "RFFSimulation",
        "converter": {}
      },
      "fitness": 0.9,
      "behaviours": [
        21.9,
        1.8,
        23.3,
        3.8
      ]
    }
  ],
  [
    {
      "value": [
        21,
        10,
        20,
        16
      ]
    },
    {
      "x": {
        "agentConfig": [
          1,
          2,
          2,
          0,
          0,
          2,
          1,
          3,
          0,
          1
        ],
        "weights": [
          0.8811204396092773,
          0.34651081704334374,
          0.446697920570037,
          -0.7816441823710141,
          0.2466819279598691,
          -0.5634138007709992,
          0.8734332724639475,
          0.545276303279967,
          -0.33465497782835607,
          0.3594608945298672,
          0.468292074481268,
          0.31871786146320846,
          -0.6327485934330628,
          -0.2176106247512022,
          -0.17765874551528205,
          0.5385545549227155,
          0.38874367028038503,
          -0.19950993835237996,
          -0.4692363346470483,
          0.5134671781857765,
          -0.5804739396069862,
          -0.5051557261241169,
          -0.5993349749447514,
          -0.4587077672013282,
          0.8082054336614304,
          -0.42535036366229595,
          0.6653141947269929,
          -0.265385970969227,
          -0.3603957790991519,
          -0.7092544462348227,
          -0.5956590452733723,
          0.7228612780649069,
          -0.30237352570155673,
          -0.6511570998556642,
          -0.8239440268872542,
          0.6594367283429035,
          0.3403497092683936,
          -0.09569356035695065,
          -0.012802652996893427,
          0.47217260263476724,
          0.8394054940169902,
          0.8863530969362161,
          -0.8429492504371217,
          0.6176718882217205,
          -0.4263977195022135,
          0.8780464831604848,
          -0.6229715868609458,
          -0.2651410822183238,
          0.6171348993098515,
          0.5694815960545896,
          0.323434803403829,
          0.5403307958140138,
          -0.2743844655452006,
          -0.5949288729416768,
          0.550286469513485,
          0.06786489562354725,
          -0.5014487310470839,
          -0.5381407388971768,
          0.07069373770739418,
          0.9267041467679697,
          -0.4152149117468791,
          0.8243051043057283,
          -0.9705452931756886,
          -0.36199260263381183,
          0.1978064920398197,
          -0.2380071488522988,
          0.17614894004070392,
          -0.6938822169541898,
          -0.07927087360502916,
          0.8702425457886602,
          0.4671632454229342,
          0.8910673473440907,
          -0.1938765152885189,
          0.9996093912391357,
          0.05671863715674075,
          0.17100194173057925,
          -0.886216160039657,
          0.27877643915711237,
          -0.8188892186721557,
          0.1179767764985249,
          -0.32010254912265457,
          -0.17363905003390334,
          0.9970158816916905,
          0.85783655871566,
          -0.12602304095884653,
          0.850669224623122,
          -0.6961456862795778,
          -0.3553370131396394,
          -0.6246936879175817,
          -0.24754779038749875,
          0.2618457865836661,
          -0.6474653280233087,
          0.588540593311558,
          0.5742278408705705,
          0.7115296011883212,
          -0.12788760789793874,
          -0.5815074913867138,
          -0.3192465992586848,
          0.5071647774127728,
          0.4968274368899428,
          -0.6629728637263164,
          -0.09125468020683569,
          0.39556500143239526,
          0.8932164774645894,
          0.20037829197992574,
          0.5899610314740882
        ],
        "playerName": "RFFSimulation",
        "converter": {}
      },
      "fitness": 0.2,
      "behaviours": [
        13.5,
        0.6,
        38.8,
        7.7
      ]
    }
  ],
  [
    {
      "value": [
        21,
        8,
        16,
        14
      ]
    },
    {
      "x": {
        "agentConfig": [
          1,
          2,
          3,
          1,
          0,
          0,
          2,
          1,
          4,
          0
        ],
        "weights": [
          0.26601352886571594,
          0.9775357723995195,
          -0.5704859875065187,
          -0.7605695837639104,
          -0.32912277858552863,
          0.8257560991636725,
          -0.5317191061254827,
          0.760879766692808,
          0.11914217097584179,
          -0.5037567069184048,
          0.22901617320449064,
          -0.34250684231786677,
          0.109526171161626,
          -0.4922077897265966,
          -0.3633909080232365,
          0.30981835321017925,
          0.6236780709152825,
          -0.9111823030512465,
          -0.6879764962242263,
          0.7894746937335702,
          0.4251043661970668,
          0.5525528612794848,
          -0.6495380260022954,
          0.5417675524305439,
          0.6263626135813456,
          0.31193570424141415,
          0.8693608521738598,
          0.6671277040014669,
          0.4955036770304211,
          0.009587217689173588,
          0.27476309695269263,
          -0.31990034050552785,
          0.03462911305130212,
          0.24804905803963706,
          -0.7799926419809895,
          -0.7093829249944781,
          -0.045713651765443064,
          0.22771532804335637,
          0.5685616966387832,
          -0.7691797341393753,
          0.016662777254327077,
          0.23465756896405265,
          -0.6767787520595023,
          -0.5583147133668016,
          -0.7228184571728014,
          -0.6321908975996633,
          0.4467794543513879,
          0.037250322220714116,
          -0.37675912481866436,
          0.154738911146459,
          0.7746738699268656,
          0.38024113043458585,
          -0.8095190788989473,
          0.7775120637482513,
          -0.19200300078584287,
          0.33141179005288124,
          0.7311017065748111,
          0.5148987080111664,
          0.07565460252024558,
          -0.7240663836744914,
          -0.1846034990604435,
          0.7044597754847517,
          -0.03265690300136437,
          -0.11631967836562751,
          0.8668066822046643,
          0.037802337893869886,
          0.4644098318751344,
          -0.27372659144086753,
          -0.5375574360101623,
          -0.6754359225515987,
          0.033548977121330203,
          0.8522666574479769,
          -0.9248419721149459,
          0.9954517447193951,
          -0.9013219055333037,
          -0.7871347878394841,
          -0.5100952495781275,
          0.5619231081462357,
          0.9692298695262247,
          0.4340899274833705,
          0.49623472224464926,
          -0.9901304966710425,
          -0.12151591326931466,
          -0.15268742848415373,
          0.14045856858142125,
          0.6769196943189664,
          0.8734569929019209,
          0.9186049178968543,
          -0.1848908931005433,
          0.5477524263004852,
          0.698253773530497,
          -0.7416419298228694,
          0.7699995830972255,
          0.09907099445911172,
          -0.4743180979713295,
          -0.7538540320100033,
          0.24830649591863296,
          -0.16434254640903756,
          0.41731357985550477,
          0.9718215409634967,
          0.38274826770926196,
          -0.5188085441171084,
          0.7300756161406086,
          0.6723498718950447,
          -0.768929344633922,
          -0.5777175156266254
        ],
        "playerName": "RFFSimulation",
        "converter": {}
      },
      "fitness": 0.4,
      "behaviours": [
        13.6,
        0.5,
        31.2,
        6.5
      ]
    }
  ],
  [
    {
      "value": [
        22,
        2,
        26,
        12
      ]
    },
    {
      "x": {
        "agentConfig": [
          0,
          2,
          2,
          0,
          2,
          2,
          3,
          2,
          0,
          1
        ],
        "weights": [
          0.8716707577669509,
          -0.2085702790411088,
          0.31153825456983153,
          -0.3253744122220692,
          -0.4810821390984126,
          -0.17290273817542423,
          -0.9555300546056205,
          0.43732273214414796,
          0.23129150784689845,
          -0.7534063497911068,
          0.4637000434266514,
          -0.5404720802110878,
          0.42926232941458786,
          0.3913215657014504,
          -0.27142141621189597,
          -0.6807819184986135,
          -0.3375752954515021,
          0.4319815585395561,
          -0.8641805455115517,
          0.8211238108818995,
          0.7750537411934948,
          -0.5464749025422613,
          -0.6054101926204676,
          0.9854120423914945,
          0.6201493718100792,
          -0.7428110235049223,
          -0.07734900032933956,
          0.13836770431626033,
          -0.39843109430318524,
          -0.9809243483526968,
          -0.16133893577258163,
          0.27286066929056996,
          -0.8070088810592544,
          -0.7954887125405683,
          0.6011384380683371,
          -0.23760128907221545,
          -0.23590468340262927,
          0.2096778439375413,
          0.8324790033993592,
          -0.7589165530603974,
          -0.46152139492848643,
          -0.9132192366246814,
          -0.2331924568724313,
          0.0028022015142283863,
          -0.685523303150833,
          0.4062814235745382,
          -0.026663914090399032,
          -0.37349672021472946,
          0.699193047137256,
          -0.18051379308026783,
          0.5322924533936397,
          -0.2995810193565731,
          0.0376821649283714,
          -0.7929472090970948,
          0.6783721475697411,
          -0.5033844510082168,
          -0.03662653664168225,
          0.43373717405530665,
          -0.9229416993325821,
          -0.7617352223750056,
          -0.44753700055757406,
          0.6769725320497781,
          -0.6379560608653205,
          -0.7944512917308175,
          0.4341402324319579,
          0.05663547358292087,
          0.3373827572474226,
          0.3421226786279359,
          -0.10984139743389809,
          -0.13437856729482922,
          -0.6641159625509905,
          0.25257934424893813,
          0.97139884083862,
          -0.9143836204492848,
          -0.37434138505619785,
          -0.4776290176345459,
          -0.0342858953210905,
          0.06971752978841539,
          -0.5303869082506434,
          -0.8548367661209042,
          -0.8295124839397239,
          -0.7166780299770579,
          -0.5319194409176979,
          0.5086087308002387,
          -0.1450271651107573,
          -0.18303347117756585,
          0.15266636669418343,
          0.8680459653197403,
          0.5416297389473341,
          -0.9804305994071667,
          -0.5502221521468971,
          -0.4713582003771215,
          -0.7076945707325786,
          -0.9522117200839735,
          -0.4048016474385312,
          -0.9399848534506452,
          -0.44574438384658244,
          0.3869762132185153,
          -0.6435441334924847,
          -0.21660842356073395,
          -0.6973617200676325,
          0.4714817444840411,
          0.007627074738039363,
          0.499856471761815,
          0.7102534187988938,
          -0.5831945261349973
        ],
        "playerName": "RFFSimulation",
        "converter": {}
      },
      "fitness": 0.3,
      "behaviours": [
        14.3,
        0.1,
        51.9,
        5.7
      ]
    }
  ],
  [
    {
      "value": [
        12,
        5,
        13,
        13
      ]
    },
    {
      "x": {
        "agentConfig": [
          0,
          1,
          1,
          1,
          1,
          1,
          3,
          3,
          3,
          0
        ],
        "weights": [
          0.24608629581379549,
          -0.2694117330742323,
          0.2313841775202523,
          -0.6934914665240599,
          0.25001529897516805,
          -0.007758964069911833,
          -0.7320465143283892,
          0.6190076369174988,
          0.5545435383725565,
          0.46453735268191365,
          -0.2261239291028423,
          -0.2685415532428832,
          -0.7923773695857654,
          0.8056283045025123,
          0.45112714147049426,
          0.17926191486729048,
          -0.2665144134628452,
          -0.2589838039830539,
          0.11388669520267625,
          0.7382548029579219,
          -0.023982306521557417,
          0.5215651044429708,
          0.16150779666256132,
          -0.23950586963437903,
          -0.15992946307152822,
          -0.5990698786308444,
          -0.19763557299819756,
          0.6033439057006458,
          0.6820015827404895,
          -0.7017623142675071,
          -0.027757245749068682,
          0.017891186346502774,
          -0.6863887447582733,
          0.16536552248827285,
          -0.9899180790241742,
          -0.1275149031074576,
          0.10904055801532198,
          -0.25581443206813304,
          -0.4144906566232551,
          0.9094584220995152,
          -0.4579171173613974,
          -0.6223504916123341,
          0.11675714094883771,
          -0.6321445393502279,
          0.6317544009224332,
          -0.6703881703587264,
          0.9741872414364958,
          -0.7477422356318275,
          0.2368575911403692,
          0.6718011197779634,
          0.13379212734142687,
          0.7875622233177613,
          -0.08433641191164032,
          0.21236595353828513,
          0.6266799521854616,
          -0.8281654319764515,
          -0.8452704387497227,
          -0.8310631669033175,
          -0.8753071364273226,
          -0.8758756682311826,
          0.17125754268721227,
          -0.6698375753287493,
          -0.691051819775121,
          -0.07860509955981243,
          0.206292417426037,
          0.303192540257212,
          -0.7127678191292985,
          0.628486577154735,
          0.25144679971178285,
          0.11059700563581054,
          -0.7421820906742755,
          0.04729696830287167,
          0.4897316922993049,
          0.8787247063305657,
          -0.138581934364981,
          0.5461284466498069,
          0.38146159999280616,
          -0.34947693325230356,
          -0.7803750137864127,
          -0.6225820507670428,
          -0.7109051020103057,
          -0.540646942803968,
          -0.47266942459028227,
          -0.6481699876204696,
          -0.18974104140262793,
          -0.283648570340836,
          0.24825944940117273,
          0.8089597630500773,
          0.5761017009044345,
          -0.30759269434096126,
          0.45688905705845295,
          0.7096578298319687,
          0.1725013037693539,
          0.41683477632886623,
          -0.32332843139430567,
          0.3722554175869526,
          -0.9454437431694556,
          0.6683407300083535,
          0.6836126198804797,
          0.8847326930110568,
          -0.14983122325366494,
          -0.10009939666684042,
          -0.8240975083890147,
          0.5471392403556887,
          0.28642520108845315,
          0.917672591970301
        ],
        "playerName": "RFFSimulation",
        "converter": {}
      },
      "fitness": 0.0,
      "behaviours": [
        7.8,
        0.3,
        24.5,
        6.1
      ]
    }
  ],
  [
    {
      "value": [
        31,
        26,
        14,
        8
      ]
    },
    {
      "x": {
        "agentConfig": [
          1,
          3,
          1,
          0,
          2,
          0,
          0,
          0,
          3,
          2
        ],
        "weights": [
          -0.028888696288454696,
          -0.5778403074180614,
          -0.5373882206551714,
          -0.8975171017314949,
          0.2883384511671838,
          0.3348046816660255,
          0.7243128524146085,
          -0.6582331432197939,
          0.020869534048228333,
          -0.5107814982918544,
          -0.6164359535145212,
          -0.4409829788800226,
          0.9849412151270416,
          -0.2991492714455708,
          0.5048499605652279,
          -0.6014279709255439,
          0.27948815189996745,
          -0.8599151288611371,
          -0.6398360570128618,
          0.9179784703006559,
          -0.5514928250038746,
          0.9081085761938383,
          -0.0015487500040296531,
          0.028711096383950307,
          0.8758684693643779,
          -0.9168388325788623,
          -0.6303273654499051,
          -0.9988271403357938,
          0.4851437823558107,
          -0.36165815213165287,
          0.15906767043453063,
          -0.3490212497355969,
          0.061164060364424344,
          -0.7330711666190508,
          -0.8624135860244027,
          -0.8854561886442309,
          0.06665749436931212,
          -0.401575379149262,
          -0.2026504908529918,
          -0.7744896862665995,
          0.696461483141217,
          0.5483081501611173,
          0.31638757142729035,
          0.41956642201182115,
          -0.9065584429061071,
          0.616740703832293,
          0.4848001943745932,
          -0.17627791934153136,
          0.14439101810130017,
          -0.16376227810548705,
          0.12486699542215396,
          0.7271256929195433,
          -0.9191740126090091,
          0.7655838875117738,
          0.7505328066804435,
          0.9840186677719633,
          0.22873123802496464,
          0.43703609651598785,
          -0.26292003096334926,
          -0.9345571091552836,
          -0.31704809476396467,
          -0.5138783250207504,
          0.10969133266188003,
          0.45482912785187657,
          0.4260687316976228,
          -0.17189163910047078,
          -0.7900014295846696,
          -0.12638748433546754,
          0.46823252469191745,
          -0.8075149940189814,
          -0.0374002837874281,
          0.4265349509650689,
          -0.04642360436057169,
          -0.4134402487049691,
          -0.7610771277754933,
          -0.8276884250843617,
          -0.1395360760766331,
          -0.6684533245836004,
          0.9037007268886779,
          -0.14614804436823214,
          0.9169719279195632,
          0.6992789235360912,
          0.5297134997720621,
          -0.4367551304260786,
          0.6596475895918119,
          -0.625049770004255,
          0.47934759625548473,
          0.9702287944764836,
          -0.8172799569614979,
          -0.018946256442909926,
          0.07690754872089633,
          -0.5911124111549926,
          0.05658730466501094,
          -0.28004728603730045,
          -0.06648954333032853,
          0.5958248957880481,
          0.13853978854493576,
          -0.17271848746593688,
          0.13678145029720512,
          0.044088575555264686,
          0.5553228667193533,
          -0.024356400846978543,
          0.9804606078795461,
          -0.6593705818354763,
          -0.993719562332819,
          0.027836561693428186
        ],
        "playerName": "RFFSimulation",
        "converter": {}
      },
      "fitness": 0.8,
      "behaviours": [
        20.6,
        1.7,
        26.0,
        3.6
      ]
    }
  ],
  [
    {
      "value": [
        5,
        1,
        10,
        8
      ]
    },
    {
      "x": {
        "agentConfig": [
          0,
          1,
          3,
          0,
          2,
          0,
          0,
          2,
          4,
          2
        ],
        "weights": [
          0.5231257454877691,
          0.965437036448574,
          0.7615113253382186,
          -0.5706084941226244,
          0.20336025846978112,
          -0.8737204111306529,
          -0.23274099573496243,
          -0.37416118665893916,
          0.18377317441319363,
          -0.7676591127603909,
          0.17362272865234285,
          -0.6507451750213045,
          0.6461057928927192,
          0.24319256040648707,
          0.9231631441491619,
          -0.42171294264389303,
          0.10260752415630159,
          0.2623558870163232,
          -0.731864629829889,
          -0.59509016278027,
          0.7029333644530618,
          -0.7059634644101991,
          0.3433826718930302,
          -0.3295560120383232,
          -0.8988143404050437,
          -0.21524956026493336,
          -0.5259128447939285,
          0.9969716679399898,
          -0.9486253763963752,
          -0.6001471071052571,
          0.5009102848124192,
          0.1612289167042682,
          0.7062111385369187,
          0.1822488402727307,
          0.6179448507162064,
          -0.8884258869766326,
          -0.2867117784399338,
          -0.2496721849150636,
          -0.2557086921473162,
          0.0946464134565339,
          0.6343459507809917,
          -0.48556742173135947,
          0.2879630121197112,
          0.336843070354627,
          -0.04254294383241164,
          0.025936066651918166,
          -0.6887866537508567,
          0.5167607376120973,
          0.028609355426072458,
          0.5202673899783878,
          -0.4307294487914286,
          0.8682620903063176,
          0.598303899601369,
          0.474992136731782,
          0.669855236321435,
          -0.8301571332317563,
          -0.6395741956828833,
          -0.42368073487014923,
          0.6887469646989008,
          0.1044920471149513,
          0.8547877869452039,
          0.872171302563173,
          -0.022943397574639812,
          -0.48474715626364184,
          0.4113851688628074,
          0.08722089468753258,
          0.608751561730779,
          -0.06479320855575343,
          0.43354319451555345,
