[
  [
    {
      "value": [
        34,
        31,
        13,
        10
      ]
    },
    {
      "x": {
        "agentConfig": [
          0,
          3,
          1,
          0,
          2,
          1,
          1,
          3,
          0,
          0
        ],
        "weights": [
          0.4850173230902821,
          0.9981881962575121,
          -0.8845126947871269,
          -0.4599069620894196,
          0.8759531587346248,
          0.7919327904523585,
          -0.37824621525470614,
          0.6557314939690757,
          0.8711116241147265,
          0.013323667613397205,
          -0.28542628591597174,
          0.5239630583677559,
          0.7979582518148447,
          -0.49986483973318685,
          0.4063173419468813,
          0.1812501974289169,
          -0.4147491231040279,
          -0.26686128989961366,
          -0.7848413669164458,
          0.017650994595196146,
          -0.900585659889259,
          0.6499964905457039,
          0.565927030464429,
          -0.5781708115528439,
          0.4713347927564675,
          -0.07317660422066741,
          0.5276006428752797,
          -0.4248403807123766,
          0.7627553134185276,
          0.29779071917320854,
          -0.06708836343636215,
          0.5756545960938035,
          0.6046584745690118,
          -0.7805257901083171,
          0.23998894568022644,
          0.09001408922984422,
          0.28572389453536107,
          -0.014524987270474687,
          0.37291468737398725,
          0.8121806262554643,
          -0.8228473122249866,
          0.25817245905036157,
          0.217525787670527,
          0.1493596595650537,
          -0.6491470753611834,
          -0.0917058270526363,
          -0.5492559184706998,
          -0.2384584220530579,
          0.7811842773544593,
          -0.9606822550047986,
          0.9461715217223499,
          0.8481420160098259,
          0.6161625643466586,
          -0.8774536740379315,
          0.12564086470942182,
          -0.5945462053094264,
          0.6622281752098647,
          -0.7199712609319364,
          -0.6841352820223427,
          0.0711829612224697,
          -0.5526143515939812,
          -0.07367794126999683,
          -0.5787209006778802,
          -0.3725813929359447,
          0.010724297621049983,
          -0.7835759337425039,
          0.0386305417778976,
          -0.24903544339010208,
          -0.08796611355349437,
          0.04602974068452936,
          -0.48418996328755326,
          -0.819959809008943,
          -0.13656879063329952,
          0.7115951614390426,
          0.39688848021610235,
          0.1089333977972402,
          -0.144382449922289,
          0.7615195377309112,
          -0.8027374141578465,
          0.32726980020673624,
          0.6845897200590978,
          -0.9439154823913407,
          0.5172735756436542,
          -0.6118620686697451,
          0.3803306682133851,
          -0.39738145627490074,
          0.1296126758787819,
          -0.08061061149838378,
          -0.8027917554155037,
          0.34368081620632673,
          -0.13471761851135833,
          0.08501151901489346,
          -0.4534851075566151,
          0.7498894620319172,
          0.8748340579799969,
          0.1585468699374839,
          0.5347828696781181,
          -0.19465565557385411,
          -0.8439434082719908,
          -0.8118866620997982,
          0.6172138904228972,
          0.7724255752319871,
          0.11624318841626402,
          0.8126558687259973,
          0.2837644800668777,
          0.9840745323367175
        ],
        "playerName": "RFFSimulation",
        "converter": {}
      },
      "fitness": 0.9166666666666666,
      "behaviours": [
        22.283333333333335,
        2.033333333333333,
        25.65,
        4.533333333333333
      ]
    }
  ],
  [
    {
      "value": [
        16,
        2,
        34,
        11
      ]
    },
    {
      "x": {
        "agentConfig": [
          0,
          3,
          2,
          1,
          2,
          1,
          0,
          1,
          1,
          1
        ],
        "weights": [
          -0.48702079298124246,
          -0.6473418804466005,
          -0.49132436832293247,
          -0.03888820125464565,
          0.8007909601673615,
          -4.878226873392677E-4,
          0.6925993835464439,
          -0.7435465337753739,
          0.2734200954496677,
          -0.6724060281861084,
          1.3779034618788266E-4,
          -0.8711289786892356,
          0.39554642748616176,
          -0.06761536292710946,
          -0.6539081591594189,
          -0.012835929120781131,
          0.8003214058500976,
          -0.7889493171564907,
          -0.320390394792601,
          -0.2130772789261619,
          -0.4522766938260532,
          0.252781988125804,
          0.10996600780997712,
          -0.39160314354203063,
          0.5217073042768567,
          0.620077085821189,
          0.40700854104819606,
          0.719826018178795,
          -0.4209936607243534,
          0.2768962602867484,
          -0.09583720291921427,
          0.4612513413672843,
          -0.7168617787927984,
          -0.906569149564677,
          0.0838427697487183,
          -0.2610900642492333,
          -0.15961946547817796,
          0.5935658833958279,
          -0.06043348102124013,
          0.43788986702637933,
          0.20017566958085875,
          -0.09006019284044453,
          0.5860286661805798,
          0.6408019206406603,
          0.1906333763556014,
          0.27283533733656107,
          0.5278360933552877,
          -0.8171970679310991,
          0.030499918681059945,
          -0.2170381972512938,
          -0.5004352997727293,
          0.7783830689644367,
          -0.40783333250704157,
          0.7045184534057527,
          0.8542496892056766,
          0.7229076301759525,
          0.3859942146669184,
          -0.9362442196793366,
          0.1043742329587849,
          0.0019827442147213326,
          0.3944306663738224,
          0.9495802247940992,
          0.40887406704125584,
          -0.46570866829923196,
          -0.39489337658431944,
          -0.4134235429848663,
          0.551629941059969,
          0.2286248957430459,
          0.37529212142848967,
          -0.012852300146809492,
          -0.7286282756308933,
          -0.44658617042054494,
          -0.39419688801862285,
          -0.21169481171303062,
          -0.32012814399539247,
          -0.6028615773360679,
          -0.8893496860705312,
          -0.26003639108563115,
          0.9447584454443418,
          0.14057927012418414,
          0.5394237638922761,
          -0.7645706826808483,
          -0.5847677661869402,
          0.06694479994995173,
          -0.25738813901295843,
          -0.7389050774383161,
          -0.06657658312441295,
          -0.49650800183591315,
          0.5657549250297893,
          -0.8088171480671094,
          0.2010791375773342,
          -0.5816658058181194,
          -0.28346195226804016,
          0.9647084871071174,
          0.7607242271265227,
          0.5887071453919117,
          0.5696296670495626,
          0.3556606333694683,
          0.40239142705077025,
          -0.08795565629447322,
          0.5572765578306524,
          0.2837269335481212,
          -0.37852970269787,
          0.9487895102364172,
          0.13936878394211027,
          -0.5882814438007742
        ],
        "playerName": "RFFSimulation",
        "converter": {}
      },
      "fitness": 0.31666666666666665,
      "behaviours": [
        10.0,
        0.06666666666666667,
        66.86666666666666,
        5.45
      ]
    }
  ],
  [
    {
      "value": [
        19,
        4,
        29,
        10
      ]
    },
    {
      "x": {
        "agentConfig": [
          1,
          5,
          0,
          0,
          0,
          0,
          3,
          3,
          1,
          0
        ],
        "weights": [
          -0.37868767376124657,
          0.3510693652885317,
          0.36076951215621955,
          0.8120418939203429,
          -0.9076745174799117,
          -0.5361907191573914,
          -0.7939590580972904,
          -0.7908137166868592,
          0.49161502829788684,
          -0.7072375743415067,
          0.5124325042326632,
          -0.16427202265179908,
          -0.664946268290288,
          0.8138767324111322,
          -0.9883219495649349,
          0.8964451818491317,
          0.8801101709339343,
          0.11796109697389334,
          -0.4796971544705848,
          -0.4856004626354331,
          -0.7219088189024421,
          0.5112636558158381,
          -0.6440266204198486,
          0.6785464711459077,
          -0.670312090602504,
          0.4209684691845663,
          0.8610881765682421,
          -0.012251317471194012,
          -0.3431248629365129,
          -0.11796133528826025,
          -0.7851776074390313,
          0.12484892317750318,
          0.48116647428657555,
          0.9619126417160537,
          0.6230431480137231,
          0.355783905692995,
          -0.8623194904477227,
          0.12213712331645477,
          0.4462147149326381,
          0.7725511944729451,
          -0.04357291588523915,
          -0.7788993051796906,
          -0.141382800339233,
          0.48516755283952095,
          0.2066751681628658,
          0.6296076944270006,
          -0.7720964660202181,
          -0.4834134800054004,
          0.42721758601366444,
          0.7611115422026442,
          0.5622245039964815,
          -0.23412950002822885,
          -0.3451996981913965,
          -0.7889951879749599,
          0.09285380040948121,
          -0.9212593427899438,
          -0.18506221291229985,
          -0.34555940142801944,
          -0.6565518479019841,
          0.20095678730311994,
          0.8537886140814266,
          -0.33026110174415213,
          0.882781149913958,
          -0.8111937643406089,
          -0.9332813582728601,
          -0.2654910948111535,
          -0.6340079918168995,
          -0.2876893901878699,
          -0.4813673425383569,
          0.7841971950981375,
          -0.5599058747212009,
          0.6105855422819924,
          -0.5468922045384657,
          0.9278487976919978,
          -0.37730862819825006,
          0.04511827929871859,
          -0.84818414461582,
          -0.8165524479493349,
          -0.64144786184849,
          0.6455547636943388,
          -0.16732573839295117,
          -0.5747211066114528,
          -0.8831035746711864,
          0.15391739309643393,
          0.8646187686227242,
          -0.8716622429693146,
          0.6129518852566658,
          -0.7529987164507654,
          0.8288442991561225,
          0.9498809144221614,
          0.020539859065584976,
          -0.9124483296061747,
          0.7708128718805467,
          0.7058028859206278,
          -0.6118455057403285,
          -0.6225522136752037,
          -0.6357185083195764,
          0.8795906620682121,
          0.3792014744184127,
          -0.1858356498844862,
          0.6480549483923996,
          0.44419306424297433,
          -0.07223399024272226,
          -0.25782548764604885,
          -0.5018768894033332,
          -0.5177842073191108
        ],
        "playerName": "RFFSimulation",
        "converter": {}
      },
      "fitness": 0.16666666666666666,
      "behaviours": [
        12.1,
        0.2,
        57.03333333333333,
        4.833333333333333
      ]
    }
  ],
  [
    {
      "value": [
        23,
        6,
        29,
        4
      ]
    },
    {
      "x": {
        "agentConfig": [
          1,
          3,
          3,
          1,
          0,
          1,
          1,
          2,
          4,
          2
        ],
        "weights": [
          -0.22762048564894588,
          -0.6897954724087594,
          0.5679569384425072,
          0.3803798985593916,
          -0.2716489550755352,
          -0.8265854626989713,
          -0.13119339432507782,
          -0.6261831253004524,
          -0.07595420094557359,
          -0.4655547192245595,
          0.33193258295100914,
          0.7426587514484895,
          -0.7571650595578725,
          -0.044102325277210586,
          -0.5524378787772353,
          -0.47023770583641045,
          0.9999682926748934,
          -0.7816820430657521,
          0.010442002774927683,
          0.7720046867674151,
          0.7430020069123833,
          0.8357464464001336,
          -0.5677007452654808,
          0.582468333356956,
          0.6494271858283236,
          0.11031522057407583,
          0.6202823141042564,
          0.5717542636102302,
          0.7017352965818611,
          -0.9429888495408136,
          0.8447843576083471,
          -0.028233882826560697,
          0.9471109524035783,
          -0.140202705751713,
          0.6782522003151052,
          0.9366356734873682,
          0.838394979860664,
          -0.08713494636399566,
          -0.6927117981843331,
          0.6692877660283687,
          0.9049135078389476,
          -0.04413269691192223,
          -0.6964446083891596,
          -0.7415284453615341,
          0.8162232472347628,
          -0.670439717790626,
          -0.7153009735950842,
          0.4099135462686043,
          0.2787748261477927,
          0.9583609148153165,
          0.8047014384585818,
          -0.3834261860688948,
          -0.8550505554467593,
          -0.6910958795948019,
          0.28378912064112427,
          0.7368179867302909,
          0.6158786487637218,
          -0.7212376702841061,
          -0.17878406891150966,
          -0.564356570891916,
          0.4839076926780195,
          0.7370682066099998,
          0.32994693586125745,
          0.4929266117289477,
          -0.01248148826190798,
          0.26885969578169444,
          0.5904730102272762,
          -0.4060121460314474,
          0.040979816178396966,
          0.5675434232048713,
          0.5416877686571373,
          0.891596527740119,
          0.35294556044739367,
          0.8749526740520062,
          0.4099621276182648,
          -0.6351319097251951,
          0.2626762045870552,
          0.886052538223729,
          -0.8767448882259758,
          -0.20066651736936558,
          0.9995102575118207,
          -0.384576454468744,
          -0.13469790478545396,
          0.07378809367353867,
          -0.4893336270825772,
          -0.13476635203305887,
          -0.40437465719235655,
          -0.6366431385394724,
          0.004410335495492523,
          0.13948570230098056,
          0.8943146051149617,
          -0.1454607520243676,
          0.9200727241275632,
          -0.8830934765223311,
          0.5862283686283793,
          -0.3831734360809964,
          0.1633582176767212,
          -0.8750789218843067,
          0.25747000580971857,
          0.3868121429495768,
          0.13483911631770007,
          0.449734179855096,
          0.9976962250631649,
          -0.8054571451145236,
          0.3314791110693778,
          -0.22738066707956572
        ],
        "playerName": "RFFSimulation",
        "converter": {}
      },
      "fitness": 0.7166666666666667,
      "behaviours": [
        14.916666666666666,
        0.36666666666666664,
        56.03333333333333,
        1.5
      ]
    }
  ],
  [
    {
      "value": [
        22,
        10,
        23,
        11
      ]
    },
    {
      "x": {
        "agentConfig": [
          1,
          5,
          3,
          1,
          1,
          1,
          2,
          0,
          2,
          1
        ],
        "weights": [
          0.957318047546047,
          0.44744195945379306,
          -0.4204695994371235,
          -0.19300921323568576,
          -0.9865238688352607,
          -0.85768240346707,
          0.4337979653304318,
          -0.08754196689551486,
          0.9355945596751887,
          0.09177414327281475,
          -0.5888869366094172,
          -0.6195051141747687,
          0.18256834630009222,
          0.6797018681489462,
          -0.9300853018811501,
          -0.09833485484522875,
          -0.14659115865968952,
          0.08738033912898557,
          -0.883919657512277,
          -0.835809743649399,
          0.5977165335976984,
          0.07756435139551221,
          0.36788079245559935,
          0.8337915714624011,
          -0.7297346114065764,
          0.837089851752489,
          -0.32496137405228653,
          -0.7807203162317451,
          -0.898266996484324,
          -0.6522135961314879,
          0.7758377247136248,
          0.844655273052036,
          -0.27793658948568223,
          -0.9769374203827315,
          0.1719350289230459,
          0.1973131207211265,
          0.49990209511421346,
          0.6776075943625952,
          -0.24127164638679166,
          -0.966729265199314,
          -0.6490031821703521,
          0.29023189252012505,
          -0.8301626588457436,
          -0.20583110102045632,
          -0.5795901139237623,
          0.4749459590986589,
          0.577458275940427,
          -0.07287810901699787,
          -0.14215823728310317,
          0.09295598601874011,
          -0.9639448972464315,
          -0.802678568866402,
          0.2823179659056385,
          0.018332986498282633,
          0.3650545589486769,
          0.44462747656631385,
          -0.5280551922047168,
          0.7126891823366117,
          0.0369137630702534,
          -0.34079271668184696,
          -0.6836065549404209,
          0.9692749975534802,
          0.5701337632921173,
          -0.26238896804002576,
          -0.8657770081853933,
          0.9544867111537167,
          -0.4775052508173063,
          -0.17049750884972492,
          -0.9158917555106454,
          0.5048540566045265,
          -0.6620080771514687,
          0.7965886308391799,
          0.5884901068404795,
          -0.46984524718473164,
          0.02165392038483227,
          0.9791234918699745,
          0.44011955522426427,
          -0.6716195478967466,
          -0.10037048713245333,
          -0.7983137839788748,
          -0.42358015650067626,
          -0.3641415123841607,
          0.5676306540667022,
          -0.25123570845570353,
          -0.6164557408467812,
          0.31590939043625244,
          -0.4609768063668007,
          0.9019993894962381,
          -0.16854043226137616,
          0.732000842662055,
          0.07456056089736585,
          0.5547818975989403,
          0.7433399009931247,
          0.056434761949248236,
          0.20895716736169212,
          -0.5937917580530689,
          0.06700656285754492,
          0.03318397961654718,
          0.08520364257628477,
          0.28524342529899216,
          -0.8568952507209711,
          0.04357177288088532,
          0.36572654647093805,
          -0.7327407219049262,
          0.6541597105018633,
          0.7160665575530833
        ],
        "playerName": "RFFSimulation",
        "converter": {}
      },
      "fitness": 0.2,
      "behaviours": [
        14.533333333333333,
        0.6166666666666667,
        44.11666666666667,
        5.083333333333333
      ]
    }
  ],
  [
    {
      "value": [
        12,
        4,
        33,
        9
      ]
    },
    {
      "x": {
        "agentConfig": [
          1,
          0,
          3,
          1,
          1,
          2,
          0,
          2,
          3,
          1
        ],
        "weights": [
          -0.7095452581357318,
          -0.970793174007557,
          -0.4750623168359911,
          -0.5292046432948105,
          -0.3159730799977254,
          0.44343619458632344,
          -0.5829856070295705,
          -0.7614827312016079,
          -0.8919198081926363,
          -0.035436154340763304,
          0.44779725898955536,
          0.8698140636532403,
          0.5778545266797823,
          -0.5220053689715805,
          -0.89928418441018,
          0.9657824871417102,
          -0.12967053171873455,
          -0.7708159946659006,
          -0.5634441185504602,
          0.2934086967716294,
          0.5878841981098424,
          -0.14691751654164587,
          -0.06127081013693325,
          -0.19557574598359273,
          0.7848260083421503,
          -0.5528842433413701,
          -0.6200622430879499,
          0.6711165032426256,
          0.7774531737057857,
          0.7639328694893233,
          -0.12906112034277317,
          0.6194283560223881,
          -0.7709778685249329,
          -0.976016595243177,
          -0.24593144466732264,
          0.544758729987072,
          0.6341917744909156,
          -0.6656867742639032,
          -0.9313635865276249,
          -0.8365439189584292,
          -0.07677957154093873,
          0.2487957319727101,
          -0.05774429927520752,
          -0.716927559157611,
          -0.9356050862266667,
          0.6163441515865957,
          -0.5483724739996787,
          -0.8329743683545352,
          0.2638733909403639,
          0.5374782713389177,
          -0.751749896380971,
          0.42439471211404456,
          0.6453278250110297,
          -0.014052135248907582,
          0.5589769059334089,
          -0.12684848149891859,
          0.1374737357295981,
          0.4509414910083238,
          -0.951697903135629,
          0.9052103296564808,
          -0.2942205966183611,
          -0.18326034886641196,
          -0.531297076637232,
          0.02425429745283636,
          -0.964651518664027,
          0.6204978139826558,
          -0.9726765802981725,
          0.43237688970605026,
          -0.6948254019314488,
          0.8151734638463215,
          0.9617355116256388,
          0.8091535876528066,
          -0.21033188683267,
          0.2134396896667241,
          -0.05553155640323193,
          -0.24316149887224792,
          0.6815592666789358,
          0.8997554264409977,
          0.6254486871795921,
          0.777956421492616,
          0.7509849826937796,
          0.07159126905310953,
          -0.12655317251239073,
          -0.8933579639981908,
          -0.7612306390609493,
          -0.9928629938747031,
          0.09208116548533352,
          0.23265349118028333,
          0.7276116064515361,
          0.1556463023973449,
          -0.6371201726385525,
          0.537066843089814,
          -0.35690275586522313,
          -0.29209935653722474,
          0.10735713762119592,
          -0.8987637483138604,
          -0.4928469749141462,
          -0.5718954421313265,
          -0.5379865538078703,
          0.45568182640299426,
          -0.9002323200049887,
          -0.9851497847276711,
          -0.3753806307900125,
          0.8031467147442484,
          -0.7194954411380758,
          0.8076195141468752
        ],
        "playerName": "RFFSimulation",
        "converter": {}
      },
      "fitness": 0.2,
      "behaviours": [
        7.666666666666667,
        0.21666666666666667,
        65.68333333333334,
        4.1
      ]
    }
  ],
  [
    {
      "value": [
        32,
        23,
        19,
        9
      ]
    },
    {
      "x": {
        "agentConfig": [
          0,
          2,
          3,
          1,
          0,
          2,
          3,
          1,
          1,
          1
        ],
        "weights": [
          0.2044934401409686,
          -0.48127123688981244,
          -0.851066127003437,
          0.36162185653613754,
          0.35256197503715847,
          -0.28061989604587567,
          0.8070339035989478,
          -0.473057029710626,
          0.34287810072056857,
          -0.6464776344115888,
          0.18013855890967467,
          0.31652528012647263,
          0.7003768245184505,
          0.10292347503217236,
          0.25226516176336133,
          -0.29979074635563796,
          0.6911968557804209,
          0.46868534315606647,
          0.26313473937914367,
          0.79762510767504,
          0.18877841824811004,
          0.2973785057466718,
          0.23174931259366938,
          -0.41337501824932965,
          0.02082873716633049,
          0.8187598885073757,
          -0.15046085687978916,
          0.5151745960763137,
          0.03598534101537143,
          -0.32146623841837285,
          -0.8374260198325401,
          -0.030109280394507554,
          -0.8690390474441692,
          0.6546923956209889,
          0.9955367411256095,
          -0.45926148102030573,
          0.04340708532257809,
          0.013553651696302182,
          0.1658602089826211,
          -0.9297697263606832,
          -0.1573142650773609,
          -0.20831198409165363,
          0.19463071854189207,
          0.5867973940028632,
          0.7401926801105851,
          0.6825075293819245,
          0.4415660336646663,
          0.39583285339548313,
          -0.9071715704349874,
          -0.33863280167959764,
          -0.625422400750453,
          -0.16176867781157922,
          -0.7123336406270571,
          6.063333981314312E-4,
          -0.9698692598615541,
          -0.47491812520460397,
          -0.42718024113566244,
          -0.0939635309430562,
          -0.37118098768732444,
          -0.7815040122166652,
          0.8389643619398963,
          0.6489605643782881,
          -0.2187273626413615,
          -0.047618190595202226,
          0.8579242885188711,
          -0.2271142562243511,
          0.7527234148562252,
          0.4733040295224027,
          -0.4508163766962938,
          -0.27832946307955986,
          0.8502525104929137,
          0.6303964883226916,
          -0.5278618602729077,
          -0.934074841897977,
          0.15494957346093452,
          -0.04537669668487054,
          -0.06864395156502479,
          0.3970624482332952,
          0.5419155299486742,
          0.34151108467218294,
          0.8340678071528127,
          -0.08652645457541741,
          -0.7857552836973629,
          -0.5121945587676784,
          -0.246439517532846,
          0.7408825301573443,
          -0.1771762277638973,
          0.531329886913807,
          0.5291031420476637,
          -0.8909890333688635,
          -0.3480101117170262,
          -0.7953435199884604,
          0.1724846525885948,
          -0.3507385007728334,
          0.32179226116888193,
          0.7370231449430527,
          0.8531967626944603,
          -0.7167913722354087,
          0.9908047508259101,
          0.7252625914486783,
          -0.7012499526144809,
          0.4392621527403173,
          -0.8608592400988897,
          -0.7566653011387003,
          -0.9264377488075148,
          -0.33505279555385803
        ],
        "playerName": "RFFSimulation",
        "converter": {}
      },
      "fitness": 0.6166666666666667,
      "behaviours": [
        20.866666666666667,
        1.5166666666666666,
        37.833333333333336,
        4.1
      ]
    }
  ],
  [
    {
      "value": [
        28,
        19,
        23,
        12
      ]
    },
    {
      "x": {
        "agentConfig": [
          1,
          3,
          0,
          1,
          2,
          2,
          1,
          2,
          0,
          2
        ],
        "weights": [
          0.161941858690404,
          -0.23700178572343167,
          -0.9133489374805208,
          -0.831295197978545,
          -0.19186246921867922,
          0.29092362475818034,
          -0.745622262403836,
          0.5218433826187265,
          -0.24923908990882704,
          0.14033875498837522,
          0.6235393816253902,
          -0.16804629697520257,
          0.9988703229077138,
          0.6464071745181288,
          0.28602756063631185,
          -0.5436156964651966,
          0.27355610798854957,
          -0.9038093005953727,
          0.7484727348885258,
          0.6056205266430488,
          0.19803786216357389,
          0.713198317982259,
          -0.8706613199745725,
          0.9751268760390144,
          0.5333876991214381,
          -0.7656105121718164,
          0.9124638177028395,
          0.45234133479164074,
          -0.30714988717006353,
          -0.05214207426020678,
          -0.5718424038640233,
          -0.10697745765133715,
          0.08218307511467016,
          -0.9230019051691656,
          -0.3262277338941353,
          -0.24002002635829633,
          0.6903979369655013,
          -0.5229631702275876,
          -0.6963459655577049,
          0.2785446567138079,
          -0.20527165018114268,
          0.7523885583019756,
          0.07685642498392387,
          0.686967084152807,
          -0.3543878229149615,
          0.10837248062935112,
          0.39398014723576713,
          0.14625594391943064,
          -0.4380769480162312,
          0.5184069739475075,
          -0.7546811423081867,
          0.9228000210076572,
          -0.006358386344642364,
          -0.8821249241284186,
          0.2378024363795983,
          -0.4315560131984535,
          -0.20139043414532876,
          -0.8715663814379606,
          0.2530465771369854,
          -0.0034836788394605467,
          0.2319624321013709,
          -0.9283849496491272,
          0.07201746158583866,
          -0.4113638490820457,
          -0.03870928193133305,
          -0.451848696640458,
          -0.3524743578024647,
          -0.2340463909195507,
          -0.2024683373485765,
          0.439525107839964,
          0.6139655055894386,
          -0.1801929393027213,
          -0.22895281185604666,
          0.030833963412228993,
          -0.9055800640299516,
          -0.779392239663169,
          0.6842969445923541,
          0.25912887829473297,
          0.898452977579937,
          -0.8899088472059089,
          -0.6630321719853438,
          -0.9410312814067359,
          0.7996161060325653,
          0.23090255333557863,
          -0.7536245492075091,
          -0.39299093265978935,
          -0.2601024376472123,
          0.15881212457273874,
          0.8754050894447991,
          -0.8399771690722084,
          0.529046487439258,
          -0.6233172946409777,
          -0.8677861378729494,
          -0.8641730114537689,
          -0.11009261172075568,
          -0.5343572279768545,
          -0.7796319363712236,
          -0.895830654909157,
          0.5466030585092181,
          -0.512256849811475,
          0.7950429280187175,
          0.43470662820662853,
          -0.5393922701815117,
          0.4957068711184398,
          0.82036606196879,
          0.49178261343920626
        ],
        "playerName": "RFFSimulation",
        "converter": {}
      },
      "fitness": 0.5166666666666667,
      "behaviours": [
        18.316666666666666,
        1.25,
        44.43333333333333,
        5.766666666666667
      ]
    }
  ],
  [
    {
      "value": [
        24,
        10,
        25,
        11
      ]
    },
    {
      "x": {
        "agentConfig": [
          1,
          1,
          0,
          0,
          1,
          2,
          2,
          3,
          1,
          1
        ],
        "weights": [
          0.7289170586885247,
          0.3870578766414172,
          -0.40773141230978704,
          0.15747652659637823,
          -0.09184483051606795,
          0.5799807500978995,
          -0.445294006517591,
          0.6903942909873757,
          0.8594360185241134,
          -0.8578581697441239,
          -0.581496338451853,
          0.4145220382486743,
          0.24975183193927286,
          0.7419246783234639,
          0.9495316565642757,
          -0.6896167146421754,
          -0.014649137218577302,
          -0.3855202936262694,
          -0.9845702457760748,
          0.7114378395696135,
          0.9029898920096606,
          0.12408029908131923,
          0.6394932770616095,
          -0.7147380066147544,
          0.9903019817417242,
          -0.5802423297356327,
          0.6427875805920407,
          0.6429502709809858,
          0.8164936657714172,
          -0.382130285829416,
          0.5644927751570341,
          -0.5667549493004496,
          0.7627874120492237,
          0.30658582656947897,
          -0.5100651398450227,
          -0.5795215010824444,
          -0.8872704865143703,
          0.5911000487275802,
          0.9177118080898372,
          -0.24951044776652687,
          -0.904314419924509,
          -0.6152895654119086,
          0.8617763953654969,
          0.37625628340315664,
          0.5725503747357945,
          -0.8002672351082614,
          -0.9887094273242907,
          0.4450630871559067,
          0.21089998634081986,
          0.3035437339460343,
          0.9605197644675418,
          0.34159920827923695,
          0.7175191803668466,
          0.778876896217295,
          -0.727012014445569,
          -0.9635363963702865,
          0.9794389220331097,
          -0.2361764065467391,
          0.4585682986980961,
          -0.5928699120592009,
          0.8103224925555932,
          -0.054181893564920314,
          -0.1808641464937053,
          -0.7214968793803342,
          0.4072416471853848,
          -0.7547845879807518,
          0.5578644516543969,
          -0.9272253241611825,
          -0.4064123310558916,
          0.5478968843284453,
          -0.4508004059760182,
          0.16336877174055653,
          -0.5429353271044983,
          0.3326691251798193,
          -0.26900415838355074,
          -0.7046594474831513,
          -0.91258368222358,
          0.08804725678699254,
          0.20725762674236137,
          -0.2353273827741451,
          0.7767398602712261,
          0.5243434331812311,
          -0.16062341710908368,
          -0.558508547448632,
          0.26594503029005967,
          -0.2391904446804487,
          0.3557125174535751,
          -0.8226965443127983,
          0.4041170099087521,
          0.9039099104597741,
          0.823815993251241,
          0.6539293866229055,
          0.9332480795526032,
          -0.2683707113576608,
          0.7065459804087104,
          0.31189286150666407,
          0.019003742372613486,
          -0.43995048520591973,
          -0.3372121253146396,
          -0.36140215373236195,
          0.6188927590703881,
          -0.20774555037030695,
          0.24690870139589305,
          -0.19829205062485267,
          0.8124148219444147,
          -0.8640457993281314
        ],
        "playerName": "RFFSimulation",
        "converter": {}
      },
      "fitness": 0.45,
      "behaviours": [
        15.95,
        0.6333333333333333,
        49.4,
        5.483333333333333
      ]
    }
  ],
  [
    {
      "value": [
        20,
        3,
        33,
        8
      ]
    },
    {
      "x": {
        "agentConfig": [
          0,
          3,
          3,
          1,
          0,
          1,
          0,
          0,
          1,
          2
        ],
        "weights": [
          0.4979657864704088,
          0.016851413441066665,
          0.7185715883492358,
          -0.1980572048384608,
          0.42857568236715493,
          -0.19934468995834043,
          0.9769782860409271,
          0.6704474351887895,
          -0.6011389954061703,
          0.36304109052297306,
          -4.985787557871824E-4,
          0.8015845470717455,
          -0.7772940072808474,
          0.18719367215698557,
          -0.49815174517331395,
          0.4022077043877301,
          -0.4580156642532325,
          0.4225095723056471,
          -0.553730136340602,
          -0.019813172535063206,
          0.687922169386531,
          -0.2080250214059005,
          0.5796142249443781,
          -0.36909261114324465,
          0.5761544917522563,
          -0.7077752625773142,
          0.46555239925594005,
          0.29494766352678137,
          0.7912973465042148,
          0.95392150690033,
          0.2693395617241088,
          0.5211743787293395,
          0.6125624832324528,
          -0.5210785557443824,
          0.18042571611997582,
          -0.9004234827005075,
          -0.10985784205458149,
          -0.817976743178197,
          -0.45231550657195374,
          0.820733250054346,
          0.4027979245610338,
          -0.6610773432708508,
          -0.44601909471342815,
          -0.4261080080025679,
          0.6102870385861225,
          0.778325368541054,
          -0.42874765019627104,
          0.013208882824824908,
          0.5599659338880913,
          -0.6450030746896218,
          -0.7857691625404399,
          0.10178406523832662,
          0.11511189061108484,
          -0.19814137815018062,
          0.5503860531043367,
          -0.014299803628583518,
          0.6432075069365699,
          0.3830644024877561,
          0.9256240098930877,
          -0.14464715593598676,
          -0.1643644646502791,
          0.7563241114733124,
          0.42972723177284555,
          0.7189372375159495,
          -0.5740642857219365,
          0.5015639072817195,
          -0.8475229265556867,
          -0.6569632618551142,
          0.23197657391806437,
          -0.1156541165781042,
          0.42736177069031256,
          0.007833493424570293,
          0.16810016865334143,
          -0.40370620079193786,
          -0.3403609380800292,
          -0.8204575516266872,
          0.6564994927654577,
          0.4511030895224568,
          0.1322861260727033,
          0.7202464112362525,
          -0.7872076942394841,
          -0.6864612558877103,
          0.5956995188250707,
          0.8353888774786558,
          0.8889574436870862,
          -0.09984531495382831,
          -0.6577590611964008,
          -0.39824157146029915,
          0.7275039697797039,
          0.5142954452204189,
          0.004052902886526377,
          -0.37612167155536724,
          -0.586055195755891,
          -0.7357309538511663,
          0.35933468698245297,
          0.13429082622223953,
          0.9103519811675489,
          0.8624091387023947,
          0.20713216781455368,
          0.6833063076001156,
          0.01097155910010894,
          -0.2859292875234358,
          -0.08334058544453882,
          0.456363199502025,
          -0.5184192243408998,
          -0.32056599840060507
        ],
        "playerName": "RFFSimulation",
        "converter": {}
      },
      "fitness": 0.5333333333333333,
      "behaviours": [
        12.733333333333333,
        0.13333333333333333,
        65.73333333333333,
        3.566666666666667
      ]
    }
  ],
  [
    {
      "value": [
        32,
        28,
        14,
        9
      ]
    },
    {
      "x": {
        "agentConfig": [
          0,
          3,
          1,
          1,
          2,
          1,
          1,
          3,
          0,
          0
        ],
        "weights": [
          0.4850173230902821,
          0.9981881962575121,
          -0.8845126947871269,
          -0.4599069620894196,
          0.8759531587346248,
          0.7919327904523585,
          -0.37824621525470614,
          0.6557314939690757,
          0.8711116241147265,
          0.013323667613397205,
          -0.28542628591597174,
          0.5239630583677559,
          0.7979582518148447,
          -0.49986483973318685,
          0.4063173419468813,
          0.1812501974289169,
          -0.4147491231040279,
          -0.26686128989961366,
          -0.7848413669164458,
          0.017650994595196146,
          -0.900585659889259,
          0.6499964905457039,
          0.565927030464429,
          -0.5781708115528439,
          0.4713347927564675,
          -0.07317660422066741,
          0.5276006428752797,
          -0.4248403807123766,
          0.7627553134185276,
          0.29779071917320854,
          -0.06708836343636215,
          0.5756545960938035,
          0.6046584745690118,
          -0.7805257901083171,
          0.23998894568022644,
          0.09001408922984422,
          0.28572389453536107,
          -0.014524987270474687,
          0.37291468737398725,
          0.8121806262554643,
          -0.8228473122249866,
          0.25817245905036157,
          0.217525787670527,
          0.1493596595650537,
          -0.6491470753611834,
          -0.0917058270526363,
          -0.5492559184706998,
          -0.2384584220530579,
          0.7811842773544593,
          -0.9606822550047986,
          0.9461715217223499,
          0.8481420160098259,
          0.6161625643466586,
          -0.8774536740379315,
          0.12564086470942182,
          -0.5945462053094264,
          0.6622281752098647,
          -0.7199712609319364,
          -0.6841352820223427,
          0.0711829612224697,
          -0.5526143515939812,
          -0.07367794126999683,
          -0.5787209006778802,
          -0.3725813929359447,
          0.010724297621049983,
          -0.7835759337425039,
          0.0386305417778976,
          -0.24903544339010208,
          -0.08796611355349437,
          0.04602974068452936,
          -0.48418996328755326,
          -0.819959809008943,
          -0.13656879063329952,
          0.7115951614390426,
          0.39688848021610235,
          0.1089333977972402,
          -0.144382449922289,
          0.7615195377309112,
          -0.8027374141578465,
          0.32726980020673624,
          0.6845897200590978,
          -0.9439154823913407,
          0.5172735756436542,
          -0.6118620686697451,
          0.3803306682133851,
          -0.39738145627490074,
          0.1296126758787819,
          -0.08061061149838378,
          -0.8027917554155037,
          0.34368081620632673,
          -0.13471761851135833,
          0.08501151901489346,
          -0.4534851075566151,
          0.7498894620319172,
          0.8748340579799969,
          0.1585468699374839,
          0.5347828696781181,
          -0.19465565557385411,
          -0.8439434082719908,
          -0.8118866620997982,
          0.6172138904228972,
          0.7724255752319871,
          0.11624318841626402,
          0.8126558687259973,
          0.2837644800668777,
          0.9840745323367175
        ],
        "playerName": "RFFSimulation",
        "converter": {}
      },
      "fitness": 0.8833333333333333,
      "behaviours": [
        21.033333333333335,
        1.8333333333333333,
        27.216666666666665,
        4.233333333333333
      ]
    }
  ],
  [
    {
      "value": [
        32,
        28,
        14,
        12
      ]
    },
    {
      "x": {
        "agentConfig": [
          0,
          1,
          3,
          1,
          0,
          1,
          3,
          3,
          1,
          0
        ],
        "weights": [
          -0.4391504571236524,
          -0.898239537547981,
          -0.2558597335084043,
          0.7798593740598914,
          -0.7587961464136559,
          0.20348002749022265,
          -0.3640716557717172,
          0.22587971152847697,
          -0.010280104994608852,
          0.3806946901573476,
          -0.6307117274241945,
          0.7547062749531761,
          0.8116542725263582,
          0.24355628231285098,
          -0.4638755428047632,
          0.16420880500751855,
          -0.42690479547697,
          0.9045676105918421,
          0.09955020817789273,
          0.09797738983070814,
          0.27795837904409515,
          0.5484432861752007,
          -0.5528319175074103,
          0.41262352518753764,
          0.30027688786535744,
          -0.14043847247129837,
          0.9260416016834632,
          0.25255699752167504,
          -0.9608690283904318,
          0.7846083622381153,
          -0.3363813639015347,
          -0.8141853737993141,
          -0.7219830769653257,
          0.6255911626619901,
          0.8245699714928605,
          -0.9466533558960148,
          -0.09259266122112741,
          -0.9615209627794188,
          -0.6382910760956542,
          -0.45450731071258477,
          -0.39129099060736516,
          -0.8446964508189754,
          0.7898625330853264,
          -0.056790822672317054,
          -0.4002236319065251,
          -0.247367047959679,
          0.5447663002714143,
          -0.052063392009096265,
          -0.3934075320704171,
          -0.8430893156131836,
          0.08475899055806035,
          0.07282446569768886,
          0.852683034108243,
          -0.5927735073881832,
          -0.9487440581988489,
          0.6793591649892521,
          -0.952719246981911,
          -0.9113322926404264,
          0.5246834089263075,
          0.41726816192778604,
          -0.8947882024451856,
          -0.7955245083186477,
          0.6957588803259362,
          -0.4380974309800538,
          -0.3540717279490424,
          0.4728091665205998,
          -0.8822937199040841,
          -0.45787285709514114,
          -0.8039355779492383,
          0.514000346750281,
          -0.8868032984820668,
          0.8130765297784339,
          -0.5406528991503494,
          -0.4632441698267824,
          -0.11948965333917916,
          -0.8480368800142435,
          0.019643934076247538,
          -0.663152480841886,
          0.37661625347658156,
          -0.5585490505162323,
          -0.5926135283204688,
          0.6894043515463055,
          0.150571966989149,
          0.05393776864372368,
          -0.4134423485166596,
          0.5460006087428242,
          -0.04115398162676609,
          0.06141612191754775,
          0.6088873519147728,
          0.840312494744818,
          -0.785128995394887,
          -0.33058878598651975,
          -0.5661483827927036,
          -0.8388071649604878,
          0.10833738720513608,
          -0.4901769906325646,
          -0.2724749949095022,
          0.06959251625294338,
          -0.42455872134986783,
          0.7263268190205374,
          -0.16971097928173173,
          0.41583434295224597,
          0.20950286326631562,
          -0.8526845100963263,
          0.02285130104202837,
          0.6563248570513021
        ],
        "playerName": "RFFSimulation",
        "converter": {}
      },
      "fitness": 0.95,
      "behaviours": [
        21.283333333333335,
        1.8,
        26.783333333333335,
        5.933333333333334
      ]
    }
  ],
  [
    {
      "value": [
        30,
        25,
        14,
        13
      ]
    },
    {
      "x": {
        "agentConfig": [
          1,
          1,
          2,
          1,
          1,
          0,
          2,
          0,
          0,
          1
        ],
        "weights": [
          0.009123644354891658,
          -0.7877760908882843,
          0.7274725933144506,
          -0.3726825785853731,
          0.4444774355395402,
          -0.1471890072223816,
          0.7806560155278339,
          -0.3009703560597694,
          0.16247589657727168,
          0.7155634271969897,
          -0.1949362556138221,
          0.0616190283845528,
          0.8668693441924429,
          -0.178226448620447,
          -0.7107384250342996,
          -0.14629410587505132,
          0.043515052982216806,
          -0.4805582162657691,
          -0.37064234061444656,
          -0.9865880881990281,
          0.7676448909219493,
          0.2267650315498042,
          -0.5433144529756797,
          -0.2732705945934819,
          -0.017520939145822867,
          0.31245249209348414,
          0.2736514082749997,
          -0.6539998260287023,
          0.6208286545467925,
          -0.45835909514414475,
          -0.245305782682945,
          0.8020032047639398,
          0.19328331973960156,
          -0.02874052173395336,
          0.7067991828786093,
          -0.23052292736311553,
          -0.7189662397252543,
          0.6962724728710812,
          0.9618482738970098,
          0.14473275670114316,
          -0.2516694551906975,
          -0.5716942996098877,
          0.23558151106133884,
          0.7553387842003505,
          0.4290358571325963,
          0.5307419942176843,
          0.031503615147242536,
          0.6456906020381641,
          -0.45632353338247333,
          -0.16055239212784067,
          -0.7481156397194593,
          -0.23139712464476148,
          0.1678593376147286,
          -0.6341294135158335,
          0.3298794732421546,
          0.4618919968395572,
          -0.3001346643958194,
          -0.19067023299027275,
          0.8550002306231994,
          0.7002444633312188,
          0.46468916067445276,
          -0.30210824156668403,
          0.3848644843463207,
          0.7864944013080806,
          0.34374601828875107,
          0.9323105602047346,
          -0.5806359994560837,
          0.8827620093373336,
          -0.3660797242740319,
          -0.47491686265595945,
          -0.6409133390676534,
          -0.4192671287404264,
          -0.7834173912011066,
          -0.5932473252746253,
          0.6780352528879845,
          -0.42831446829861064,
          -0.44334281078277415,
          0.31416830812987184,
          -0.48861318261882536,
          -0.5992957830917711,
          0.05377137086234707,
          -0.019510160551296396,
          0.39224105140864873,
          0.2758398240379272,
          -0.1680237772154538,
          0.11430199962972698,
          0.9670080965958725,
          -0.04818761609046773,
          0.18147630967858053,
          0.9852833020245408,
          -0.8227099242009721,
          -0.18082508640008355,
          -0.4447370103519026,
          0.8264505794172341,
          0.6168133289385431,
          0.5036871614308494,
          0.2754966938161054,
          -0.28192030139210833,
          -0.4448284360928423,
          -0.48302358034759263,
          -0.08106228723510966,
          -0.8640193098071411,
          -0.5341564284240292,
          -0.20161059764616995,
          -0.2723219036050353,
          -0.07311662353316373
        ],
        "playerName": "RFFSimulation",
        "converter": {}
      },
      "fitness": 0.9,
      "behaviours": [
        19.816666666666666,
        1.65,
        27.816666666666666,
        6.366666666666666
      ]
    }
  ],
  [
    {
      "value": [
        31,
        25,
        19,
        12
      ]
    },
    {
      "x": {
        "agentConfig": [
          1,
          5,
          0,
          0,
          1,
          1,
          1,
          0,
          1,
          2
        ],
        "weights": [
          0.694621917324455,
          0.1603059763780752,
          0.7792751338914679,
          0.1227523165643496,
          -0.5195228258370519,
          0.033867553187483024,
          0.1259502555034595,
          0.1650239536317868,
          -0.8369675563247025,
          -0.3066136942801314,
          -0.5369545481369975,
          -0.2709112475137294,
          0.8532909858973243,
          -0.8407730469339576,
          0.14896851341626394,
          -0.02897685858534227,
          0.8685713290418866,
          0.23111705059262255,
          -0.7879240385546276,
          -0.4027771495664425,
          0.48220065521901856,
          0.7962002661052396,
          0.6871214685456908,
          -0.12600519260587761,
          0.8615037569952602,
          -0.05576489387806083,
          -0.0040130654079555406,
          0.6511130345005622,
          0.21905046037565512,
          -0.746343753769313,
          -0.0935510494879579,
          -0.15040552177547495,
          -0.8896715414234071,
          -0.7169467268026994,
          -0.4578135613548997,
          0.5065294570574403,
          -0.7182889506183288,
          -0.8568409171003839,
          0.4191874255132082,
          -0.8251209573781841,
          -0.49420756709899893,
          0.6773526367991329,
          -0.45183224325748284,
          -0.7562695048608665,
          0.4368664697450282,
          0.8692775091244815,
          -0.730434183636516,
          0.574579380533665,
          -0.3224718184183357,
          -0.12590828068603432,
          0.6771319077226843,
          0.7417849320728971,
          -0.031920514531881494,
          -0.8396021346061875,
          0.238083109110945,
          -0.8795750744891484,
          -0.3063747334850129,
          0.29574605215256433,
          -0.4677518427362919,
          -0.9176482962657078,
          -0.2505525434751199,
          0.5437377587840768,
          -0.09042035668156978,
          -0.3586677330874395,
          0.213448902087783,
          0.302089640866954,
          -0.6951356534379574,
          0.03073052678361754,
          0.24516186812942053,
          -0.6651572123870813,
          -0.5495851451888887,
          0.9022705616798814,
          -0.8359816102749973,
          -0.26176834584317077,
          0.2919801538054181,
          0.10199539258082724,
          -0.24471628950764424,
          -0.37144477292054257,
          0.5400641279349141,
          -0.6903837055561817,
          0.510257137263511,
          0.6517203931065554,
          0.9782957256922122,
          0.22002351397401299,
          -0.2719533510092502,
          0.5879563800023269,
          0.4024469747858108,
          -0.599190365838536,
          -0.8105720497610547,
          -0.43847297832293486,
          0.8781474978512134,
          -0.5227675611836053,
          0.45900169046514483,
          0.6640950028992441,
          -0.6177009058538803,
          0.876125179366384,
          0.7800646372165867,
          -0.8382780358399524,
          0.8326446695940408,
          -0.9971626339360673,
          -0.0026851763664272887,
          0.8793144337187351,
          -0.9880988316622392,
          0.4303694445349968,
          0.9757137205614006,
          -0.15734419013120116
        ],
        "playerName": "RFFSimulation",
        "converter": {}
      },
      "fitness": 0.6333333333333333,
      "behaviours": [
        20.183333333333334,
        1.6166666666666667,
        36.06666666666667,
        5.75
      ]
    }
  ],
  [
    {
      "value": [
        33,
        27,
        17,
        10
      ]
    },
    {
      "x": {
        "agentConfig": [
          0,
          4,
          3,
          0,
          2,
          1,
          1,
          0,
          1,
          0
        ],
        "weights": [
          0.055247119470792416,
          -0.446600213734589,
          -0.8920966730406794,
          -0.468210515743378,
          -0.2273352272819431,
          -0.030495783060913828,
          0.6102717933169626,
          -0.0513159995788679,
          -0.9108553053102286,
          0.4760931991254256,
          0.24198811252736152,
          0.47091264346738115,
          0.48686583696141805,
          -0.7468173260227837,
          0.3710928753448257,
          0.5277442514940873,
          0.5047221838100324,
          -0.17424342298319506,
          0.6230188161268881,
          0.884981489965794,
          0.1498167004186446,
          -0.9301554968217081,
          0.45299701874396847,
          0.48288789355950956,
          0.34771434677301216,
          -0.48804823212961956,
          -0.49811801971204384,
          0.0848311922749212,
          -0.047488480804191546,
          -0.4609101093032819,
          -0.2972585474463607,
          -0.285756151253745,
          -0.37901784135567795,
          -0.6270152921267478,
          0.9200105648559531,
          0.375078166160584,
          -0.7992363979682717,
          -0.03913370938103444,
          -0.7200378422988709,
          0.13101272119124507,
          -0.8092506387786729,
          0.2965739610064497,
          0.29069998222035087,
          0.2612449423615508,
          0.30255760909283613,
          0.10953752667504268,
          -0.6481680518057868,
          0.9157813912632147,
          -0.8148512533804573,
          -0.6544762872661312,
          0.31843679851384077,
          -0.5392821321324188,
          0.970367863423063,
          -0.5881354064895485,
          0.41088776752956235,
          0.5340768514845331,
          0.4553905411721264,
          -0.2287852357001865,
          0.9515525380339909,
          0.7253502875450513,
          -0.5412450466067886,
          -0.8582907509903475,
          0.16133941777713323,
          0.7469719793795921,
          0.16986496740408796,
          -0.7022750344218402,
          0.5635153932180184,
          -0.0164762886511558,
          -0.8424472476597851,
          -0.735725314538868,
          -0.5808278749349316,
          0.3845554432893581,
          0.11149249980490361,
          0.5593921411921514,
          0.058171845289142876,
          0.8094797778330067,
          -0.6390404910442913,
          0.06269387931677484,
          0.9713555612564724,
          -0.8619216977298727,
          0.7486332216089056,
          0.0746319462256464,
          0.0942513406318195,
          -0.2722652109580439,
          -0.46715607237974344,
          -0.820220047960875,
          -0.16052802113766784,
          0.12859007726137284,
          0.649868336371136,
          0.6388229760879234,
          0.1244457150899323,
          -0.6396099999762339,
          0.8885801157600766,
          -0.7922505154840582,
          -0.10692453196565999,
          0.5098763629023992,
          -0.6870335514579067,
          0.5190720883935096,
          0.4443767347626657,
          0.9251499297856394,
          -0.386276714001913,
          -0.5412676722259115,
          0.2580955738271733,
          -0.13648922791614493,
          -0.021653361351063216,
          -0.6663283793307906
        ],
        "playerName": "RFFSimulation",
        "converter": {}
      },
      "fitness": 0.8833333333333333,
      "behaviours": [
        21.916666666666668,
        1.7833333333333334,
        32.733333333333334,
        4.55
      ]
    }
  ],
  [
    {
      "value": [
        32,
        28,
        14,
        5
      ]
    },
    {
      "x": {
        "agentConfig": [
          0,
          0,
          3,
          0,
          2,
          0,
          3,
          1,
          0,
          2
        ],
        "weights": [
          0.5047688724372881,
          0.46478248590778914,
          -0.9895475073193378,
          0.9828867397013943,
          0.6612155893531517,
          0.69989398840545,
          0.48266258705027143,
          -0.7408937765665267,
          -0.09400319733255857,
          0.5460814025016676,
          0.5592539142369106,
          -0.7254746899734827,
          -0.6628442635297545,
          -0.7160186462225131,
          -0.899912354149937,
          0.6384572163997959,
          0.5563224245126257,
          0.2648527136853829,
          -0.5962834534014829,
          0.2728341393121181,
          -0.787858281216298,
          -0.4787933891820475,
          -0.08841164299767534,
          -0.5112959623126365,
          0.24014487086267877,
          -0.600481988118424,
          -0.24088647819856956,
          0.9571543540655811,
          -0.251167219705583,
          0.34691544971123434,
          0.6790300923659223,
          0.5512852871451197,
          0.2536918306609752,
          0.9388243621644019,
          -0.9542996313450984,
          0.7721846973565787,
          -0.7246827726074827,
          -0.7478829963683038,
          -0.30532183392947543,
          -0.729315712757926,
          0.19477057381906127,
          -0.23159967521908387,
          -0.4399118264259292,
          -0.16199473126896313,
          0.698752573660369,
          -0.8653485166766819,
          0.14306164882290795,
          0.1622288068113722,
          0.14912512964333047,
          -0.6865116383737484,
          -0.6423232830677705,
          0.6338564349290965,
          0.7757682589106947,
          -0.07705915221014803,
          -0.6034464168873839,
          -0.4674481251957725,
          0.7187132294923235,
          0.895666821089977,
          -0.08354061297709858,
          0.038484967748280585,
          -0.3650559348346454,
          -0.019865110325682833,
          -0.9350209673966166,
          -0.31447352572289033,
          -0.1627861397821635,
          -0.9386264591489579,
          0.6525128136607226,
          -0.8901300503191842,
          -0.25332439860609,
          0.796465657799035,
          0.11956410517968519,
          0.24648602021649668,
          -0.18192088638577086,
          0.6400438309050298,
          0.85748336623797,
          0.48714129342785695,
          0.03574053106048636,
          0.9776220142997365,
          -0.08846155908273756,
          0.7375437839536192,
          0.5804425344347861,
          -0.21032498948843514,
          0.1283835923761678,
          -0.20249695660946387,
          -0.6681228025798813,
          0.03695738293539774,
          0.4057034252784766,
          -0.9631767279183703,
          -0.5018035249922124,
          -0.21236972375323582,
          0.8600103694605978,
          -0.049026067288445274,
          -0.1463115287530914,
          0.9993429777456531,
          -0.5507215451114282,
          0.8544121712846606,
          0.8175504652960479,
          0.8244945963892207,
          0.8702977706913284,
          -0.2942419058758645,
          -0.07881670450095934,
          -0.6755210125078441,
          -0.6036613364168937,
          -0.1421471346309935,
          0.0883841048103775,
          -0.44120564915803895
        ],
        "playerName": "RFFSimulation",
        "converter": {}
      },
      "fitness": 0.9166666666666666,
      "behaviours": [
        20.783333333333335,
        1.8,
        26.666666666666668,
        2.4833333333333334
      ]
    }
  ],
  [
    {
      "value": [
        19,
        3,
        28,
        10
      ]
    },
    {
      "x": {
        "agentConfig": [
          1,
          5,
          2,
          0,
          2,
          1,
          1,
          1,
          2,
          2
        ],
        "weights": [
          0.6378033513505275,
          -0.2808362590485691,
          0.949682073077156,
          -0.6838366149434658,
          -0.6687476245129345,
          0.45560987187936,
          -0.34439076667468926,
          -0.07011192284978462,
          -0.8649618508292338,
          -0.00590943303700131,
          -0.3991186809504963,
          0.3468494804902613,
          -0.22483195110398224,
          0.34871928150335507,
          -0.6955597988597748,
          -0.32062072549011544,
          -0.06575452279602567,
          0.061138732178587896,
          -0.9312556928685811,
          -0.5019247843175596,
          -0.8205111245691157,
          -0.25356056588013076,
          -0.7723642716586661,
          -0.22719883193877854,
          -0.8971500390305018,
          -0.11688596782712213,
          0.7494034179022608,
          -0.5889750263548648,
          0.36616315960041557,
          -0.48882936657447695,
          0.08426363038823648,
          0.16796895492460506,
          -0.3725386585985686,
          0.2388573710229689,
          -0.5400684151697686,
          -0.27937352764995005,
          0.17029660308907735,
          0.7572775122865911,
          0.7059124799475343,
          0.7777760953210275,
          0.4661072418529273,
          0.9235029944712101,
          -0.8734083314728722,
          0.24070252701292238,
          -0.12962420119043516,
          -0.6033768331557725,
          -0.05484168813684853,
          -0.36558832716485523,
          0.18652564053663978,
          0.7974916089073163,
          -0.5951511793919293,
          -0.7032935424266045,
          -0.0727925316590663,
          -0.5882354573203208,
          -0.259049475749491,
          0.14256618379745634,
          0.7608290889100155,
          0.5671508001388517,
          -0.07354196401022706,
          0.21385232785629782,
          0.8518861277362972,
          -0.010378762585886658,
          0.3462291931745667,
          0.6794399411302234,
          -0.4131462925586158,
          -0.3203443795954264,
          -0.6310607808792204,
          -0.5315461968471198,
          0.5231024270997797,
          0.1484304578123956,
          -0.8369138251660597,
          0.29936506680150665,
          0.30650525258531003,
          -0.7848187043362829,
          -0.9572474260751502,
          0.5102830064230304,
          0.7741049234224806,
          0.9908007875037619,
          -0.869217206143607,
          0.8008546770866471,
          -0.5085853543467822,
          -0.8409391528900929,
          -0.808513222938634,
          -0.23623721267201359,
          0.5696277853968761,
          0.2156770712550442,
          -0.8880634338662869,
          -0.08610885624759756,
          0.7662157193437555,
          0.9367601898903877,
          0.7003720737316876,
          -0.18419581337407775,
          -0.40690362986444906,
          0.022028639775723224,
          -0.7778110051579401,
          0.8652660667875882,
          0.43975737890381095,
          0.5944831304502265,
          -0.5915686632193826,
          -0.7018978325867813,
          0.5644242582984544,
          0.03707397075200625,
          0.5486677970466209,
          0.07978469116162001,
          -0.785437021611872,
          0.5082184231508313
        ],
        "playerName": "RFFSimulation",
        "converter": {}
      },
      "fitness": 0.26666666666666666,
      "behaviours": [
        12.35,
        0.18333333333333332,
        55.9,
        4.583333333333333
      ]
    }
  ],
  [
    {
      "value": [
        2,
        1,
        34,
        7
      ]
    },
    {
      "x": {
        "agentConfig": [
          0,
          1,
          1,
          0,
          2,
          1,
          3,
          0,
          2,
          0
        ],
        "weights": [
          -0.2562956046438205,
          0.3899424697145646,
          -0.9195195032411401,
          -0.4781823828730538,
          0.29297952721113263,
          0.5840101849887156,
          0.22236013115787912,
          -0.46735957680588824,
          0.44778126676830055,
          -0.1274500560134708,
          -0.5357557206080985,
          -0.13182957540401175,
          0.12759962433125427,
          -0.06408385749389733,
          -0.45130480189698385,
          -0.8137402624154004,
          0.5809309822547886,
          -0.419088388142018,
          0.2461758759069328,
          -0.9873672817416965,
          0.6662999206646734,
          -0.9615029345999755,
          0.12593355889259938,
          0.5194619095334452,
          0.13218398698616474,
          0.3387272885050805,
          0.135875217213979,
          0.26865244569882796,
          -0.1553664719604071,
          -0.707728177417632,
          0.7302658153599144,
          0.9032939147058328,
          0.8820808123011086,
          0.5317062675820581,
          -0.7139662655118038,
          0.9758180752135173,
          0.950036109626385,
          0.05208843020637555,
          -0.8870809004958242,
          0.3689773137541168,
          -0.3359276383679539,
          -0.2608388019845187,
          -0.5103439829852912,
          0.09583829747686345,
          -0.09229885924325343,
          -0.5151467506894922,
          -0.15216927333685315,
          -0.34243764326735127,
          0.6924484785826612,
          0.6635754023788294,
          0.47701302052172934,
          -0.4071767209659054,
          -0.2693602885009625,
          -0.02086027880021657,
          0.9392090822896371,
          -0.6297100884855935,
          -0.7228927488267249,
          0.9909562557074434,
          -0.24236077027350356,
          -0.6443193528657094,
          0.704237671457751,
          -0.010510394123361744,
          0.8842951481594945,
          0.22747405672424126,
          -0.2545222776631204,
          -0.685212629726242,
          -0.04731372432389702,
          -0.07956221645417805,
          -0.6243779991563534,
          0.6982189214235428,
          0.3866362931499516,
          0.9437175613053701,
          0.891908326571323,
          -0.24360813754384836,
          0.06294539670658406,
          -0.24969640803081883,
          -0.08185050859544485,
          0.37754180296915907,
          -0.5848143102875423,
          0.7272729869258006,
          0.7748338569408828,
          0.41451907469229754,
          -0.3821485030779186,
          0.33128189783390005,
          -0.05867012541687244,
          -0.16517648943520014,
          0.8045389066730497,
          -0.08863837955984555,
          -0.8179670007893389,
          -0.7230322411927452,
          -0.8492189132906767,
          0.841149302367918,
          -0.6835038324328491,
          0.8237763857482603,
          0.09162135240878322,
          0.7252631961309961,
          0.584289282010519,
          -0.2729424576357875,
          0.9459565164625297,
          0.6496096646272536,
          -0.9114656999071018,
          -0.19558955194222394,
          -0.21586216408879122,
          0.7129882722184224,
          0.8977679715503102,
          0.2777618184385786
        ],
        "playerName": "RFFSimulation",
        "converter": {}
      },
      "fitness": 0.0,
      "behaviours": [
        1.15,
        0.0,
        66.91666666666667,
        3.2666666666666666
      ]
    }
  ],
  [
    {
      "value": [
        32,
        26,
        18,
        10
      ]
    },
    {
      "x": {
        "agentConfig": [
          0,
          5,
          2,
          1,
          0,
          0,
          0,
          2,
          0,
          2
        ],
        "weights": [
          -0.03023092730701693,
          0.966890765001666,
          0.20386052237640584,
          0.9425799719917081,
          -0.5329280309442561,
          0.6719079946129354,
          0.19451419622331412,
          -0.5832267996615907,
          -0.934947938071204,
          -0.7801573199310305,
          0.9150491736389497,
          0.6715049153073638,
          -0.47719036168220597,
          0.2706934408901429,
          0.7464892483118155,
          -0.02956357884224725,
          -0.3556241363579884,
          0.9242269699618255,
          -0.5301266033306444,
          -0.4954463183379221,
          -0.34002874759147117,
          0.14900676270835955,
          0.0023966810497757507,
          0.5823666515715802,
          0.4812284006069645,
          -0.6736932337506636,
          0.3029559058819431,
          -0.7156109061578422,
          -0.7345010742946319,
          0.5027218974210088,
          0.9535091286918311,
          0.1610622584525192,
          0.7575669939992253,
          -0.5683863589539673,
          0.9871106421847113,
          -0.6791368710919838,
          -0.5272047480287219,
          -0.9676411943778436,
          -0.8395638710162272,
          -0.9145842084680242,
          -0.05606744600731539,
          0.5076962175477346,
          0.058066913082199134,
          -0.7189970899939611,
          0.9745151626244326,
          0.03329545875962525,
          0.16775312133857279,
          -0.8090472133074429,
          -0.875002750991897,
          0.66999862983229,
          0.3803314988674249,
          -0.7890452780490504,
          0.5034483968441812,
          -0.051984203615469626,
          0.24492434194889023,
          0.32943435298069135,
          0.3408601230111272,
          -0.5663188882161814,
          -0.2504994785948813,
          0.6976985334656132,
          0.8018057304332662,
          -0.4867936610475003,
          0.3988322654297398,
          -0.24036326969374233,
          -0.9855983789656899,
          0.6141956581007608,
          0.9263343695751565,
          -0.3216542749679303,
          -0.6007794915185971,
          -0.8654860292715036,
          0.10322592221004978,
          -0.8728798818230481,
          -0.9649892378357654,
          0.4594292309614507,
          -0.20209241781346443,
          -0.09516798649758074,
          0.019779001279197184,
          0.6217773253907719,
          -0.30959945244829723,
          0.29079890445175405,
          0.5689963224996353,
          0.3962263377204289,
          0.8611465800994476,
          0.5718185555454129,
          0.9383911136263541,
          0.9175443633916704,
          0.8504214725600636,
          -0.2458731687423985,
          -0.833004485998128,
          0.27410463040094424,
          -0.2759324493028599,
          0.1156135041994355,
          -0.8931853161389118,
          -0.04831156043963647,
          -0.8167959574876587,
          -0.04129189053345206,
          -0.7613079865180268,
          0.48897497982783156,
          0.8200268847068091,
          0.6919267472879893,
          -0.6303543372860894,
          -0.7450642370703808,
          -0.7512369757892488,
          0.19814860002279655,
          -0.5348438429066509,
          -0.1303211741999717
        ],
        "playerName": "RFFSimulation",
        "converter": {}
      },
      "fitness": 0.7333333333333333,
      "behaviours": [
        21.216666666666665,
        1.7166666666666666,
        34.483333333333334,
        4.583333333333333
      ]
    }
  ],
  [
    {
      "value": [
        30,
        23,
        18,
        10
      ]
    },
    {
      "x": {
        "agentConfig": [
          1,
          5,
          0,
          1,
          1,
          2,
          3,
          2,
          3,
          2
        ],
        "weights": [
          -0.4758530461190744,
          -0.6586817783510821,
          -0.3194164384165519,
          0.9556460088196672,
          -0.7584162197214879,
          0.006469666450371836,
          0.4257542973264712,
          -0.08785915542202782,
          -0.6756313358498338,
          0.29196409112803745,
          -0.46826319041270836,
          -0.5874033942612948,
          0.5308888299960595,
          0.7347703399480054,
          0.12626097275453096,
          0.9074937405714307,
          0.09679183862138263,
          -0.6553214313539162,
          -0.30109847556004654,
          -0.07478893625161054,
          -0.16257032470791466,
          -0.006822786417595372,
          0.8332150316454332,
          0.5928310960490457,
          0.4692991817696277,
          0.426797978026938,
          -0.854302944511677,
          0.331004602284545,
          -0.20151159221653558,
          -0.14774514721783416,
          0.057107333751334144,
          0.8118019508768357,
          -0.2301568129185403,
          0.3395330951147717,
          0.39866714548351223,
          -0.1514418801840367,
          -0.7212307031502823,
          -0.34959017838529793,
          0.7950828745897314,
          -0.4707045202336346,
          0.11829092403679597,
          -0.47628181098986033,
          0.26830542836409954,
          0.6103875019798766,
          0.46718737409338273,
          0.9349938166998155,
          -0.4296130339023285,
          -0.04529687612320887,
          -0.07926565178140521,
          0.3969709870748501,
          0.3807498656525383,
          0.628552095978377,
          0.2237787670048652,
          0.9787239067308791,
          -0.30736384550128704,
          -0.8356734852424497,
          0.5865789685459262,
          0.39507653274295107,
          0.465458458134028,
          -0.549184715117147,
          -0.2529540973253166,
          0.25423283546508824,
          0.9342269459341315,
          -0.269256482943554,
          0.7887233852510245,
          -0.6495929516416106,
          -0.15582067800420418,
          0.26516894065352603,
          -0.8679506610602321,
          -0.2504382425516214,
          -0.6818050291743951,
          0.3669445748568527,
          -0.9128578995377947,
          -0.6598096004523517,
          -0.9334733832700959,
          0.7105349130385763,
          -0.11044016445495353,
          0.5074075447725999,
          -0.7871636388801502,
          0.09305217980711711,
          0.23618421932136813,
          -0.362560175309111,
          0.13747602492513322,
          -0.8485445029272822,
          0.9965817819570457,
          0.2709377940897668,
          0.4284048505509539,
          0.9334357800163287,
          0.9959004583991309,
          -0.10264293593609808,
          0.28209113714060785,
          -0.32541403816609904,
          0.5485616689165451,
          0.618985627477493,
          -0.4888037918418995,
          0.6520348137690821,
          -0.23228911437878041,
          -0.7879780752565775,
          0.6927943078762664,
          -0.43519890192083643,
          -0.41640643026679536,
          0.47343680543281685,
          0.9303329936537907,
          -0.4662979768793629,
          0.8747260319865775,
          -0.8338197480646523
        ],
        "playerName": "RFFSimulation",
        "converter": {}
      },
      "fitness": 0.2,
      "behaviours": [
        19.75,
        1.5,
        35.78333333333333,
        4.883333333333334
      ]
    }
  ],
  [
    {
      "value": [
        24,
        13,
        24,
        10
      ]
    },
    {
      "x": {
        "agentConfig": [
          0,
          2,
          0,
          0,
          1,
          2,
          1,
          2,
          1,
          1
        ],
        "weights": [
          0.7364656478699643,
          0.9106870611203015,
          -0.3304915558179753,
          0.7016974762972661,
          0.8238768031480721,
          0.6135575356420822,
          0.40906990711702473,
          -0.28919234102904934,
          -0.3049666972135441,
          0.49561207002777663,
          0.6743291412997172,
          0.978942804412491,
          0.37422613180350917,
          -0.02643301323428182,
          -0.040041021080793104,
          -0.9570162886562079,
          -0.3681326787422261,
          0.3255606793644006,
          -0.38179756458424974,
          -0.49895821036500987,
          -0.727204461169658,
          -0.598838923988301,
          -0.595534482940526,
          0.39238915635602956,
          0.02620746140869179,
          -0.33682200579936916,
          -0.7186956270531264,
          -0.8019572781293876,
          0.4762402974321793,
          -0.4347535798294666,
          -0.9463784492622236,
          0.013819731426922832,
          -0.3695652101375797,
          -0.11952279394755894,
          0.5973393842574735,
          0.34026238359392713,
          0.44401046358179963,
          -0.7297019490648162,
          -0.8042278874294033,
          -0.11109327790841506,
          0.9010887342303002,
          -0.8810632853861309,
          -0.18762937522807888,
          0.8219486742770101,
          -0.9002978238373456,
          0.45782618123137553,
          -0.994532903081885,
          -0.07756151617707485,
          -0.8043689035509676,
          -0.3344602972866748,
          -0.3698989415704368,
          0.3347138867619921,
          0.030812592932036642,
          0.5526916531766268,
          -0.526040815820906,
          -0.28014154602184593,
          -0.19473046313925324,
          0.42756848160519145,
          0.5389169384235295,
          0.938551394135801,
          0.2472101861649716,
          0.7870822245920419,
          0.8066209947372274,
          0.703752967496537,
          0.39415316559108216,
          -0.61103371121331,
          -0.9839936093035964,
          -0.9617530664069784,
          -0.6813662315838158,
          -0.365037038872575,
          -0.7674063695856745,
          -0.1728596503183315,
          0.9152530044403222,
          -0.5689212190542576,
          -0.19613388886039562,
          0.272998899874193,
          0.21153204676500348,
          0.9898124289877663,
          0.6719791561664781,
          0.6413744357821833,
          -0.42676110213968843,
          -0.5994116338342013,
          -0.04549235482686198,
          -0.6729415675658812,
          0.6455566736492095,
          -0.7815425066143442,
          -0.7941106562086653,
          -0.02352513012731161,
          -0.09533342499464825,
          0.8074529176387812,
          0.8366770206117962,
          -0.8307973192526132,
          0.29002114399564527,
          -0.2761803454959475,
          0.7946637221209649,
          0.9916966025919296,
          0.5457866649472234,
          -0.9643378826797542,
          0.8013990981863279,
          0.7288539243531427,
          -0.379362312810265,
          0.14938437008830574,
          -0.8104312958745257,
          -0.14584862762634643,
          -0.24171219757939344,
          0.44962358272552305
        ],
        "playerName": "RFFSimulation",
        "converter": {}
      },
      "fitness": 0.4666666666666667,
      "behaviours": [
        15.916666666666666,
        0.85,
        47.266666666666666,
        4.916666666666667
      ]
    }
  ],
  [
    {
      "value": [
        17,
        4,
        27,
        10
      ]
    },
    {
      "x": {
        "agentConfig": [
          1,
          5,
          1,
          1,
          2,
          1,
          2,
          1,
          2,
          1
        ],
        "weights": [
          -0.8721043622200726,
          -0.2510172852603938,
          -0.2894643580539493,
          0.045250776581796215,
          -0.3683564997541233,
          -0.8983646934097771,
          0.9655391934023441,
          0.42647227796468856,
          -0.04167851022473856,
          -0.5011636134880795,
          -0.3067824447607692,
          -0.37498857190389323,
          -0.9965798289324248,
          -0.4644223116433934,
          -0.18563465590737382,
          0.6302769541377433,
          0.5026864867488929,
          0.8518618126246253,
          -0.8155959886726498,
          -0.8387088381245564,
          0.27973342178206684,
          0.3874860111666265,
          0.9669155714778059,
          -0.49077225672096114,
          0.9846490096791443,
          0.14975200648217868,
          0.9552373449490532,
          -0.037513662562852934,
          0.29290365415644337,
          0.6767800087513169,
          -0.3204187403064145,
          -0.3457910698171829,
          -0.08919155267232148,
          -0.04081646493525515,
          -0.9546563039615865,
          -0.9665299432381922,
          -0.3267695097880914,
          -0.7745605966982745,
          0.7189759867841417,
          -0.41479713321194156,
          -0.4787773566775544,
          0.7013653810207436,
          -0.48901162811118204,
          0.9102496861556615,
          0.21168115130647647,
          0.2216962685652073,
          -0.39863729481808097,
          0.82575448857929,
          -0.7619054136037302,
          -0.5981725828761453,
          0.6108536355928469,
          0.7574422725508179,
          -0.36909653825961075,
          -0.029627590509343715,
          0.24235986697535794,
          0.3691599165772801,
          0.05794050163645159,
          0.8182602644509831,
          0.49975093891512756,
          0.11137905376775747,
          0.9598769944705836,
          0.3376750981263874,
          -0.6627619460891705,
          0.1691911081285702,
          -0.6674481939254446,
          0.7042198032043809,
          -0.9994198085501447,
          -0.8483469884712191,
          0.2075141256340931,
          0.8982631420181435,
          0.29212008023479163,
          -0.21183129403269296,
          -0.11593654099921591,
          -0.5334920265760204,
          0.5248485759582799,
          -0.11607890111947872,
          0.5305237853098159,
          0.29239598406100265,
          0.026396769072369652,
          0.835196792194189,
          -0.10055848694118064,
          0.9740432984259053,
          -0.2879383343493751,
          -0.8832262949937879,
          -0.4091492111943733,
          -0.1990215789997294,
          0.4666710575239863,
          0.32737051945425844,
          0.5497018153602413,
          -0.22396712747864722,
          -0.14170119803522918,
          0.6154841364752361,
          -0.7019977605007652,
          0.64631305838985,
          -0.9474568174807843,
          0.606770400464153,
          0.7791728285871828,
          0.08239962109829535,
          0.7042856227166219,
          0.3154505736025137,
          -0.3684253823233308,
          -0.9736262700469003,
          -0.9254512765590295,
          -0.05394504167254888,
          -0.789885284962577,
          -0.40170918134913425
        ],
        "playerName": "RFFSimulation",
        "converter": {}
      },
      "fitness": 0.26666666666666666,
      "behaviours": [
        10.933333333333334,
        0.23333333333333334,
        53.166666666666664,
        4.55
      ]
    }
  ],
  [
    {
      "value": [
        24,
        9,
        24,
        11
      ]
    },
    {
      "x": {
        "agentConfig": [
          1,
          1,
          1,
          0,
          2,
          2,
          2,
          3,
          0,
          2
        ],
        "weights": [
          -0.9428997233776739,
          -0.9198586154423796,
          0.37953568253824765,
          0.26661883410326603,
          -0.38021186820606334,
          -0.886127121267724,
          0.7886280916625137,
          0.32756955094443385,
          0.46376284989606664,
          0.08653341278552751,
          0.6657192583182909,
          -0.530593266468808,
          0.822457070255953,
          -0.4634977897384669,
          0.5124188904534579,
          0.13166525631408876,
          0.7206510437778835,
          0.2060912954184455,
          0.7919788282580951,
          -0.020338689482924277,
          -0.941559991838733,
          -0.8119546078567672,
          -0.2740238034560818,
          -0.5605944335406385,
          0.5297056328081198,
          -0.9719171924079497,
          -0.058843475579567706,
          0.9105120889758647,
          0.3990799585304412,
          -0.2916564566757678,
          0.733589193291166,
          0.1141948651697835,
          -0.7116589150264874,
          -0.23331168407557357,
          -0.6245125679735501,
          0.14477319733765714,
          0.8126334925516261,
          0.1993703654990835,
          0.11075163128028298,
          -0.03306634570971356,
          -0.8411401777469374,
          0.24968043695563202,
          -0.7315046686791065,
          -0.6626742780835526,
          -0.48695720827450106,
          -0.2972572054793128,
          -0.730482882040105,
          -0.5721043176943008,
          -0.37958988965486107,
          -0.11328139891449673,
          -0.7911142304457297,
          0.7896920967357786,
          -0.29859216440381675,
          -0.7767481055615619,
          -0.8314924966018593,
          -0.2802967963233376,
          0.4488006742043482,
          0.8750695036046512,
          -0.5532516528715195,
          0.5796160092134088,
          0.8954714528929382,
          -0.19377312806841807,
          0.48788763573869165,
          -0.8357860734398435,
          -0.4305158102070512,
          0.40056756110804637,
          0.4523813909028944,
          0.8284589839765226,
          -0.45757062468846943,
          -0.32345558909733074,
          -0.9103820207521252,
          0.7561311576381793,
          0.7290221377277337,
          -0.9083733619917957,
          0.8580510030155353,
          0.4892274669363026,
          -0.8896219335364357,
          -0.05290360128608129,
          -0.9167018251823873,
          0.636150180147129,
          0.4303437503724523,
          -0.5158835985218548,
          0.3529972260826688,
          0.5380418252131347,
          -0.6462871622482929,
          0.9045276328837686,
          0.3179140043907127,
          -0.40354647877915806,
          0.07711128473694573,
          0.7549150612794642,
          0.601999834672102,
          -0.04813949610402557,
          0.9477885021584496,
          -0.619942988139895,
          -0.3801999803906435,
          0.2513670568550699,
          -0.22749572177273114,
          0.48195180810219695,
          -0.2421838488132162,
          -0.6447284550113102,
          0.1881551522121403,
          0.2131941116118261,
          -0.4028692717130078,
          -0.9940102254808774,
          0.7177352133230663,
          0.6885505429590482
        ],
        "playerName": "RFFSimulation",
        "converter": {}
      },
      "fitness": 0.5,
      "behaviours": [
        15.666666666666666,
        0.5666666666666667,
        47.15,
        5.45
      ]
    }
  ],
  [
    {
      "value": [
        24,
        9,
        24,
        13
      ]
    },
    {
      "x": {
        "agentConfig": [
          1,
          1,
          0,
          0,
          1,
          2,
          2,
          3,
          1,
          1
        ],
        "weights": [
          0.7289170586885247,
          0.3870578766414172,
          -0.40773141230978704,
          0.15747652659637823,
          -0.09184483051606795,
          0.5799807500978995,
          -0.445294006517591,
          0.6903942909873757,
          0.8594360185241134,
          -0.8578581697441239,
          -0.581496338451853,
          0.4145220382486743,
          0.24975183193927286,
          0.7419246783234639,
          0.9495316565642757,
          -0.6896167146421754,
          -0.014649137218577302,
          -0.3855202936262694,
          -0.9845702457760748,
          0.7114378395696135,
          0.9029898920096606,
          0.12408029908131923,
          0.6394932770616095,
          -0.7147380066147544,
          0.9903019817417242,
          -0.5802423297356327,
          0.6427875805920407,
          0.6429502709809858,
          0.8164936657714172,
          -0.382130285829416,
          0.5644927751570341,
          -0.5667549493004496,
          0.7627874120492237,
          0.30658582656947897,
          -0.5100651398450227,
          -0.5795215010824444,
          -0.8872704865143703,
          0.5911000487275802,
          0.9177118080898372,
          -0.24951044776652687,
          -0.904314419924509,
          -0.6152895654119086,
          0.8617763953654969,
          0.37625628340315664,
          0.5725503747357945,
          -0.8002672351082614,
          -0.9887094273242907,
          0.4450630871559067,
          0.21089998634081986,
          0.3035437339460343,
          0.9605197644675418,
          0.34159920827923695,
          0.7175191803668466,
          0.778876896217295,
          -0.727012014445569,
          -0.9635363963702865,
          0.9794389220331097,
          -0.2361764065467391,
          0.4585682986980961,
          -0.5928699120592009,
          0.8103224925555932,
          -0.054181893564920314,
          -0.1808641464937053,
          -0.7214968793803342,
          0.4072416471853848,
          -0.7547845879807518,
          0.5578644516543969,
          -0.9272253241611825,
          -0.4064123310558916,
          0.5478968843284453,
          -0.4508004059760182,
          0.16336877174055653,
          -0.5429353271044983,
          0.3326691251798193,
          -0.26900415838355074,
          -0.7046594474831513,
          -0.91258368222358,
          0.08804725678699254,
          0.20725762674236137,
          -0.2353273827741451,
          0.7767398602712261,
          0.5243434331812311,
          -0.16062341710908368,
          -0.558508547448632,
          0.26594503029005967,
          -0.2391904446804487,
          0.3557125174535751,
          -0.8226965443127983,
          0.4041170099087521,
          0.9039099104597741,
          0.823815993251241,
          0.6539293866229055,
          0.9332480795526032,
          -0.2683707113576608,
          0.7065459804087104,
          0.31189286150666407,
          0.019003742372613486,
          -0.43995048520591973,
          -0.3372121253146396,
          -0.36140215373236195,
          0.6188927590703881,
          -0.20774555037030695,
          0.7554301798834973,
          -0.19829205062485267,
          0.8124148219444147,
          -0.8640457993281314
        ],
        "playerName": "RFFSimulation",
        "converter": {}
      },
      "fitness": 0.48333333333333334,
      "behaviours": [
        15.7,
        0.5833333333333334,
        47.8,
        6.0
      ]
    }
  ],
  [
    {
      "value": [
        34,
        30,
        13,
        9
      ]
    },
    {
      "x": {
        "agentConfig": [
          1,
          1,
          2,
          1,
          1,
          0,
          2,
          0,
          0,
          1
        ],
        "weights": [
          0.009123644354891658,
          -0.7877760908882843,
          0.7274725933144506,
          -0.3726825785853731,
          0.4444774355395402,
          -0.1471890072223816,
          0.7806560155278339,
          -0.3009703560597694,
          0.16247589657727168,
          0.7155634271969897,
          -0.1949362556138221,
          0.0616190283845528,
          0.8668693441924429,
          -0.178226448620447,
          -0.7107384250342996,
          -0.14629410587505132,
          0.043515052982216806,
          -0.4805582162657691,
          -0.37064234061444656,
          -0.9865880881990281,
          0.7676448909219493,
          0.2267650315498042,
          0.9005121002794045,
          -0.2732705945934819,
          -0.017520939145822867,
          0.31245249209348414,
          0.2736514082749997,
          -0.6539998260287023,
          0.6208286545467925,
          -0.45835909514414475,
          -0.245305782682945,
          0.8020032047639398,
          0.19328331973960156,
          -0.02874052173395336,
          0.7067991828786093,
          -0.23052292736311553,
          -0.7189662397252543,
          0.6962724728710812,
          0.9618482738970098,
          0.14473275670114316,
          -0.2516694551906975,
          -0.5716942996098877,
          0.23558151106133884,
          0.7553387842003505,
          0.4290358571325963,
          0.5307419942176843,
          0.031503615147242536,
          0.6456906020381641,
          -0.45632353338247333,
          -0.16055239212784067,
          -0.7481156397194593,
          -0.23139712464476148,
          0.1678593376147286,
          -0.6341294135158335,
          0.3298794732421546,
          0.4618919968395572,
          -0.9432882879185589,
          -0.19067023299027275,
          0.8550002306231994,
          0.7002444633312188,
          0.46468916067445276,
          -0.30210824156668403,
          0.3848644843463207,
          0.7864944013080806,
          0.34374601828875107,
          0.9323105602047346,
          -0.5806359994560837,
          0.8827620093373336,
          -0.3660797242740319,
          -0.47491686265595945,
          -0.6409133390676534,
          -0.4192671287404264,
          -0.7834173912011066,
          -0.5932473252746253,
          0.6780352528879845,
          -0.42831446829861064,
          -0.44334281078277415,
          0.31416830812987184,
          -0.48861318261882536,
          -0.5992957830917711,
          0.05377137086234707,
          -0.019510160551296396,
          0.39224105140864873,
          0.2758398240379272,
          -0.1680237772154538,
          0.11430199962972698,
          0.9670080965958725,
          -0.04818761609046773,
          0.18147630967858053,
          0.9852833020245408,
          -0.8227099242009721,
          -0.18082508640008355,
          -0.4447370103519026,
          0.8264505794172341,
          0.6168133289385431,
          0.5036871614308494,
          0.2754966938161054,
          -0.28192030139210833,
          -0.4448284360928423,
          -0.48302358034759263,
          -0.08106228723510966,
          -0.8640193098071411,
          -0.5341564284240292,
          -0.20161059764616995,
          -0.2723219036050353,
          -0.07311662353316373
        ],
        "playerName": "RFFSimulation",
        "converter": {}
      },
      "fitness": 1.0,
      "behaviours": [
        22.316666666666666,
        1.9666666666666666,
        24.4,
        4.316666666666666
      ]
    }
  ],
  [
    {
      "value": [
        33,
        31,
        18,
        10
      ]
    },
    {
      "x": {
        "agentConfig": [
          1,
          5,
          1,
          0,
          1,
          2,
          3,
          3,
          2,
          2
        ],
        "weights": [
          -0.2988402897289164,
          0.516656337622071,
          0.7568456211788188,
          -0.1417928243796429,
          -0.5167089708830637,
          -0.1967070510227502,
          -0.7167123621541958,
          -0.7210084366350633,
          0.9580382187853655,
          0.19732312055110746,
          -0.8999578301379656,
          -0.18073202331178195,
          -0.7554628436316402,
          0.8590796243082053,
          0.5938825627916993,
          0.6647502855110605,
          -0.6238974057555005,
          0.6225672607837962,
          -0.9069700587814453,
          -0.46601340565324567,
          -0.31794771952906875,
          -0.06837419615873608,
          -0.8834297522520906,
          0.749364895708883,
          -0.6066205169849077,
          -0.6680729462624322,
          -0.07900791777192717,
          0.1357120854722793,
          -0.21663003600567832,
          0.5901552448631713,
          0.4918561460957782,
          -0.8061879927839657,
          0.968712571744546,
          -0.9706997430165389,
          -0.5256912135053002,
          -0.7050019602615156,
          0.873606549511609,
          0.24906870381872337,
          -0.5556425498004396,
          0.004302933894397842,
          0.7988204196182687,
          -0.9570016217114072,
          -0.6064735462497663,
          0.0634765689312955,
          -0.4603885789405797,
          -0.9710618335520229,
          0.33271647307130037,
          -0.9484883395562598,
          -0.939132530253993,
          0.27713406449606715,
          0.5167935198746676,
          0.2891434137476081,
          -0.6352136020736692,
          -0.9497594130888907,
          0.949636211373869,
          -0.8348798582396317,
          0.37586025969692627,
          0.6621540294257848,
          0.5500738840808685,
          -0.26413333972192854,
          0.41988674645043633,
          -0.5823568543239903,
          -0.35764980267389523,
          0.18649362106137302,
          0.18818094806061536,
          0.6123299962325202,
          0.28045140055833007,
          0.5399315658246757,
          -0.04488417387956467,
          0.652652907661613,
          0.3238397976058762,
          -0.1377018129715577,
          0.2565713840477002,
          0.4980201669105384,
          -0.847162044352822,
          -0.8635657008222981,
          0.238826436806425,
          0.832443143731795,
          0.44511081349527526,
          -0.03812663608006939,
          -0.5481201480915943,
          0.6405135006660208,
          -0.46960314559852834,
          0.28833627543892293,
          -0.01185901227712427,
          0.1926690629223855,
          -0.501157712955985,
          0.5011719698063255,
          0.5568827486072696,
          0.837269865189535,
          -0.5410049640092174,
          0.350992620672512,
          0.336803063211667,
          -0.5479150050212929,
          0.12471971022194817,
          -0.5439201568372907,
          0.2634943249101467,
          0.9253677912068572,
          0.25599567788631705,
          -0.5950333896166806,
          0.7855731466975824,
          -0.3832237078731666,
          0.3867656759472333,
          -0.15207186509065296,
          0.06267619697874771,
          0.39097317746244276
        ],
        "playerName": "RFFSimulation",
        "converter": {}
      },
      "fitness": 0.3333333333333333,
      "behaviours": [
        21.4,
        2.05,
        34.25,
        4.6
      ]
    }
  ],
  [
    {
      "value": [
        13,
        3,
        31,
        6
      ]
    },
    {
      "x": {
        "agentConfig": [
          1,
          0,
          1,
          0,
          2,
          2,
          2,
          0,
          0,
          2
        ],
        "weights": [
          0.6532764889360339,
          0.9781426700176516,
          0.7392935083327903,
          -0.6095885521882869,
          -0.8354369566792597,
          0.4754646098178914,
          -0.39199221230897097,
          0.4684395340758758,
          0.9890583740598704,
          -0.8276342839475921,
          0.005878196569712335,
          0.9637061264287876,
          -0.2410165573180021,
          0.5640490950167072,
          0.8528218007004975,
          0.7592597148686251,
          0.1643898727669022,
          -0.0363453318431588,
          -0.7119555902391115,
          -0.9707238019254181,
          0.8550025827336465,
          -0.7120687490219464,
          0.8615797943311108,
          0.06641894084232258,
          0.7301870570388895,
          -0.8053894075763268,
          0.010956824169133128,
          0.9743589603297795,
          -0.11971483745711753,
